#pragma once
/************第2层***************/
#define OUTPUT_SIZE_2_C 16
#define INPUT_SIZE_2_C 6
#define KERNEL_SIZE_2_H 5
#define KERNEL_SIZE_2_W 5

// 卷积核权重
float kernel_2[OUTPUT_SIZE_2_C][INPUT_SIZE_2_C][KERNEL_SIZE_2_H][KERNEL_SIZE_2_W] =
{ {{{-7.2844e-04, -5.9927e-04, -1.1439e-03, -7.7117e-04, -4.7801e-04},
          {-8.2936e-04, -8.2182e-04, -1.4609e-03, -2.5152e-04,  1.1263e-04},
          {-1.0030e-03, -1.0793e-03, -1.1058e-03, -8.3558e-05,  6.8536e-04},
          {-1.0672e-03, -9.9540e-04, -7.7272e-04, -1.6686e-04,  7.3658e-04},
          {-7.1307e-04, -5.9718e-04, -7.2694e-04, -3.9376e-04,  4.9116e-04}},

         {{-9.5067e-04, -1.2055e-03, -1.5351e-03, -1.7092e-03, -1.2937e-03},
          {-5.0907e-04, -1.1429e-03, -1.4444e-03, -1.4021e-03, -9.5377e-04},
          {-3.3044e-04, -7.9130e-04, -7.7935e-04, -6.9849e-04, -4.2357e-04},
          {-5.6493e-04, -4.1461e-04, -5.8854e-04, -6.0282e-04, -5.3420e-04},
          {-1.1208e-03, -1.1147e-03, -8.1816e-04, -1.2129e-03, -1.4451e-03}},

         {{-3.7272e-04, -6.7985e-04, -8.2550e-04, -8.0034e-04, -6.6580e-04},
          {-4.8882e-04, -8.9437e-04, -1.0315e-03, -1.1285e-03, -7.3149e-04},
          {-2.5322e-04, -7.2926e-04, -9.0178e-04, -9.8966e-04, -6.4463e-04},
          {-2.7332e-04, -6.4265e-04, -8.9409e-04, -9.5687e-04, -6.9528e-04},
          {-4.6119e-04, -6.4333e-04, -7.8086e-04, -1.0257e-03, -8.0985e-04}},

         {{-1.2102e-03, -1.4685e-03, -1.9040e-03, -2.1720e-03, -1.5960e-03},
          {-4.4969e-04, -1.0826e-03, -1.3772e-03, -1.2037e-03, -7.7278e-04},
          {-3.8201e-04, -6.8066e-04, -6.1527e-04, -4.8281e-04, -2.6732e-04},
          {-6.8874e-04, -3.8556e-04, -4.4773e-04, -3.2071e-04, -3.8967e-04},
          {-1.2255e-03, -1.1115e-03, -8.1007e-04, -1.1895e-03, -1.5309e-03}},

         {{-2.7675e-04, -6.0866e-04, -7.6725e-04, -8.1087e-04, -6.9354e-04},
          {-4.1612e-04, -8.8545e-04, -1.1979e-03, -1.3780e-03, -7.6252e-04},
          {-1.7710e-04, -7.3167e-04, -9.8869e-04, -1.0569e-03, -4.7836e-04},
          {-3.1404e-04, -7.6330e-04, -9.4432e-04, -1.1108e-03, -6.4559e-04},
          {-5.0242e-04, -6.9580e-04, -8.2443e-04, -1.0837e-03, -7.9466e-04}},

         {{-5.5293e-04, -6.1503e-04, -8.5883e-04, -1.0493e-03, -7.0605e-04},
          {-6.1485e-04, -9.2130e-04, -1.2800e-03, -1.2126e-03, -5.1896e-04},
          {-4.6965e-04, -9.1033e-04, -1.0771e-03, -8.1873e-04, -1.6642e-04},
          {-6.6325e-04, -8.7364e-04, -1.0349e-03, -9.0108e-04, -2.3687e-04},
          {-5.8548e-04, -6.4401e-04, -8.3058e-04, -8.3852e-04, -3.8839e-04}}},


        {{{ 7.9794e-02,  6.1639e-02, -3.9637e-02, -2.8465e-02,  4.6876e-02},
          { 1.4101e-01,  1.3193e-01, -7.1206e-02, -2.6587e-02,  8.5015e-02},
          { 1.7262e-01,  1.3296e-01, -8.7156e-02, -1.4045e-02,  9.8973e-02},
          { 1.3730e-01,  9.5255e-02, -6.7324e-02,  8.0127e-03,  8.2464e-02},
          { 7.4455e-02,  5.3698e-02, -3.9602e-02,  1.6427e-02,  4.8912e-02}},

         {{-1.7813e-02,  1.9616e-02,  2.5273e-02, -4.0732e-02, -7.6526e-02},
          {-6.5871e-02, -3.0870e-02, -2.2133e-03, -5.6282e-02, -7.6723e-02},
          {-4.2248e-02, -8.1918e-02, -4.4289e-02, -4.4690e-02, -6.0448e-02},
          {-6.2705e-02, -1.1328e-01, -4.5715e-02, -1.6181e-02, -3.1813e-02},
          {-5.2988e-02, -6.6103e-02, -3.1578e-02, -1.0486e-02, -2.1919e-02}},

         {{ 1.5748e-02,  6.1538e-02,  3.2142e-02, -4.6613e-02, -5.1625e-02},
          {-1.4711e-02,  5.7450e-02,  4.8287e-02, -4.0587e-02, -5.6361e-02},
          {-4.0573e-02,  4.5294e-02,  6.5694e-02, -3.3429e-02, -6.4967e-02},
          {-4.1375e-02,  3.8636e-02,  6.9099e-02, -2.0368e-02, -3.9916e-02},
          {-1.9167e-02,  2.4194e-02,  3.5608e-02, -1.2256e-02, -1.6367e-02}},

         {{-3.2882e-02, -1.7678e-03,  3.7980e-03, -5.2354e-02, -7.3498e-02},
          {-6.4429e-02, -4.1538e-02, -3.3924e-02, -6.7643e-02, -6.6033e-02},
          {-2.5942e-02, -8.4552e-02, -7.3583e-02, -4.8977e-02, -4.4705e-02},
          {-5.2843e-02, -1.1311e-01, -5.9684e-02, -1.0883e-02, -1.1681e-02},
          {-3.8003e-02, -5.7535e-02, -4.2121e-02, -1.2937e-02, -2.3567e-02}},

         {{-9.5045e-04,  1.0098e-01,  6.2774e-02, -7.1222e-02, -9.2945e-02},
          {-5.0005e-02,  1.0099e-01,  9.3443e-02, -8.2142e-02, -1.0285e-01},
          {-4.5298e-02,  1.1657e-01,  9.5854e-02, -9.0823e-02, -1.0257e-01},
          {-1.5793e-02,  1.0485e-01,  6.7682e-02, -6.1944e-02, -5.7712e-02},
          {-8.5295e-04,  5.7514e-02,  2.8232e-02, -3.7142e-02, -1.9307e-02}},

         {{ 2.2471e-02,  8.2685e-02,  8.9402e-03, -7.6755e-02, -5.1827e-02},
          { 3.6323e-02,  1.2626e-01,  1.7459e-02, -1.0515e-01, -3.2983e-02},
          { 8.2528e-02,  1.4425e-01, -2.5233e-02, -1.0271e-01, -2.2527e-02},
          { 9.8460e-02,  1.0464e-01, -4.3660e-02, -6.2385e-02,  3.0131e-03},
          { 5.4236e-02,  5.3593e-02, -3.7485e-02, -3.0706e-02,  1.2148e-02}}},


        {{{ 1.4704e-02,  4.5122e-03, -3.4558e-02, -1.3890e-02,  4.6864e-02},
          { 3.8332e-02,  1.8672e-02, -6.6781e-02, -8.4099e-03,  8.7688e-02},
          { 4.9040e-02, -1.5402e-02, -7.0806e-02,  3.6529e-02,  1.0842e-01},
          { 2.5974e-02, -2.0880e-02, -3.9727e-02,  6.9621e-02,  7.3494e-02},
          { 1.5219e-02, -4.5090e-03, -6.0488e-03,  6.3254e-02,  2.8114e-02}},

         {{ 5.6000e-03,  1.5965e-02, -3.2898e-03, -5.2627e-02, -7.6882e-02},
          { 1.5760e-02,  7.7466e-03, -4.2490e-02, -8.2687e-02, -7.6898e-02},
          {-1.8981e-03, -4.2504e-02, -7.3972e-02, -6.6031e-02, -4.7266e-02},
          {-4.0677e-02, -6.1565e-02, -3.8246e-02, -2.9185e-02, -3.5230e-02},
          {-3.4222e-02, -2.6993e-02, -1.0075e-02, -2.3640e-02, -3.9595e-02}},

         {{ 3.9191e-02,  3.4118e-02,  1.4304e-03, -4.1482e-02, -3.0819e-02},
          { 2.9878e-02,  2.4051e-02, -1.4974e-02, -5.5861e-02, -4.2643e-02},
          { 1.4519e-02,  7.1757e-03, -2.5013e-02, -6.3999e-02, -4.9617e-02},
          {-2.8384e-03,  1.1030e-03, -2.3437e-02, -5.7982e-02, -2.8369e-02},
          {-6.3117e-03, -4.3158e-03, -2.1124e-02, -3.8888e-02, -1.9593e-03}},

         {{-6.5171e-03,  6.5918e-03, -1.2572e-02, -6.0424e-02, -7.1081e-02},
          { 7.2490e-03, -3.1560e-03, -5.6784e-02, -7.9461e-02, -6.2485e-02},
          {-2.4640e-03, -4.7039e-02, -6.8359e-02, -4.7229e-02, -2.6990e-02},
          {-3.9819e-02, -5.8731e-02, -3.1371e-02, -1.3311e-02, -2.3744e-02},
          {-2.6788e-02, -1.8163e-02, -2.0961e-03, -1.0880e-02, -3.5160e-02}},

         {{ 5.3207e-02,  6.4901e-02,  2.0591e-02, -5.5871e-02, -5.6836e-02},
          { 5.6016e-02,  7.2555e-02,  1.6719e-03, -9.7374e-02, -7.5261e-02},
          { 5.5922e-02,  5.7374e-02, -4.8218e-02, -1.3221e-01, -5.6737e-02},
          { 3.3209e-02,  1.2597e-02, -6.9884e-02, -1.0153e-01, -8.9364e-03},
          { 9.8062e-03, -8.1567e-03, -4.9338e-02, -5.9503e-02,  2.0011e-02}},

         {{ 3.0030e-02,  4.8587e-02, -1.0925e-02, -5.6894e-02, -2.2010e-02},
          { 6.0884e-02,  6.5443e-02, -3.5469e-02, -1.0223e-01,  1.1130e-03},
          { 7.1323e-02,  4.3203e-02, -9.8046e-02, -8.9089e-02,  4.9445e-02},
          { 4.6373e-02, -1.3102e-02, -9.1733e-02, -3.9013e-02,  6.7064e-02},
          { 1.5842e-02, -1.5763e-02, -4.6006e-02,  2.3165e-03,  4.1936e-02}}},


        {{{-3.9597e-03,  2.5402e-02,  2.4780e-02, -9.7560e-03, -3.8154e-03},
          {-5.2024e-02, -3.4568e-02, -2.4824e-02, -6.2457e-02, -5.3673e-02},
          {-7.3716e-02, -7.6811e-02, -5.7219e-02, -7.9887e-02, -3.4468e-02},
          {-5.2424e-02, -5.9968e-02, -2.8749e-02, -2.8236e-02, -3.8953e-03},
          {-2.0630e-02, -7.1959e-03,  9.1528e-03,  1.1563e-02, -6.6795e-03}},

         {{ 2.9272e-04, -4.7544e-03,  1.2318e-02,  4.1338e-02,  5.0537e-02},
          {-5.6558e-02, -7.4838e-02, -6.9814e-02, -6.7879e-02, -9.4552e-02},
          {-8.5359e-02, -8.9786e-02, -9.6550e-02, -8.0520e-02, -6.8379e-02},
          { 4.7455e-03,  2.9409e-02,  5.2870e-02,  6.5439e-02,  7.1125e-02},
          { 1.1708e-02,  3.0552e-02,  6.6441e-02,  6.1572e-02,  2.9466e-02}},

         {{ 6.1638e-03,  1.3612e-02,  3.7018e-02,  4.3235e-02,  3.8387e-02},
          {-1.7985e-02, -2.1310e-02, -9.9247e-06, -5.0560e-03, -2.3667e-02},
          {-6.4868e-02, -8.4481e-02, -8.6859e-02, -7.5112e-02, -7.2386e-02},
          {-6.7259e-02, -7.4293e-02, -7.7930e-02, -5.5162e-02, -4.4499e-02},
          {-5.2977e-02, -4.1118e-02, -2.9352e-02, -1.6099e-02, -1.2891e-02}},

         {{-7.6174e-04, -7.7145e-03,  1.1681e-02,  3.1928e-02,  3.4986e-02},
          {-6.7802e-02, -8.0514e-02, -7.8234e-02, -8.5028e-02, -1.0697e-01},
          {-7.3304e-02, -6.8407e-02, -6.7092e-02, -5.3779e-02, -3.1306e-02},
          { 2.5508e-02,  5.5027e-02,  8.5615e-02,  9.0506e-02,  9.0150e-02},
          { 2.2411e-02,  3.7456e-02,  6.9781e-02,  6.5932e-02,  2.8242e-02}},

         {{ 2.3189e-02,  4.8177e-02,  8.0481e-02,  8.1801e-02,  9.7041e-02},
          {-1.8214e-02, -2.0715e-02,  1.1664e-02,  2.5829e-02,  2.9925e-03},
          {-1.1641e-01, -1.5779e-01, -1.6128e-01, -1.3894e-01, -1.2049e-01},
          {-1.1953e-01, -1.4476e-01, -1.3054e-01, -7.1177e-02, -4.9776e-02},
          {-8.2790e-02, -6.6182e-02, -1.9351e-02,  1.8884e-02,  1.9365e-02}},

         {{ 2.5872e-02,  5.6136e-02,  6.0182e-02,  6.8366e-02,  6.5489e-02},
          {-5.0731e-02, -5.4727e-02, -3.4400e-02, -2.7755e-02, -3.7735e-02},
          {-1.3295e-01, -1.5894e-01, -1.2875e-01, -1.2282e-01, -8.7409e-02},
          {-1.1555e-01, -1.1807e-01, -6.9908e-02, -3.5607e-02, -8.4033e-03},
          {-5.4774e-02, -3.7868e-02,  1.1770e-02,  3.1783e-02,  2.1596e-02}}},


        {{{-6.6660e-04, -5.2717e-04, -9.2147e-04, -6.1086e-04, -3.4187e-04},
          {-7.8857e-04, -6.4129e-04, -1.3037e-03, -3.2395e-04,  1.1804e-04},
          {-8.8327e-04, -8.7182e-04, -1.1025e-03, -1.1618e-04,  6.0365e-04},
          {-9.1301e-04, -8.8984e-04, -8.7045e-04, -1.0114e-04,  5.9594e-04},
          {-6.0342e-04, -5.2139e-04, -7.4562e-04, -3.2970e-04,  2.9084e-04}},

         {{-7.5392e-04, -9.3989e-04, -1.1801e-03, -1.2986e-03, -9.7186e-04},
          {-4.4622e-04, -9.5329e-04, -1.2786e-03, -1.2804e-03, -9.5381e-04},
          {-1.0084e-04, -6.6882e-04, -7.6200e-04, -6.7132e-04, -4.5835e-04},
          {-7.0603e-04, -5.0164e-04, -4.8619e-04, -4.9949e-04, -4.0591e-04},
          {-1.1857e-03, -1.0592e-03, -6.2677e-04, -1.0347e-03, -1.4284e-03}},

         {{-2.6274e-04, -5.3388e-04, -6.7047e-04, -6.7831e-04, -5.6829e-04},
          {-3.9423e-04, -7.6349e-04, -8.4560e-04, -9.6832e-04, -6.7500e-04},
          {-1.7640e-04, -6.6164e-04, -7.8722e-04, -9.0555e-04, -6.7834e-04},
          {-2.4245e-04, -5.4700e-04, -7.1988e-04, -8.4339e-04, -6.2087e-04},
          {-4.8251e-04, -6.0331e-04, -6.8349e-04, -9.3286e-04, -7.4358e-04}},

         {{-1.0052e-03, -1.1513e-03, -1.4278e-03, -1.6109e-03, -1.1813e-03},
          {-3.9831e-04, -9.2690e-04, -1.3046e-03, -1.2392e-03, -8.8206e-04},
          {-1.2908e-04, -5.3798e-04, -5.8251e-04, -4.4406e-04, -2.5371e-04},
          {-9.5021e-04, -5.6152e-04, -4.3122e-04, -2.9334e-04, -2.9000e-04},
          {-1.1554e-03, -9.5219e-04, -6.0672e-04, -1.0099e-03, -1.5362e-03}},

         {{-4.9986e-05, -4.0721e-04, -5.3602e-04, -6.8368e-04, -6.3392e-04},
          {-3.1675e-04, -7.8624e-04, -9.0983e-04, -1.1823e-03, -7.5717e-04},
          {-1.8108e-04, -6.5333e-04, -8.2075e-04, -1.0072e-03, -5.9120e-04},
          {-3.5598e-04, -6.5168e-04, -7.3511e-04, -9.8666e-04, -5.4767e-04},
          {-4.6068e-04, -6.1111e-04, -7.1386e-04, -9.9295e-04, -6.6964e-04}},

         {{-4.2968e-04, -4.7769e-04, -6.5343e-04, -9.5388e-04, -6.2105e-04},
          {-5.9630e-04, -7.3779e-04, -1.0353e-03, -1.1520e-03, -4.8615e-04},
          {-4.6647e-04, -6.4872e-04, -9.5444e-04, -8.5109e-04, -1.2316e-04},
          {-5.9056e-04, -6.9479e-04, -8.7370e-04, -8.3670e-04, -1.2027e-04},
          {-5.2203e-04, -5.4277e-04, -8.0513e-04, -7.0110e-04, -3.0882e-04}}},


        {{{-3.0456e-02, -5.4727e-02,  1.1648e-03,  5.4316e-02,  1.6351e-02},
          {-3.6809e-02,  1.2811e-02,  9.1825e-02,  8.2631e-02, -1.8143e-02},
          { 4.2124e-02,  1.1964e-01,  8.8014e-02, -2.9965e-02, -5.4448e-02},
          { 8.8862e-02,  9.1381e-02, -5.2976e-02, -8.1743e-02, -1.9893e-02},
          { 4.9954e-02, -1.7270e-02, -7.6972e-02, -2.7933e-02, -4.8261e-03}},

         {{-2.2502e-02, -4.8338e-02, -4.2827e-02, -6.6392e-03,  2.6947e-02},
          {-4.1798e-02,  2.6683e-02,  1.2114e-01,  1.3219e-01,  7.1318e-02},
          { 5.8702e-02,  1.4345e-01,  1.4438e-01,  3.4086e-02, -6.4194e-02},
          { 1.0845e-01,  7.0896e-02, -3.9461e-02, -7.2507e-02, -3.2950e-02},
          { 1.1147e-02, -4.9198e-02, -4.5292e-02, -1.2471e-02, -1.2838e-02}},

         {{-3.1451e-02, -4.4180e-02, -4.3522e-02, -6.1938e-03,  1.3165e-02},
          {-5.0424e-02, -2.9011e-02, -4.6063e-03,  9.4420e-03,  2.9029e-02},
          {-2.1500e-02,  4.0397e-03,  2.4633e-03,  2.3396e-03,  1.9090e-02},
          { 3.3488e-02,  1.3097e-02,  2.1397e-02,  1.0665e-02, -1.7403e-02},
          { 3.7631e-02,  4.4715e-02,  2.7887e-02, -1.6585e-02, -4.0182e-02}},

         {{-2.7523e-02, -4.6278e-02, -2.7949e-02,  2.2472e-02,  4.6203e-02},
          {-3.2356e-02,  5.4837e-02,  1.5870e-01,  1.5776e-01,  6.7144e-02},
          { 8.5614e-02,  1.6231e-01,  1.4393e-01,  1.4352e-02, -6.8265e-02},
          { 1.0875e-01,  6.6364e-02, -5.8041e-02, -7.5099e-02, -2.1715e-02},
          {-1.8408e-02, -7.1139e-02, -4.2481e-02, -1.2149e-03, -3.1229e-03}},

         {{-6.1956e-02, -8.7703e-02, -1.0612e-01, -4.9887e-02,  1.4584e-02},
          {-1.1055e-01, -1.0216e-01, -1.6305e-02,  8.5297e-02,  1.0268e-01},
          {-7.1306e-02,  3.1205e-02,  1.1834e-01,  1.0938e-01,  2.0749e-02},
          { 7.2337e-02,  1.1883e-01,  1.0640e-01, -4.7050e-03, -7.3320e-02},
          { 9.3582e-02,  9.1575e-02,  7.8466e-03, -7.4926e-02, -8.2465e-02}},

         {{-5.5757e-02, -9.2368e-02, -8.1195e-02,  1.0515e-02,  4.6961e-02},
          {-9.6587e-02, -6.4236e-02,  8.2516e-02,  1.6423e-01,  8.4283e-02},
          {-1.4927e-02,  1.3509e-01,  1.9495e-01,  1.2091e-01, -3.6297e-02},
          { 1.2517e-01,  1.8478e-01,  9.8266e-02, -6.6439e-02, -6.1850e-02},
          { 9.3149e-02,  5.6415e-02, -7.0072e-02, -7.5817e-02, -4.9706e-02}}},


        {{{-1.7815e-03, -2.9514e-05,  5.1207e-04,  5.9366e-04, -7.9619e-04},
          {-7.7813e-04,  3.8111e-04,  5.3992e-04, -4.7609e-04, -7.1398e-04},
          {-7.1878e-04,  1.3350e-03,  2.3807e-04, -9.4396e-04, -2.5485e-04},
          {-8.2970e-04,  1.5078e-03, -6.6145e-04, -1.4516e-03, -9.1237e-04},
          {-8.5566e-04,  1.0393e-03, -2.3680e-03, -2.9897e-03, -1.8834e-03}},

         {{-3.2098e-03, -2.8436e-03, -2.5110e-03, -1.8013e-03, -1.5500e-03},
          {-7.5915e-04, -8.1455e-04, -7.5819e-04, -9.0322e-04, -1.2761e-03},
          { 2.8498e-04,  2.0833e-04,  3.9859e-04,  5.8344e-04,  8.1580e-04},
          {-5.7647e-04, -8.9690e-04, -7.5841e-04, -8.2810e-04, -1.8321e-03},
          {-5.1872e-03, -4.3585e-03, -4.3633e-03, -5.6076e-03, -6.5471e-03}},

         {{-2.3500e-03, -2.2919e-03, -1.6835e-03, -1.2004e-03, -1.3232e-03},
          {-1.6554e-03, -1.4758e-03, -9.4827e-04, -9.3192e-04, -8.3279e-04},
          {-9.3098e-04, -5.6484e-04,  2.0227e-05,  4.3563e-05, -1.4513e-04},
          {-6.4480e-04, -5.6913e-04,  7.3679e-05, -2.5398e-04, -5.4774e-04},
          {-1.4197e-03, -1.3027e-03, -7.8773e-04, -1.4311e-03, -2.0715e-03}},

         {{-3.0232e-03, -2.4783e-03, -2.2470e-03, -1.6206e-03, -1.4743e-03},
          {-2.4631e-04, -1.4890e-04, -1.7377e-04, -6.5317e-04, -1.1427e-03},
          { 8.4948e-04,  6.8460e-04,  8.2618e-04,  9.1477e-04,  1.3071e-03},
          {-1.1962e-03, -1.3990e-03, -1.7077e-03, -1.6829e-03, -3.0704e-03},
          {-6.0733e-03, -4.8172e-03, -5.4401e-03, -6.9809e-03, -7.6389e-03}},

         {{-2.1786e-03, -2.3121e-03, -1.5613e-03, -1.1844e-03, -1.0694e-03},
          {-1.6643e-03, -1.4539e-03, -7.7434e-04, -7.5477e-04, -7.4917e-04},
          {-7.6735e-04, -4.5422e-04,  3.1118e-04,  6.3755e-05, -6.1940e-05},
          {-6.9575e-04, -3.2706e-04,  3.2857e-04, -2.1727e-04, -4.8900e-04},
          {-1.4295e-03, -9.7620e-04, -5.1837e-04, -1.5389e-03, -2.2016e-03}},

         {{-2.4825e-03, -1.6621e-03, -1.0790e-03, -9.9324e-04, -8.5581e-04},
          {-1.6292e-03, -8.1840e-04, -3.1081e-04, -5.1556e-04, -7.3590e-04},
          {-7.8470e-04,  1.8535e-04,  3.8605e-04, -4.4357e-06, -2.9177e-05},
          {-1.1014e-03,  3.0815e-04, -6.4194e-06, -6.2209e-04, -6.9732e-04},
          {-1.6706e-03, -3.8465e-04, -9.3735e-04, -2.1325e-03, -2.3246e-03}}},


        {{{ 3.5345e-02,  6.6367e-02,  1.0234e-02,  2.9398e-03,  3.0116e-03},
          {-4.7287e-03,  1.2586e-02,  7.6203e-03, -6.0111e-03, -1.1200e-02},
          {-6.8704e-02, -6.7497e-02, -1.9560e-02, -1.8290e-02, -3.0812e-02},
          {-4.3269e-02, -7.0292e-02, -2.5966e-02, -2.4271e-03, -1.5320e-02},
          {-5.8760e-03, -3.6461e-02, -5.4686e-02, -1.7227e-02, -5.4727e-03}},

         {{-3.8542e-02, -1.5924e-02,  7.8821e-03, -2.9116e-03, -1.9764e-02},
          {-4.8589e-03, -5.2191e-02, -1.8347e-02,  2.9137e-02,  1.6257e-02},
          { 5.2200e-02, -2.3576e-02, -7.0192e-02, -3.0807e-02,  7.2597e-03},
          { 1.3391e-01,  1.8819e-01,  1.5602e-01,  5.5421e-02,  1.8338e-02},
          { 3.5008e-02,  1.2823e-01,  1.7045e-01,  1.2685e-01,  6.6230e-02}},

         {{-4.5875e-02, -7.6729e-03,  1.9073e-02,  9.5005e-04, -7.2813e-03},
          {-5.7986e-02, -4.1208e-02,  2.2641e-02,  2.5779e-02, -9.0424e-03},
          {-6.5429e-03, -6.0175e-02, -4.9849e-02, -7.0350e-03, -9.9192e-03},
          { 8.0315e-02,  5.1072e-02, -2.4196e-02, -3.6030e-02, -1.9630e-02},
          { 5.4440e-02,  8.3502e-02,  6.2742e-02,  1.5855e-02, -3.8167e-03}},

         {{-3.0376e-02, -1.6689e-02,  3.2034e-03, -2.1112e-03, -1.8304e-02},
          { 1.0332e-02, -4.1931e-02, -2.0405e-02,  2.7569e-02,  1.9016e-02},
          { 6.1066e-02,  2.7948e-03, -5.2333e-02, -3.4164e-02, -2.2888e-03},
          { 1.2227e-01,  1.9888e-01,  1.8936e-01,  9.7700e-02,  4.3338e-02},
          { 1.0237e-02,  8.5781e-02,  1.4180e-01,  1.1643e-01,  6.4511e-02}},

         {{-7.8418e-02, -1.2364e-02,  4.1392e-02,  1.1914e-02, -1.7691e-03},
          {-8.1838e-02, -5.8780e-02,  1.4050e-02,  3.2053e-02,  4.9353e-03},
          {-2.7842e-02, -1.2230e-01, -1.1466e-01, -4.7598e-02, -4.1315e-02},
          { 7.1798e-02,  1.6333e-02, -6.4398e-02, -7.2375e-02, -5.1047e-02},
          { 7.0671e-02,  1.1327e-01,  1.0056e-01,  3.7751e-02,  2.2401e-03}},

         {{-2.9901e-02,  3.5908e-02,  4.2421e-02,  1.5777e-02,  1.3582e-02},
          {-3.8389e-02, -2.4658e-02, -9.4283e-03,  8.5304e-03,  7.9536e-03},
          {-4.1096e-02, -9.7009e-02, -9.7305e-02, -6.8791e-02, -4.6236e-02},
          {-2.5355e-03, -1.8804e-02, -1.6495e-02, -1.9929e-02, -2.4575e-02},
          { 1.6542e-02,  3.6977e-02,  3.9228e-02,  2.5859e-02,  1.3962e-02}}},


        {{{-2.2910e-02,  1.4669e-01,  1.9131e-01,  6.0424e-02, -5.0210e-02},
          { 1.5207e-02,  2.4317e-01,  2.0608e-01, -4.1721e-02, -6.1179e-02},
          { 1.1483e-01,  2.3875e-01,  1.3170e-01, -8.0002e-02, -5.0214e-02},
          { 1.2436e-01,  1.8217e-01,  3.2447e-02, -3.5673e-02, -6.0623e-02},
          { 8.6237e-02,  7.0908e-02, -1.9022e-05, -3.0477e-02, -4.9684e-02}},

         {{-6.9096e-02, -6.7932e-02, -3.0543e-02, -1.7259e-02, -7.1220e-02},
          {-9.7230e-02, -7.5148e-02, -6.6306e-02, -8.7281e-02, -1.1688e-01},
          {-6.1521e-02, -1.1818e-01, -1.3619e-01, -8.9850e-02, -2.8503e-02},
          {-5.7085e-02, -1.4176e-01, -1.4354e-01, -3.0927e-02,  2.9517e-02},
          {-3.5033e-02, -1.1346e-01, -8.1558e-02, -2.7383e-02,  2.4068e-03}},

         {{-6.5309e-02, -4.0904e-02,  2.1833e-02,  4.0541e-02,  1.6687e-02},
          {-7.9724e-02, -4.4643e-02,  2.1939e-02,  4.5160e-02, -1.1931e-02},
          {-9.1528e-02, -5.0780e-02,  5.0336e-02,  7.4620e-02, -1.6608e-02},
          {-8.8958e-02, -2.7194e-02,  7.9351e-02,  8.3974e-02, -1.8159e-03},
          {-4.9197e-02, -5.1039e-03,  5.1187e-02,  3.3297e-02, -5.4291e-03}},

         {{-6.8093e-02, -6.4188e-02, -3.1896e-02, -4.5538e-02, -1.1308e-01},
          {-8.6684e-02, -6.0842e-02, -7.3766e-02, -1.1728e-01, -1.1852e-01},
          {-3.1659e-02, -9.3043e-02, -1.4193e-01, -1.1492e-01, -2.8576e-02},
          {-3.3558e-02, -1.3157e-01, -1.5826e-01, -4.7671e-02,  2.6790e-02},
          {-8.0143e-03, -8.6156e-02, -7.9597e-02, -3.9576e-02, -1.2414e-02}},

         {{-1.2531e-01, -8.0646e-02,  8.8332e-02,  1.4934e-01,  6.4563e-02},
          {-1.6491e-01, -5.9055e-02,  1.2919e-01,  1.2879e-01, -4.6763e-02},
          {-1.7479e-01, -5.2595e-03,  1.3663e-01,  9.0025e-02, -9.5449e-02},
          {-1.0122e-01,  2.6627e-02,  1.2837e-01,  5.1906e-02, -5.9355e-02},
          {-3.0480e-02,  2.2605e-02,  5.4369e-02, -5.6634e-03, -4.3667e-02}},

         {{-1.0772e-01,  1.1751e-04,  1.6287e-01,  1.3842e-01,  1.6345e-02},
          {-1.4073e-01,  1.0159e-01,  1.9115e-01,  8.4574e-02, -1.1429e-01},
          {-6.4089e-02,  1.4815e-01,  1.6130e-01, -4.3658e-02, -1.2329e-01},
          { 1.6890e-02,  1.1661e-01,  6.3325e-02, -7.0824e-02, -8.1793e-02},
          { 5.2268e-02,  6.9000e-02, -1.6518e-02, -6.4991e-02, -7.1723e-02}}},


        {{{ 5.2597e-03,  3.2346e-03,  1.2867e-03,  9.9260e-04, -4.2206e-03},
          { 4.0802e-04, -6.0322e-03, -9.6895e-03, -4.7265e-03, -6.5283e-03},
          {-1.9361e-03, -6.7498e-03, -8.5819e-03, -1.6664e-03, -5.0353e-03},
          {-2.7887e-03, -5.3313e-03, -6.7955e-03, -6.6213e-03, -7.7484e-03},
          {-5.6370e-03, -7.0948e-03, -1.2692e-02, -9.4949e-03, -6.6947e-03}},

         {{-7.0118e-03, -3.1473e-03,  3.9586e-04,  7.0388e-04,  5.7909e-05},
          {-8.4249e-03, -1.1327e-02, -1.5394e-02, -1.6019e-02, -1.0129e-02},
          { 5.2340e-03,  7.6949e-03,  1.3771e-02,  1.5454e-02,  1.1220e-02},
          { 1.7311e-02,  2.7762e-02,  3.7267e-02,  3.3558e-02,  2.2769e-02},
          {-1.2813e-02, -1.3621e-02, -1.2254e-02, -8.2327e-03, -4.1333e-03}},

         {{-2.6941e-03,  5.3856e-04,  2.5680e-03,  2.1701e-03,  1.0557e-03},
          {-7.8578e-03, -7.3788e-03, -7.6411e-03, -6.8592e-03, -5.1863e-03},
          {-1.7790e-03, -1.1274e-03, -3.0642e-03, -5.1458e-03, -3.1931e-03},
          { 7.8303e-03,  1.0550e-02,  1.1747e-02,  7.7168e-03,  5.8006e-03},
          {-3.6247e-03, -2.2340e-03,  2.2245e-04,  7.3898e-04,  1.4212e-03}},

         {{-6.8450e-03, -3.5942e-03, -1.9096e-03, -1.8067e-03, -1.7892e-03},
          {-6.3473e-03, -1.0380e-02, -1.4258e-02, -1.3642e-02, -7.1629e-03},
          { 1.0819e-02,  1.6278e-02,  2.3608e-02,  2.4877e-02,  1.7655e-02},
          { 1.3351e-02,  2.4954e-02,  3.4540e-02,  3.0890e-02,  2.1160e-02},
          {-1.6767e-02, -1.9509e-02, -1.9770e-02, -1.3411e-02, -5.9110e-03}},

         {{-4.6961e-03,  6.1471e-04,  3.8038e-03,  2.5939e-03,  1.7424e-04},
          {-1.1049e-02, -1.0511e-02, -1.3205e-02, -1.5175e-02, -1.4045e-02},
          {-4.7446e-03, -7.3940e-03, -1.1777e-02, -1.1598e-02, -6.6837e-03},
          { 9.4462e-03,  1.4430e-02,  1.7258e-02,  1.7405e-02,  1.2967e-02},
          {-4.6473e-03, -1.0397e-03,  3.0127e-03,  3.1978e-03,  3.1738e-03}},

         {{-1.8929e-03,  2.2452e-03,  2.1042e-03,  1.3176e-03, -2.7361e-03},
          {-4.5644e-03, -7.7939e-03, -1.4219e-02, -1.5481e-02, -1.4159e-02},
          {-2.5349e-03, -5.0143e-03, -7.4242e-03, -1.0670e-03, -1.0069e-03},
          { 2.2074e-03,  7.3596e-03,  9.9816e-03,  1.3403e-02,  8.1738e-03},
          {-7.9479e-03, -6.2230e-03, -4.8966e-03, -5.7272e-03, -3.1215e-03}}},


        {{{ 1.6987e-02,  3.7686e-03,  3.4946e-03,  4.5456e-03,  4.7264e-03},
          { 1.2551e-02,  4.8468e-03,  5.2688e-03,  5.3311e-03, -2.3172e-03},
          { 6.0081e-03, -7.1345e-03, -4.7103e-03, -1.5067e-02, -1.5074e-02},
          {-1.1524e-02, -2.3102e-02, -2.7513e-02, -3.1535e-02, -1.5422e-02},
          {-1.2709e-02, -2.4016e-02, -1.9749e-02, -1.3960e-02, -8.0996e-03}},

         {{-3.4445e-04, -4.3669e-04,  1.2832e-03,  7.5191e-03,  1.4601e-02},
          { 7.7286e-04,  6.5233e-03,  1.0681e-02,  1.2459e-02,  6.4915e-03},
          { 1.4864e-02,  3.3787e-02,  4.1749e-02,  2.5232e-02,  1.1580e-03},
          {-2.7927e-02, -2.6260e-02, -2.5836e-02, -2.7300e-02, -2.0528e-02},
          {-2.9534e-03, -4.2033e-03, -6.1610e-03, -5.1966e-03, -2.3646e-03}},

         {{-7.6713e-03, -2.6715e-03,  1.9075e-03,  8.0958e-03,  9.6135e-03},
          { 3.6902e-03,  8.4133e-03,  8.2238e-03,  8.7238e-03,  9.6378e-03},
          { 1.6213e-02,  2.5282e-02,  2.0579e-02,  1.2280e-02,  4.6697e-03},
          {-6.1806e-03, -2.3977e-03, -5.7549e-03, -7.2743e-03, -1.2773e-02},
          {-2.3302e-02, -2.5040e-02, -2.6934e-02, -2.4455e-02, -2.4756e-02}},

         {{ 4.4751e-04, -3.7092e-03, -2.7558e-03,  5.6420e-03,  1.2356e-02},
          { 3.9244e-03,  1.1420e-02,  1.5594e-02,  1.6869e-02,  4.8718e-03},
          { 9.9315e-03,  2.6590e-02,  3.6591e-02,  1.8844e-02, -2.7725e-03},
          {-3.0422e-02, -3.1373e-02, -3.2693e-02, -2.8567e-02, -1.7966e-02},
          { 4.1677e-03,  3.3175e-03,  4.2704e-03,  6.1365e-03,  7.1619e-03}},

         {{-7.1480e-03,  2.0643e-03,  2.6521e-03,  1.2704e-02,  1.6993e-02},
          { 8.5876e-03,  8.5159e-03,  1.5686e-02,  2.5297e-02,  2.7767e-02},
          { 1.8400e-02,  3.8229e-02,  4.1671e-02,  3.8474e-02,  1.8739e-02},
          {-1.5686e-02, -5.7809e-03, -7.8001e-03, -1.3637e-02, -2.8695e-02},
          {-4.9854e-02, -5.2085e-02, -5.4849e-02, -5.0334e-02, -4.6035e-02}},

         {{ 7.6372e-03,  4.0433e-03,  3.1660e-03,  9.7771e-03,  1.4607e-02},
          { 1.3669e-02,  1.1628e-02,  2.2705e-02,  2.9294e-02,  2.2965e-02},
          { 8.1552e-03,  2.0100e-02,  2.8455e-02,  2.7699e-02,  2.4251e-03},
          {-2.1929e-02, -2.3024e-02, -1.9943e-02, -2.9647e-02, -3.1631e-02},
          {-4.0037e-02, -4.1566e-02, -4.2734e-02, -3.5351e-02, -2.8870e-02}}},


        {{{ 1.1517e-02, -1.2366e-02, -4.3255e-02, -4.4065e-02, -5.3487e-02},
          {-3.2228e-02, -4.8288e-02, -9.1957e-02, -9.0749e-02, -6.2588e-02},
          {-5.3913e-02, -6.0372e-02, -6.2040e-02, -3.5994e-02, -1.9352e-03},
          {-3.6220e-02, -3.9785e-02, -2.2747e-02,  1.9780e-02,  1.0674e-02},
          { 1.3407e-02, -1.3079e-02,  2.3413e-03,  1.4507e-02, -2.1387e-02}},

         {{ 1.0281e-01,  1.7477e-01,  2.3397e-01,  2.4082e-01,  1.7525e-01},
          { 2.5558e-02,  7.2427e-02,  1.1335e-01,  1.2811e-01,  1.0579e-01},
          {-4.0225e-02, -4.2727e-02, -5.1261e-02, -5.1157e-02, -2.4846e-02},
          { 2.8540e-02,  5.2388e-02,  6.8932e-02,  4.5077e-02, -2.5237e-03},
          { 1.7800e-02,  4.1761e-02,  9.2148e-03, -1.4786e-02, -3.6608e-02}},

         {{ 3.7834e-02,  6.6029e-02,  7.0724e-02,  4.5449e-02,  2.4283e-02},
          { 2.7706e-02,  5.0308e-02,  7.4437e-02,  8.7740e-02,  7.4875e-02},
          {-3.1932e-02, -4.5025e-02, -3.7549e-02, -7.5837e-03,  2.5932e-02},
          {-2.7400e-02, -4.0387e-02, -4.8506e-02, -4.0918e-02, -2.1033e-02},
          {-1.5066e-02, -3.0258e-02, -3.2830e-02, -2.5488e-02, -1.6598e-02}},

         {{ 1.2051e-01,  2.0590e-01,  2.7311e-01,  2.7820e-01,  2.0161e-01},
          {-8.5454e-03,  1.7263e-02,  4.1419e-02,  6.0872e-02,  5.3580e-02},
          {-3.3997e-02, -3.4753e-02, -3.9624e-02, -3.9493e-02, -2.4393e-02},
          { 2.9522e-02,  5.7108e-02,  7.3849e-02,  5.5640e-02,  2.6440e-03},
          { 2.1244e-02,  3.9855e-02,  4.3393e-03, -1.9536e-02, -3.9469e-02}},

         {{ 5.0856e-02,  9.3131e-02,  1.0667e-01,  7.9695e-02,  3.4108e-02},
          { 3.6313e-02,  9.3084e-02,  1.2986e-01,  1.2808e-01,  1.0394e-01},
          {-9.1501e-02, -1.1015e-01, -1.0516e-01, -3.1804e-02,  2.5944e-02},
          {-9.1432e-02, -9.7162e-02, -9.2607e-02, -4.6131e-02,  4.3002e-04},
          {-6.1759e-02, -3.7566e-02, -4.1096e-02, -3.6706e-02, -2.1716e-02}},

         {{ 4.8058e-02,  7.2166e-02,  7.9950e-02,  7.3127e-02,  4.0081e-02},
          {-3.7612e-03,  7.6741e-03,  7.9936e-03,  2.0538e-02,  1.8080e-02},
          {-8.9492e-02, -1.0231e-01, -9.8043e-02, -5.1406e-02,  4.2444e-03},
          {-8.4004e-02, -7.9866e-02, -4.1702e-02,  6.2154e-03,  2.1988e-02},
          {-4.0415e-02, -2.1289e-02, -2.7927e-02, -4.0238e-03, -1.9712e-02}}},


        {{{ 4.4292e-02,  1.3336e-02, -5.3894e-03, -8.0248e-03,  5.3606e-03},
          { 2.5148e-02,  1.7292e-02, -5.5458e-03, -8.6315e-03, -2.9025e-03},
          {-2.5984e-02, -4.3087e-02, -4.9926e-02, -7.5322e-02, -5.5898e-02},
          {-5.0785e-02, -7.8152e-02, -7.0279e-02, -7.9679e-02, -4.1952e-02},
          {-5.1347e-02, -8.5341e-02, -5.5314e-02, -2.6665e-02, -1.4059e-02}},

         {{ 1.4713e-02, -2.4394e-03, -7.5532e-03, -1.5761e-04,  4.9072e-02},
          { 2.6268e-02,  7.7753e-02,  1.4655e-01,  1.4862e-01,  1.1915e-01},
          {-6.3552e-02, -4.5674e-02,  3.5216e-02,  7.3296e-02,  4.5230e-02},
          {-2.8220e-02, -5.3705e-02, -9.0484e-02, -1.0186e-01, -6.5801e-02},
          { 6.7716e-02,  8.0978e-02,  8.5398e-02,  7.4477e-02,  4.4756e-02}},

         {{-1.4664e-02, -1.9656e-03, -1.6703e-03,  2.3319e-04,  1.4364e-02},
          { 2.0590e-02,  6.7841e-02,  8.0106e-02,  5.4044e-02,  3.8512e-02},
          {-2.7171e-02,  2.0001e-02,  7.2353e-02,  6.4319e-02,  3.5210e-02},
          {-4.8303e-02, -6.6342e-02, -6.5833e-02, -5.1474e-02, -4.0829e-02},
          {-1.5065e-02, -3.0254e-02, -5.5733e-02, -6.9512e-02, -7.2815e-02}},

         {{ 2.9299e-02,  1.6801e-02,  1.3799e-02,  1.8817e-02,  6.0781e-02},
          { 2.2649e-02,  7.7152e-02,  1.4886e-01,  1.5961e-01,  1.2539e-01},
          {-8.1582e-02, -8.5131e-02, -2.7195e-02,  2.0036e-02,  1.4161e-02},
          {-1.9317e-03, -2.3638e-02, -6.2773e-02, -7.7228e-02, -4.8245e-02},
          { 6.6165e-02,  8.0970e-02,  9.8568e-02,  9.4405e-02,  6.4597e-02}},

         {{-2.1962e-02,  6.8151e-03,  6.1187e-03, -2.5761e-03,  1.7051e-02},
          { 3.1543e-02,  9.4431e-02,  1.2184e-01,  1.0029e-01,  9.2459e-02},
          {-5.5402e-02,  1.8223e-02,  9.6702e-02,  1.1532e-01,  9.6328e-02},
          {-1.1869e-01, -1.4314e-01, -1.3561e-01, -1.2807e-01, -9.9568e-02},
          {-4.7258e-02, -7.5139e-02, -1.1701e-01, -1.3142e-01, -1.1049e-01}},

         {{ 2.8202e-02,  3.4121e-02,  1.8336e-02,  2.8415e-03,  3.3228e-02},
          { 3.1123e-02,  7.0431e-02,  9.4540e-02,  1.0132e-01,  1.0306e-01},
          {-6.4110e-02, -3.6291e-02, -7.1784e-03,  2.8293e-02,  3.1274e-02},
          {-1.0773e-01, -1.2304e-01, -1.3280e-01, -1.3677e-01, -7.9545e-02},
          {-6.5384e-02, -9.6127e-02, -1.0652e-01, -7.4090e-02, -4.3121e-02}}},


        {{{ 1.0564e-02, -2.1110e-02, -1.7998e-02,  8.1738e-03, -5.6281e-04},
          { 1.4360e-03,  1.9223e-02,  1.0180e-02, -1.7068e-02, -2.1508e-02},
          { 4.8281e-03, -5.3890e-03, -6.8254e-02, -9.0300e-02, -3.3853e-02},
          {-1.9059e-02, -7.6903e-02, -1.0489e-01, -4.9229e-02,  6.0017e-04},
          {-4.2654e-02, -6.7089e-02, -1.1533e-02, -4.4167e-03, -1.4131e-02}},

         {{ 1.6484e-02, -4.3911e-04,  2.2732e-03,  2.9616e-02,  4.6543e-02},
          { 3.1212e-02,  1.0130e-01,  1.6760e-01,  1.8094e-01,  1.2904e-01},
          { 7.8832e-02,  1.2062e-01,  8.4225e-02,  7.5971e-03, -3.3607e-02},
          {-1.1732e-02, -5.0819e-02, -5.5871e-02, -2.4642e-03,  1.4083e-02},
          {-1.7600e-02,  9.9244e-03,  4.4141e-02,  3.4689e-02, -2.6116e-03}},

         {{-2.0583e-02, -1.7181e-02, -5.5339e-03,  1.2635e-03,  1.2829e-02},
          { 1.9505e-02,  4.0271e-02,  4.9169e-02,  4.7146e-02,  4.2494e-02},
          { 4.3769e-02,  3.9162e-02,  3.1189e-02,  2.1098e-02,  1.4961e-02},
          {-6.4390e-04, -1.5153e-02, -1.5507e-02, -2.7892e-02, -3.6503e-02},
          {-2.8399e-02, -2.7743e-02, -4.2650e-02, -4.8903e-02, -4.2020e-02}},

         {{ 1.8118e-02,  2.2924e-04,  1.6314e-02,  6.2287e-02,  7.8852e-02},
          { 4.3688e-02,  1.2644e-01,  1.8960e-01,  1.9016e-01,  1.1995e-01},
          { 6.2772e-02,  9.1995e-02,  4.0508e-02, -3.3735e-02, -4.1640e-02},
          {-1.7520e-02, -5.7117e-02, -4.7689e-02,  1.8611e-02,  2.9931e-02},
          {-2.0356e-02,  1.2804e-02,  5.2306e-02,  4.1454e-02, -3.4653e-03}},

         {{-2.8625e-02, -2.9466e-02, -4.0715e-02, -2.7777e-02,  2.9559e-03},
          { 1.2324e-02,  2.4915e-02,  7.6540e-02,  1.1580e-01,  1.1136e-01},
          { 6.0239e-02,  9.4841e-02,  1.1838e-01,  6.8777e-02,  2.2056e-02},
          { 1.2169e-04, -1.5386e-02, -5.8749e-02, -9.3023e-02, -6.6528e-02},
          {-8.5970e-02, -1.0919e-01, -1.0943e-01, -6.0393e-02, -4.1629e-02}},

         {{-3.9105e-03, -2.5300e-02, -3.2812e-02,  6.2170e-03,  3.5859e-02},
          { 1.0271e-02,  4.2171e-02,  1.0071e-01,  1.1279e-01,  7.5820e-02},
          { 3.5697e-02,  8.6481e-02,  6.9292e-02,  1.4006e-03, -2.2818e-02},
          {-9.5017e-03, -3.9264e-02, -1.0357e-01, -7.6982e-02, -1.8562e-02},
          {-9.7553e-02, -1.1834e-01, -7.8443e-02, -9.3107e-03, -2.1434e-02}}},


        {{{-5.5700e-03, -1.5850e-03,  1.6935e-03,  1.8584e-02,  4.8007e-03},
          { 5.7645e-03, -1.6312e-02,  4.0216e-03,  4.0623e-02,  9.7443e-03},
          { 1.2403e-03, -3.1061e-02,  2.4580e-02,  6.1670e-02, -1.6576e-03},
          {-1.8139e-02, -2.9192e-02,  4.9488e-02,  6.5623e-02, -2.1005e-02},
          {-1.7575e-02, -3.0995e-03,  5.6403e-02,  4.4851e-02, -1.7114e-02}},

         {{-1.1799e-03, -5.1962e-03, -1.6680e-02, -1.5149e-02, -6.3867e-03},
          { 1.1453e-02, -1.9670e-03, -2.2994e-02, -1.3171e-02,  2.7612e-03},
          { 4.2698e-03, -1.6900e-02, -3.2199e-02, -1.8506e-02, -5.4746e-03},
          {-1.5295e-02, -1.9940e-02, -2.2148e-02, -2.3483e-02, -1.1515e-02},
          {-2.3329e-02, -1.4523e-02, -1.6568e-02, -2.1078e-02,  4.7447e-03}},

         {{-1.4307e-03, -9.4675e-03, -9.5241e-03, -3.5538e-03,  4.1577e-03},
          { 2.4435e-03, -7.9767e-03, -1.5780e-02, -1.0602e-03,  9.1776e-03},
          { 4.3303e-03, -1.0012e-02, -2.2146e-02, -5.7117e-03,  1.3620e-02},
          { 4.5738e-03, -1.0722e-02, -2.7773e-02, -2.1889e-03,  2.4012e-02},
          {-2.5116e-03, -1.4587e-02, -2.1040e-02,  1.4144e-02,  3.6942e-02}},

         {{ 2.7893e-03, -2.4498e-05, -1.4693e-02, -1.4697e-02, -6.2499e-03},
          { 9.5875e-03, -5.6821e-03, -2.3668e-02, -1.2701e-02, -2.5085e-04},
          { 6.5249e-03, -1.8771e-02, -2.9112e-02, -1.6987e-02, -1.2401e-02},
          {-1.8042e-02, -1.9933e-02, -1.4370e-02, -2.0611e-02, -1.8212e-02},
          {-2.1308e-02, -8.1380e-03, -8.4727e-03, -1.9232e-02, -2.9505e-03}},

         {{-1.3344e-02, -1.7913e-02, -1.7679e-02, -1.0484e-02,  5.0473e-03},
          { 7.7813e-03, -6.0006e-03, -2.9584e-02, -8.4074e-03,  2.3196e-02},
          { 2.0772e-02, -1.2499e-02, -4.6790e-02, -2.9805e-03,  3.5108e-02},
          { 2.3720e-02, -2.2477e-02, -4.9284e-02,  1.3078e-02,  4.0974e-02},
          { 1.4287e-03, -3.0847e-02, -2.3702e-02,  3.7254e-02,  4.9887e-02}},

         {{-1.5555e-02, -1.1673e-02, -1.5314e-02, -1.5678e-03,  6.1262e-03},
          { 8.4709e-03, -1.3997e-02, -2.8541e-02,  1.2063e-02,  2.8423e-02},
          { 2.2279e-02, -2.8788e-02, -2.9812e-02,  3.7213e-02,  2.9471e-02},
          { 1.0566e-02, -4.4386e-02, -7.6631e-03,  5.1212e-02,  1.5088e-02},
          {-1.2193e-02, -2.9629e-02,  2.2657e-02,  5.2264e-02,  7.3824e-03}}},


        {{{-7.8169e-03, -3.2179e-02, -6.4577e-02, -7.6206e-03, -2.1008e-02},
          { 3.3520e-02,  7.3184e-03, -1.0269e-01, -5.5849e-02, -3.5830e-02},
          { 6.4535e-02,  5.0513e-02, -9.8549e-02, -9.9548e-02, -5.7109e-02},
          { 3.9821e-02,  4.8997e-02, -3.3358e-02, -9.7054e-02, -6.5275e-02},
          {-2.4946e-02,  1.2800e-02,  3.0104e-02, -2.6382e-02, -5.1822e-02}},

         {{ 3.9022e-02,  4.9631e-02,  7.9997e-03, -2.3726e-02, -5.7284e-03},
          { 4.3036e-02,  1.2205e-01,  1.3492e-01,  2.5960e-02, -5.4494e-02},
          {-4.6983e-02,  9.0907e-02,  2.3792e-01,  2.3303e-01,  9.7975e-02},
          {-7.0904e-02, -9.9340e-02,  4.2562e-02,  1.7285e-01,  1.7310e-01},
          { 2.7740e-03, -5.0942e-02, -9.1127e-02, -3.6482e-02,  2.3375e-02}},

         {{ 2.2182e-02, -5.6733e-03, -5.2015e-02, -5.6598e-02, -1.3589e-02},
          { 5.7824e-02,  1.0184e-01,  3.8750e-02, -6.1854e-02, -6.6169e-02},
          { 2.8750e-02,  1.6248e-01,  1.9790e-01,  8.9522e-02, -2.4957e-02},
          {-5.2222e-02,  3.8938e-02,  1.7221e-01,  1.6881e-01,  6.2091e-02},
          {-5.4742e-02, -7.1874e-02, -5.7079e-03,  6.4651e-02,  4.9236e-02}},

         {{ 3.7758e-02,  4.8656e-02,  1.0651e-02, -2.0816e-02, -1.6449e-02},
          { 3.7450e-02,  1.2557e-01,  1.5372e-01,  5.7107e-02, -3.7970e-02},
          {-7.4795e-02,  3.6699e-02,  1.8686e-01,  2.1718e-01,  1.2047e-01},
          {-5.8660e-02, -1.2495e-01, -4.6253e-02,  9.7206e-02,  1.4464e-01},
          { 1.9777e-02, -2.3863e-02, -7.8339e-02, -6.6442e-02, -1.8372e-02}},

         {{ 1.1763e-02, -2.3029e-02, -8.2532e-02, -1.0120e-01, -3.3294e-02},
          { 4.9290e-02,  8.9723e-02,  6.3748e-03, -1.2935e-01, -1.3610e-01},
          { 1.2390e-02,  1.7224e-01,  1.9795e-01,  7.8912e-02, -6.0596e-02},
          {-1.0451e-01,  4.0048e-02,  1.8137e-01,  1.9034e-01,  7.9015e-02},
          {-1.2263e-01, -1.1894e-01, -2.8129e-02,  6.4598e-02,  5.1065e-02}},

         {{ 1.3246e-02, -2.0452e-02, -6.2594e-02, -6.5571e-02, -3.2380e-02},
          { 2.9659e-02,  3.9678e-02, -3.1482e-02, -8.5765e-02, -9.5808e-02},
          { 2.1290e-04,  6.5457e-02,  4.3794e-02, -2.5051e-03, -5.0588e-02},
          {-5.0218e-02,  1.1434e-02,  3.2410e-02,  3.4300e-02, -1.3013e-02},
          {-7.7253e-02, -5.2947e-02, -7.8854e-03,  5.1863e-03, -2.9697e-02}} } };

// 偏置
float bias_2[OUTPUT_SIZE_2_C] =
{ 2.5683e-05,  1.2923e-03,  1.1763e-03, -8.1836e-03,  5.6101e-05,
-5.3530e-04, -1.4498e-03,  8.4806e-03, -1.3134e-02, -6.1967e-03,
-6.3044e-03, -2.9569e-02, -1.7133e-02, -1.0468e-02,  1.2045e-03,
    4.0428e-03 };


/************第2层***************/