#pragma once
/************第9层Linear***************/
#define IN_FRATURES_9 84
#define OUT_FRATURES_9 10

// 权重
float weight_9[OUT_FRATURES_9][IN_FRATURES_9] =
{ { 1.5516e-01, -9.2045e-03, -4.7035e-02,  1.8234e-12,  1.2696e-10,
         -4.3784e-11,  5.9338e-02, -2.3706e-06,  8.0538e-02,  2.9896e-01,
          1.2668e-01, -3.7379e-02, -4.4769e-02, -1.1332e-01, -7.4743e-02,
          3.1176e-02, -4.7139e-02, -1.2916e-01, -5.7411e-02, -1.4796e-02,
         -8.2933e-02,  1.3429e-11,  7.1953e-03,  1.1261e-01,  1.3050e-01,
         -5.9679e-02,  1.2414e-14,  1.4077e-01, -3.7387e-02,  1.0980e-11,
         -2.7706e-02, -9.9157e-02, -1.8164e-03,  6.7994e-02,  1.7092e-01,
          7.4168e-02, -3.6002e-03, -6.4681e-09, -1.0082e-01,  7.4756e-02,
          1.6304e-11, -1.2184e-01, -6.7521e-07, -3.9291e-02, -7.1183e-02,
         -3.8745e-02,  1.3748e-01, -7.0998e-02, -4.4219e-02,  4.7072e-11,
         -7.5899e-02,  1.6549e-01,  7.8099e-03,  1.1384e-01, -1.0263e-01,
         -7.5039e-02,  7.7828e-02,  1.2069e-05, -7.4926e-02,  1.3839e-01,
          8.8713e-02, -6.6085e-02, -2.5843e-02, -7.3728e-02, -1.1575e-01,
         -1.0040e-01,  2.7503e-02,  1.8639e-03, -1.4261e-02, -1.6738e-07,
         -5.7436e-02, -3.8673e-02, -1.0486e-09, -6.3226e-03, -9.0426e-02,
          1.0179e-01, -6.3556e-02, -4.5353e-02,  1.5994e-02, -2.9254e-03,
          4.7927e-05, -2.4135e-02,  2.1192e-03,  5.8074e-06},
        {-3.1469e-02,  1.0233e-01,  2.9104e-02,  9.9518e-08,  4.2852e-11,
         -2.4348e-12,  3.7353e-02,  5.4065e-05,  1.1879e-01, -1.8684e-02,
         -5.3151e-02, -5.8774e-02, -4.0761e-02, -1.0881e-01, -1.0963e-01,
         -1.1448e-01, -6.7255e-02, -2.0536e-02, -1.2508e-01, -3.1787e-02,
         -5.4519e-03, -7.9924e-13, -8.8157e-02, -1.2471e-01, -6.0929e-02,
         -1.0500e-01,  1.0274e-15, -9.7901e-02, -8.2062e-03,  2.6714e-11,
          5.2093e-02, -1.1490e-01, -2.2191e-02,  1.9384e-01, -7.6787e-02,
         -7.3170e-02, -5.9014e-03,  8.7154e-08,  1.4536e-01, -7.6111e-02,
          1.8746e-12,  3.3071e-02,  2.3067e-06,  6.7213e-02,  2.2355e-01,
          2.9241e-03, -4.3947e-02, -1.3860e-01, -5.1406e-02, -3.8734e-08,
         -1.0468e-01, -6.3873e-02, -7.8326e-02,  6.6219e-03, -1.0126e-01,
         -7.0425e-02, -1.0045e-01, -3.4616e-05,  4.1474e-02, -1.2413e-01,
         -7.3435e-02, -1.0008e-01,  1.3679e-01, -1.1354e-01,  7.5866e-02,
          1.2387e-01,  2.3662e-01, -3.3924e-04, -3.3002e-02,  3.8099e-09,
          1.8348e-01,  2.1015e-02,  4.4575e-09,  1.3169e-01,  6.6750e-03,
          2.2998e-01,  1.5437e-01, -9.5290e-02, -7.0268e-02, -6.3227e-03,
          2.5231e-06,  9.6119e-02,  2.4083e-01,  7.9656e-06},
        { 1.7376e-02, -3.9520e-04,  1.3877e-01, -3.1943e-11, -4.2160e-10,
          1.0423e-09, -8.0048e-02,  3.2835e-06,  3.0943e-02, -1.7870e-01,
          1.9501e-01,  1.4976e-01,  7.7681e-02,  2.2308e-01,  3.9992e-03,
         -1.1618e-01, -4.4413e-02,  2.0320e-01, -2.2347e-02,  2.9793e-05,
          1.6747e-01, -4.2661e-11, -1.4989e-01,  1.1128e-01,  1.3584e-01,
         -9.2758e-02,  6.1483e-14,  1.8754e-01, -5.2229e-02,  8.9136e-10,
         -9.0571e-02, -1.3498e-01, -3.0449e-02, -9.5337e-02,  1.0562e-01,
         -9.8543e-02,  1.7240e-03,  1.2186e-08,  8.3266e-02, -1.3115e-01,
         -1.9123e-11, -8.3905e-02,  1.0565e-06, -1.2982e-01,  7.8453e-02,
         -5.6176e-02,  1.9438e-01, -5.1398e-02,  1.5627e-02,  1.7634e-07,
         -4.6040e-02, -1.3193e-01, -1.1063e-01, -1.1002e-01,  6.7434e-02,
         -9.5102e-02, -9.4314e-02, -2.0010e-05,  2.9325e-02,  9.9730e-02,
         -5.4368e-02, -9.3093e-02, -9.0607e-02, -7.0784e-02, -1.8060e-01,
          5.3457e-02,  1.9236e-02,  3.7661e-03, -3.8907e-03, -1.5923e-07,
         -4.6828e-02,  9.0603e-02, -1.7724e-09,  1.9205e-01, -1.0350e-01,
          3.7084e-02, -1.6942e-01, -1.0147e-02, -3.3597e-02, -3.9824e-04,
          2.1987e-06, -1.1285e-01,  1.2106e-01,  1.3691e-04},
        {-1.0976e-01, -4.5827e-02,  3.3165e-02, -3.4086e-14, -2.9970e-10,
         -4.8967e-09, -6.4799e-02, -8.1022e-07, -5.0646e-02, -4.3195e-02,
         -1.0932e-01, -3.0828e-02, -7.1976e-02, -2.7267e-02,  6.7790e-02,
         -7.2931e-02, -5.6174e-02, -6.6718e-02, -7.0835e-02, -1.1317e-02,
          1.5901e-01, -4.3328e-12,  2.1536e-01,  9.6324e-02,  2.9140e-02,
          1.3682e-01, -6.0241e-14, -6.4691e-02, -8.4600e-02, -4.8897e-10,
         -7.5902e-02, -4.4894e-02, -4.3969e-02,  1.0957e-01, -7.3686e-02,
         -1.4535e-01, -2.2255e-03, -4.8854e-08,  1.6204e-01, -7.9773e-02,
         -7.6059e-12, -1.6768e-01, -7.2126e-07,  2.1290e-01,  8.5013e-02,
          7.9580e-02,  1.4906e-01,  1.0013e-01,  1.4562e-01,  3.3354e-08,
          8.3795e-02, -5.7504e-02,  5.9234e-02, -1.6957e-01,  1.8843e-01,
          1.3209e-01, -8.6041e-02,  2.8499e-05,  7.4402e-04, -9.2324e-02,
         -4.2894e-02,  9.0552e-02, -7.6528e-02,  5.1700e-02,  1.8067e-01,
          1.6289e-01, -9.2678e-02, -1.8376e-03, -2.1260e-02, -1.7863e-07,
         -6.8470e-02,  5.2213e-02,  2.3192e-09, -1.2815e-01, -1.9264e-01,
         -1.0567e-01, -1.3492e-01, -7.0335e-02, -1.4317e-03, -2.7107e-03,
          1.1249e-04, -1.0531e-01, -1.1757e-01, -4.7736e-05},
        { 4.6808e-02, -1.9177e-02, -7.0297e-02, -2.3335e-08,  4.2418e-17,
         -1.1639e-10,  1.3818e-01,  5.4230e-08, -7.2573e-02, -5.0578e-02,
         -4.5461e-03, -4.4424e-02, -2.7610e-02,  7.9215e-02,  1.3390e-01,
          8.8720e-02, -3.1667e-02,  5.7374e-02,  2.2843e-01,  5.0839e-02,
         -8.3858e-02,  4.6328e-11,  1.9769e-02, -2.1212e-01, -1.7191e-01,
         -1.0887e-01, -4.8879e-14,  7.3411e-03,  3.2246e-02, -9.6762e-12,
          1.4840e-01, -1.5379e-03,  5.0510e-02, -1.5641e-01,  4.8798e-02,
         -1.0472e-01, -4.5939e-03,  5.3126e-09, -1.7350e-02, -6.4791e-02,
         -2.9055e-12,  9.8413e-02, -3.6728e-06,  1.3143e-01, -1.9836e-02,
         -5.6955e-02,  3.4654e-02, -1.3214e-01,  7.0695e-02,  1.2459e-08,
          8.4014e-02, -3.9517e-02, -6.2933e-02, -4.4708e-02, -1.2074e-01,
         -1.0456e-01, -3.5633e-02, -1.2765e-05, -6.5637e-02,  1.2356e-01,
         -1.1568e-01, -1.0420e-01,  1.9142e-01, -8.6368e-03, -1.0476e-01,
         -8.6270e-02, -8.7090e-02, -1.4191e-03,  8.1044e-02,  2.0172e-07,
          3.2046e-01, -1.8534e-02,  2.5500e-10, -1.0901e-01, -7.4432e-02,
         -8.7068e-02,  1.3224e-01,  2.1429e-01,  1.1221e-02,  3.7460e-02,
          2.2439e-06,  1.3334e-01, -5.5521e-03,  1.2928e-05},
        {-5.5503e-02, -7.8248e-03, -5.2833e-02,  1.2133e-07, -5.8349e-12,
         -5.0015e-09, -3.5121e-02,  2.4254e-06, -9.4693e-03, -4.3447e-02,
         -5.4591e-02, -2.2835e-02, -2.2852e-02, -1.3751e-01, -6.3663e-02,
          1.8968e-01,  5.3609e-02, -8.0140e-02, -1.9492e-02, -1.3620e-02,
          6.4990e-02, -4.0859e-11,  1.2117e-01, -4.9714e-02, -1.2331e-01,
          1.4588e-01,  2.9415e-14, -9.0501e-02,  4.1679e-02, -3.4369e-11,
         -4.5419e-02,  4.9495e-02, -9.9081e-03,  2.1445e-02, -1.2066e-01,
          1.5380e-01, -5.0085e-03,  3.5820e-08,  5.0710e-02,  2.6567e-01,
         -1.0276e-11,  1.2062e-01,  2.5583e-07, -1.4459e-01, -2.1232e-01,
          1.6529e-01, -1.2562e-01,  1.3408e-01, -9.8297e-02,  1.1459e-08,
         -8.2841e-02,  1.4187e-01,  1.5886e-01, -1.2449e-01,  1.3244e-02,
          2.0682e-01,  9.1587e-02, -1.3000e-06, -8.0858e-02, -1.5940e-01,
          1.0098e-01,  1.7934e-01, -4.3298e-02,  9.6924e-02,  2.4977e-01,
         -7.9968e-02, -5.5417e-04, -3.2500e-03, -1.4024e-02, -1.7423e-07,
         -5.6562e-02, -3.2312e-02, -1.4470e-09, -2.3838e-02,  1.9954e-01,
         -2.7236e-03, -5.0649e-02, -2.2760e-02,  8.4028e-03, -4.1242e-04,
         -2.4843e-04, -1.1757e-01, -5.3067e-02,  3.6329e-05},
        {-1.3126e-01, -1.7000e-02, -6.9009e-02,  2.2087e-10, -7.9263e-12,
         -5.5525e-11, -7.9659e-02,  4.8956e-07, -6.9499e-02,  1.4210e-01,
         -3.1484e-03,  1.2922e-01, -3.7861e-02, -1.3877e-01, -1.2399e-01,
          2.2152e-01, -4.8433e-02,  1.6790e-01, -9.5941e-02, -1.4453e-02,
         -9.5162e-02,  6.7330e-12, -6.0228e-02, -1.9706e-01, -1.9106e-01,
         -7.8851e-02, -2.8858e-14,  1.0961e-01,  4.7186e-02, -8.4425e-10,
         -6.5465e-02, -1.1025e-01, -4.5255e-02, -1.5311e-01,  6.4772e-02,
          1.8651e-01, -1.2643e-03, -4.8931e-08, -1.2136e-01,  1.8099e-01,
          4.3776e-11,  2.5233e-01, -1.0153e-06, -7.6643e-02, -1.3715e-01,
         -7.0439e-02, -7.9124e-02, -5.2762e-02, -7.8258e-02,  3.0084e-12,
         -5.2326e-02,  1.1907e-01,  6.8649e-02,  9.3390e-02,  3.5240e-02,
          8.5555e-02, -8.1835e-02, -2.9971e-05, -3.2885e-02,  9.4484e-02,
         -4.8944e-02,  4.8063e-02, -1.5361e-02, -4.1826e-02, -1.5368e-01,
         -1.3823e-03, -2.3918e-02,  8.6322e-04, -1.9593e-02,  3.4992e-08,
          1.6600e-01, -2.4250e-02, -4.5129e-09, -9.3329e-02,  2.2100e-01,
         -5.2692e-02, -1.0722e-01, -7.0277e-02,  3.6294e-02,  7.6070e-03,
         -2.0365e-05, -7.4190e-02,  1.6292e-01, -3.2048e-05},
        { 1.2921e-01,  5.5214e-02,  1.2295e-01,  6.5169e-07, -8.0635e-09,
          1.6321e-10,  6.4229e-02, -2.0154e-04,  5.3070e-02,  2.4199e-02,
          9.9139e-02, -4.6526e-02,  2.0032e-01,  1.4731e-01,  1.0545e-01,
         -1.3180e-02,  1.8286e-01, -8.1832e-02, -1.5755e-02, -5.3533e-02,
          1.3893e-01, -2.1988e-11, -1.7082e-01,  7.0563e-02,  1.4007e-01,
         -6.9022e-02, -5.9592e-14, -1.3069e-01, -7.9395e-02,  2.6702e-12,
          1.6036e-01,  5.5431e-02,  9.9831e-02,  9.0279e-02, -1.1572e-01,
         -5.2739e-02, -5.1389e-03, -6.8229e-08,  1.1272e-01, -3.9709e-03,
          9.4055e-12, -9.8444e-02, -1.1882e-06, -7.3979e-03, -4.8954e-02,
          1.2087e-01, -1.4125e-01, -1.6924e-01, -3.4447e-02,  2.6707e-08,
          6.0138e-02,  9.3845e-03, -1.0561e-01, -1.4684e-01, -5.6332e-02,
         -3.8504e-02,  9.8376e-02,  1.3293e-06,  1.8242e-01, -1.5153e-01,
          1.4650e-02, -1.4970e-01, -9.0451e-02, -1.5900e-01,  1.1358e-01,
         -9.3190e-02, -8.4033e-02,  1.1859e-03, -4.8275e-02, -2.0327e-07,
         -1.1129e-01,  2.1289e-02,  8.7009e-11,  1.8064e-01, -7.4687e-02,
         -2.9768e-02,  2.5676e-01, -3.7083e-02, -1.0490e-01, -5.6716e-03,
          1.4915e-04, -1.2253e-01, -1.5297e-01, -8.4469e-05},
        {-8.0698e-02, -3.3423e-02,  1.7900e-02,  1.7182e-04,  4.0074e-09,
         -2.0667e-08, -6.0422e-02,  3.9024e-05,  1.3187e-02, -6.0259e-02,
         -1.0883e-01, -3.1953e-02, -2.2902e-02,  1.2428e-01,  2.5572e-02,
         -1.5158e-01, -3.9755e-02,  1.5073e-01, -1.1912e-01, -3.1293e-02,
         -1.0627e-01,  8.3005e-11,  3.4592e-02,  8.9884e-02,  1.4101e-01,
          8.5716e-02,  3.4874e-15, -1.0119e-01,  6.7354e-02,  1.0304e-08,
         -8.2228e-02,  1.9443e-01, -3.0102e-02, -1.4373e-01,  5.9117e-02,
          1.3194e-01,  3.1641e-03,  3.3898e-08, -1.0344e-01, -1.4671e-01,
         -7.8771e-12,  1.0913e-01, -1.3315e-06, -2.6367e-02,  1.3209e-01,
         -1.0382e-01, -1.6200e-01,  1.7433e-01,  7.8466e-03, -3.1040e-08,
         -1.0191e-01, -1.0356e-01,  4.7759e-02,  2.7956e-01,  1.9156e-01,
          8.1380e-02, -3.4149e-02,  6.8996e-06, -4.6011e-02,  1.2427e-01,
          2.3213e-02,  3.2419e-02, -1.3165e-01,  6.0798e-02, -2.5678e-01,
          1.1043e-01, -9.5601e-03, -3.5358e-03, -3.2896e-02,  9.8318e-07,
         -1.5507e-01, -3.5609e-02,  1.5432e-09, -6.8122e-03,  1.3491e-01,
         -5.9652e-02,  3.1168e-02, -7.3629e-02,  2.8863e-02, -6.3957e-03,
         -4.6530e-04,  7.6708e-02, -1.4189e-01,  2.3741e-05},
        { 6.0589e-02, -2.7042e-02, -1.1390e-01, -4.7141e-09, -1.6836e-13,
         -1.3899e-09,  1.1330e-02,  7.4217e-07, -9.8035e-02, -9.0110e-02,
         -7.9536e-02, -1.4102e-02, -5.5584e-03, -9.6011e-02,  6.1415e-02,
         -7.2709e-02,  8.8713e-02, -2.2375e-01,  2.5174e-01,  1.1487e-01,
         -1.9101e-01, -5.6272e-11,  4.1992e-02,  9.5079e-02, -4.6554e-02,
          1.1338e-01,  2.3708e-13,  1.3170e-02,  8.2843e-02, -1.0941e-11,
          2.2697e-02,  1.7226e-01,  3.6727e-02,  7.3481e-02, -7.7890e-02,
         -8.7772e-02,  2.6090e-02, -3.8165e-08, -1.9982e-01, -5.3210e-02,
         -7.8717e-12, -1.5382e-01,  4.3564e-06,  8.6000e-03, -9.7823e-02,
         -6.8083e-02, -4.3432e-04,  1.6978e-01,  6.3719e-02, -1.7872e-07,
          2.2336e-01, -6.7111e-02, -2.1071e-03,  5.9226e-02, -1.5331e-01,
         -1.3954e-01,  1.6473e-01,  1.5548e-05,  7.8049e-02, -1.0171e-01,
          1.1484e-01,  1.3600e-01,  1.3565e-01,  2.2443e-01,  1.2769e-01,
         -1.1368e-01, -2.0059e-03, -1.1916e-04,  1.0145e-01, -6.9999e-08,
         -2.2765e-01, -3.9468e-02,  3.5694e-10, -1.6654e-01, -5.9867e-02,
         -4.1686e-02, -6.3651e-02,  1.8640e-01,  1.0627e-01, -1.8720e-02,
          6.3011e-05,  2.3271e-01, -7.8051e-02, -8.6674e-05 } };

float bias_9[OUT_FRATURES_9] = 
{ 0.0010,  0.0053,  0.0142, -0.0255, -0.0184,  0.0114, -0.0125, -0.0180, 0.0293,  0.0134 };
/************第9层Linear***************/