#pragma once
/************第5层全连接***************/
#define IN_FRATURES_5 256
#define OUT_FRATURES_5 120

// 权重
float weight_5[OUT_FRATURES_5][IN_FRATURES_5] =
{ { 4.5297e-04,  1.7347e-04,  2.1864e-04, -8.7659e-04, -2.7952e-04,
         -1.4372e-04,  5.7681e-04, -5.5690e-04, -6.3333e-04,  2.5147e-04,
          7.2550e-04,  7.0899e-06, -8.8529e-04,  1.0247e-04,  6.3582e-04,
          6.1515e-04,  1.2627e-02,  3.1487e-02,  1.4198e-02, -6.2510e-03,
          2.4659e-02, -2.5012e-03, -7.3385e-04, -2.9742e-02,  2.9430e-02,
          1.4212e-02,  1.4009e-02, -2.7483e-02,  3.6884e-02,  1.9905e-02,
         -2.6432e-02, -9.8661e-03,  8.0770e-03,  3.7956e-03,  2.1776e-02,
         -7.9447e-03,  1.3457e-02, -5.9211e-03,  2.5723e-02, -2.0734e-02,
          4.0692e-02, -9.2337e-03, -1.4745e-03,  1.0800e-02,  1.4898e-02,
         -6.3874e-02, -4.2741e-02, -7.5056e-03, -1.3121e-02, -1.8663e-02,
         -9.2801e-03,  9.7862e-04, -2.1639e-02, -2.6038e-02, -5.0174e-02,
         -2.1664e-02, -4.5055e-02, -7.0489e-02, -7.9358e-02,  1.4380e-02,
         -1.2077e-01, -7.8205e-02, -1.1211e-01, -5.3867e-02,  4.4041e-04,
          2.1732e-04,  1.7757e-04, -7.9295e-04, -2.7267e-04, -6.2978e-05,
          5.2496e-04, -4.6001e-04, -5.6322e-04,  2.1351e-04,  6.5325e-04,
          6.1265e-05, -7.9863e-04,  1.0324e-04,  5.8323e-04,  4.9445e-04,
          5.2053e-02,  3.0807e-02,  1.6834e-02, -2.3329e-02, -2.1518e-02,
         -4.6240e-02,  4.3844e-02,  5.9670e-02,  1.7959e-02,  9.9242e-02,
          4.7248e-03,  3.3228e-02, -6.4071e-02, -7.0386e-02,  1.5657e-02,
          3.4828e-02,  1.9856e-03,  2.2003e-03,  1.0422e-03,  7.0303e-04,
         -3.7554e-04,  1.0506e-04,  6.3053e-04,  1.3065e-03,  1.9368e-04,
          7.2274e-04,  1.2113e-03,  8.0247e-04, -1.0512e-03,  2.4502e-04,
          8.6361e-04,  1.1064e-03, -1.5234e-03,  1.3437e-03,  1.6826e-02,
          1.3762e-02, -2.4500e-02,  1.1787e-03,  1.5443e-02,  1.1572e-02,
         -9.0833e-02, -9.3227e-02,  9.6956e-03,  5.3354e-02, -2.3618e-02,
          2.4024e-02,  6.6159e-02,  4.0694e-02,  4.2727e-02,  7.1027e-02,
          1.8321e-02, -7.1763e-03,  2.2773e-02,  1.8631e-02, -1.5719e-03,
          1.6148e-02,  1.0603e-02,  6.3877e-02,  4.8704e-03, -1.5490e-02,
          1.0878e-01,  6.3593e-02, -9.3638e-02, -6.0687e-02, -6.8217e-03,
         -6.3526e-03,  1.4067e-03,  4.5162e-03, -1.4112e-03, -2.2483e-03,
         -2.9999e-03, -7.0910e-03, -1.0149e-02, -9.8820e-03, -3.6445e-03,
         -4.6883e-03, -4.1172e-03,  1.1304e-02,  1.3881e-02,  5.5913e-03,
         -4.5133e-03,  3.0463e-03, -1.5030e-03, -7.0436e-04, -5.7511e-03,
         -1.0135e-02, -1.4418e-02,  1.2451e-02, -2.1252e-02, -2.3620e-02,
         -2.3190e-02, -1.2377e-02, -5.2999e-03,  5.8750e-03,  7.4487e-03,
         -2.0583e-03, -3.9513e-03,  4.6437e-04,  2.7816e-02,  1.7006e-02,
         -1.8443e-02, -1.2434e-02, -3.1947e-02,  1.5972e-02, -3.1438e-02,
         -3.5107e-02, -4.8217e-02, -1.8920e-03, -9.3200e-02, -8.5417e-02,
         -5.4461e-02, -4.8208e-02, -2.2450e-02, -9.5303e-03,  1.6945e-02,
         -5.0074e-03, -2.7036e-02, -1.5899e-02,  1.0329e-02,  3.4765e-02,
         -1.0960e-01, -9.4489e-02, -5.9622e-02, -8.7893e-03, -5.6527e-02,
         -3.9961e-02, -2.3866e-02, -3.0458e-02, -1.7701e-02, -8.7305e-03,
         -8.5096e-04, -2.3634e-03, -1.2840e-02, -2.3635e-02,  2.4639e-04,
          4.0237e-02, -3.5335e-02, -2.4394e-02, -2.1340e-02, -3.1270e-02,
         -7.5364e-02, -4.5681e-02,  1.2842e-02,  1.7751e-02,  7.3154e-04,
         -1.7430e-03, -5.6288e-03,  1.7986e-03, -6.0316e-03,  1.4544e-02,
         -7.0631e-03, -3.2897e-03,  2.9057e-02,  7.1583e-03, -5.8776e-03,
         -5.7909e-03,  2.2930e-02, -1.9504e-02, -2.4666e-02,  1.7266e-03,
         -2.3128e-02,  1.9952e-02, -7.8030e-03,  4.4620e-02,  2.6917e-02,
          5.2306e-02,  9.3438e-03, -4.8244e-04, -8.8244e-02, -3.2414e-02,
          3.5135e-02, -3.0603e-02, -2.2123e-02,  1.0372e-01,  8.2562e-02,
          3.1011e-02},
        {-5.5571e-21,  4.5864e-21,  1.9870e-21, -6.2687e-21,  6.0209e-21,
          6.7028e-21,  7.1099e-21, -3.9806e-22, -5.6336e-21,  4.2238e-21,
         -5.1051e-21,  5.0315e-21,  1.6137e-22, -2.5684e-21, -3.3090e-21,
         -2.9972e-21,  3.6974e-19,  5.7034e-12,  4.0542e-09, -2.4407e-08,
          2.9301e-16,  2.0526e-11,  1.9041e-09, -7.1733e-08,  1.5708e-18,
         -1.8948e-11,  1.4003e-08, -2.3700e-08,  2.6641e-15, -7.1448e-10,
          9.5118e-09, -4.7205e-09,  4.0344e-15,  1.1967e-09,  1.0694e-09,
         -1.9225e-11,  6.1821e-17,  2.5142e-10,  1.2020e-11, -4.1279e-10,
          6.3397e-14,  5.7904e-10, -2.2621e-12, -2.3246e-10,  6.3258e-13,
         -3.2376e-10,  8.4785e-11, -6.6418e-11,  1.0384e-11,  2.9849e-08,
          4.1463e-07,  8.2819e-08, -1.4386e-13, -1.3021e-09,  6.8243e-08,
          5.5215e-09,  2.6632e-13,  2.5213e-09,  2.0076e-08,  6.9553e-10,
          7.3142e-11,  2.6724e-08,  3.7497e-08,  2.0986e-09,  1.6646e-21,
         -4.7498e-21,  4.9094e-21, -4.9856e-21,  3.7555e-21, -7.4562e-21,
          7.0232e-21, -6.5980e-21,  4.4899e-21,  6.5970e-21, -2.2741e-21,
         -7.1541e-21,  2.0520e-21, -2.9065e-21, -9.8526e-22, -4.1400e-21,
         -9.9728e-09, -2.1629e-07, -2.5473e-07, -1.9063e-07, -7.5513e-10,
         -8.7418e-08, -2.2033e-07, -3.8017e-09, -5.0825e-09, -2.1011e-07,
         -1.2899e-07, -5.9354e-10, -2.2579e-08, -1.6114e-07, -1.0102e-07,
         -3.5763e-09, -8.7576e-23, -2.3372e-22,  2.2547e-23,  9.1573e-23,
          8.4182e-22, -3.8859e-22,  3.9649e-22, -6.9666e-22, -2.8849e-22,
          5.1422e-22, -2.1328e-22, -2.3402e-22, -1.5615e-23,  6.7219e-22,
         -3.7417e-22,  4.7232e-22, -2.6486e-20,  4.7930e-15,  3.5854e-14,
         -6.3942e-13,  2.6397e-19, -2.7958e-15,  3.9910e-17,  9.6924e-15,
          3.3963e-14, -2.9524e-11, -3.2482e-12,  8.6872e-13,  2.3314e-20,
         -1.3032e-12, -1.0114e-12,  1.9731e-17, -2.3299e-12,  9.0489e-09,
          1.1039e-08,  4.6584e-10, -1.5825e-09,  9.3472e-09, -1.7036e-08,
         -1.7479e-09, -1.7482e-09, -8.3965e-08,  1.4923e-08, -3.2915e-09,
         -1.4696e-08, -2.7976e-08, -5.6174e-08, -1.5845e-09,  1.0149e-20,
         -1.5722e-20, -2.1592e-20, -2.8210e-21, -5.3406e-21, -9.5839e-21,
          5.0673e-21,  4.4642e-21, -1.0742e-20, -7.2524e-21, -8.4635e-21,
         -9.8742e-21,  1.3732e-20,  1.3473e-20, -2.2291e-20,  1.3113e-20,
          3.3756e-20, -3.3128e-20, -5.2715e-23, -3.4440e-21, -1.8269e-20,
         -1.9063e-20, -1.9435e-20, -1.3065e-20, -2.7089e-20,  3.3285e-20,
         -2.3854e-20,  4.0701e-21,  3.9351e-20, -1.5814e-16, -3.7175e-19,
          4.5690e-21, -6.7191e-10, -1.8101e-08, -5.9203e-09,  4.3764e-13,
         -3.1093e-09, -2.7031e-08, -7.0655e-09, -1.2016e-11, -7.9907e-12,
         -6.8880e-10, -5.6137e-10, -1.1828e-12, -1.3359e-10, -2.8933e-10,
         -6.7283e-11,  1.4613e-10, -1.6853e-10, -3.2760e-10, -1.0730e-12,
         -2.8140e-17, -6.2090e-12, -9.0067e-12, -7.1539e-14, -1.4842e-19,
         -2.8449e-12, -7.4286e-11, -1.5452e-11, -1.5085e-14, -1.1416e-11,
          2.7141e-09,  1.4835e-09,  2.6054e-11, -5.9343e-10, -8.2485e-09,
         -2.7268e-09, -9.6786e-11, -5.7859e-12, -1.1885e-10, -1.6537e-10,
         -1.4840e-12, -6.8978e-14, -6.5717e-11, -1.9711e-11, -1.3173e-15,
         -5.1818e-10, -3.9403e-09,  2.1500e-10,  6.4445e-10,  3.4797e-20,
          2.2816e-20, -4.7075e-21,  3.7837e-20, -1.9668e-19, -5.6365e-19,
         -9.7558e-23,  2.6345e-20,  6.1340e-18, -2.3534e-19,  8.6561e-20,
          2.2596e-20,  1.8544e-19, -1.1405e-21,  4.9853e-20,  1.3091e-20,
         -4.6407e-09, -1.4507e-07, -4.4590e-07, -7.2634e-08, -3.0372e-12,
         -4.9517e-11, -3.5886e-08, -1.0874e-08, -3.0669e-10,  5.0833e-10,
         -2.7113e-09, -3.2326e-09, -9.6497e-09, -3.4102e-08, -1.6150e-08,
         -9.0467e-09},
        {-2.3491e-12, -3.8641e-12, -5.7869e-12, -2.9171e-12, -2.5284e-12,
          4.0933e-12, -3.8312e-12,  3.8131e-12, -4.7990e-12,  1.2600e-12,
         -5.5613e-12, -6.9859e-12, -3.3741e-13, -3.8441e-12, -3.6531e-12,
          2.8665e-12,  2.5349e-12,  7.7125e-12,  6.5973e-12,  2.1283e-11,
          2.6441e-11,  9.1074e-12,  1.2826e-11,  5.7545e-12,  1.6255e-11,
         -3.4897e-12, -2.2570e-12,  1.8675e-12,  5.3914e-12,  2.5937e-11,
         -1.0489e-11,  2.1917e-12, -3.4301e-11, -3.4360e-12, -1.3006e-11,
         -1.2819e-12, -7.1637e-12, -1.7438e-11, -1.5058e-11, -2.6285e-11,
         -1.7802e-11, -2.1540e-11, -5.6618e-12, -2.2546e-11, -2.6240e-12,
         -2.5512e-12, -1.1657e-11, -5.9853e-12, -5.9584e-11,  2.1375e-11,
          2.8943e-11,  6.3962e-12, -2.2163e-11,  7.3597e-13,  1.4910e-12,
         -1.2399e-11, -2.8787e-11, -1.2935e-11,  1.4577e-12, -1.0752e-11,
          6.7557e-12, -8.9554e-12, -9.1964e-12, -3.2502e-11, -3.0491e-12,
         -2.5133e-13, -2.4231e-12, -3.4978e-12, -2.2151e-12, -7.7621e-12,
         -8.3192e-12, -4.1450e-12, -6.1917e-12, -4.9069e-12, -4.7231e-12,
         -5.9478e-12, -1.2519e-12,  4.3691e-13,  1.8658e-12,  1.2497e-12,
         -2.2222e-11, -6.8662e-11, -1.3163e-11, -5.4049e-12,  2.3655e-12,
         -3.8335e-12, -3.4056e-12,  5.8520e-12,  4.1416e-11,  2.0415e-11,
         -1.4763e-11,  1.3782e-11,  2.8887e-11,  1.5685e-12, -1.3734e-11,
          2.1628e-11,  6.8526e-12, -2.9848e-12, -7.3400e-12,  2.4024e-13,
          5.8307e-12, -1.6847e-12,  4.7694e-12, -1.0554e-12,  4.1136e-12,
         -7.9836e-12, -2.0703e-12,  6.5142e-12, -1.7330e-12,  1.2172e-12,
         -3.8808e-12, -3.7476e-12,  6.4984e-12,  1.4685e-11,  2.3634e-11,
          3.4870e-11,  5.7144e-12,  3.9020e-11,  2.2449e-11,  3.6862e-11,
         -1.7527e-12,  2.7565e-12, -9.8623e-13, -1.0986e-11, -4.9395e-12,
          5.1379e-12,  3.0986e-13, -5.6579e-12,  4.6808e-11,  2.6840e-11,
         -1.2661e-11,  9.4737e-12, -1.7481e-11,  4.9453e-12, -5.3621e-12,
          3.9488e-12, -5.7140e-12,  1.0493e-11, -8.7897e-13,  1.3174e-11,
          2.2261e-11, -3.4844e-12, -4.2517e-12,  3.1779e-11, -8.6535e-12,
          8.3116e-14, -1.9737e-12, -2.3435e-12, -1.9756e-11,  1.5477e-11,
          2.9942e-12, -6.2728e-12,  1.8292e-12,  4.4174e-12,  4.7073e-12,
         -1.3617e-12, -2.3864e-12, -3.7088e-12, -9.6425e-12, -6.0383e-12,
         -1.3321e-12, -6.4293e-12, -3.3878e-12,  6.1687e-12,  4.5029e-13,
          5.2851e-12,  9.7815e-12, -6.9851e-13, -1.7770e-11, -1.4347e-11,
         -1.8696e-11,  9.8371e-12, -1.0106e-11, -8.2405e-12, -1.1905e-11,
         -1.1327e-11,  1.7420e-11,  2.1534e-11,  1.1298e-11,  1.4882e-11,
          2.5579e-11,  1.2701e-11,  1.9606e-12, -5.9800e-12,  1.0637e-11,
         -1.1182e-11,  2.5493e-12,  7.2335e-11,  5.1484e-11,  8.0433e-12,
          1.7457e-11,  4.7509e-11,  1.6793e-11,  1.0436e-11,  3.3909e-12,
          7.9858e-12, -6.9058e-12, -3.6783e-13, -2.9589e-11, -4.6014e-11,
          1.1428e-11,  8.6450e-12,  4.2068e-11,  1.8643e-11,  2.1341e-11,
          1.1907e-11,  2.4884e-11,  8.0668e-12,  4.9970e-11,  5.6446e-12,
          2.7975e-12,  1.1986e-11,  2.7771e-11,  5.9895e-12,  1.8028e-11,
          1.2130e-11,  4.2078e-11,  2.5840e-11,  4.2519e-11,  5.2232e-11,
          2.4588e-11,  2.4458e-11,  2.0580e-11,  3.5375e-11, -1.8016e-12,
          3.2510e-12, -4.2980e-12, -9.1348e-12,  3.0604e-12,  4.0311e-13,
         -3.7626e-12,  5.5785e-13,  1.7936e-12, -6.4803e-13, -6.1336e-12,
         -8.4819e-12, -6.9173e-12,  1.0037e-12, -3.3893e-12,  2.6140e-12,
          1.2833e-11, -1.4761e-11, -1.9933e-11, -8.6230e-12,  3.6183e-12,
         -1.2668e-11, -2.1317e-11, -9.1030e-12,  4.6946e-11, -5.9637e-12,
         -1.3042e-11, -1.8802e-11,  1.1641e-11,  3.1346e-13,  1.4963e-11,
          2.6082e-11},
        {-5.1407e-14,  7.3804e-15, -8.3737e-14, -4.2585e-14, -5.2465e-14,
          1.6128e-14,  7.7720e-14,  7.4799e-14, -7.5319e-14, -6.0489e-14,
         -7.9293e-14, -5.3639e-14,  4.2642e-14,  2.8379e-14,  5.7377e-14,
         -2.7702e-15, -1.6466e-13,  3.5490e-15, -1.5573e-12,  5.0126e-13,
          1.6401e-13, -1.3958e-12,  8.8412e-13, -1.7672e-13,  1.8675e-13,
          3.2815e-14,  4.7808e-14, -3.4927e-13, -6.8634e-14,  8.1959e-13,
         -3.2001e-13,  9.0887e-14, -8.4504e-14, -2.4530e-13,  2.3901e-14,
         -8.2629e-14, -9.0470e-14,  8.0720e-13, -2.9533e-13,  4.7976e-14,
         -3.9352e-14, -9.4148e-13,  1.1241e-13,  3.4748e-13, -7.3935e-14,
         -8.4496e-13,  4.1955e-13,  7.5497e-14,  1.2276e-13,  1.2560e-12,
          1.8917e-12,  1.3635e-12,  3.2882e-13,  1.8364e-13,  1.9513e-13,
          8.2500e-13,  3.6633e-13, -6.4878e-13,  6.4193e-13, -9.5186e-14,
         -8.1825e-14,  9.5229e-14,  3.1965e-13,  3.9997e-13,  5.0970e-14,
          3.1167e-14, -4.1923e-14, -1.0612e-13,  2.8922e-14, -1.0998e-13,
         -6.6069e-14, -1.0908e-14, -1.3784e-15, -1.0069e-13, -1.2513e-13,
          6.1157e-14, -2.3650e-14, -4.8492e-14, -5.4484e-14, -4.2159e-15,
         -1.3991e-12, -8.0409e-13, -2.2224e-12, -8.0989e-14, -7.4638e-14,
          7.8409e-13, -3.0081e-12, -1.3745e-12, -1.4114e-13, -2.7601e-12,
         -4.3435e-12,  3.2419e-13,  3.1477e-14, -1.6700e-12, -5.2461e-13,
          2.0208e-13,  9.5511e-15,  1.3477e-14, -2.1199e-14,  6.2646e-15,
         -1.2727e-14,  1.1137e-13,  1.3900e-13, -7.3226e-14, -3.0664e-14,
          8.7478e-14,  6.3680e-14,  1.3050e-14, -4.1463e-14,  9.3613e-15,
         -3.9302e-14,  3.0916e-14,  2.9661e-13, -8.6189e-15, -2.7292e-14,
          4.5442e-13,  3.5920e-13,  9.6552e-13,  2.8005e-13, -1.4545e-13,
          3.5470e-14, -5.7095e-14, -1.9248e-13,  7.5266e-13, -2.2476e-13,
         -1.1650e-13, -1.6731e-13,  1.0990e-13,  1.6629e-14,  1.0882e-13,
          8.8626e-13,  1.1984e-12,  8.8803e-13, -5.4329e-14, -2.0643e-13,
         -3.5908e-13, -2.5591e-13,  8.1964e-13, -2.2877e-12, -9.7334e-14,
          8.3083e-15, -5.1163e-12, -2.9570e-13,  5.1910e-13,  1.3051e-13,
         -6.2364e-14, -3.3965e-14,  1.2181e-14,  1.6449e-13, -1.1739e-13,
         -2.1762e-13,  3.3368e-13,  3.1812e-14, -3.2060e-13, -2.3114e-13,
         -1.3227e-13,  6.7222e-15,  3.8127e-14, -5.3076e-14, -1.0461e-13,
         -1.1390e-13, -6.1025e-14, -3.3045e-13,  2.1774e-13, -2.1064e-13,
          1.0136e-13, -2.6694e-14,  3.7778e-13, -2.7103e-14, -4.5410e-13,
         -6.0943e-13, -4.0607e-13,  1.0767e-13, -2.8425e-14, -1.9908e-14,
         -7.5960e-14,  1.1862e-13, -2.0252e-13, -1.0633e-12, -3.7013e-14,
          3.8658e-13, -1.1733e-12, -9.4455e-13, -1.4343e-13, -3.9040e-13,
         -1.2062e-12, -2.0947e-13,  1.5267e-12,  6.6668e-13,  6.5289e-13,
          2.1724e-13,  4.4567e-13, -7.9350e-13,  7.9912e-13, -8.4374e-14,
         -3.5701e-13, -1.8102e-13, -9.8092e-13, -9.6936e-14, -1.1902e-13,
          5.6300e-13,  8.4820e-13, -9.8659e-13, -1.0862e-12,  9.7880e-14,
          9.1819e-14,  1.2964e-13, -3.2431e-13,  3.3566e-13, -1.1768e-12,
         -2.7904e-13, -8.6622e-14,  1.9082e-14, -5.4536e-13,  1.4110e-13,
          5.5764e-13,  1.7211e-13,  1.3096e-12,  1.1528e-12,  5.6012e-13,
          8.4223e-14,  5.7382e-14, -8.6440e-14, -1.6349e-13, -7.8925e-14,
          4.9962e-13,  1.1993e-13, -5.7961e-15,  2.6662e-14,  2.1899e-13,
          7.0857e-13,  4.1746e-14, -2.6804e-13, -7.5354e-14, -5.3360e-14,
         -8.4471e-14, -3.3555e-13,  6.9614e-14,  2.9690e-13,  5.1075e-14,
         -1.2632e-14, -1.5647e-12, -4.3254e-12, -1.2132e-12, -1.7885e-12,
          3.5872e-13, -1.4236e-12, -7.4124e-13,  1.6277e-13, -1.0147e-12,
          4.5809e-13,  7.4910e-13, -1.1856e-13, -1.0473e-12, -2.0209e-14,
         -5.4144e-13},
        {-2.3523e-03, -2.3647e-03, -1.8700e-03, -1.1388e-03, -1.2911e-03,
         -1.5512e-03, -1.7675e-03, -1.1986e-03, -9.8637e-04, -1.8942e-03,
         -2.0619e-03, -1.8054e-03, -1.3096e-03, -2.1336e-03, -2.3434e-03,
         -2.1672e-03, -1.2467e-02, -5.7914e-02, -5.0727e-02,  4.3829e-03,
          5.3341e-04, -5.4885e-02, -4.1457e-03, -2.5216e-02, -1.7857e-02,
         -3.9431e-02,  8.9114e-03,  5.2600e-03, -2.9937e-02, -7.7154e-02,
         -1.5256e-02,  7.9131e-02, -8.8480e-03, -4.6569e-02, -8.0585e-02,
          2.5279e-02,  2.1522e-02, -5.9493e-02, -3.9048e-02,  4.1665e-02,
         -1.1925e-02, -5.1942e-02,  3.2760e-03,  5.4683e-03, -4.3409e-02,
         -5.3503e-02,  7.1687e-03,  4.6406e-02,  2.7402e-03, -1.3249e-02,
         -4.9059e-02, -7.1822e-02,  3.7664e-02, -4.9339e-02, -6.5324e-02,
          3.7639e-02,  4.8308e-02,  4.7007e-02,  3.3769e-03, -2.8634e-02,
          2.0952e-02,  9.5758e-03, -4.6949e-02, -4.0588e-02, -2.1366e-03,
         -2.1211e-03, -1.6904e-03, -9.7964e-04, -1.1334e-03, -1.3832e-03,
         -1.5724e-03, -1.0593e-03, -9.3475e-04, -1.7103e-03, -1.8694e-03,
         -1.5392e-03, -1.1811e-03, -1.9293e-03, -2.0299e-03, -1.7035e-03,
         -9.5561e-04, -3.4672e-02,  1.3280e-02,  4.7026e-02, -2.7881e-02,
          2.4862e-02,  8.0024e-02, -1.2714e-03, -1.2736e-02,  8.8383e-03,
         -5.0878e-02, -5.3476e-02, -5.4229e-04, -1.6950e-03,  1.2223e-01,
          6.6262e-02, -2.2113e-03, -3.1926e-03, -2.2463e-03, -2.4728e-03,
          1.6831e-04, -3.7861e-04, -1.3272e-03, -2.5026e-03, -7.7513e-04,
         -1.8057e-03, -2.9615e-03, -2.0702e-03, -1.4316e-03, -1.9637e-03,
         -1.0544e-03,  2.4055e-04, -4.7896e-02, -4.9897e-02,  1.4979e-03,
         -1.3688e-02,  1.2025e-02,  3.3792e-03, -7.4845e-03,  3.4804e-02,
          8.4450e-02,  5.1295e-02,  4.9773e-02,  1.3795e-03,  4.0437e-02,
          8.1712e-02,  9.4806e-03, -3.6372e-02, -2.5490e-02, -3.8825e-02,
         -9.1576e-04, -4.4498e-03, -3.0258e-02,  3.7693e-02,  3.8336e-02,
         -6.1288e-02, -7.3671e-02,  1.1117e-01, -7.4681e-02, -6.6832e-02,
         -7.7750e-02, -6.9081e-02, -5.6115e-02,  4.9187e-02,  3.4191e-04,
          3.4998e-03,  6.1670e-03,  2.9894e-03, -5.5008e-03, -1.7601e-03,
         -2.5888e-03, -3.8012e-03,  1.0910e-03, -6.0570e-03, -1.6145e-03,
         -5.6214e-03,  1.9021e-02,  2.1028e-02,  5.8546e-03, -8.6575e-03,
          3.5330e-03, -1.4456e-02, -5.1651e-03,  1.5150e-02, -1.8915e-03,
          4.1033e-03,  2.5530e-02,  1.6971e-02, -8.7922e-04,  7.9122e-03,
         -4.8512e-03, -3.1631e-02, -4.8976e-03, -1.2048e-02, -2.5086e-03,
         -1.1497e-02,  2.4026e-02,  3.1779e-02,  2.5274e-02,  2.6335e-02,
          3.2665e-02,  1.2239e-02,  2.5994e-03,  4.2211e-02,  4.5999e-03,
          4.4827e-02,  7.0645e-02,  2.0519e-02,  1.8884e-02,  7.0985e-03,
         -1.9617e-02, -6.8669e-02,  6.2756e-03, -3.6401e-02, -2.0268e-02,
          4.4772e-02,  2.2341e-02,  1.9867e-02,  5.3208e-02,  6.1466e-02,
          4.9032e-02,  7.6771e-02, -5.4291e-03, -4.7398e-02,  1.1692e-02,
         -8.2256e-03, -3.4583e-02, -8.0806e-02,  3.7596e-02,  2.0105e-02,
          7.5415e-04,  4.3202e-02, -9.4049e-03,  1.2955e-02,  7.4842e-02,
          6.2960e-02, -2.3940e-02,  2.9594e-02, -4.3182e-03, -6.4490e-02,
          7.0627e-03, -3.0142e-02,  1.1639e-02, -3.4728e-03,  2.5780e-03,
          9.2009e-03, -5.6923e-03, -3.1049e-02,  1.5596e-02,  6.1935e-03,
         -3.0528e-02, -2.3422e-02,  8.6724e-05, -7.7761e-03, -1.4393e-02,
         -2.4653e-03, -1.1054e-02, -1.1035e-03, -4.0264e-04,  1.6549e-02,
         -2.9148e-03, -2.6167e-02, -5.9134e-02, -2.2081e-02,  3.2289e-03,
          3.7577e-02,  5.0593e-02,  3.0313e-02,  2.7580e-02,  5.0372e-02,
          1.1188e-01,  7.4072e-02,  1.0849e-01, -9.5623e-03, -5.0068e-02,
         -7.1781e-02},
        { 6.2699e-04,  8.0762e-04,  8.1431e-04,  1.5009e-03,  1.0887e-03,
          1.1370e-03,  1.4349e-03,  1.6108e-03,  1.6487e-03,  1.6912e-03,
          1.7434e-03,  1.6258e-03,  1.4722e-03,  8.6961e-04,  1.1301e-03,
          1.4052e-03,  5.5234e-02,  5.6363e-02, -6.0441e-02, -8.2964e-02,
          6.3184e-02,  5.2964e-02, -5.4086e-02, -7.4287e-02,  7.6325e-03,
          3.8269e-02,  2.5357e-03,  1.9569e-02, -4.2507e-02,  1.2885e-02,
         -3.8156e-03,  2.3562e-02,  1.4831e-02,  3.4678e-02, -1.6840e-02,
          1.0111e-02,  1.5736e-02, -1.3934e-02, -2.5602e-02, -4.0208e-02,
         -4.2252e-03, -6.9693e-03, -2.8759e-02,  3.7046e-02, -2.0192e-02,
         -3.1681e-02,  7.5784e-03,  3.5663e-02, -3.9355e-02,  1.3053e-02,
          8.1128e-02,  1.2377e-01, -4.5138e-02, -4.3798e-02,  1.9663e-02,
          2.0052e-02,  2.8935e-02, -2.4368e-02, -8.4857e-02, -1.1127e-02,
         -1.9315e-02, -6.5772e-03, -1.7636e-02, -1.3373e-02,  5.0379e-04,
          6.8882e-04,  6.4844e-04,  1.2948e-03,  8.6954e-04,  9.8143e-04,
          1.2329e-03,  1.3592e-03,  1.4264e-03,  1.5248e-03,  1.4604e-03,
          1.3542e-03,  1.2159e-03,  7.6251e-04,  9.5690e-04,  1.1252e-03,
          1.0809e-02,  9.0752e-02,  8.0983e-02,  3.4244e-02, -9.5154e-02,
         -5.1327e-02,  3.7916e-02,  5.1077e-03, -5.1103e-02,  4.2992e-02,
         -9.1128e-04, -2.3831e-02, -3.2326e-02, -1.7008e-02, -1.0032e-02,
         -1.4166e-02, -2.8790e-03, -1.0721e-03, -5.4058e-04, -8.5182e-04,
         -2.4729e-03, -1.2395e-03, -7.7058e-04, -1.1848e-03,  6.3409e-04,
          2.7267e-04, -1.1719e-04, -9.5193e-04, -2.6693e-04, -1.3734e-03,
         -1.1833e-03, -1.7527e-03, -2.3266e-02,  6.6533e-03,  8.2511e-02,
          1.1942e-01, -1.9214e-02,  4.1426e-02,  3.1665e-02,  5.4155e-02,
         -6.0822e-03, -1.8967e-02,  7.8457e-03,  4.5322e-03, -9.1869e-03,
         -8.0739e-03,  2.6592e-02,  1.1151e-03,  1.0681e-01,  9.5611e-02,
         -4.4676e-03, -1.1402e-01,  6.9589e-02,  3.1766e-02, -8.3314e-02,
         -1.6642e-01, -1.4575e-02,  4.2959e-02, -2.0580e-02, -7.7500e-02,
          1.2915e-02,  3.5841e-02, -1.5819e-02, -3.3787e-02, -1.4444e-02,
         -6.2451e-03,  1.7563e-02,  2.5787e-02,  1.6745e-03,  4.6179e-03,
          3.3959e-03,  4.4243e-03, -2.3446e-03, -2.4045e-03, -3.0296e-03,
         -1.0774e-02, -6.2730e-03, -5.3788e-04,  1.2467e-03, -1.8822e-03,
         -9.3359e-03,  5.8799e-03,  2.5980e-02,  3.0492e-02, -3.7099e-03,
         -6.6385e-03, -1.4090e-02,  2.4999e-03, -4.4043e-03, -7.6218e-03,
         -4.4756e-03, -1.4549e-02,  1.0355e-02,  1.7847e-02,  1.6893e-02,
         -7.2086e-03, -3.4816e-02, -5.7453e-02,  2.0840e-02,  7.5944e-02,
         -6.6009e-02, -4.0279e-02,  6.8202e-02,  1.3522e-01,  5.7071e-03,
         -5.6794e-04,  2.1757e-02,  3.9294e-02,  2.4945e-02, -8.8773e-04,
         -3.2686e-02, -5.1046e-02, -3.9926e-02,  7.3096e-03,  1.0573e-01,
          1.3476e-01, -1.9976e-02,  1.6819e-03,  3.2459e-02,  8.9635e-02,
         -7.7781e-03, -5.4609e-02, -5.5772e-02, -4.3719e-02,  5.7940e-02,
          4.6574e-02, -1.7914e-04, -5.1665e-02, -4.7444e-02,  1.3263e-02,
          9.3219e-02,  9.9871e-02, -7.3446e-02, -1.7487e-02,  3.9593e-02,
          5.8422e-02, -3.9441e-03, -3.2361e-03,  4.3745e-03, -3.7309e-02,
         -6.7382e-03,  3.0934e-03,  1.8966e-02, -2.6970e-02,  2.1123e-02,
         -5.4713e-03, -2.2942e-02, -4.1955e-02,  9.6044e-03,  7.0053e-03,
         -1.5518e-02, -2.1202e-02,  1.2415e-02,  4.2646e-03, -1.4830e-02,
         -7.6611e-04,  1.0026e-02, -8.5911e-03, -5.1984e-03,  1.9082e-02,
         -3.1733e-02, -4.2164e-03, -6.5198e-02, -5.5069e-02,  6.9167e-02,
          7.7307e-02,  8.4546e-02,  8.0289e-02,  2.2683e-02,  2.9084e-02,
          6.4637e-02,  4.8523e-02, -1.2990e-02,  8.8650e-02,  1.0189e-03,
         -3.5556e-02},
        {-5.0681e-04, -1.3646e-03, -1.5293e-03, -1.7783e-03, -1.0191e-03,
         -1.6488e-03, -1.7273e-03, -1.6663e-03, -1.7191e-03, -1.9494e-03,
         -1.9830e-03, -1.5097e-03, -2.2152e-03, -1.5716e-03, -1.3816e-03,
         -9.8465e-04, -5.7980e-02, -4.1082e-02,  5.5601e-02,  4.1949e-02,
         -9.9772e-02, -9.3841e-02,  4.4449e-02,  1.3936e-02, -4.9014e-02,
         -5.2070e-02,  1.8881e-02, -6.0634e-02,  2.2136e-02, -2.9732e-02,
          4.0707e-03, -5.1307e-02, -1.4744e-02, -4.7635e-02,  1.7399e-02,
          1.4185e-02, -4.0609e-02, -1.3988e-02,  1.3490e-02,  3.2550e-02,
         -1.1376e-02, -3.8953e-02, -1.2731e-02, -8.5555e-03,  1.1302e-02,
         -2.8564e-02, -4.6844e-02, -3.4099e-02,  6.3275e-02,  2.0913e-02,
          9.2122e-03, -4.2245e-02,  1.3203e-01,  6.0102e-02, -3.2341e-02,
          7.0219e-03,  8.4395e-03, -5.9986e-02, -3.3546e-02, -5.6343e-03,
         -6.7542e-02, -3.1279e-02, -5.3275e-02, -6.5127e-03, -4.6035e-04,
         -1.2463e-03, -1.3456e-03, -1.5915e-03, -9.0215e-04, -1.4438e-03,
         -1.5804e-03, -1.4618e-03, -1.5110e-03, -1.7625e-03, -1.7408e-03,
         -1.2303e-03, -1.9789e-03, -1.4343e-03, -1.2048e-03, -7.9811e-04,
         -3.4544e-03, -7.2596e-02, -5.0965e-02, -4.2653e-02,  5.3692e-02,
          4.5544e-02,  4.5661e-02,  3.5356e-02,  1.2807e-01,  1.4242e-01,
          4.8406e-02,  1.8651e-02,  3.3327e-02, -6.3506e-03,  1.3873e-02,
          2.5496e-02,  1.5863e-03, -4.3604e-04, -1.7065e-03, -6.2708e-04,
          2.6872e-04, -1.3713e-03, -1.7473e-03, -4.5509e-04, -1.3669e-03,
         -1.6041e-03, -1.4883e-03, -6.9383e-04, -1.0238e-03, -9.3151e-04,
         -7.2805e-04,  8.1123e-04,  4.2090e-02,  2.4919e-02, -2.0223e-03,
         -4.7295e-02,  5.0444e-02, -1.7502e-02,  3.9033e-02,  5.3871e-02,
         -1.0617e-03, -4.8172e-02, -6.8379e-04,  9.2993e-02, -2.0051e-03,
          2.6785e-02,  2.5435e-02,  4.2792e-02, -6.4400e-02, -3.7099e-02,
         -4.3024e-03,  4.6838e-02, -9.2885e-02, -1.0861e-02,  6.5723e-02,
          6.2662e-02, -6.2407e-02,  4.9480e-02,  2.3111e-02, -4.8179e-02,
          4.5138e-02,  4.7397e-02, -6.7135e-02, -9.7614e-02,  1.1902e-02,
          9.8027e-03, -3.4672e-03, -1.1132e-02,  8.7632e-03,  3.0976e-03,
          3.2217e-03,  2.3705e-03,  1.6638e-04, -4.8530e-03,  1.0754e-03,
          9.8833e-03,  3.2915e-03,  8.2540e-03,  1.0049e-02,  6.1182e-03,
          1.9438e-02,  2.0665e-02, -5.7816e-03, -5.9038e-03,  1.4857e-02,
         -4.1451e-03, -1.9608e-02,  3.0048e-03, -9.3427e-03, -6.6666e-03,
         -1.1512e-02,  6.1663e-03,  4.6332e-03,  7.1311e-03,  5.4347e-03,
          1.2801e-02,  7.0346e-02,  1.0437e-01,  4.2485e-02, -9.8714e-03,
          1.0165e-01,  7.5215e-02, -3.2254e-02, -5.7035e-02,  2.9949e-02,
          3.5969e-02, -1.6755e-02,  9.7802e-03, -4.1933e-02, -8.0980e-03,
          3.9999e-02,  6.2866e-02,  8.1342e-02,  8.1662e-02, -1.3638e-03,
         -3.2149e-02,  6.7583e-02, -3.4585e-02, -3.7901e-02, -1.9686e-02,
         -5.5552e-02, -1.7442e-05,  2.7770e-02,  7.7959e-02, -2.0024e-02,
         -2.1826e-02,  1.6929e-02,  6.2163e-02,  6.5905e-02,  5.0563e-02,
         -1.1118e-02, -4.0379e-02,  1.0231e-01,  4.5005e-02, -2.7509e-02,
         -9.3620e-03,  2.8393e-02,  2.6023e-02, -9.2447e-04,  2.9445e-02,
          5.7924e-03,  1.6333e-03,  1.9494e-02,  6.9456e-02, -2.7268e-02,
          2.3660e-03,  8.0970e-03,  2.0267e-02, -9.3117e-03,  1.1265e-02,
         -4.3994e-03, -1.6678e-02,  1.6737e-02,  4.9789e-03, -1.0005e-02,
         -2.9810e-02,  1.1112e-02, -1.0029e-02, -3.0061e-02, -2.0981e-02,
          2.5779e-02,  3.3792e-02,  6.9133e-02,  3.1066e-02, -4.0647e-02,
         -2.8642e-02, -2.1227e-02, -6.5317e-02, -9.4519e-02, -3.2202e-02,
          6.7793e-02,  4.7924e-02,  3.4797e-02, -4.2747e-03,  8.6488e-02,
          1.0683e-01},
        {-3.6246e-38, -1.8225e-38, -9.0280e-39,  8.9953e-39,  1.3011e-38,
          2.6230e-39, -9.6573e-39,  1.0236e-38, -1.0222e-38,  2.2160e-39,
          2.1484e-39, -7.9951e-39,  2.2869e-38, -3.1632e-38,  2.7674e-38,
          2.5424e-38, -3.3972e-27, -2.9360e-22, -3.3912e-14,  3.5835e-13,
         -2.7732e-14, -1.9947e-16, -3.8584e-13, -5.5976e-11, -4.3268e-17,
         -9.1207e-18, -1.0149e-10, -3.8493e-10, -5.3653e-28, -1.0514e-19,
         -2.9358e-10, -1.6240e-10,  3.3275e-21, -6.1796e-14,  5.2120e-14,
          1.4648e-19,  2.1865e-25,  5.3685e-13,  9.0639e-14, -1.7609e-19,
         -2.3881e-16,  1.0311e-12, -8.0083e-17, -1.4109e-15,  3.6303e-19,
          8.6021e-17,  9.7702e-17,  3.9463e-15,  1.1372e-13, -1.6846e-10,
          2.4570e-08,  2.1777e-08,  2.8536e-20, -6.8838e-10,  1.6888e-07,
          7.6003e-09,  9.0375e-12,  1.5042e-09,  1.2813e-08,  8.7141e-11,
         -6.3065e-11, -1.8904e-09,  5.0999e-10,  1.6326e-10, -5.5838e-39,
         -2.6930e-38,  1.5604e-38,  6.9297e-39,  3.6414e-38,  2.6202e-39,
         -9.3764e-39, -1.2284e-38,  2.6316e-38, -3.1020e-40, -2.5252e-39,
         -8.9271e-39, -3.6537e-38,  3.3910e-38, -4.4325e-38, -2.8523e-38,
          5.3883e-12,  5.9925e-09, -2.9717e-08, -1.7260e-08, -2.1618e-11,
         -7.1059e-08, -5.3217e-08, -2.7191e-09,  4.3628e-11, -6.4388e-09,
         -1.7500e-08, -5.4425e-11, -3.1508e-10, -2.7034e-08, -2.4915e-08,
          7.0675e-09,  1.7683e-39, -1.8135e-39, -6.3751e-40, -5.1027e-40,
          3.2836e-40,  6.1647e-40,  3.8102e-39,  5.8935e-39, -4.6112e-40,
         -5.9347e-40, -4.7734e-40, -4.5020e-41,  3.5973e-39,  1.0506e-39,
          1.7169e-39,  3.9261e-39, -1.6440e-26,  9.6852e-18, -5.4858e-13,
         -5.8311e-14, -5.2060e-14, -8.2913e-13, -7.5989e-19, -4.2241e-24,
          1.0052e-17, -8.1638e-12, -3.8443e-12, -2.7604e-18, -6.2794e-27,
          6.1394e-15, -7.1596e-16,  3.4760e-25, -3.3135e-14,  6.8874e-11,
          9.1155e-16,  7.1983e-17, -8.0340e-13, -1.3795e-08, -1.1773e-11,
         -1.6966e-13, -3.3944e-12, -2.2273e-08, -5.6402e-09, -8.3134e-14,
         -4.5303e-13, -7.6533e-09, -9.9708e-09, -8.5851e-12,  6.1003e-41,
         -8.5154e-38,  5.1482e-38, -1.4202e-38,  8.8072e-39, -4.6440e-39,
         -2.6366e-39,  6.0934e-39, -1.7093e-38,  3.2672e-40,  3.4505e-39,
         -1.8174e-38,  2.9593e-38,  2.8476e-37, -3.2993e-38, -1.9746e-38,
         -1.8444e-37,  1.7385e-36, -4.7409e-37,  1.0697e-38,  1.6170e-38,
         -2.6917e-36, -5.1511e-38, -3.3583e-39, -4.8454e-38,  2.0056e-37,
          6.4678e-37, -1.6159e-37, -1.0223e-30,  6.2088e-24,  1.4528e-24,
         -1.4022e-32, -2.7538e-13, -1.1019e-11,  6.4410e-12, -1.6933e-14,
         -2.9774e-12, -1.0718e-11, -3.6719e-13, -6.0152e-17, -4.7607e-15,
         -2.7043e-10, -9.6031e-10, -9.4994e-14, -2.7717e-09, -2.1912e-08,
         -3.1302e-10, -1.0401e-14, -1.3666e-20, -1.0580e-14,  3.2401e-13,
         -3.1239e-25,  2.6974e-13,  2.8797e-16,  5.9910e-16,  1.1304e-24,
          3.4238e-15,  4.0133e-10,  1.2937e-14,  1.1601e-18, -1.4383e-10,
         -4.1836e-09, -3.3925e-11, -1.4914e-20, -1.2652e-13, -2.1063e-13,
         -2.5175e-15, -9.5705e-16, -3.2220e-16, -1.4250e-13, -9.6362e-13,
         -1.7488e-16,  6.7090e-20,  1.0162e-14,  5.4668e-15,  2.5726e-17,
         -4.9834e-11, -3.4175e-09, -4.2196e-09, -5.9652e-11, -8.3219e-30,
          2.1550e-37, -5.1504e-40, -3.3057e-38,  2.8033e-28, -9.3070e-39,
         -3.1265e-38, -8.8687e-37, -7.2195e-34,  1.4880e-38, -1.7794e-37,
         -6.8221e-38,  1.2954e-35, -5.5955e-38,  2.3032e-38, -5.4607e-39,
         -5.3975e-12, -2.9908e-08, -1.4436e-07, -1.3861e-09, -2.1937e-12,
         -1.4459e-08, -3.2349e-07, -9.7565e-09, -4.2307e-08, -7.7390e-08,
         -7.7314e-10, -6.9846e-10,  1.0391e-10, -5.0871e-09, -2.1287e-08,
         -1.4960e-13},
        { 3.7412e-04,  4.2457e-04,  2.2450e-04, -4.6852e-05,  3.7884e-04,
          3.1053e-04,  4.9750e-04,  4.1011e-04,  2.3276e-04,  5.4393e-04,
          8.0082e-04,  6.4859e-04, -1.6469e-04,  4.0568e-04,  7.1610e-04,
          4.5976e-04, -4.9222e-03,  1.5589e-02, -1.9457e-02, -6.8062e-03,
          3.1155e-03,  2.0849e-03, -1.8400e-02, -2.7513e-02,  8.5917e-03,
          1.3927e-02, -3.2997e-03, -2.7789e-02,  1.1147e-02,  1.7212e-03,
          2.4585e-03,  9.2599e-03, -2.0142e-02, -8.0224e-03, -1.3493e-02,
         -2.8219e-03, -8.5488e-03,  9.2679e-03, -3.2777e-03, -1.3192e-03,
          1.5958e-02,  6.7329e-03, -9.2097e-03, -1.1912e-02,  2.5048e-03,
         -1.4056e-02, -2.6237e-02,  6.8017e-03, -1.9154e-02, -6.2283e-03,
         -2.2379e-03, -3.1059e-02,  1.1235e-02,  4.7613e-03,  6.9281e-03,
          2.6706e-02,  1.7087e-02, -2.5857e-02, -3.6302e-02,  1.5527e-04,
         -3.4718e-02, -1.1749e-02, -4.0911e-02, -2.7237e-02,  3.1158e-04,
          3.6070e-04,  1.5989e-04, -8.7615e-05,  2.9597e-04,  2.5848e-04,
          4.0057e-04,  2.8961e-04,  2.1017e-04,  4.8141e-04,  6.8809e-04,
          4.9648e-04, -1.6295e-04,  3.0919e-04,  5.2938e-04,  2.8630e-04,
          8.4954e-03, -1.2741e-02, -2.2345e-04,  3.6856e-02, -7.3561e-03,
          2.4613e-03,  1.7707e-04, -2.7874e-03,  3.7213e-02,  5.0606e-02,
         -1.4243e-02, -3.8776e-03, -8.3388e-03, -4.8745e-02, -7.0052e-03,
          1.7778e-02, -8.7048e-04, -9.9374e-04, -1.5633e-03, -1.2589e-03,
         -4.8019e-04, -3.2495e-04, -1.0296e-03, -1.3406e-03, -6.2445e-04,
         -7.8182e-04, -1.1140e-03, -1.5650e-03, -2.4254e-03, -2.6548e-03,
         -1.1866e-03, -3.3155e-04,  1.2226e-02,  1.1637e-02,  5.5164e-03,
         -2.3099e-02, -4.6336e-03, -7.5120e-03,  1.5015e-02,  3.2619e-02,
         -1.2076e-02, -4.4421e-02,  2.2795e-03,  3.4561e-02, -7.5183e-04,
          1.3451e-02,  1.6897e-02,  3.2793e-03,  1.0097e-02,  4.8475e-04,
         -1.0150e-02,  1.7862e-02, -3.5096e-03,  5.7654e-05,  1.0381e-04,
          1.1073e-02, -4.9913e-03,  4.7237e-02, -1.3078e-02, -2.1288e-02,
          2.5080e-02,  9.4666e-03, -2.9195e-02, -2.2351e-02,  2.1374e-03,
          3.3537e-03,  5.2333e-03,  4.6658e-03,  2.0941e-03, -2.2566e-03,
         -2.6780e-03, -2.0670e-03, -1.6172e-03, -2.8261e-03,  1.2493e-03,
          2.2265e-03, -4.0301e-04,  3.0931e-03,  2.5574e-03, -2.1843e-03,
         -9.8182e-05,  5.2432e-03,  6.9949e-03,  1.3427e-02,  7.0984e-03,
         -3.6113e-03, -4.9640e-03,  7.1471e-03, -3.6403e-03, -5.5472e-03,
         -1.0257e-02, -5.5315e-03, -5.9663e-03, -1.1530e-02, -5.7093e-03,
         -4.7483e-03,  1.5215e-02,  8.6572e-03,  1.5616e-02,  1.5783e-02,
          3.7406e-02,  4.2233e-02,  3.0064e-02,  5.5581e-02,  1.2653e-02,
         -8.7220e-03, -3.1116e-02, -8.7590e-04, -1.9821e-02, -1.9971e-02,
         -7.9054e-03, -4.3885e-04,  1.0113e-02,  1.8031e-02,  2.8030e-02,
          2.8826e-02,  1.8112e-02, -8.3385e-05,  2.9995e-02,  5.1522e-02,
         -2.2689e-02, -2.2638e-02, -1.8738e-02,  4.4268e-03, -2.8453e-02,
         -4.0541e-02, -2.8555e-02, -1.8786e-02,  1.1191e-02,  4.4250e-03,
          1.7937e-02,  3.3075e-02,  2.0985e-02,  1.4391e-02,  7.6862e-03,
          2.2334e-02, -1.7854e-03, -6.3582e-03, -1.3281e-02, -1.1298e-02,
         -2.2907e-02, -4.5531e-02, -1.6935e-02, -1.4098e-03, -6.3995e-03,
         -6.5211e-03,  3.9807e-03, -4.1132e-03, -3.9043e-03,  6.1700e-03,
         -3.3328e-03, -1.3650e-02,  6.2056e-03,  4.5557e-03, -4.7490e-03,
         -1.1107e-02,  5.0432e-03,  1.4626e-03, -6.5272e-03,  6.0964e-04,
          4.9262e-02,  5.1342e-02, -1.7465e-02,  5.2453e-03,  2.1737e-02,
          2.2279e-02, -1.0330e-02, -2.4608e-02, -2.8232e-02,  2.9982e-03,
          5.8344e-02,  3.8068e-02, -1.1950e-02, -3.1381e-03,  4.7131e-03,
         -2.4896e-04},
        {-1.5043e-09,  4.5743e-09, -3.1913e-09, -7.4797e-10,  1.5064e-09,
          2.4388e-09, -4.1172e-09, -7.5423e-10,  2.6004e-09, -7.0690e-09,
         -4.7023e-09, -7.2685e-10,  8.3218e-10,  4.9736e-09,  3.0295e-09,
          2.2979e-09, -2.6295e-08, -7.4624e-09,  3.3283e-08, -9.5519e-09,
          2.6121e-08, -4.6011e-08,  6.7616e-08, -1.8651e-08, -6.0726e-09,
          1.6550e-08,  1.0317e-08, -1.8695e-08,  2.3695e-08,  1.0440e-07,
         -1.7595e-08, -2.3635e-08,  8.0056e-09, -5.4448e-09, -4.7627e-08,
          4.4448e-08, -1.6866e-10, -1.6661e-08,  1.0482e-08,  3.2967e-08,
          1.4856e-08, -3.6103e-08,  2.9941e-08,  1.3584e-08, -7.1234e-09,
         -2.3962e-08, -2.0111e-08,  1.7131e-08,  3.8305e-08, -3.5434e-08,
          9.5923e-08,  3.5912e-08, -1.1170e-08,  5.4240e-11,  9.1485e-08,
          1.3775e-08,  2.2564e-08,  3.0257e-08,  8.0339e-08,  4.6824e-08,
         -1.5755e-09,  3.7377e-08,  4.2216e-08, -5.3218e-08,  1.5833e-09,
          2.9500e-09, -3.5995e-09, -1.8470e-10, -7.0492e-10, -3.6616e-10,
         -4.7056e-09, -9.9548e-11,  2.2331e-09, -6.8691e-09, -4.6898e-09,
          5.0886e-10,  1.2505e-09,  2.5752e-09,  3.1713e-09,  8.1751e-10,
          3.8311e-08, -6.7910e-08, -1.1355e-07, -4.0485e-08, -1.1514e-09,
         -6.3954e-08, -9.3302e-08,  2.0835e-09,  3.2382e-10, -1.0854e-07,
         -4.8621e-08, -2.8451e-09, -3.6593e-08, -3.8139e-08, -4.2943e-08,
          1.1973e-08, -1.5084e-08,  1.3144e-08, -1.1042e-08, -5.0851e-08,
         -1.0735e-08,  1.9921e-08,  8.6466e-09,  2.7923e-08, -2.5454e-08,
          2.3061e-08,  1.4924e-08,  1.5229e-08,  2.3755e-08, -3.3801e-08,
         -5.0316e-08, -5.5452e-09,  1.3349e-08,  1.7543e-08,  3.4235e-08,
          1.5237e-08, -1.4935e-08, -2.8927e-08,  2.1135e-08,  4.9549e-08,
         -6.1240e-09,  2.1437e-08,  2.5142e-08, -8.0384e-09, -9.6510e-09,
          8.3395e-09, -3.7373e-08, -2.1985e-08,  5.8243e-08, -8.2283e-09,
          5.9239e-10,  1.6005e-08,  2.2009e-08, -7.0782e-08, -3.5140e-08,
         -2.8370e-08, -2.0822e-09, -5.3518e-08, -3.2480e-08, -1.2662e-08,
         -3.0413e-08, -6.5402e-08, -2.7371e-08,  7.7005e-08, -1.3174e-09,
          1.6422e-08,  7.4049e-09,  1.5914e-09,  6.4256e-09, -8.1005e-09,
          8.2242e-09,  5.0601e-09,  2.2348e-09, -1.4065e-09,  3.6272e-09,
         -1.5867e-08,  1.2804e-08, -7.3506e-09, -3.3638e-09,  1.2591e-08,
          2.0945e-08,  2.3559e-08, -1.1055e-08, -7.7999e-09,  5.6468e-10,
         -1.6942e-09,  2.7896e-08,  6.8224e-09,  6.5123e-09, -2.6927e-09,
         -8.1670e-09,  5.1123e-09,  1.2557e-08,  2.9046e-08,  2.2559e-08,
         -1.8257e-08,  3.9696e-08, -6.9893e-09,  5.2980e-09,  1.6444e-08,
          7.2262e-08,  8.4016e-08,  4.5897e-08,  1.9335e-08,  3.7762e-08,
          1.0471e-08,  1.1999e-08,  1.3139e-08, -1.1920e-09, -1.3257e-08,
         -1.0129e-08,  6.5556e-08,  4.2228e-08,  9.6282e-10, -2.3462e-09,
          1.7636e-08,  2.8062e-08,  3.4903e-08,  6.0983e-09, -2.1604e-08,
         -2.1918e-08, -1.8674e-08,  3.6110e-09,  3.2887e-08, -1.3806e-08,
         -1.4805e-08,  3.7725e-08,  3.5985e-08,  6.5731e-08,  1.5405e-08,
          4.5859e-09,  6.6610e-08,  1.8499e-08,  5.2828e-08,  5.6494e-08,
         -1.1657e-08, -1.4313e-08, -8.9389e-09, -5.7443e-09,  3.9338e-08,
         -5.5760e-09, -1.2604e-08, -1.5128e-08,  3.5176e-08,  1.4393e-08,
         -7.4822e-08,  7.6054e-09,  1.2295e-08,  2.5893e-08, -6.4153e-08,
          6.2282e-08, -1.9016e-09, -2.2287e-08, -4.5413e-08,  4.2956e-08,
          1.2453e-08, -5.2601e-08, -7.2867e-09,  2.9576e-08, -4.1917e-09,
          7.1004e-08, -3.1181e-08, -5.6034e-08, -2.0667e-08,  6.1880e-09,
         -1.8076e-08, -7.3693e-08, -2.0949e-09, -8.5320e-09, -1.5121e-08,
         -8.0823e-08, -7.4372e-08,  2.9026e-09, -5.3952e-08, -6.9025e-09,
          2.5993e-08},
        {-3.2062e-11, -2.4172e-11,  4.1500e-11, -1.7987e-11, -6.3232e-11,
         -8.0249e-11, -3.9266e-11,  1.8137e-12, -4.2418e-12, -5.0684e-11,
         -7.0309e-11, -4.6711e-11, -1.1869e-11, -4.9886e-11, -6.1449e-11,
          7.3544e-11, -5.9641e-10, -2.6470e-10, -8.3506e-09, -1.8050e-08,
          1.6008e-09, -1.7390e-08, -6.1493e-09, -2.0425e-08,  4.3575e-10,
         -4.3284e-09,  4.0292e-09, -2.0459e-08, -7.8849e-10, -2.4341e-09,
         -7.2026e-09, -5.5735e-08,  2.2341e-10,  5.2465e-09, -3.1267e-09,
          4.9141e-10,  8.6534e-09, -5.2534e-09, -4.8239e-09,  1.0529e-11,
         -7.2813e-10,  3.6053e-09,  4.8480e-09,  2.5530e-09,  1.3762e-10,
          1.6689e-09,  7.2847e-10, -3.8459e-09,  1.6499e-08,  6.8557e-08,
         -6.6623e-09, -1.2212e-08,  5.0328e-09,  2.9757e-08, -2.7163e-08,
         -2.5240e-08,  7.7237e-09,  4.6348e-08,  8.5194e-08,  5.2541e-08,
         -8.6101e-09,  1.6838e-08,  8.7041e-08,  5.7444e-08,  6.8995e-12,
         -8.9839e-11, -8.1323e-11,  4.5693e-11, -2.8680e-11,  9.6036e-11,
          4.5447e-11, -4.3390e-12, -1.4563e-11,  6.6831e-12, -6.9961e-11,
         -2.2673e-11,  2.9189e-11,  9.3243e-11,  1.2429e-10,  6.6049e-11,
         -1.0043e-07, -1.7627e-07, -1.1107e-07, -1.5444e-09, -6.5310e-08,
         -4.3115e-08, -1.1834e-08, -1.9676e-08, -1.0854e-08, -8.6079e-08,
         -1.0189e-07, -6.4390e-08, -3.6117e-08, -5.2086e-08, -5.8135e-08,
         -8.2889e-08, -8.8713e-11, -9.4576e-12,  5.0402e-11, -6.9679e-11,
         -1.2421e-10, -6.1918e-11, -6.4731e-11,  2.6386e-12, -6.4337e-11,
          7.7041e-11, -8.1281e-11,  6.5046e-12,  3.7094e-11,  1.1397e-10,
          1.4943e-10,  1.3898e-10, -8.4326e-11,  1.0635e-09,  9.0358e-09,
          8.3454e-09,  6.5264e-11, -1.7648e-08, -3.0259e-08, -5.6428e-09,
          1.8631e-09, -2.7927e-09, -2.5167e-08, -1.2755e-09,  8.4420e-11,
          1.3907e-09,  1.1933e-09, -4.3369e-10, -1.4949e-08, -1.0476e-07,
         -7.2091e-09, -1.1852e-09, -1.2665e-07, -1.2048e-07,  9.6858e-09,
         -4.7007e-09, -8.3665e-08, -2.0302e-08,  3.3967e-08,  1.0594e-08,
         -4.0011e-08, -7.1847e-08,  9.4864e-09, -1.4211e-08,  7.3003e-11,
          5.7445e-11,  2.0496e-10, -8.0776e-11,  5.2748e-13,  2.6778e-11,
          8.5408e-11,  6.2746e-12,  1.7823e-10, -4.0771e-10,  1.2729e-10,
          7.0281e-11, -1.0520e-10, -6.6332e-12,  3.3761e-11, -1.7059e-13,
          1.1416e-10,  2.9946e-10, -2.1394e-11,  4.0550e-10, -8.2214e-12,
          6.9703e-11,  8.2793e-11, -3.4443e-11, -7.3999e-11, -1.1123e-10,
          7.8458e-11, -1.8688e-10, -2.5040e-10,  2.8981e-10,  4.7086e-10,
         -3.1251e-10, -5.0759e-09, -3.5049e-08, -1.0863e-07, -3.3026e-08,
         -9.7599e-09, -1.1432e-08, -9.1639e-09, -2.1572e-09, -1.2869e-08,
          1.7217e-08,  6.8681e-08,  2.3464e-08, -3.8851e-08, -7.8097e-08,
         -6.8784e-08, -1.4017e-08, -6.2418e-10, -4.3354e-09, -4.6682e-08,
         -2.8156e-09, -5.6963e-10,  1.8732e-09, -4.1712e-09, -6.9301e-10,
         -9.7536e-09, -6.5783e-09,  7.1075e-09, -1.5098e-09, -3.0547e-08,
         -3.5485e-08, -9.9995e-09, -7.7224e-11, -7.5684e-09, -4.9259e-08,
         -5.1312e-08, -6.3821e-09, -5.9820e-09, -9.6838e-09,  1.4939e-08,
          1.4383e-09, -3.9807e-09, -2.7669e-08, -3.2685e-08, -2.7150e-09,
         -2.8229e-08, -6.5270e-08, -5.4489e-08, -4.1137e-08,  4.8793e-10,
         -1.1468e-10, -1.6324e-12, -2.0918e-10,  3.6514e-11, -5.8152e-11,
          2.5344e-11, -1.1057e-10, -3.9509e-10, -7.1599e-12, -2.2549e-11,
         -2.2508e-10, -1.9995e-10,  1.4435e-11,  8.8472e-12,  1.0754e-10,
         -2.1579e-08, -2.8469e-08, -3.0687e-08, -9.5904e-08, -4.0651e-08,
         -5.4228e-08, -7.7169e-09,  2.4739e-08, -8.2886e-08, -1.4127e-07,
         -1.1297e-07, -1.2342e-07,  4.0679e-08, -1.2772e-07, -8.6201e-08,
         -3.6063e-08},
        {-1.2977e-04, -5.0000e-04, -6.0804e-04, -3.2982e-04,  5.5118e-05,
         -3.8053e-04, -5.5207e-04, -1.0704e-04, -1.0644e-04, -5.0087e-04,
         -2.2438e-04,  2.0095e-04, -1.6673e-04, -6.2411e-04, -3.5935e-04,
          9.3780e-05,  1.1340e-03, -4.2305e-03, -1.2694e-03, -7.4947e-03,
          3.6509e-03,  2.3935e-03,  1.6632e-02, -3.0084e-03,  5.7524e-03,
          1.6886e-02,  8.2095e-03,  1.0063e-02,  1.5137e-02,  1.0120e-02,
          5.7466e-03,  6.4348e-03,  3.9073e-03,  3.7790e-03, -1.0845e-02,
         -1.1752e-02,  6.9282e-03, -2.5197e-03,  7.7171e-03, -4.4971e-03,
          7.2586e-04,  1.1758e-02,  1.4093e-02,  6.7561e-03, -6.1180e-03,
          5.3461e-03,  8.4221e-03,  1.3002e-02,  1.2424e-03,  1.3791e-02,
         -1.1607e-02, -2.3410e-02, -7.7482e-03, -1.3794e-02, -9.2536e-03,
          4.6418e-04, -1.9099e-02, -1.9194e-02, -1.1587e-02,  1.6621e-04,
         -2.3768e-02, -6.6269e-03,  3.3636e-03,  1.1311e-02, -8.0723e-05,
         -4.2713e-04, -4.6265e-04, -2.1733e-04,  5.9945e-05, -3.1435e-04,
         -3.9875e-04, -3.1543e-05, -9.0433e-05, -3.9929e-04, -1.2014e-04,
          1.8297e-04, -1.6345e-04, -4.9792e-04, -2.3992e-04,  9.5287e-05,
         -1.6785e-02,  1.5800e-03,  2.1996e-02,  1.3345e-02,  1.7088e-04,
          1.9263e-02, -3.2109e-03, -1.0712e-02,  2.0298e-02,  3.0654e-03,
          1.7078e-03,  5.9815e-03,  1.0550e-03,  9.7745e-03,  1.2842e-02,
         -8.5659e-03,  1.0206e-03,  2.5649e-03,  2.7739e-03,  2.0359e-03,
          1.8507e-03,  2.7637e-03,  2.0224e-03,  1.4197e-03,  1.3372e-03,
          1.9688e-03,  1.9357e-03,  1.5293e-03,  1.5815e-03,  2.4632e-03,
          2.6774e-03,  1.0753e-03,  2.6073e-03, -6.1635e-03, -5.6571e-03,
         -5.8262e-03, -6.2623e-03, -1.7747e-02, -2.1610e-02, -1.8477e-02,
          2.6754e-03, -7.0823e-03, -1.3282e-02, -2.2070e-02, -7.9122e-03,
          6.9553e-03,  6.7386e-03, -6.0680e-03, -8.4382e-04,  2.5562e-03,
          1.2458e-02, -1.4595e-03, -8.0081e-03,  2.2766e-02,  2.0294e-02,
          1.7209e-02,  1.6414e-02,  3.5310e-02,  1.2539e-02,  3.1405e-02,
          2.3206e-02,  2.0673e-03,  8.6883e-03,  1.6258e-02, -1.1896e-03,
         -1.4405e-03,  2.5136e-04,  1.3866e-03,  1.0559e-03, -2.5766e-03,
         -6.0311e-03, -4.4821e-03, -1.3448e-03, -2.2358e-03, -3.5351e-03,
         -3.9713e-03,  1.8049e-03,  1.6245e-03, -9.6904e-04, -2.2490e-03,
         -2.4289e-03, -5.8214e-03,  3.1464e-04,  2.7229e-03, -4.4888e-03,
         -3.8290e-03, -1.2743e-03,  2.0602e-05, -5.0479e-03, -2.1012e-03,
          4.9594e-04,  2.3224e-03,  3.3790e-03,  4.1764e-03,  4.8417e-03,
          1.6593e-03, -5.0099e-03, -3.3599e-03, -3.0685e-03,  9.2408e-03,
         -1.4457e-02, -9.3351e-03,  7.8591e-03,  2.2343e-02, -1.3009e-02,
         -1.9462e-02, -1.4966e-02, -8.0118e-03, -1.2578e-02, -2.2875e-02,
         -2.1721e-02, -9.8452e-03, -4.8086e-03, -1.1008e-02,  1.4750e-03,
          6.8186e-03, -2.3001e-02, -2.1813e-02, -1.1010e-02, -5.1819e-04,
         -1.6858e-02, -1.8372e-02, -1.0970e-02, -4.2093e-03, -6.2055e-03,
         -1.4844e-02, -1.0978e-02, -4.3834e-03, -9.0010e-03, -1.6274e-02,
          8.9850e-03,  1.6951e-02, -1.4518e-02, -1.2840e-02, -2.6286e-04,
         -3.8526e-03, -7.8841e-03, -7.6330e-03, -9.4298e-03, -2.8089e-03,
         -2.2159e-03,  5.9710e-05,  4.9699e-03, -3.9333e-03,  2.4641e-03,
          5.8135e-03, -5.5257e-04, -1.6182e-03,  4.8116e-03,  3.9017e-03,
          3.0435e-03,  4.9172e-03,  2.6668e-03, -3.4029e-04,  5.2252e-03,
          3.2150e-03, -3.1277e-04, -1.9314e-03, -2.6069e-03,  2.9207e-03,
         -6.7173e-03,  3.7831e-03,  1.9000e-02,  3.1733e-02, -1.8349e-03,
         -1.7187e-02, -1.3423e-02,  2.4216e-04, -9.2474e-03, -2.6178e-02,
         -2.8547e-02, -2.2044e-02,  1.4494e-02,  6.8529e-03, -2.2384e-02,
         -3.2552e-02},
        { 3.5313e-08, -4.9119e-09, -5.4962e-08,  1.3948e-07,  4.3903e-08,
         -1.4123e-07, -1.2010e-07,  2.2630e-08,  1.2721e-07, -1.2540e-07,
         -2.6200e-08,  2.7941e-08, -9.6294e-08, -5.1695e-08,  4.5322e-08,
          4.9879e-08,  1.0486e-07, -1.6614e-07, -2.2328e-07,  1.9570e-07,
          2.8540e-07, -4.7080e-07, -1.2062e-07, -1.7815e-08, -2.2583e-07,
         -2.1106e-07,  1.0372e-07, -2.6431e-07, -4.0697e-07, -1.1992e-07,
          3.8619e-08, -3.2324e-07,  1.0794e-08,  3.7410e-07, -3.0603e-08,
          2.8259e-07,  3.9384e-07,  3.7134e-08, -2.1563e-09,  2.4208e-07,
          4.7768e-07,  9.4441e-08,  1.6881e-07, -1.3928e-07,  1.3685e-07,
          4.9115e-08,  1.1253e-07, -2.0102e-07,  1.1051e-07,  3.2966e-07,
          3.9080e-07,  4.8958e-08,  3.4150e-07,  4.3006e-07,  3.3503e-07,
          3.9493e-07,  6.8101e-07,  2.3059e-07,  1.7981e-07,  3.5823e-07,
          5.1368e-07,  4.1672e-07,  1.8643e-07,  6.1547e-08, -2.8387e-08,
         -1.9219e-08, -5.5458e-09, -9.9929e-08, -7.6766e-08,  8.3054e-08,
          7.6938e-08, -7.6069e-08, -7.3649e-08,  6.8581e-09,  4.3578e-08,
         -6.3693e-08,  4.3450e-08, -5.7362e-08, -5.7682e-08, -2.4250e-09,
         -1.8628e-07, -4.1675e-07, -3.2670e-07, -1.0946e-07, -4.6191e-07,
         -3.6966e-07, -3.1904e-07, -5.7153e-07, -7.4357e-07, -3.7747e-07,
         -2.5929e-07, -3.2721e-07, -3.0524e-07, -3.2045e-07, -3.2221e-07,
         -2.9014e-07,  1.9026e-08,  1.3597e-08, -1.0928e-08, -9.7835e-09,
         -1.4003e-08, -2.9680e-09, -9.1850e-09,  2.1901e-08, -8.6708e-10,
         -3.2216e-08,  1.4859e-08,  1.5197e-08, -2.2109e-08,  1.3003e-09,
          2.9039e-08, -3.7364e-08, -1.3007e-08, -2.9079e-07, -5.0464e-07,
         -4.3959e-07, -1.7661e-08, -1.7986e-07, -2.9416e-07, -2.0556e-07,
         -2.2284e-07, -4.5910e-07, -1.1915e-07,  7.8712e-09,  1.6966e-07,
          2.2596e-08,  2.4922e-07,  2.0681e-07,  1.5710e-07, -4.6992e-07,
         -3.8570e-08,  1.1744e-07, -4.5243e-07, -5.5017e-07,  2.3556e-07,
         -3.0168e-07, -4.9143e-07, -1.2549e-07, -1.7666e-07, -2.9922e-07,
         -6.5879e-07,  1.0472e-08, -1.9256e-07, -5.0420e-07,  3.3013e-09,
         -1.0468e-08,  1.3910e-09,  6.4684e-09,  3.3058e-09,  1.7685e-08,
         -1.8004e-08,  4.7458e-08,  3.8586e-10,  1.0964e-08,  1.1899e-08,
         -7.1343e-09,  3.6162e-08, -7.6090e-09, -1.8141e-08, -8.6918e-08,
          1.0191e-07,  1.6320e-08,  7.4201e-09, -5.9475e-08,  5.1926e-08,
         -2.0099e-08, -3.2723e-08, -4.2741e-08, -3.8113e-09, -7.4649e-08,
         -3.3111e-08, -2.6366e-08, -1.8359e-07, -2.5440e-07, -2.4117e-07,
         -1.6516e-07,  7.4543e-08, -3.5150e-08, -4.1548e-07, -7.6767e-07,
         -9.4916e-08,  8.0794e-09,  3.1899e-08,  1.1292e-07, -7.2850e-08,
         -4.6640e-07, -5.9460e-07, -3.8613e-07, -1.4452e-07,  3.8884e-09,
         -2.5642e-07, -3.6993e-07,  3.1402e-07,  5.3827e-08, -2.2175e-07,
         -1.6293e-07,  1.8410e-07,  2.0225e-07,  2.6683e-07,  2.5170e-07,
          2.8124e-08, -3.1129e-07, -2.6469e-07,  3.5795e-08, -4.2636e-07,
         -3.9234e-07, -5.4890e-07, -4.6996e-07,  1.4511e-07, -2.0491e-07,
         -4.2036e-07, -3.7278e-07,  6.2430e-08, -2.2726e-08, -2.6897e-07,
         -3.7250e-07, -2.1967e-07, -5.2962e-07, -5.3335e-07, -2.1264e-07,
         -4.9429e-07, -6.3695e-07, -6.0035e-07, -5.1949e-07, -2.2800e-07,
         -8.9957e-09, -2.0678e-08, -1.2089e-07, -2.7131e-07,  1.2728e-07,
         -4.4462e-08,  3.5157e-08, -3.4131e-08,  5.1514e-08, -4.5301e-08,
          1.1919e-07,  7.3728e-08,  4.0356e-08, -2.1309e-09,  1.8634e-08,
         -1.2148e-07, -6.0870e-08, -1.4100e-07, -2.4152e-07, -1.5952e-07,
         -4.1528e-07, -3.4489e-07, -3.1496e-07, -1.0372e-07, -1.3403e-07,
         -1.9869e-07, -2.6475e-07, -5.9614e-07, -3.1640e-07, -7.4917e-08,
         -2.3649e-07},
        {-1.5597e-03, -1.1191e-03, -9.2592e-04, -9.2627e-04, -1.2093e-03,
         -8.3204e-04, -7.8038e-04, -1.1722e-03, -8.0366e-04, -8.2390e-04,
         -8.7539e-04, -1.1161e-03, -1.0178e-03, -1.4294e-03, -1.3200e-03,
         -1.0077e-03, -1.4164e-02, -8.3592e-02, -9.0944e-02, -9.1978e-03,
          2.1423e-02, -2.0932e-02, -1.2027e-03,  2.6247e-02, -9.2379e-03,
         -5.1120e-03,  2.1177e-02,  6.4976e-02, -3.3188e-02, -2.4254e-02,
         -2.7911e-02,  5.8253e-02,  7.4377e-03, -4.7533e-02, -1.1131e-01,
          6.1396e-03,  1.0295e-02, -7.7028e-02, -1.9956e-02,  3.1908e-02,
         -4.0083e-02, -5.1510e-02,  2.7484e-02,  5.4054e-02, -4.7787e-02,
         -3.1312e-02,  4.5221e-02,  2.0071e-02,  1.9501e-02, -1.0404e-02,
         -5.0303e-02, -1.7447e-02, -1.3379e-02, -5.0272e-02, -4.4408e-02,
         -1.0118e-02, -2.5862e-02,  1.0260e-02, -1.5189e-02,  2.8432e-04,
          1.6923e-02,  1.3901e-02, -6.3611e-03, -1.2995e-03, -1.4161e-03,
         -9.8627e-04, -8.1597e-04, -7.7820e-04, -1.0337e-03, -6.7577e-04,
         -6.8608e-04, -9.7733e-04, -7.8426e-04, -7.4791e-04, -7.6315e-04,
         -9.0495e-04, -9.5217e-04, -1.2297e-03, -1.0643e-03, -7.5361e-04,
          6.4590e-02,  9.9827e-02,  2.3184e-02, -6.3908e-02, -3.5353e-02,
         -1.4662e-02,  8.2898e-02,  3.6607e-02, -7.3118e-02,  2.8906e-02,
          3.9598e-02, -2.2583e-02, -2.2317e-02,  2.9299e-02,  7.2820e-02,
          1.1265e-03, -2.0253e-03, -2.5188e-03, -1.3973e-03, -1.0285e-03,
         -8.6609e-04, -1.6923e-03, -1.3667e-03, -8.0815e-04, -1.3902e-04,
         -1.8665e-03, -2.4060e-03, -1.4279e-03, -5.1724e-05, -1.4359e-03,
         -1.3277e-03, -9.1976e-04, -4.4599e-02, -3.4287e-02,  3.7006e-02,
          5.5767e-02,  1.5343e-03,  6.0162e-02, -9.4037e-03, -1.7790e-02,
          3.1064e-02,  5.5222e-02,  4.1660e-02, -4.3573e-02,  1.2972e-02,
          7.7437e-02,  4.3251e-02, -1.5175e-02,  1.1104e-02, -4.0182e-02,
         -1.1878e-01, -1.3787e-01,  5.1535e-02,  3.9572e-02, -1.3322e-02,
         -8.1976e-02, -1.5355e-02,  3.8972e-02, -2.6557e-02,  1.0993e-03,
         -1.7109e-02, -5.4656e-02, -6.1233e-02,  4.9907e-02,  2.4837e-04,
          2.2203e-03,  5.3593e-03,  4.6639e-03, -8.1881e-03,  4.3983e-04,
         -4.5506e-03, -7.6138e-03,  2.2624e-03,  1.8887e-03, -5.0988e-03,
         -1.4892e-02,  1.0120e-02,  1.5558e-02,  2.8212e-03, -2.4923e-03,
          8.9957e-04, -5.9186e-03,  1.1787e-03, -4.4396e-03, -2.1054e-02,
          1.0824e-03,  1.9533e-02,  6.6619e-03, -5.5227e-03,  1.6760e-02,
          1.4168e-02, -2.0428e-02,  1.1877e-02,  1.5983e-02,  3.4808e-03,
         -1.4425e-02, -3.8641e-03,  6.7461e-02,  1.0490e-01,  4.4013e-02,
         -2.3922e-02,  8.5120e-03,  3.7804e-02,  1.6217e-02, -2.4518e-02,
          5.4624e-03,  5.3375e-02, -8.8449e-03,  6.0805e-02,  4.1784e-02,
         -1.7129e-02, -8.4183e-02, -1.8686e-02, -1.8568e-02,  1.7052e-02,
          3.7273e-03, -3.0962e-02,  2.6666e-02,  4.1502e-03, -3.7542e-03,
          2.9896e-02,  5.3644e-02, -2.3563e-03, -6.4357e-02,  7.3075e-02,
          5.5293e-02, -2.1349e-02, -7.0825e-02,  2.4541e-02,  9.7889e-02,
          8.1577e-02,  1.9333e-02, -5.9799e-02, -1.7856e-02,  5.8467e-02,
          3.4495e-02, -3.8321e-02,  5.7887e-02,  3.9681e-02, -5.0221e-02,
          3.0096e-02,  4.2643e-02,  2.9344e-02, -4.8784e-02,  2.7982e-02,
         -6.8288e-03, -2.8799e-02, -2.9299e-02,  2.5642e-02, -1.1228e-02,
         -1.8879e-02,  5.6492e-03,  8.7053e-03, -2.4573e-02, -8.4833e-04,
          2.2597e-02, -1.8597e-03, -1.9671e-02,  1.0443e-02,  2.4450e-02,
         -7.1282e-02, -2.7171e-02,  6.3091e-02,  8.6106e-02,  1.8456e-02,
          4.1222e-02,  7.2154e-02,  6.7745e-02,  8.5480e-02,  6.1476e-02,
          2.6387e-02,  2.3802e-03,  7.6138e-02,  6.2534e-02, -5.7958e-02,
         -5.3478e-02},
        {-3.0430e-07, -4.3028e-08,  9.2233e-08, -2.1788e-07, -3.7956e-07,
          1.0831e-07,  2.9477e-08, -1.3251e-08, -1.4284e-07,  9.7615e-08,
          1.4432e-08, -2.5935e-08, -1.5662e-07,  9.7473e-08,  9.9472e-08,
         -9.4047e-08,  5.6605e-07,  4.4228e-06,  2.7894e-06, -2.2106e-05,
          8.3451e-06,  1.6080e-05, -1.1259e-05, -9.3615e-05,  1.6900e-05,
          3.6734e-05, -8.0391e-05, -1.2049e-04,  8.1773e-06,  3.5714e-05,
         -1.1192e-04, -1.3579e-04, -3.5802e-06,  2.8677e-05,  1.0025e-05,
         -1.4951e-06, -2.2097e-06,  4.8339e-05,  2.1357e-05, -2.6133e-06,
          2.8410e-06,  1.0490e-04,  1.7101e-05, -8.6521e-06,  2.9798e-05,
          2.6723e-05, -7.5032e-06, -1.9367e-05,  8.4715e-06,  2.4933e-04,
          3.2177e-04,  1.0148e-04, -2.4587e-05, -4.0109e-06,  1.8985e-04,
          1.6287e-04,  1.8160e-05,  3.2057e-04,  5.6394e-04,  3.3387e-04,
          3.5528e-05, -5.5280e-05,  9.4166e-05,  3.9107e-05, -2.1000e-07,
         -1.3854e-08,  1.5056e-08, -1.8132e-07, -3.3624e-07,  6.7999e-08,
          1.6804e-08, -2.1279e-12, -2.2616e-07,  4.7595e-08, -6.8011e-09,
         -2.8626e-08, -1.4664e-07,  7.4513e-08,  5.7440e-08, -4.7305e-08,
         -1.1787e-05, -7.5869e-06, -1.1642e-04, -3.3252e-04,  3.0134e-05,
         -6.5255e-05, -4.3800e-04, -1.6312e-04, -2.7168e-04,  5.2122e-05,
          1.3290e-04, -1.1236e-04, -1.5415e-04,  1.6545e-04,  5.3242e-05,
          3.2292e-05,  1.2456e-06, -9.7741e-07, -3.8865e-07,  6.3664e-07,
         -8.4627e-07,  3.3012e-07,  3.5408e-08,  5.1609e-08,  2.4875e-08,
          1.6212e-09,  9.0099e-08,  3.8513e-07, -5.9039e-07,  3.6687e-07,
         -8.6077e-08,  7.0454e-07, -4.6489e-07, -1.0639e-06, -7.8048e-06,
         -9.4924e-06, -1.8168e-05, -3.9943e-05, -2.3285e-05, -3.3311e-05,
         -3.9768e-05, -3.6905e-05, -7.5420e-07,  1.4583e-06, -1.4880e-06,
          6.2422e-06,  2.7912e-05,  6.3601e-06,  3.5546e-06, -3.5061e-05,
          2.7377e-05, -9.4706e-06,  3.1510e-05, -5.9982e-05, -5.9651e-05,
          6.0800e-05,  4.7423e-05, -1.7497e-04, -1.3050e-04, -9.3923e-06,
          1.6077e-05, -1.9566e-04, -2.3592e-04, -7.6747e-07,  8.7344e-08,
         -6.2872e-08, -3.3881e-07, -2.6088e-08, -5.5584e-08, -1.4413e-07,
         -4.0022e-08, -1.6413e-08,  1.4582e-08, -4.7912e-08, -5.9087e-08,
         -2.7202e-08,  2.9643e-07,  9.4710e-07,  8.3661e-07,  3.9955e-08,
          1.2890e-07,  1.2423e-06,  1.2178e-06,  5.1095e-07,  5.0660e-07,
          7.2513e-07,  6.5587e-07,  1.8006e-07,  4.2065e-08, -3.8234e-07,
         -3.8883e-07, -6.1029e-07,  5.7926e-07, -1.0226e-06, -1.6063e-06,
          1.0861e-06, -5.9423e-05,  1.0967e-04,  2.0224e-04, -3.5005e-05,
         -1.2270e-04, -2.1672e-04, -1.0870e-04, -6.7932e-06,  1.6733e-06,
         -5.9889e-05, -9.9165e-05, -3.1945e-05, -1.0019e-04, -2.1249e-04,
         -2.8683e-04, -2.2945e-04, -8.5869e-05, -4.1813e-05, -2.5062e-06,
          4.4374e-06, -2.2059e-06,  7.3533e-07,  8.6963e-06,  5.4191e-06,
          6.9301e-07, -2.9646e-05, -9.8499e-06, -8.1296e-06, -7.8766e-05,
         -1.3760e-04, -1.4836e-04, -5.9160e-05, -1.0721e-04, -2.7636e-05,
         -1.4070e-05, -1.3268e-05,  7.2494e-07,  4.6382e-06, -1.3025e-05,
         -1.6217e-05, -1.1722e-05, -1.2093e-04, -8.3352e-05, -3.7281e-05,
         -1.0382e-04, -1.6904e-04, -2.4195e-04, -1.0872e-04,  1.3515e-06,
         -1.0075e-06,  2.8987e-07,  3.4625e-07,  3.8936e-07, -2.9808e-07,
          6.2245e-07,  1.4546e-06, -2.3120e-07, -2.2509e-07,  9.3706e-07,
          1.5287e-06,  5.5037e-07, -1.1487e-07,  2.8299e-07,  4.8442e-08,
         -2.1978e-04, -4.5460e-04, -2.3860e-04,  1.2977e-04, -1.0758e-05,
         -1.2244e-04, -2.9731e-04, -1.6023e-04, -1.1917e-04, -2.6231e-04,
         -6.6902e-04, -5.8000e-04,  9.2278e-05,  2.8330e-04, -1.7541e-05,
         -1.4481e-04},
        { 1.0144e-03,  1.2120e-03,  1.6469e-03,  2.6408e-03,  1.5493e-03,
          1.5926e-03,  1.6262e-03,  2.1057e-03,  2.0224e-03,  2.0757e-03,
          1.8653e-03,  1.4124e-03,  2.6619e-03,  2.4404e-03,  1.8018e-03,
          8.6607e-04,  5.1816e-02,  1.0423e-01,  1.1812e-01,  4.6373e-02,
          4.2011e-02,  2.0596e-02, -1.6197e-02, -1.8127e-03,  3.8157e-02,
         -1.9801e-02, -1.2804e-02, -2.4922e-02,  1.2442e-02,  2.3430e-02,
          1.9770e-02, -2.0100e-02,  1.3772e-02,  8.6223e-02,  1.1047e-01,
          2.5587e-02,  3.0520e-02,  4.1876e-02, -2.9114e-03, -4.3083e-02,
          4.9615e-02,  3.8886e-06, -5.3615e-02, -2.5905e-02,  2.7731e-02,
          6.4877e-04,  2.6604e-03,  7.3810e-03, -2.1929e-02, -4.8680e-03,
          3.5454e-02,  5.3917e-02, -3.0189e-02, -5.8129e-03, -2.4618e-02,
         -5.5201e-02, -8.9964e-03, -2.6838e-02, -4.7891e-02, -4.9142e-02,
          1.9972e-02, -6.1284e-04,  1.9687e-02,  3.0631e-02,  9.3849e-04,
          1.1063e-03,  1.4437e-03,  2.3143e-03,  1.3829e-03,  1.3419e-03,
          1.4346e-03,  1.8286e-03,  1.9074e-03,  1.8723e-03,  1.6075e-03,
          1.1548e-03,  2.4032e-03,  2.1477e-03,  1.4691e-03,  6.9198e-04,
         -1.7681e-02, -7.0265e-02,  6.2012e-03,  8.8846e-02,  3.3795e-02,
          1.4034e-02,  1.3639e-02,  1.4645e-02,  2.3752e-02, -9.8757e-03,
          1.2714e-02,  4.4923e-02, -2.2435e-02,  3.5808e-02,  1.3452e-02,
         -9.7683e-03,  1.4242e-03,  2.0741e-03,  1.5519e-03,  9.1999e-04,
         -4.3451e-04,  1.0397e-03,  1.1897e-03, -6.2686e-04,  7.1970e-05,
          2.5435e-03,  2.0931e-03,  4.1182e-04,  3.2671e-04,  2.0459e-03,
          8.3293e-04,  5.4122e-04,  1.2646e-02,  2.1510e-02, -7.9684e-04,
          4.0991e-02,  1.0477e-02, -2.1357e-02,  4.9451e-02,  2.4797e-02,
         -3.6382e-02, -1.6643e-02, -2.3778e-02,  1.8158e-02,  1.0412e-03,
         -5.1202e-02, -3.3037e-02, -1.4856e-02,  5.6611e-02,  8.0942e-02,
          1.7024e-01,  1.1270e-01, -1.1063e-02, -1.4028e-02,  1.9152e-02,
         -6.7089e-03,  2.8153e-02, -1.2358e-02,  3.2349e-02, -2.9536e-02,
          2.0217e-02,  7.7560e-02,  5.5588e-02, -2.3022e-02, -8.8269e-03,
         -1.0643e-02, -1.4304e-03,  6.3730e-03,  6.3425e-03,  8.9076e-03,
          1.4504e-02,  1.3687e-02, -3.7333e-03, -8.6077e-05,  3.7456e-03,
          7.5823e-03, -8.0921e-03, -9.7508e-03, -5.5858e-03, -3.3100e-03,
         -4.7496e-03, -5.1533e-03, -7.9360e-03, -3.5306e-03,  7.6931e-03,
         -2.8903e-03, -1.6299e-02, -5.5670e-03,  1.0676e-02, -1.3820e-02,
         -3.9790e-03,  1.5394e-02,  4.5797e-03,  2.3558e-02,  2.6590e-02,
          2.0797e-02, -1.1550e-02, -8.0578e-02, -1.3638e-01, -9.9385e-02,
         -5.1032e-02, -9.9207e-02, -1.0001e-01, -5.4552e-02,  3.4698e-02,
          5.9008e-02,  5.6007e-02,  5.7357e-02,  3.3288e-03,  2.4461e-02,
          6.6982e-02,  9.0697e-02, -1.9038e-02, -2.9562e-02, -5.7814e-02,
         -4.6434e-02, -9.1605e-03, -2.6489e-02, -3.6818e-03,  4.7721e-03,
         -3.7031e-03, -1.9853e-02,  2.8532e-02,  5.1388e-02,  2.4617e-02,
          6.2415e-02,  9.0185e-02,  7.4846e-02, -4.0981e-02, -1.1674e-01,
         -1.1432e-01, -3.1232e-02,  1.0360e-02, -9.3088e-03, -1.1154e-02,
          1.0279e-02,  3.9632e-02, -2.3113e-02,  8.2518e-03,  5.3752e-02,
         -1.1139e-02,  3.0547e-02,  5.3518e-02,  5.9510e-02, -1.1616e-02,
          2.1667e-02,  2.6449e-02,  1.2978e-02, -1.3236e-02,  1.9602e-02,
          7.7172e-03, -1.4736e-02,  6.7215e-05,  2.0101e-02, -5.6806e-03,
         -9.2351e-03,  7.3768e-03, -1.9224e-03, -1.2601e-02, -6.1107e-03,
         -3.2391e-03, -4.6866e-02, -6.9089e-02, -9.1093e-02,  8.2662e-03,
          3.4849e-02, -6.5666e-03,  4.1489e-02, -4.3721e-03,  6.7991e-03,
          5.1318e-02,  2.7313e-02, -6.0078e-03,  2.3966e-02,  4.5865e-02,
          3.9943e-02},
        { 7.6759e-04,  8.6136e-04,  1.4803e-04,  1.5610e-04,  7.1921e-04,
          4.5797e-04, -6.4491e-05,  4.3828e-04,  6.3112e-04,  5.0242e-04,
          7.7083e-04,  1.3526e-03,  7.1281e-04,  3.2386e-04,  8.7272e-04,
          1.0084e-03,  9.5121e-03,  7.0208e-03, -1.0468e-02, -1.3385e-02,
          1.1002e-02,  2.6449e-02, -4.2980e-04, -9.2732e-03,  1.0645e-02,
          2.5492e-02, -7.1873e-03, -1.4552e-03,  4.9522e-03,  9.1578e-03,
         -8.1251e-03,  1.8429e-03, -4.9496e-03,  8.1499e-03, -1.2980e-02,
         -2.0350e-02,  8.4270e-03,  8.9864e-03,  1.7234e-03, -8.3669e-03,
          8.9486e-03,  2.2003e-02,  7.3529e-03, -1.0945e-02,  3.3351e-04,
         -3.3888e-03, -7.4917e-04,  7.4378e-03, -1.7087e-02, -1.0202e-03,
         -1.5243e-02, -2.0921e-02, -2.3039e-02, -1.5507e-02,  1.9891e-03,
          6.5916e-04, -9.7187e-03, -6.9888e-03, -6.4525e-03, -9.9136e-04,
         -1.1272e-02, -8.0715e-03,  4.5833e-03,  1.2848e-02,  6.9538e-04,
          7.5236e-04,  1.8594e-04,  2.2802e-04,  6.6563e-04,  3.7996e-04,
         -2.5086e-05,  4.5078e-04,  6.0306e-04,  4.8940e-04,  7.5082e-04,
          1.1640e-03,  6.3556e-04,  3.0883e-04,  7.8944e-04,  8.2546e-04,
         -6.1347e-03,  1.2443e-02,  1.1651e-02,  1.1881e-02,  2.0852e-02,
          2.1081e-02, -2.3386e-02, -3.0143e-02,  9.4380e-03, -2.9153e-02,
         -6.4751e-03,  1.7432e-02, -9.3533e-03, -4.6677e-03,  3.5100e-02,
          1.4091e-02,  6.5079e-04,  2.7649e-03,  2.9566e-03,  2.7757e-03,
          1.9763e-03,  2.7116e-03,  1.9913e-03,  1.6182e-03,  1.5669e-03,
          2.0805e-03,  2.6094e-03,  1.6767e-03,  1.8380e-03,  2.2883e-03,
          1.9549e-03,  8.1763e-05,  8.3479e-03,  4.2570e-03,  4.8254e-03,
          3.9045e-03, -2.2786e-02, -3.5207e-02, -2.2529e-02, -1.7347e-02,
         -4.1810e-03, -9.2749e-03, -3.5744e-03, -6.0128e-03, -6.2044e-03,
          5.3184e-03,  1.2428e-02, -2.1366e-03,  1.8385e-04, -3.5178e-03,
         -7.3335e-03, -3.7030e-03,  8.2393e-03,  1.9180e-02, -2.2237e-03,
          1.5716e-02,  4.6036e-02,  2.2903e-02, -9.9223e-03,  4.1677e-02,
          2.1256e-02, -7.5689e-03,  8.1919e-03,  1.7946e-02,  2.2025e-03,
          2.9556e-03,  4.1711e-03,  4.2899e-03,  9.1866e-04, -4.4943e-03,
         -8.3576e-03, -4.9557e-03, -3.5434e-03, -2.0127e-03, -1.2540e-03,
         -2.0212e-05, -6.2900e-04,  5.2565e-04, -1.7545e-03, -1.7407e-03,
         -3.4231e-03, -5.7557e-03,  1.3351e-03,  2.1855e-03,  9.6267e-04,
         -2.7619e-03, -3.0442e-03, -3.6619e-03, -1.0278e-03, -6.4125e-03,
         -4.2291e-03,  4.3005e-03,  1.3751e-03,  3.4640e-03,  5.7242e-03,
          5.3031e-03, -1.0790e-02, -1.8805e-02, -2.4395e-02, -7.9030e-03,
          1.3647e-04,  1.2619e-02,  2.9220e-02,  3.5149e-02, -1.2046e-03,
         -1.8075e-02, -2.8686e-02, -1.2635e-02, -1.8618e-02, -2.5327e-02,
         -1.8364e-02,  2.9679e-03, -8.8912e-03, -1.5006e-02, -3.4342e-03,
         -2.2426e-03, -1.5595e-02, -1.7558e-02,  9.1414e-04,  9.1089e-03,
         -8.9764e-03, -3.0279e-02, -1.7499e-02, -2.6061e-04, -1.1168e-02,
         -1.2897e-02, -8.1952e-03,  7.7174e-03, -5.3578e-03, -2.3520e-02,
          5.7762e-03,  1.0381e-02,  3.4658e-03,  2.4568e-03,  5.1201e-03,
         -1.0029e-02, -2.0901e-03, -2.8057e-02, -2.9490e-02, -2.1597e-03,
         -1.0256e-02, -2.0145e-03,  1.2981e-02,  1.4253e-02,  5.8931e-04,
          2.6200e-03,  6.7432e-04,  1.2272e-03,  1.4467e-03, -2.0352e-03,
          9.3785e-03,  9.0764e-03,  1.5701e-03, -3.6963e-03,  7.0341e-03,
          8.1579e-03,  1.6329e-03, -4.3660e-03, -1.1434e-03, -6.2370e-04,
          2.0601e-02,  3.0196e-02,  3.3595e-02,  4.5252e-02, -1.2883e-03,
         -1.9240e-02, -9.6785e-03,  1.2422e-02, -2.1881e-02, -1.7610e-02,
         -3.0577e-02, -2.3531e-02, -1.4717e-03,  1.7368e-02, -5.8495e-03,
         -3.0318e-02},
        {-6.2147e-04, -1.0239e-04, -4.6801e-07, -2.8546e-04, -3.9544e-04,
          1.4653e-05,  2.5831e-04,  6.9516e-05,  7.5563e-05,  6.4349e-05,
          3.3539e-04,  1.5404e-04, -5.8972e-05, -3.4747e-04, -1.1383e-04,
         -3.1159e-05,  6.4644e-03,  8.9265e-03, -6.1653e-02, -4.9587e-02,
          2.8187e-02,  2.9240e-02, -9.9776e-03, -2.3381e-02, -1.6123e-02,
          2.3504e-02,  3.4214e-02,  1.8099e-02, -4.3466e-02,  7.5471e-03,
          3.5219e-02,  2.9318e-02, -1.2248e-02, -1.1342e-02, -4.6296e-02,
         -1.6299e-03, -8.6543e-03, -2.2769e-02, -8.4922e-03,  5.0446e-03,
         -1.5246e-02, -1.0066e-02,  2.8293e-02,  2.1913e-02, -2.9336e-02,
          3.5479e-03,  3.5774e-02,  2.0884e-02, -1.6640e-02,  7.8526e-03,
          8.7842e-03,  1.3756e-02, -1.5785e-02, -2.9212e-02,  2.1312e-02,
          5.1945e-02,  6.5804e-02,  2.3598e-02, -2.3724e-02,  2.3807e-02,
          2.7449e-02,  1.5116e-02, -1.6085e-03, -1.6359e-02, -6.1878e-04,
         -1.6644e-04, -6.7996e-05, -3.2417e-04, -4.1362e-04,  9.1624e-06,
          1.9929e-04, -2.9543e-05, -5.0091e-05,  6.6517e-05,  2.5126e-04,
          1.9068e-05, -1.6016e-04, -3.6490e-04, -1.8567e-04, -1.5822e-04,
          7.3506e-03,  3.8490e-02,  2.0770e-02,  4.4927e-02, -7.3815e-02,
         -2.9767e-02,  1.7887e-02, -1.4294e-02, -4.4261e-02,  1.0963e-02,
         -1.8697e-02, -5.4446e-02,  2.2678e-02,  1.6195e-02, -9.2680e-03,
         -2.8821e-02, -4.4646e-03, -4.1776e-03, -2.8500e-03, -2.0743e-03,
         -1.6364e-03, -1.6802e-03, -1.8859e-03, -1.8102e-03, -4.9250e-04,
         -2.1875e-03, -2.9685e-03, -2.7529e-03, -1.8857e-03, -3.9251e-03,
         -3.3215e-03, -2.9690e-03, -1.7521e-02,  6.8242e-03,  3.3602e-02,
          2.4608e-02, -1.2143e-02,  3.6790e-02,  7.2141e-03,  2.3669e-02,
          3.4396e-02,  1.3597e-02,  9.1476e-03, -1.3486e-02,  1.2456e-02,
          2.4810e-02, -1.9016e-03, -2.3993e-02,  4.9227e-02,  1.4418e-02,
         -6.8566e-02, -9.6166e-02,  5.0618e-02,  1.7447e-02, -4.4673e-02,
         -9.1851e-02, -2.9680e-02,  4.2917e-02, -7.7482e-03, -6.0433e-02,
         -1.8540e-02,  1.2773e-02,  1.2967e-02, -4.7510e-03, -5.1053e-03,
          1.3029e-03,  1.0945e-02,  1.1438e-02, -2.1586e-03,  2.1542e-03,
         -1.0529e-03, -1.7442e-03,  3.8946e-03,  4.2885e-03,  2.3399e-03,
         -2.6595e-03,  5.0533e-03,  1.8061e-03, -2.2842e-03, -2.8761e-03,
         -3.9984e-03, -1.6621e-03,  1.2757e-02,  1.9684e-02,  3.7932e-03,
          7.8716e-03,  1.2653e-02,  8.7352e-03,  4.0762e-03,  1.4273e-02,
          5.7888e-03, -1.4233e-02, -6.4380e-03, -1.2994e-02, -1.1210e-02,
         -1.5061e-02,  6.2830e-03,  1.5464e-02,  5.5513e-02,  3.7615e-02,
         -1.4938e-02,  2.9379e-03,  6.9500e-02,  1.0396e-01,  2.8322e-02,
          2.0151e-02,  1.5348e-02,  5.1872e-05,  3.3630e-02,  1.7661e-02,
         -1.7485e-02, -3.9073e-02, -1.1426e-02,  9.2498e-03,  6.8799e-02,
          7.2941e-02,  1.1948e-02,  3.8242e-02,  4.2757e-02,  6.7981e-02,
          5.7558e-02,  3.3252e-02, -1.4652e-02, -3.8533e-02,  3.3373e-03,
         -2.1701e-02, -3.7655e-02, -5.1412e-02, -2.9211e-03,  4.0052e-02,
          6.6034e-02,  7.2212e-02, -4.3674e-02,  5.0395e-03,  4.4310e-02,
          4.3168e-02,  3.9001e-03,  3.1631e-02,  1.7552e-02, -3.4239e-02,
          5.5576e-03, -1.7303e-02, -1.7500e-02, -4.8880e-02,  1.8191e-02,
         -1.3905e-02, -1.6345e-02, -1.9151e-02,  1.5745e-02, -3.2936e-03,
         -1.4275e-02, -2.3420e-03,  3.9444e-03, -1.8322e-03, -7.7601e-03,
          1.2839e-02,  4.4832e-03,  5.3006e-03,  1.5024e-02,  2.0778e-02,
          3.1328e-03,  2.3323e-02, -1.7958e-02, -4.6727e-03,  6.0461e-02,
          7.3969e-02,  3.5388e-02,  2.4523e-03,  3.5117e-02,  3.9050e-02,
          4.6026e-02,  3.9123e-02, -1.5852e-02, -9.6130e-03, -6.3517e-02,
         -3.6982e-02},
        {-5.3315e-06,  4.2129e-06,  4.8674e-06, -1.4264e-06, -2.1802e-07,
          6.5042e-06,  5.1287e-06,  7.2243e-06, -4.9238e-06,  4.8081e-06,
          6.5248e-06,  3.9521e-06,  1.1008e-05, -2.3574e-06,  3.1945e-06,
         -5.8080e-06, -2.5405e-05, -1.2379e-06,  1.0393e-05, -2.7036e-05,
         -3.0461e-05,  1.0083e-06,  1.2852e-05, -6.2549e-05, -4.0325e-05,
          1.9650e-05, -1.9110e-06, -8.5017e-05, -1.5158e-05, -1.2988e-05,
         -4.3822e-05, -7.0265e-05, -1.0468e-05,  2.6018e-06,  5.7463e-06,
         -2.8114e-06,  4.6815e-06,  7.9142e-06, -3.1948e-05,  1.5773e-05,
          9.9311e-08,  4.0931e-06, -1.7177e-05,  2.9380e-05, -5.6575e-06,
         -3.3332e-06, -3.6946e-06,  3.6623e-05, -1.8271e-05,  3.7304e-05,
          5.0312e-05,  5.3364e-05,  6.2497e-06,  8.3957e-05,  1.4162e-04,
          9.3545e-05,  1.4767e-05,  7.7067e-06,  4.4518e-05,  4.5130e-05,
         -1.5819e-05,  4.2841e-05,  5.9258e-05,  2.3135e-05, -5.1186e-06,
         -1.7052e-06,  5.1799e-06, -9.3395e-06, -7.7364e-06,  1.0831e-05,
          1.0007e-05, -5.0067e-06, -1.2838e-05,  1.1951e-05,  1.0982e-05,
         -6.9958e-06,  3.8224e-06, -9.8882e-06, -5.4246e-06, -1.4025e-06,
         -3.4540e-05, -7.8551e-05, -4.1915e-05, -7.5970e-05, -3.4644e-05,
         -8.5583e-05, -1.0070e-04, -1.2708e-04, -4.3568e-05, -5.3867e-05,
         -6.0227e-05, -2.7104e-05, -2.1878e-05, -8.7488e-05, -7.9579e-05,
         -2.3461e-05,  1.3165e-05, -7.5053e-06, -2.3207e-06, -3.8912e-06,
         -1.4573e-06,  1.0724e-05,  1.2431e-05, -2.5582e-06, -9.3343e-06,
          8.8689e-06, -1.8321e-06, -9.3509e-06, -3.2556e-06, -6.6105e-06,
         -5.5177e-06, -2.0351e-05,  2.3503e-05,  3.9828e-05,  1.2935e-05,
          2.5241e-05, -3.8062e-05, -1.9593e-05,  7.8246e-07, -1.2016e-05,
          2.0863e-05,  8.7844e-07, -8.8103e-06, -9.3403e-06, -6.6377e-06,
         -8.8759e-06, -8.8449e-06, -2.2956e-05, -1.2599e-05, -3.6259e-05,
          1.3982e-05,  1.5606e-06, -4.8357e-05, -6.3178e-05, -1.6465e-05,
         -3.0584e-05, -7.6288e-05, -6.2190e-05, -8.8988e-05, -8.4551e-07,
         -6.7343e-05, -5.3295e-05, -1.1550e-04, -1.3727e-05,  7.2616e-06,
          6.2640e-06,  2.1463e-06,  7.3682e-06,  1.2988e-05, -3.3782e-05,
         -3.3790e-05, -8.2811e-06, -6.2484e-06, -2.1019e-06, -5.4790e-06,
         -6.5625e-06,  6.7546e-06, -2.3793e-05, -1.4525e-05,  1.1572e-06,
          3.5347e-06,  8.3332e-06,  3.8620e-06,  1.3269e-05, -1.4181e-05,
         -1.3236e-05, -2.1327e-05, -2.7135e-05,  5.2928e-06,  1.3552e-05,
          6.0587e-06, -2.9660e-06,  1.1422e-05,  2.0805e-05,  2.2207e-05,
          1.0787e-05, -5.3589e-06, -1.1229e-05, -1.6133e-05, -5.4848e-06,
          1.8354e-05, -2.8223e-07,  7.4571e-06,  5.6222e-06, -3.7983e-05,
         -8.5044e-05, -6.7599e-05, -2.4834e-06, -1.8242e-05, -1.2460e-05,
         -1.0346e-05, -1.6213e-05, -2.7618e-05, -1.1915e-05, -1.2328e-05,
         -1.7100e-05,  4.3592e-05,  1.3326e-05,  1.2608e-05,  1.9669e-05,
         -8.9912e-06, -1.2764e-05,  3.6020e-05,  2.1698e-05, -2.1093e-05,
         -2.3897e-05, -5.9962e-06, -6.8614e-06, -1.1775e-05, -2.3921e-05,
         -1.6341e-05,  3.3184e-06,  3.1325e-05,  6.0104e-06, -1.6816e-05,
          2.3610e-05, -5.3020e-06, -4.7088e-05, -3.6682e-05,  1.4245e-06,
         -6.9042e-06, -4.1849e-05, -4.9688e-05, -2.0150e-05,  3.1444e-05,
         -1.6325e-05,  1.4387e-05,  7.4159e-06,  3.6427e-05, -1.2431e-05,
         -1.8610e-06,  7.1259e-06,  3.5790e-05, -2.8610e-06, -8.2686e-06,
          3.0046e-05,  2.1174e-05,  6.8343e-06, -9.4057e-06, -3.3688e-07,
         -1.6839e-05, -3.8080e-05, -2.7707e-05, -4.1019e-05, -6.3000e-05,
         -1.1708e-04, -7.8665e-05, -4.7509e-05, -6.9906e-06, -1.0979e-05,
         -4.2097e-05, -1.0180e-05, -3.4161e-05, -4.0979e-05, -2.2598e-05,
         -3.0364e-05},
        {-1.1257e-03, -7.6704e-04, -6.7247e-04, -1.6649e-03, -1.4410e-03,
         -1.0316e-03, -8.1229e-04, -1.5778e-03, -1.5843e-03, -1.2869e-03,
         -1.2580e-03, -1.5139e-03, -1.6054e-03, -9.2971e-04, -8.1411e-04,
         -8.9592e-04, -1.1859e-02, -2.3728e-02, -1.1226e-02, -3.8301e-03,
         -4.1798e-03, -1.8893e-02,  1.7643e-02, -1.2400e-02, -6.8854e-03,
         -1.6688e-02,  3.6055e-02, -1.4745e-02, -4.3131e-03, -6.7520e-03,
          2.7840e-02,  1.4883e-02, -8.7757e-03, -3.3210e-02, -1.8840e-02,
         -1.0585e-04, -6.9368e-03, -2.3799e-02,  2.2098e-03, -8.9901e-04,
          4.1740e-03, -2.8358e-02,  1.7270e-02, -1.9440e-03, -1.0698e-02,
         -1.2280e-02,  1.1978e-02,  1.7737e-02, -1.0112e-03, -5.7684e-03,
         -2.8148e-02, -3.1732e-02, -3.5738e-03, -2.0383e-02, -2.7412e-02,
         -6.6216e-04,  3.7347e-02,  2.1412e-02, -5.9654e-03,  1.9156e-02,
         -6.7170e-03, -1.7038e-02, -2.4699e-02, -5.5796e-03, -1.0193e-03,
         -7.0697e-04, -6.3931e-04, -1.5343e-03, -1.3271e-03, -8.7757e-04,
         -7.2753e-04, -1.4202e-03, -1.5202e-03, -1.1825e-03, -1.1759e-03,
         -1.3129e-03, -1.4448e-03, -8.4365e-04, -7.2153e-04, -7.0873e-04,
          9.3649e-03,  3.9535e-03, -6.9354e-03,  8.9617e-03, -2.3425e-02,
         -4.1918e-03,  5.0658e-02,  4.6874e-02, -1.7392e-02,  2.2297e-02,
         -9.9351e-03,  8.5148e-04,  7.5583e-03,  7.2643e-04, -1.6398e-03,
         -6.2975e-03, -1.2851e-03, -2.3885e-03, -2.1903e-03, -1.8389e-03,
          4.6131e-04, -3.2805e-04, -1.1442e-03, -6.6337e-04, -1.1194e-03,
         -2.9071e-03, -3.2966e-03, -1.6148e-03, -1.2075e-03, -2.0674e-03,
         -1.0562e-03,  2.8401e-04, -6.1807e-03,  2.9924e-03,  2.9914e-03,
         -1.2126e-02, -4.6061e-03,  1.1639e-02, -3.5420e-03,  8.5589e-03,
          1.3179e-02,  7.4553e-03,  9.5761e-03, -1.7889e-02,  5.5644e-03,
          2.1452e-02, -7.9714e-03, -1.6383e-02, -9.5140e-03, -1.8649e-02,
         -3.4501e-02, -1.9914e-02,  1.2562e-03, -2.9334e-03,  8.1457e-03,
         -1.4683e-02, -3.7181e-02,  2.4744e-02,  8.0250e-03, -2.5934e-02,
         -1.5371e-02,  1.4281e-02,  8.0630e-03, -7.8086e-04,  4.1168e-04,
          1.5261e-03,  1.0330e-03, -1.3581e-04, -3.7206e-03, -1.2548e-03,
          9.6276e-04, -7.3326e-04,  8.1845e-04, -1.5056e-03, -9.8665e-04,
         -2.8448e-03,  6.1430e-03,  4.6540e-03,  1.3303e-03, -2.5689e-03,
         -3.8067e-03, -6.6372e-03, -6.4883e-03, -4.6254e-03,  3.6536e-03,
          4.5317e-03,  1.2078e-02,  1.1157e-02, -4.4125e-03,  6.1019e-03,
          5.7815e-03, -2.3978e-03, -1.1331e-02, -1.7553e-02, -9.9986e-03,
         -6.2699e-03,  1.6995e-02,  2.4384e-02,  2.4788e-02,  4.0063e-04,
          2.6009e-02,  2.5126e-02,  7.4393e-03,  1.1958e-02,  1.4457e-02,
          2.3759e-02,  1.5274e-02,  2.4761e-02, -8.9116e-04, -5.5573e-03,
         -8.3916e-03, -1.3625e-02, -4.9951e-03, -1.3976e-02, -4.5082e-03,
         -8.9857e-03,  1.9333e-02,  1.8865e-02,  9.1290e-03,  1.1573e-02,
          1.4577e-02,  3.8899e-02,  1.2403e-02, -1.3643e-03, -3.1933e-02,
         -4.0284e-02, -2.5958e-02, -2.8712e-02,  1.4002e-02,  2.2145e-02,
          2.6430e-03,  2.5913e-04, -1.5260e-04,  5.7343e-03,  2.4245e-02,
          4.2452e-02, -1.3860e-02,  2.1336e-02,  2.7316e-02,  9.5783e-04,
         -1.5378e-02, -3.5839e-02, -1.8158e-02, -1.8589e-02,  2.5796e-03,
         -4.0073e-03, -4.6495e-03,  3.4580e-03,  5.4736e-03,  4.4867e-03,
         -1.1742e-02,  3.3624e-03,  1.3472e-03,  4.8629e-03, -1.0528e-02,
          1.0732e-03,  3.1039e-03,  7.0106e-03,  9.3581e-04,  4.5216e-03,
          1.6223e-02,  2.1723e-02, -5.2303e-03,  2.0859e-02,  2.6020e-02,
          5.7676e-02,  8.0989e-03, -7.5019e-03,  5.9821e-03,  1.6775e-02,
          3.2705e-02,  4.6450e-03, -6.9662e-04, -2.9371e-02, -3.8574e-02,
         -4.2391e-02},
        { 2.2447e-15, -2.4992e-15,  2.2884e-16, -4.5029e-15, -3.9920e-16,
         -3.0435e-16,  9.5797e-16, -4.8195e-15, -3.1047e-15,  1.6672e-15,
          1.1053e-15, -8.1857e-15, -9.6072e-15, -8.2637e-15, -1.0595e-14,
          5.7010e-15,  4.9526e-14, -7.7187e-15,  1.3136e-14, -7.5891e-14,
         -1.9064e-14, -9.1553e-15,  1.3498e-14, -7.2449e-14,  1.4728e-15,
         -1.9166e-15,  3.7586e-14, -9.8575e-14,  9.7476e-15,  8.1880e-16,
         -1.9702e-14, -9.3128e-14,  1.0210e-14, -1.4621e-14,  1.0811e-14,
          7.9146e-15,  2.1577e-14, -2.3640e-14, -1.3131e-15,  6.6594e-15,
          3.1398e-14,  4.4070e-14,  4.0955e-15,  2.1765e-14, -1.4035e-14,
         -1.3506e-14,  3.1455e-14, -6.3256e-14,  8.7302e-15, -3.7500e-14,
          5.8166e-14,  1.7097e-13,  4.2953e-15,  2.5312e-14,  3.4031e-13,
          3.9165e-14,  6.3969e-16,  3.1759e-14,  2.5497e-13,  1.1537e-13,
          7.9311e-14,  1.9682e-13,  1.5062e-13,  4.7877e-14,  3.5458e-15,
         -2.5944e-16,  2.8382e-15,  3.3611e-16, -9.1070e-17,  3.6418e-16,
          1.4951e-15,  1.0651e-15,  1.7857e-16,  4.3455e-15,  4.9636e-15,
         -4.7888e-15, -5.7037e-15, -1.0670e-15, -4.2821e-15,  2.9337e-15,
         -1.1094e-13, -9.3594e-14, -2.2417e-13, -8.7790e-14,  5.2265e-14,
         -7.4493e-14, -5.0671e-14, -1.0345e-13, -1.4361e-13, -1.6702e-13,
         -2.4120e-13, -2.3248e-13, -1.5518e-13, -1.4473e-13, -2.6239e-13,
         -1.8419e-13,  6.1990e-15,  2.9714e-15,  5.8525e-15, -4.9089e-15,
          5.1396e-15, -5.1385e-16,  1.8505e-15, -1.3801e-14, -1.9903e-14,
          3.8733e-15,  3.0817e-14,  7.9557e-15, -2.5226e-14, -3.1061e-14,
          3.6611e-14, -1.4729e-14,  2.7940e-16,  1.5165e-14,  1.3946e-14,
          6.4393e-15, -4.4794e-14, -5.2104e-14,  6.0492e-15,  2.6890e-15,
         -5.7706e-15, -7.4378e-14, -8.5865e-14, -1.7409e-14, -8.8026e-15,
         -1.6884e-14, -3.7069e-16, -4.7750e-14, -1.8984e-14,  2.3321e-15,
          1.7294e-15, -8.4779e-15, -8.2810e-15, -5.1476e-15, -4.5467e-15,
         -1.3219e-13,  7.9080e-15,  1.5857e-14,  2.4179e-14, -1.1112e-13,
         -1.0598e-13,  3.4748e-14, -1.2718e-13, -4.5785e-14, -8.5179e-15,
          5.5916e-15,  9.9935e-15,  2.0961e-15, -1.4197e-15,  1.1378e-15,
          7.4772e-15, -6.5370e-15, -2.9738e-14, -3.1030e-14, -2.1862e-14,
         -8.9252e-15, -1.8204e-15, -4.8690e-15,  6.8675e-15, -4.9437e-15,
          3.6355e-14,  1.9704e-14,  1.9597e-14,  2.2199e-15,  1.9769e-15,
         -8.1952e-16, -2.7494e-15,  1.3959e-14, -3.5406e-14, -4.8584e-14,
         -1.6976e-14,  4.6288e-15,  1.3710e-14,  1.9501e-15,  8.7153e-15,
          3.6969e-14,  9.0666e-14, -1.1978e-13, -1.4375e-13, -8.1574e-14,
         -7.0462e-15,  1.0716e-14, -1.3927e-14, -3.6986e-14,  1.6945e-14,
          5.7472e-14,  2.9421e-14, -3.2908e-15, -9.5692e-14, -1.1107e-13,
         -9.6454e-14, -8.1467e-14,  4.6965e-15, -1.2232e-13, -6.8694e-14,
          1.2115e-14,  6.2677e-16, -1.1709e-15, -3.5118e-15, -2.5705e-14,
          8.0046e-14,  1.0926e-13,  1.0808e-13,  2.8734e-14, -6.3270e-14,
         -1.0682e-14, -6.6065e-14,  1.2887e-14,  2.6121e-14, -8.3638e-14,
         -6.9578e-14, -3.3600e-14, -2.0702e-14,  9.8551e-15,  2.2848e-15,
          1.0453e-15,  1.7803e-14,  1.8737e-14,  3.1811e-14, -3.9852e-14,
         -9.1564e-14, -9.1055e-14, -1.3943e-13, -9.8713e-14, -6.6321e-15,
          1.5913e-16,  3.7636e-15,  2.1240e-15,  1.9944e-15, -5.7915e-15,
         -2.9195e-14,  2.5010e-14,  5.3484e-16,  1.9355e-15,  3.2340e-14,
         -2.3739e-15, -1.5360e-14,  6.3501e-15,  1.2688e-14, -2.9604e-15,
          1.6346e-14,  1.2645e-14, -1.0624e-13, -2.3349e-13,  8.7341e-15,
         -1.6715e-13, -8.3275e-14, -9.4335e-14, -1.3029e-13, -1.2220e-13,
         -1.2747e-13,  1.1286e-14, -1.8708e-13, -1.2574e-13, -9.2654e-14,
         -5.7719e-14},
        { 1.9775e-11, -6.9916e-11,  1.6326e-12, -3.4100e-11, -4.9494e-11,
          7.4894e-11,  7.4584e-11, -5.2985e-11, -6.5797e-11,  5.6158e-11,
         -4.1202e-11, -2.1936e-11, -1.4549e-12, -3.8007e-11, -5.7689e-12,
          3.4596e-11,  3.2135e-11,  2.9240e-10, -1.0624e-10,  2.7027e-10,
          5.5731e-10,  3.9074e-11,  9.2823e-12, -5.4004e-11,  2.3279e-10,
          2.7016e-10, -1.4473e-10,  1.2401e-11, -2.2552e-10,  8.8479e-10,
         -1.0959e-10,  2.3846e-10, -7.6667e-10, -1.1082e-11, -2.5889e-10,
          2.4536e-10, -7.0114e-11, -7.7927e-11, -8.4679e-11, -2.7556e-10,
          1.0667e-10,  1.3560e-10,  4.5395e-11, -2.0574e-10, -1.0486e-10,
          7.3915e-11, -2.5532e-10, -1.6018e-10, -1.2163e-09,  3.5326e-10,
          8.5097e-10,  5.5518e-10, -3.0215e-10,  1.5217e-10,  6.2707e-10,
          3.4456e-10,  6.5556e-11,  3.2744e-10,  6.1957e-10, -7.9199e-10,
         -1.9330e-11,  1.7312e-10, -2.0216e-10, -7.1180e-10,  7.9257e-11,
         -2.9211e-10, -1.5870e-10, -7.9819e-11,  3.3405e-10,  1.6593e-11,
          1.3514e-10, -4.2614e-11,  1.1978e-10,  3.8681e-11, -1.2773e-10,
          3.1288e-10, -4.9801e-11,  1.3118e-10, -8.2950e-11, -1.2322e-10,
         -9.3763e-10, -1.4421e-09, -8.5885e-10, -7.6967e-10,  4.7197e-11,
         -4.8608e-10, -9.7250e-10, -4.0122e-10, -2.0723e-10, -1.2094e-09,
         -1.0288e-09, -8.0453e-11, -5.5062e-10, -5.4179e-10, -1.9492e-10,
          6.2854e-11, -1.2985e-10, -2.3160e-10, -8.3287e-11, -1.1353e-10,
         -6.7391e-12,  1.4175e-10, -3.3036e-11,  3.8344e-10,  5.6961e-12,
         -6.6103e-11, -4.1902e-10,  4.0315e-11, -1.2894e-10, -2.0605e-11,
         -2.9449e-10,  3.5718e-10,  1.7164e-10,  2.1229e-10,  2.9933e-10,
          5.5110e-10,  4.2229e-10,  1.8723e-10,  3.6274e-10,  6.0182e-10,
         -7.1763e-13,  1.1392e-11,  7.4365e-11, -1.0115e-10, -2.6462e-11,
          1.2374e-10,  8.4086e-11, -8.4669e-11,  9.3005e-10,  2.4565e-11,
         -3.9652e-10,  1.3291e-10,  4.6312e-11, -2.3253e-10, -2.2150e-10,
         -6.5950e-12,  1.5933e-11, -4.7724e-10, -8.8195e-11,  3.2609e-10,
         -3.3923e-10, -7.5679e-10,  4.7484e-11,  1.0858e-09, -1.2889e-10,
         -4.5148e-11, -9.0078e-11,  2.6109e-12, -3.6383e-10, -1.0742e-10,
         -3.2502e-10, -3.2207e-10, -4.4193e-12, -7.6838e-11,  1.0602e-11,
         -8.3110e-11, -1.6830e-11,  9.5766e-11,  5.5436e-11, -2.4690e-11,
         -2.0695e-10, -1.3459e-10, -1.1264e-10, -1.0122e-10, -5.9910e-11,
          2.3414e-10,  2.1405e-10,  1.5944e-10, -1.6996e-10, -2.2444e-10,
          3.6550e-11, -1.4064e-10,  1.2388e-10,  2.0727e-10,  1.8001e-10,
         -2.6674e-10,  2.5815e-10,  3.9737e-11, -1.9056e-11,  1.0298e-10,
          3.0828e-10,  2.0334e-10,  1.4509e-11, -3.1793e-11,  7.5139e-10,
          6.8183e-11,  7.5790e-12,  3.0295e-10,  2.0691e-10, -4.1326e-11,
          7.9928e-11,  6.9326e-10,  3.8459e-10,  9.8075e-11,  1.1135e-10,
          1.5125e-10,  3.0082e-10,  3.4266e-10, -1.4715e-10, -6.2807e-10,
          1.3602e-10,  3.2227e-10,  6.7389e-10,  4.4417e-10,  5.6941e-11,
         -8.3512e-11,  2.6014e-10,  2.2364e-10,  5.4298e-10, -1.9658e-10,
         -2.7977e-10,  7.3472e-11,  6.6907e-10,  2.7866e-10,  2.7989e-10,
          8.0809e-11,  3.1369e-10,  1.6514e-10, -1.0416e-10,  1.8585e-10,
         -2.5225e-11, -2.5720e-10, -1.2922e-10,  4.4310e-10,  8.8726e-11,
         -1.7828e-11, -1.4251e-10, -1.8045e-10,  1.8806e-10, -9.1464e-11,
          5.1380e-11,  2.6094e-11,  6.5653e-11, -3.8858e-11, -1.3776e-10,
         -1.3005e-10, -2.0320e-10,  2.3738e-10,  1.6379e-10,  1.5576e-10,
          2.6528e-10, -5.6811e-10, -3.7223e-10, -3.7448e-10,  4.1276e-10,
         -5.9414e-10, -8.1168e-10, -3.5381e-10, -1.0982e-10, -4.1468e-10,
         -3.2749e-10,  8.4627e-10, -6.5692e-11, -4.0567e-10, -1.5799e-10,
          2.2847e-10},
        { 1.3179e-03,  1.6764e-03,  7.6295e-04,  4.6986e-04,  6.5895e-04,
          9.9035e-04,  4.4110e-04,  6.0828e-04,  4.5891e-04,  7.9147e-04,
          9.2233e-04,  1.2906e-03,  9.0625e-04,  1.2312e-03,  1.5319e-03,
          1.2857e-03,  2.6450e-03, -3.8159e-03, -8.0293e-03,  5.8325e-03,
          1.7567e-03, -3.2613e-03,  1.2003e-04,  1.2131e-02,  5.0539e-03,
          2.5846e-02,  6.2998e-03,  8.2656e-03,  3.0524e-03,  5.8907e-02,
          7.4855e-02,  2.4096e-02, -2.4532e-02,  1.3916e-02, -9.1383e-03,
         -2.2883e-03, -8.9142e-03,  2.5925e-02, -1.7791e-02, -9.6730e-03,
          1.9233e-02,  2.2524e-02, -5.5891e-03, -1.4271e-02,  2.8976e-02,
          4.4701e-02,  2.0808e-02,  5.1213e-02, -1.4444e-02,  2.5550e-02,
          4.2206e-02,  9.1990e-03,  9.9052e-03,  3.3166e-02,  4.1115e-02,
         -1.5103e-02,  2.9008e-02,  1.9428e-02, -1.8178e-03, -5.4116e-03,
          2.9082e-02, -2.4967e-03,  3.7607e-02,  4.5079e-02,  1.1395e-03,
          1.4257e-03,  6.7815e-04,  3.6522e-04,  5.5622e-04,  8.1957e-04,
          3.3408e-04,  4.8340e-04,  4.1561e-04,  7.1474e-04,  7.6559e-04,
          1.0822e-03,  7.8736e-04,  1.0279e-03,  1.2233e-03,  9.8956e-04,
         -2.9394e-02, -4.8135e-02,  1.9405e-02,  8.2762e-02, -7.1372e-03,
          4.2761e-02,  2.4674e-03, -1.1414e-02,  2.6264e-02, -5.1844e-03,
          6.6654e-04,  3.9583e-02,  1.5420e-02, -1.5393e-02, -2.1449e-02,
         -5.0852e-02,  2.6462e-04,  1.4620e-03,  8.7218e-04,  1.0916e-03,
          2.5393e-03,  2.9044e-03,  1.7983e-03,  1.7066e-03,  6.8860e-04,
          5.2131e-04,  1.7229e-03,  1.6336e-03, -7.4486e-04, -1.7832e-04,
          8.0149e-04, -1.9804e-06,  4.8579e-02,  5.4519e-02,  3.0431e-02,
          1.5293e-02, -9.8697e-03, -1.2826e-02, -1.5990e-02,  1.8281e-02,
         -2.9046e-02, -3.1472e-02, -2.9212e-02, -4.7872e-02, -1.4632e-02,
         -7.1349e-02, -6.4545e-02, -2.8191e-02, -2.0640e-02, -7.2423e-02,
          1.7231e-03,  1.5094e-02, -2.3098e-02, -4.7782e-02,  2.5165e-02,
         -9.0275e-03,  1.2716e-02, -4.2912e-03,  5.3112e-02,  3.1168e-02,
          1.3545e-02,  6.4079e-02,  1.6025e-01,  2.1720e-02,  8.1867e-03,
          1.1149e-02,  9.5451e-03,  7.6761e-03,  7.0339e-03, -1.6371e-03,
          3.1562e-04,  8.0123e-03, -1.6499e-04,  1.3236e-03,  1.7897e-03,
          3.7415e-03, -1.1531e-02, -1.9825e-02, -1.4132e-02, -6.9574e-03,
          3.0038e-03, -1.2275e-03, -6.8825e-05,  6.5163e-04,  1.3154e-02,
          4.5716e-03,  3.9587e-03, -2.0215e-03,  6.2434e-03,  4.0222e-03,
          6.5456e-03,  2.6512e-02, -1.3556e-02, -2.7010e-02, -1.2917e-02,
         -3.1526e-03,  8.0694e-03, -1.4582e-02, -1.8492e-02, -1.8541e-02,
          6.1607e-02,  8.3538e-02,  9.3035e-02,  5.3367e-02,  3.6681e-02,
         -3.8211e-03, -9.7395e-03,  4.1972e-02,  1.9722e-02,  1.2446e-02,
          1.0421e-02,  5.5025e-02,  3.6607e-02,  3.0814e-02,  1.0790e-02,
         -2.0183e-03,  3.6121e-02,  1.2882e-02,  3.1374e-02,  1.0655e-02,
          1.6446e-02, -3.9280e-02, -2.8257e-03,  4.3454e-02, -4.1918e-02,
         -4.5692e-02, -1.2968e-02,  2.1654e-02,  2.1130e-02, -1.1873e-02,
         -1.3843e-03,  5.4303e-03,  3.3117e-02,  3.6960e-02,  2.0861e-02,
          1.0801e-02,  3.0762e-02, -1.1653e-02, -2.9487e-03,  6.3263e-02,
         -1.7975e-02, -4.5436e-02, -3.8037e-02, -1.6105e-02, -1.6882e-02,
          2.4950e-03,  7.9747e-03,  6.0999e-03, -6.0283e-03,  7.6555e-03,
          8.6392e-03, -4.5646e-04, -6.7561e-03,  1.5287e-02,  5.3535e-03,
         -5.0818e-03,  6.0997e-03,  2.9521e-02,  1.2834e-02, -7.2936e-03,
          1.0526e-01,  8.1502e-02,  2.3629e-02, -9.6865e-04,  2.2320e-02,
         -3.7779e-02,  6.9739e-03,  3.6263e-02, -1.6952e-02, -1.1438e-02,
         -6.5381e-02,  1.7924e-02, -1.1854e-01, -7.6600e-02, -5.7720e-02,
         -8.1340e-02},
        {-2.2891e-04, -4.5824e-04, -2.6897e-04, -7.2229e-04, -1.6504e-04,
         -6.0002e-04, -4.7564e-04, -2.5613e-04, -5.1424e-04, -7.0920e-04,
         -4.3582e-04, -1.5462e-04, -7.4882e-04, -5.6586e-04, -2.4322e-04,
         -2.7999e-05,  5.3163e-03,  1.7679e-02,  9.5964e-03,  9.5466e-04,
         -1.9083e-03,  4.1967e-03,  1.1883e-02,  1.5643e-03,  2.2523e-03,
          1.2962e-03,  2.1080e-02,  1.8360e-03,  1.5434e-02,  1.5776e-02,
          7.6643e-03,  2.8857e-03,  6.1800e-03, -5.7871e-03,  7.5133e-03,
         -6.1505e-03, -1.4684e-04, -1.1408e-02,  2.9331e-03,  1.1024e-04,
          6.1801e-03, -6.1031e-03,  1.1514e-02,  6.9251e-03,  6.0251e-03,
          8.4612e-03, -1.7152e-03,  3.8163e-03, -6.0283e-03, -1.1045e-02,
         -1.9348e-02, -1.6210e-02,  5.8759e-04, -1.3178e-02, -2.6620e-02,
         -9.8837e-03, -2.9595e-03, -3.3572e-03,  2.5262e-03,  1.1381e-02,
         -2.3029e-02, -1.1919e-02, -5.3660e-03, -6.7098e-03, -2.1027e-04,
         -3.8738e-04, -2.6699e-04, -6.4158e-04, -1.7139e-04, -5.2853e-04,
         -3.6383e-04, -2.2314e-04, -4.7855e-04, -6.6756e-04, -3.6633e-04,
         -1.2897e-04, -6.5298e-04, -4.7630e-04, -1.8136e-04, -2.3329e-05,
         -1.4782e-02, -1.0615e-02,  2.9513e-03,  1.2421e-02, -2.5218e-02,
         -1.5303e-02,  1.4410e-02,  1.9389e-02,  1.6152e-02,  1.7062e-02,
         -1.0275e-02, -7.0901e-03, -2.1584e-03, -1.4362e-02, -2.9248e-02,
         -6.5203e-03, -5.2024e-05, -9.5961e-05, -4.5738e-04, -7.0971e-04,
         -1.2929e-03, -8.7026e-04, -5.1768e-04, -9.4297e-04, -8.7476e-04,
         -2.0748e-04, -1.1582e-04, -6.7366e-04, -4.1101e-04, -7.6255e-05,
         -1.8637e-04, -5.8895e-04, -9.2438e-03, -2.6631e-03,  3.5781e-03,
         -5.1062e-03,  3.4126e-03,  7.2454e-03, -9.5666e-04, -2.6025e-03,
         -1.3795e-02, -8.1349e-03, -7.0542e-03, -8.7318e-03, -7.9576e-03,
         -3.6682e-03,  7.3781e-03,  5.9769e-03,  8.2159e-03,  3.0806e-02,
          9.5877e-03,  1.2851e-02, -4.1879e-03,  1.0637e-02,  9.0867e-03,
          1.0754e-02, -6.3739e-03,  1.4281e-02,  2.3243e-02, -9.1955e-03,
          2.5510e-02,  2.3207e-02,  1.7282e-03, -6.3587e-03, -4.5842e-03,
         -3.7775e-03, -2.1881e-03, -1.5376e-03, -1.6681e-03, -1.5767e-03,
         -6.5366e-04, -1.8437e-03,  7.4670e-05, -1.7946e-03, -7.4666e-04,
         -3.1821e-04, -2.8513e-03, -1.7896e-03,  3.1307e-04, -3.2778e-04,
         -3.4246e-03, -6.3991e-03, -4.8843e-03, -6.3599e-04, -2.0775e-03,
         -8.7573e-04,  1.7773e-03,  3.7188e-03, -4.0630e-03, -1.5604e-03,
          1.4918e-03,  1.1751e-03, -3.2860e-03, -4.2636e-03, -2.7765e-03,
         -2.9546e-03,  2.5483e-03, -1.1927e-02, -9.1052e-03,  1.3043e-03,
         -8.0207e-03, -1.3648e-02, -2.2397e-02, -8.9028e-03, -1.1862e-02,
          6.2468e-03,  9.0353e-03,  3.0961e-03, -1.8053e-02, -1.9938e-02,
         -9.9081e-03, -8.5415e-03, -1.5148e-02, -2.4911e-02, -1.7341e-02,
         -1.4266e-03,  1.7391e-03,  9.2480e-03, -1.7295e-03, -1.5299e-03,
         -2.2869e-02, -4.1833e-03,  7.6260e-03,  1.3249e-03, -2.1449e-02,
         -2.7034e-02, -1.2151e-02, -1.1990e-02, -1.5542e-02, -1.9291e-02,
         -1.7873e-02,  7.8322e-05, -1.8377e-02, -1.2668e-02, -2.1935e-03,
          1.0989e-02, -4.0962e-03,  2.4436e-03,  7.4155e-03,  3.7017e-03,
         -1.7240e-02, -2.3526e-02, -1.5228e-02, -9.5546e-03,  5.2731e-03,
          1.9745e-03,  2.1239e-04,  4.2449e-03,  2.0368e-03,  5.6935e-03,
         -4.6874e-03,  1.4217e-03,  3.2330e-03,  6.7745e-03, -4.9114e-03,
         -1.5627e-03,  4.3281e-03,  3.1964e-03, -3.7986e-03,  5.7589e-04,
         -1.9057e-03,  1.4973e-02, -1.2460e-02, -6.6253e-03,  2.3949e-03,
          3.8991e-02,  1.6655e-02, -1.3918e-02, -1.3045e-02, -1.3427e-02,
          8.7495e-03, -5.6919e-03, -3.0518e-03,  7.9196e-03,  2.8222e-03,
         -4.1139e-03},
        {-6.5730e-16, -8.6088e-16, -1.1825e-15, -8.9748e-16, -9.9860e-16,
         -6.9194e-16, -7.0072e-16, -1.4275e-15, -6.9043e-16, -5.9516e-16,
         -1.2204e-15, -1.5420e-15, -1.3366e-15, -1.0609e-15, -6.3375e-16,
          6.8543e-17,  4.5926e-16, -2.2905e-15,  4.1624e-15,  2.1540e-15,
          6.0559e-16, -3.5959e-15,  4.5364e-15,  7.6010e-16, -4.7622e-16,
          5.1132e-16,  1.8832e-15, -1.6643e-16,  1.1571e-15,  2.5354e-15,
          6.3848e-16,  5.8626e-16,  9.9465e-16,  2.1719e-15, -2.9079e-15,
          3.0971e-15,  1.5896e-16, -2.8115e-15, -1.3470e-15, -2.1466e-16,
         -4.6073e-15, -1.0857e-15,  1.7967e-15, -8.4368e-16, -3.7079e-15,
         -9.1219e-16,  1.0979e-15, -8.7414e-16,  4.9437e-16, -1.0298e-15,
          1.1733e-15, -1.8133e-15,  2.2080e-15, -3.5480e-15, -3.5334e-15,
         -1.9094e-15, -4.7842e-15, -4.0872e-15, -1.4233e-15,  6.2311e-16,
         -3.0754e-15, -7.0500e-15, -4.1356e-15, -2.0992e-15, -3.4807e-16,
         -1.0989e-15, -1.2734e-15, -6.7621e-16, -5.0281e-16, -8.9833e-16,
         -5.4752e-16, -1.2297e-15, -9.4235e-16, -6.7092e-16, -7.4679e-16,
         -1.2554e-15,  6.2181e-17, -9.9167e-16, -5.0548e-16,  6.3355e-17,
         -5.0063e-16, -2.2441e-15, -1.7052e-15, -1.7493e-16, -7.5769e-16,
         -7.0868e-17,  1.8912e-15, -1.7708e-15,  2.6434e-15,  2.5153e-15,
         -2.7772e-15, -4.4530e-15,  8.3335e-16, -1.0685e-15,  9.2541e-16,
          1.9856e-15, -1.5012e-16, -2.3588e-16, -3.3098e-16, -6.9831e-16,
          4.9141e-17, -1.0167e-16, -8.1654e-17, -4.6027e-16, -4.6479e-16,
         -6.1091e-16, -2.0005e-16, -2.2696e-16, -1.8117e-18, -7.3277e-17,
          7.4135e-17, -2.8961e-16, -1.3733e-15, -1.2857e-15, -1.9558e-15,
         -1.2693e-15,  2.8350e-15, -1.3119e-16, -4.4447e-15, -3.4076e-15,
         -2.7730e-15,  5.6936e-16,  1.7315e-15,  1.1157e-15, -1.9800e-15,
         -4.2521e-15, -1.7751e-15, -7.1068e-16,  2.2419e-15, -1.0452e-15,
          7.1298e-15,  2.2275e-16, -1.6872e-15,  1.4079e-15,  4.0691e-15,
         -4.3418e-15,  1.4887e-15,  1.5108e-15, -6.4936e-16, -4.4755e-15,
          4.6140e-15, -6.1827e-16, -1.1334e-15,  4.0934e-16, -1.9972e-15,
         -2.8842e-15, -2.0173e-15, -9.9012e-16,  1.0655e-15, -9.0138e-16,
         -2.4093e-15, -2.6059e-15, -1.0282e-15, -7.7566e-16, -6.1643e-16,
          1.8465e-16, -4.5002e-16,  1.4658e-15,  7.0689e-16, -6.9877e-16,
          1.4878e-15, -3.9564e-15, -2.4029e-15, -2.7522e-15, -3.7984e-15,
         -1.4028e-15,  2.5827e-15,  2.7066e-15, -2.5877e-15, -5.2439e-15,
         -7.1875e-15, -6.3181e-15, -6.5730e-17,  1.2101e-15,  7.1975e-16,
          2.4059e-16,  3.3130e-16,  1.5773e-15,  2.3707e-15,  2.7895e-15,
         -2.3150e-15, -3.9748e-15, -4.7196e-15, -2.2805e-15, -1.6492e-15,
         -3.0295e-16,  9.2241e-16,  4.0517e-16, -1.8923e-15, -4.6891e-15,
         -7.0131e-15, -4.2143e-15,  1.0475e-15, -2.7280e-15, -3.0794e-15,
         -5.7408e-15, -5.0479e-15, -4.0160e-15,  3.3863e-16,  2.5045e-15,
         -1.9883e-15, -1.5289e-15, -7.8530e-16, -4.8404e-15,  1.1458e-15,
          1.5880e-15,  4.0252e-16, -6.1220e-16,  1.1529e-15, -1.2275e-15,
         -7.7019e-16, -2.1485e-15, -4.6636e-15, -2.1495e-15,  7.5360e-16,
          2.2516e-15, -3.7389e-16, -6.2404e-16, -4.5945e-15, -6.6433e-15,
         -2.9560e-16,  9.6455e-16,  1.4982e-15,  1.0280e-15,  5.7429e-16,
          4.7033e-15, -1.4097e-15, -1.2133e-16, -5.8116e-17,  2.5046e-15,
         -4.0650e-15,  2.9095e-15,  7.5826e-16, -1.1323e-16, -1.1405e-15,
          2.8760e-15,  3.3334e-16, -9.7707e-16, -5.1222e-16,  1.8692e-15,
         -2.1796e-15, -1.9628e-15, -1.9940e-15,  4.3345e-16,  1.2654e-15,
         -7.2409e-16,  9.6598e-16,  1.4169e-15,  1.8865e-15, -1.4578e-15,
         -1.6442e-16,  5.1075e-16,  4.6962e-15,  4.1023e-15,  2.0800e-15,
          7.0383e-16},
        {-4.1610e-04, -8.3424e-04, -4.6050e-04, -7.3569e-04, -3.8124e-04,
         -8.0843e-04, -7.5563e-04, -5.7318e-04, -8.9059e-04, -1.3709e-03,
         -1.0891e-03, -7.5071e-04, -1.1926e-03, -9.4937e-04, -6.9623e-04,
         -5.0054e-04, -1.1490e-02, -2.2649e-02,  3.3846e-02,  2.4291e-02,
         -2.6575e-03, -3.8072e-02,  4.8671e-02,  6.6504e-03,  7.3952e-03,
         -2.9534e-02,  4.6766e-02, -1.7981e-02,  2.0392e-02, -1.6343e-02,
          5.0005e-03,  4.7371e-03, -1.6872e-03, -2.9783e-02,  1.0073e-02,
          1.9320e-02,  1.8075e-03, -2.7689e-02,  1.7118e-02,  2.2813e-02,
          7.3969e-03, -1.9197e-02,  2.8214e-02, -7.7359e-03,  3.8961e-03,
         -1.0265e-03, -1.1648e-02, -2.2022e-03,  1.8745e-03, -1.3666e-02,
         -4.4025e-02, -2.8546e-02,  7.1539e-03, -1.2244e-02, -4.6488e-02,
         -8.4135e-04,  7.0423e-03,  1.2810e-02,  1.6313e-02,  6.0308e-03,
         -1.0912e-02, -3.8568e-03, -2.5535e-02, -3.1045e-02, -3.5781e-04,
         -6.9486e-04, -4.0260e-04, -6.1172e-04, -3.4600e-04, -7.0365e-04,
         -5.9684e-04, -4.6691e-04, -8.4057e-04, -1.2460e-03, -8.9730e-04,
         -6.2556e-04, -1.0470e-03, -8.0559e-04, -5.4145e-04, -3.7067e-04,
          1.4538e-03, -1.5513e-02, -4.3926e-03, -2.5076e-03, -1.9633e-02,
         -5.3557e-03,  3.9169e-02,  6.5305e-03,  3.8441e-03,  1.4558e-02,
         -3.3190e-02, -2.0281e-02,  7.7730e-03, -1.2459e-02, -1.3376e-02,
          2.8875e-02,  1.6151e-03,  4.6720e-04,  6.6293e-04,  6.8916e-04,
          7.9088e-04,  2.4443e-04,  7.0207e-04,  1.0062e-03,  3.9327e-04,
          4.5712e-04, -1.0511e-04,  4.3114e-04,  9.4875e-04,  1.6135e-03,
          1.7090e-03,  1.6855e-03, -1.2326e-02, -1.0843e-02, -9.9636e-03,
         -1.9996e-02,  7.4135e-03,  2.0705e-03, -1.4691e-02, -2.7931e-03,
          3.7554e-03,  1.5730e-03,  3.8869e-03,  7.1307e-04,  1.0695e-03,
          1.5465e-02,  2.0561e-03, -1.7230e-04, -1.1038e-02,  1.6052e-02,
          2.5263e-02,  6.2479e-03, -1.6814e-02,  5.4996e-03,  5.8005e-02,
         -7.8259e-03, -2.6777e-02,  2.9301e-02,  3.3030e-02, -3.2680e-02,
          3.6282e-03,  1.0064e-02, -5.2009e-03,  1.2415e-02, -1.8483e-03,
         -2.4103e-03, -4.4995e-03, -5.0025e-03, -2.4104e-03, -1.4335e-03,
         -5.7736e-04, -2.5060e-03, -4.4635e-04, -5.1031e-03, -2.0776e-03,
          1.5314e-03,  3.3134e-03,  4.5201e-03,  5.4493e-03,  1.2305e-03,
          1.4128e-03, -4.7937e-03, -9.8280e-03, -7.7811e-03, -1.9221e-03,
          9.9960e-04,  1.0166e-02,  2.8206e-03, -1.8609e-03,  5.2839e-03,
          7.3470e-04, -8.6986e-03, -1.5089e-03, -4.2025e-03,  1.7625e-04,
          2.9986e-03,  1.3785e-02,  2.0143e-02, -2.3727e-03, -1.7966e-02,
          9.9483e-03,  4.6566e-03, -3.2231e-02, -3.3077e-02, -6.3057e-03,
          1.9171e-02,  1.1699e-02, -1.8800e-03, -1.4954e-02, -1.3832e-02,
         -6.2109e-03, -1.1306e-02, -4.9406e-06, -2.2499e-02, -3.5750e-02,
         -2.6427e-02,  8.1546e-03,  7.2660e-03, -1.5877e-03, -1.3664e-02,
         -5.4815e-03,  2.6916e-02,  8.3541e-03, -1.3769e-02, -1.6599e-02,
         -2.1770e-02,  4.5455e-04, -7.1760e-03,  9.7080e-03,  1.7480e-03,
         -2.7533e-02, -2.1622e-02, -5.4522e-03, -1.1445e-02,  7.6089e-03,
          9.5262e-03, -9.2929e-03,  1.1513e-02,  1.7800e-03, -2.1891e-02,
         -7.8426e-03, -2.0374e-02, -4.8708e-03,  1.2077e-02,  4.4135e-04,
          6.0763e-03, -5.3368e-03,  2.1180e-03, -4.5530e-05,  1.2267e-02,
         -1.5158e-02,  5.4367e-03, -4.5436e-04,  1.0505e-02, -5.8986e-03,
         -1.5252e-03, -1.9910e-03,  7.0892e-03, -2.0438e-03, -3.7584e-03,
         -8.8070e-03,  4.9566e-03,  7.8970e-03, -4.5104e-03, -1.6289e-03,
          3.5782e-02,  1.2670e-02, -1.3550e-02, -1.0544e-03, -2.0287e-02,
          3.2108e-02,  7.9214e-03,  1.4398e-02, -1.6790e-02,  9.6168e-03,
          6.8550e-03},
        {-3.2114e-04, -5.2289e-04, -5.0526e-04, -9.5989e-05, -5.3791e-04,
         -7.7771e-04, -1.0678e-03, -3.4806e-04, -6.4385e-04, -1.0511e-03,
         -1.0268e-03, -7.3022e-04,  3.8899e-04,  8.6402e-06, -4.7564e-04,
         -6.0500e-04,  9.2165e-03,  2.8169e-02,  4.9948e-02, -4.6807e-03,
          1.0750e-03,  3.2463e-02,  3.7335e-02,  3.4283e-02, -7.8917e-03,
          4.4882e-02,  3.6271e-02,  3.9229e-02,  1.2041e-02,  6.6975e-02,
          1.0880e-01,  7.3135e-03,  7.7196e-03, -4.3961e-04,  4.8705e-02,
          2.5739e-03,  1.0057e-02,  5.1989e-03,  6.9357e-03,  1.6443e-02,
          5.4822e-03,  2.0660e-02,  2.9763e-02,  2.7699e-02,  3.7700e-02,
          8.3974e-02,  4.3901e-02,  1.3603e-02,  3.1566e-03, -1.6674e-02,
         -2.8111e-02, -7.0334e-03, -1.4789e-02, -1.6433e-02, -2.4391e-02,
         -2.0080e-02,  8.3568e-03,  2.7650e-03,  2.4412e-02,  5.7917e-03,
          5.2503e-02,  3.2302e-02,  7.6057e-02,  2.3452e-02, -2.9864e-04,
         -4.9206e-04, -4.3864e-04, -8.7308e-05, -4.7438e-04, -7.2714e-04,
         -8.9175e-04, -2.4305e-04, -5.6477e-04, -9.4749e-04, -9.1023e-04,
