#pragma once
/************µÚ7²ãLinear***************/
#define IN_FRATURES_7 120
#define OUT_FRATURES_7 84

// È¨ÖØ
float weight_7[OUT_FRATURES_7][IN_FRATURES_7] =
{ {-1.6868e-02, -1.6084e-10, -1.0123e-11, -1.4715e-13, -7.2066e-02,
         -5.3048e-02, -1.1209e-02,  1.2688e-07, -1.7445e-02,  1.4881e-08,
          1.1460e-11,  2.3977e-02, -6.1449e-08,  5.8818e-03,  7.2258e-05,
         -3.2746e-02,  4.8576e-02, -2.1010e-03, -1.8689e-05,  6.2927e-03,
          6.0825e-17,  6.9181e-10,  8.5453e-02,  7.3727e-03, -3.1335e-15,
         -2.1532e-03,  6.8650e-02, -1.9921e-02,  3.3509e-02,  5.2670e-02,
          1.0895e-02,  7.0381e-02, -1.0390e-03, -9.0981e-09, -4.4595e-03,
         -2.1753e-15, -1.2734e-19,  1.4873e-14,  1.2732e-09,  1.3143e-02,
          3.3511e-09, -1.9534e-13,  1.1714e-11,  9.8812e-03,  2.1033e-02,
          2.0880e-14, -5.0193e-02, -1.2051e-02,  4.4537e-04,  1.0889e-21,
          4.3255e-02, -1.1540e-02, -1.9047e-09, -3.6046e-02,  1.5512e-02,
          8.3708e-03,  4.1537e-02,  1.3364e-02,  1.1704e-08, -3.3567e-28,
          1.5755e-02,  1.4626e-11, -2.1508e-02,  4.7957e-12,  1.3235e-06,
         -3.0187e-02,  3.0976e-04,  4.2601e-03,  4.1531e-16,  1.9208e-09,
          1.6208e-13,  1.0565e-01,  9.7581e-08, -3.0453e-02,  2.0995e-02,
         -2.8549e-07, -1.7056e-08,  7.8075e-14, -1.8486e-02, -1.0979e-02,
          1.5923e-12,  9.6601e-03, -1.1572e-16, -8.6015e-27,  9.3264e-03,
          7.3571e-02,  6.7048e-02,  1.2568e-02,  5.1238e-02, -2.7629e-03,
          3.7147e-09,  1.3470e-02, -2.8937e-14, -6.3725e-07, -3.0395e-11,
         -2.6978e-03, -3.5645e-10, -7.8457e-03,  1.4617e-02,  1.7337e-15,
          6.2413e-03, -9.3506e-03,  5.1957e-12,  3.0872e-10, -7.8171e-35,
          3.5152e-02, -2.1305e-08,  2.8045e-02, -5.3545e-03,  1.0449e-06,
          6.9295e-02,  1.4744e-02,  1.1209e-10,  3.9104e-02, -9.6076e-09,
          2.1055e-02, -1.1739e-06,  8.8389e-02,  7.9713e-06,  1.6086e-10},
        { 8.2048e-04, -1.3553e-12, -3.5026e-12,  2.3864e-15, -2.4919e-02,
         -1.2761e-02,  2.7525e-02,  1.8079e-22,  2.8477e-03, -3.6855e-08,
         -4.0730e-13,  9.6156e-03, -3.9387e-09, -3.9570e-02, -2.1821e-07,
          1.2302e-02,  6.1859e-03, -1.2912e-02, -6.9134e-06, -3.1798e-03,
          2.4100e-15, -1.9100e-10,  3.6949e-02,  8.6401e-03,  4.5105e-15,
          9.9116e-03,  4.5562e-02,  5.8120e-03,  5.1553e-03,  7.5816e-03,
          1.6484e-02, -2.3461e-03,  1.3458e-02,  1.4597e-09, -3.5253e-03,
          6.7025e-14,  1.4578e-22, -2.0046e-15,  4.4487e-10,  1.0658e-02,
          8.8208e-34, -3.1517e-16, -1.9491e-14, -1.4885e-03,  1.1294e-02,
          1.2149e-15,  1.7286e-02,  3.6772e-02, -3.9341e-04, -1.9009e-38,
         -2.4690e-02,  1.6558e-02,  4.2641e-09, -3.9867e-03, -1.1694e-03,
          3.2564e-03,  6.5422e-02, -3.4973e-03, -1.3187e-09, -1.5618e-33,
          1.3241e-02,  1.3909e-11, -2.6332e-03, -2.0095e-12,  9.7727e-12,
          4.4954e-03,  1.1383e-05,  1.3606e-02, -1.4182e-16,  4.0733e-11,
         -9.1881e-13,  1.0937e-02,  7.3615e-08,  4.7695e-03,  3.9820e-03,
         -3.1820e-22, -4.6584e-17, -2.4820e-16,  1.4777e-02,  2.3159e-02,
          2.4305e-16,  7.3966e-03,  5.3746e-21, -3.1159e-27,  1.0837e-02,
          4.9423e-03, -4.2641e-03, -6.2484e-03,  9.2404e-03, -1.5173e-02,
          8.0746e-09, -6.1168e-03,  1.3682e-13,  1.1481e-06, -9.0502e-11,
          3.6805e-05, -4.8460e-10,  4.5729e-04,  6.0963e-03,  4.9466e-43,
          2.6083e-02, -5.3208e-04,  5.7206e-31, -2.1730e-12,  2.4928e-36,
          6.5833e-03,  2.7473e-09, -4.3406e-03, -1.0721e-02,  7.8438e-07,
          1.7458e-02,  9.8890e-03,  1.2573e-10, -1.5880e-02,  1.9402e-23,
          1.2370e-03, -1.2325e-12,  3.2113e-02,  9.0618e-06,  8.0133e-10},
        { 1.7446e-02,  1.2382e-10,  3.3603e-11, -1.1673e-13, -1.5046e-02,
         -3.1840e-02,  1.3006e-01, -1.0697e-06,  3.1890e-02, -3.5592e-08,
         -2.7800e-12, -6.5928e-03,  5.0396e-08, -3.3642e-02,  2.2442e-06,
          1.2530e-02,  1.1056e-02, -2.2584e-02, -1.1484e-06,  7.7009e-03,
         -7.7285e-15, -3.6351e-10,  6.1132e-02, -7.3593e-03,  3.0380e-15,
         -2.8107e-03, -1.1519e-02,  2.9434e-03, -4.6480e-02,  2.3144e-02,
         -1.6264e-02, -2.3658e-02,  8.6411e-03, -3.8798e-08, -9.8099e-03,
          1.6136e-14,  2.7208e-21,  9.9217e-15, -2.5540e-10, -1.5568e-02,
          6.8171e-09,  1.0664e-09,  5.7517e-11, -1.1159e-02,  7.2872e-04,
         -4.3645e-14, -8.7912e-03, -2.4118e-02, -3.9549e-05,  2.4124e-21,
         -3.4961e-02,  6.4131e-02,  7.0166e-09,  2.2239e-02, -4.7468e-05,
         -2.3000e-03,  9.3561e-02,  1.4807e-02, -7.9787e-09, -9.1233e-29,
         -2.3259e-02,  2.6592e-11,  4.6762e-02, -2.8280e-12, -2.1562e-06,
         -1.3075e-02, -4.4912e-04,  6.1982e-03, -7.8058e-16,  3.8463e-10,
          9.9615e-13,  2.8175e-03, -9.3162e-08, -1.4955e-02, -4.6290e-03,
         -3.9643e-10,  3.0615e-08, -9.7248e-15, -2.2860e-02,  3.8463e-02,
         -4.3586e-13,  4.2623e-02,  1.9580e-16,  2.8179e-26, -1.1669e-02,
          9.2187e-03,  3.5782e-02,  5.3104e-03,  5.1786e-02, -7.5228e-03,
         -1.6393e-08, -7.8583e-03,  6.8830e-15, -7.9360e-08, -8.7555e-11,
          4.3152e-04, -4.5072e-10,  4.1083e-04,  8.5537e-02,  9.6234e-18,
         -4.9565e-03,  1.3256e-02, -3.8241e-13, -2.0509e-10, -4.2366e-35,
          2.2635e-02,  5.6266e-09, -1.0260e-02, -1.9575e-02, -2.4710e-05,
          2.2907e-02,  2.5861e-02,  2.7159e-10, -8.4609e-03, -6.5603e-10,
          1.1472e-02,  1.8521e-06, -8.8414e-03,  1.5126e-05,  9.3117e-10},
        {-1.1109e-10,  5.6192e-43,  1.5487e-41, -1.1070e-42, -4.1964e-13,
         -8.0786e-12, -1.8711e-11,  5.7874e-43,  2.9816e-14,  9.0712e-12,
         -1.0622e-42,  5.7066e-17,  3.4173e-09, -5.6146e-10, -3.0791e-14,
          3.0152e-15, -6.8450e-17, -6.7264e-18, -2.1666e-28,  8.4433e-24,
          4.9606e-43, -4.0825e-13, -6.2886e-25,  6.9366e-40, -3.3925e-42,
         -1.7935e-14, -9.5676e-25, -1.3020e-14, -2.4170e-19,  1.7087e-13,
         -1.7868e-38, -1.0454e-13, -5.4084e-14, -1.8358e-08, -4.3751e-19,
          3.4402e-42, -4.4421e-42,  2.6363e-41,  2.3395e-08, -7.2950e-40,
          5.0024e-12, -1.3277e-37, -5.4230e-43,  3.1611e-17, -4.8697e-16,
         -3.5414e-10, -1.3550e-17, -3.7329e-13,  1.0441e-14, -4.9186e-43,
         -3.3178e-12, -3.4955e-13,  8.1262e-13, -5.4154e-11, -4.3804e-14,
          2.2806e-17, -1.5386e-12, -5.0653e-14, -1.8325e-09,  4.9186e-43,
          2.3017e-16,  2.0514e-20,  1.7866e-13, -4.4001e-43,  3.2931e-43,
         -3.6516e-14, -2.2447e-15, -7.0940e-25, -4.5584e-42, -4.9186e-43,
         -1.1055e-14,  4.9613e-14, -7.5954e-07,  1.7139e-14, -1.0295e-13,
         -3.7872e-10, -1.0202e-15,  4.8247e-07,  2.2832e-14, -1.0306e-13,
          4.9186e-43,  8.9317e-14,  1.3256e-42, -1.9926e-42,  1.4428e-39,
         -5.7263e-16, -6.7418e-13, -1.2969e-14, -5.9396e-11, -2.0662e-12,
         -2.1468e-42, -5.3089e-14, -4.9186e-43, -5.1175e-42, -1.0771e-18,
         -1.4485e-10, -5.0239e-12, -2.0074e-15, -1.0687e-13,  4.5444e-06,
         -1.2083e-14, -5.9710e-14, -9.6224e-13, -4.8205e-42, -1.6563e-42,
          1.4780e-24,  1.6858e-42, -1.2147e-20, -8.6758e-14, -1.2430e-42,
         -3.7661e-16,  2.6648e-17,  5.7031e-41, -1.1065e-13,  3.6896e-11,
         -1.1333e-12,  5.1304e-41,  1.4840e-15, -1.0862e-19,  2.1753e-11},
        { 2.9800e-16, -4.2768e-42,  2.1189e-36, -1.5847e-09, -2.6550e-13,
          1.4748e-16, -1.8783e-12, -2.2369e-16, -7.2889e-17, -2.6948e-22,
          3.0657e-08, -2.2306e-18,  1.9643e-14, -1.7441e-10, -8.3190e-14,
         -3.4747e-16,  2.2786e-17, -7.0861e-17, -1.3588e-10, -1.4866e-16,
         -3.0116e-14,  1.9028e-09, -1.9272e-16, -1.0537e-17, -2.3577e-08,
         -5.5925e-17, -6.4648e-17,  1.5511e-17,  8.0796e-17, -2.3181e-16,
         -1.9520e-17, -4.9244e-17, -9.3805e-18, -4.6524e-40,  1.3344e-17,
         -1.4991e-10, -2.3542e-11, -5.1700e-15, -1.9188e-13, -1.0207e-16,
          8.8702e-43, -4.8443e-09, -4.9326e-43,  1.7064e-17, -7.3597e-17,
         -4.3918e-12, -1.1103e-17,  3.0451e-18,  1.5240e-18,  3.5322e-17,
         -2.4900e-16, -5.9797e-17,  1.9823e-06,  1.4917e-15, -7.5905e-17,
          1.5978e-17, -1.1311e-16,  2.6167e-18, -2.7807e-09,  4.9186e-43,
         -6.5092e-18, -2.2337e-42,  3.9853e-17, -1.5596e-10, -2.2876e-21,
          6.2537e-20,  1.2075e-13, -8.1777e-18,  4.6859e-42, -1.2612e-43,
         -4.8305e-06, -3.9779e-16, -3.1404e-25, -9.9707e-18,  2.7346e-17,
          2.6319e-13,  2.8996e-08, -5.5737e-06, -3.1119e-17,  3.5072e-17,
          1.8081e-08,  1.5518e-17,  1.9099e-11,  4.9186e-43, -4.5786e-17,
         -2.1022e-16, -1.5364e-11, -4.7655e-17, -5.4288e-11,  2.5038e-16,
         -1.6564e-08, -1.1083e-16,  8.2641e-07, -4.7684e-09, -7.5229e-15,
         -1.8158e-27,  5.1152e-12,  7.3687e-17,  1.4779e-16, -2.4177e-06,
         -3.3351e-17, -8.0510e-18,  3.3058e-12, -5.0265e-42, -1.0860e-42,
         -7.8063e-17,  5.1988e-43, -3.3778e-16, -1.5575e-16, -1.9327e-14,
          1.2578e-16,  1.7453e-17, -7.8000e-06,  1.3067e-16,  7.8052e-43,
          1.6878e-17, -1.1916e-40, -6.3110e-17,  1.1721e-19, -5.6255e-27},
        {-7.8275e-10, -2.3822e-42,  9.6800e-18, -6.3041e-09, -4.4190e-10,
         -1.0561e-09, -1.4182e-09, -3.7864e-10,  3.5211e-10, -1.8317e-10,
         -2.6871e-07, -6.1486e-11, -5.0016e-10, -1.2485e-09,  2.2594e-06,
          5.7395e-11, -3.3041e-11, -3.0833e-10, -3.9819e-10, -6.5701e-11,
          2.3519e-32, -1.4668e-12, -7.3061e-11, -4.0012e-11,  5.7735e-08,
          1.7905e-10, -3.6935e-11, -1.3171e-10,  2.0998e-10,  3.6093e-10,
          1.3180e-10,  1.2608e-10, -5.1064e-11, -1.7016e-32, -1.8471e-10,
          2.2621e-12, -3.6304e-31,  1.1965e-06, -2.4697e-15,  3.2004e-11,
         -1.3286e-14, -2.5709e-11, -1.1018e-11, -3.2700e-11,  1.6681e-11,
          1.1803e-06, -3.0775e-12,  1.2110e-10, -1.6056e-14, -4.9626e-16,
         -7.5258e-10,  1.2362e-10, -3.7166e-18, -1.3208e-09, -3.4922e-11,
          1.5129e-10, -1.4002e-10,  3.7587e-10, -1.9555e-10, -6.0956e-43,
          1.2272e-10, -2.8404e-42,  1.6088e-10,  3.9585e-20, -1.0601e-41,
          3.4413e-10,  2.8609e-19,  1.3217e-11,  7.4203e-14, -1.2317e-05,
         -1.2392e-29,  2.1992e-12, -2.0208e-06,  3.2801e-10,  2.1806e-10,
          1.6207e-07,  5.8714e-43,  7.0719e-12,  3.9391e-10,  2.1013e-10,
          3.8634e-42,  4.1274e-10, -1.3537e-42, -4.7602e-42,  2.2457e-10,
         -1.5080e-10, -2.4360e-10,  7.0821e-11, -3.7112e-10, -3.1986e-10,
          8.5501e-16,  1.1458e-10,  4.9254e-11, -3.1926e-15,  1.7568e-14,
         -2.8574e-07, -9.3758e-18, -1.7675e-11, -1.0674e-11,  4.9773e-12,
          1.1201e-10,  4.8692e-11, -4.5191e-13, -1.8875e-26, -1.0650e-43,
         -1.8405e-10, -9.8499e-06, -2.7651e-11, -6.4571e-12,  5.0652e-07,
         -2.2975e-10,  2.7821e-10, -2.1005e-08, -9.0823e-11,  1.0492e-19,
         -1.5823e-10,  3.5251e-26, -2.9424e-12,  3.1971e-14, -2.8250e-12},
        {-1.8279e-02, -3.3726e-11, -1.7661e-11, -1.7289e-13, -1.6956e-02,
         -5.1850e-02, -3.0768e-02,  3.8132e-09, -3.7171e-03,  6.2575e-09,
          7.0138e-12,  1.5308e-02, -2.2584e-08, -3.5636e-02,  4.8571e-06,
          1.5950e-02,  2.2711e-02,  1.2849e-03, -7.8320e-06,  1.5363e-02,
         -4.0993e-16, -1.2457e-10,  4.8137e-02,  1.7252e-02,  5.3220e-16,
          8.8644e-03,  7.9843e-02, -1.5661e-02,  6.0550e-02,  9.8588e-03,
          1.6204e-02,  4.9207e-02, -5.1179e-03,  6.5778e-09, -3.0772e-03,
          6.4679e-14, -1.6760e-23,  4.0274e-15, -3.6489e-10,  2.0549e-02,
         -1.2930e-11, -5.1150e-15,  8.4991e-12,  1.1278e-03,  4.5784e-03,
          1.9998e-15, -2.0133e-02,  9.9572e-03,  2.6121e-03, -6.8679e-23,
          2.2164e-02, -2.9473e-02, -3.5686e-10, -6.8145e-04,  3.1642e-02,
          6.1129e-03,  4.4293e-03,  2.2904e-03,  1.5165e-08,  2.6767e-33,
          1.6243e-02, -6.7999e-12, -2.3709e-02,  2.7273e-11,  3.7300e-08,
         -1.8606e-02,  1.5527e-04,  2.0727e-03, -1.2258e-14,  1.5684e-09,
         -6.7522e-13,  5.2252e-02,  5.9321e-08, -1.9933e-02,  3.3778e-02,
          1.6958e-09,  4.4666e-10,  3.2560e-14,  6.1465e-03, -1.1327e-02,
          4.9610e-13, -8.0534e-03,  1.6073e-18, -3.6502e-27,  2.1100e-02,
          3.6492e-02,  1.1567e-02,  1.0879e-03,  3.4262e-02, -1.4293e-02,
          4.4571e-09,  4.8268e-02,  1.1413e-13,  1.1363e-06, -1.1244e-11,
         -1.0463e-03, -2.0965e-10,  1.1547e-02, -1.6431e-02, -6.8148e-20,
          1.1388e-02, -2.4785e-02,  2.3975e-18,  1.2556e-10,  3.0343e-35,
          3.5078e-03, -3.2583e-09,  4.9304e-02,  7.0827e-03, -3.1714e-07,
          3.3466e-02,  9.3970e-03, -1.6586e-10, -8.0233e-03,  8.9112e-09,
          2.8533e-02, -9.9477e-07,  9.2889e-02,  2.6891e-06, -4.9502e-10},
        {-2.3277e-11,  4.6616e-25,  9.2272e-35,  2.2182e-07, -3.3038e-10,
         -2.6541e-11, -3.6952e-08, -1.8403e-07,  3.5393e-12,  1.0776e-19,
          1.4837e-15,  1.1285e-11, -3.2938e-15, -6.1476e-06, -1.3577e-14,
          8.4947e-12, -7.5506e-12, -5.0284e-12,  1.8554e-09, -1.6623e-11,
          4.1427e-14,  1.7587e-22,  1.0935e-11, -5.3748e-12, -2.7742e-09,
          6.0742e-12,  1.6201e-12,  4.0551e-13, -1.9129e-13, -9.5459e-12,
          2.4716e-13, -8.1856e-12,  3.2706e-12,  1.3362e-07, -1.0825e-11,
         -5.5491e-43,  3.6815e-29, -9.8548e-23,  1.4395e-14,  3.4670e-12,
          4.5246e-12, -1.1085e-13,  1.8713e-13,  6.6810e-12, -1.7801e-11,
         -4.4951e-24, -2.4975e-12, -3.5978e-12,  5.4688e-12, -8.3487e-19,
         -3.1680e-11, -2.1488e-12,  1.8057e-06, -2.2271e-11,  9.5695e-12,
          9.7516e-12,  6.8183e-12,  1.0212e-11, -1.1501e-28,  3.4685e-37,
         -7.5822e-12, -6.6566e-26,  1.9147e-11, -4.2629e-13,  1.2914e-10,
          5.8475e-12, -9.0220e-18,  5.1544e-13, -5.6599e-07,  6.8931e-12,
         -5.3758e-13, -4.1863e-12,  4.0607e-21,  2.6786e-12,  1.2725e-11,
         -2.4250e-08,  3.3013e-13, -1.0766e-07,  4.2465e-12,  2.0082e-11,
         -2.1103e-08,  1.3729e-11,  3.1383e-11, -6.6733e-32, -3.6534e-13,
          1.4443e-11, -3.4534e-07,  6.0313e-12, -8.4653e-07, -3.4150e-12,
         -3.0696e-11,  2.5338e-12, -8.0372e-34, -1.5856e-07,  3.5603e-15,
         -8.6497e-15,  2.1337e-15,  1.3811e-11, -2.6557e-11,  4.6129e-15,
         -3.7803e-12, -8.1247e-12, -6.6341e-11,  2.2917e-13, -5.6718e-39,
         -5.9966e-12,  2.5024e-09, -3.6065e-11,  2.6552e-12, -1.3222e-08,
         -1.4206e-11,  6.6050e-14,  3.2759e-11, -2.3553e-11,  5.6472e-43,
          2.3784e-11, -7.2136e-11,  4.6018e-13, -3.1857e-14, -6.1047e-09},
        { 4.5157e-02, -1.8846e-10, -6.1478e-13, -3.1788e-13, -3.3395e-02,
         -1.9703e-02,  5.8243e-02, -6.4086e-10,  2.6995e-02, -3.0723e-08,
          5.3946e-12,  3.3441e-02,  3.5012e-08, -3.2793e-02,  2.0256e-06,
         -7.5851e-03,  3.4069e-02, -1.1791e-02, -6.7620e-06, -3.8071e-03,
          4.4746e-15, -9.2542e-11,  3.1902e-02,  1.0926e-02,  5.2632e-15,
          6.8349e-03,  2.4587e-02,  1.9815e-03, -4.5446e-03,  5.1777e-02,
          1.2548e-02,  1.1159e-02,  1.6492e-02, -1.4156e-08,  3.2748e-03,
          4.2577e-14,  7.0954e-22,  8.1550e-15,  9.3222e-10,  7.2335e-04,
          1.5681e-13,  1.9254e-12, -1.8944e-12,  9.0772e-03,  2.5795e-02,
         -4.1323e-15,  6.1672e-03,  3.5049e-02,  1.2525e-03,  3.4390e-23,
         -3.3198e-02,  1.6520e-02,  2.0222e-09,  4.7919e-03, -2.6805e-03,
          1.2352e-02,  1.1418e-01, -7.9301e-03, -9.7326e-09,  4.8735e-33,
          3.4881e-02,  4.8354e-11,  1.6416e-02,  5.0942e-12,  7.8842e-08,
          5.1794e-03,  1.1317e-04,  1.0874e-02,  1.3280e-16, -5.8192e-11,
         -8.6623e-13,  3.9914e-02, -1.2248e-07,  4.7834e-03,  8.5376e-03,
         -1.7089e-10, -5.8092e-11,  8.3426e-16,  5.4233e-03,  2.2319e-02,
         -2.5521e-15,  2.1551e-02, -9.1724e-17, -5.0946e-27,  1.3475e-02,
          5.7200e-02, -1.1795e-02,  8.2168e-03,  2.4074e-02,  1.3331e-02,
          1.2396e-08, -1.1013e-02,  3.6663e-14,  5.5623e-07,  3.5051e-11,
          5.5514e-04, -6.5488e-10, -1.2315e-03,  2.1492e-02,  2.0439e-25,
          1.8250e-02,  1.5981e-03,  4.3463e-16, -1.4461e-11,  1.6193e-34,
          6.4849e-03, -5.9526e-10, -2.2398e-02, -3.7278e-02,  3.5989e-06,
          5.2303e-02,  1.3402e-02,  2.7339e-10, -5.4155e-04,  9.7428e-11,
          6.7300e-03, -3.1962e-08,  2.2941e-02,  8.9154e-06, -5.5509e-10},
        { 9.6945e-02,  2.4927e-09, -3.1513e-11, -1.7079e-13, -3.0421e-02,
          4.3668e-02, -1.1411e-01, -6.5950e-07, -2.0459e-03,  2.2473e-08,
         -3.8809e-10,  5.9695e-02, -1.0656e-07,  2.1724e-02,  4.3172e-05,
          6.4707e-02,  7.8307e-02, -3.7749e-02, -1.0080e-06, -2.9030e-02,
         -6.4581e-15,  6.6750e-10,  7.9319e-03,  5.0083e-03, -4.6514e-15,
         -1.5692e-02,  2.2392e-02,  6.9227e-03,  5.6326e-02,  6.2856e-02,
         -6.0254e-04,  7.5449e-02, -1.4831e-02,  5.0924e-09,  4.2960e-02,
         -5.0845e-14,  7.5956e-18,  5.5186e-15, -9.9542e-11, -2.3046e-03,
         -1.8408e-10, -1.4909e-12,  3.3927e-10,  3.0395e-02,  2.6269e-02,
          1.1668e-14, -6.4844e-02,  2.1457e-02,  9.0051e-03,  1.0967e-20,
          9.2764e-02, -6.7900e-02, -1.5519e-08, -6.9449e-03,  3.6314e-03,
          2.4072e-02, -4.7557e-03, -1.3196e-02, -9.6862e-09,  2.8372e-24,
          7.8425e-02, -3.1780e-12, -4.1600e-02,  1.2454e-10, -4.5571e-07,
          5.4755e-02, -5.4342e-04, -3.7056e-03,  1.1761e-12, -5.5480e-10,
         -1.2492e-11,  5.4765e-02,  1.0926e-07,  6.1482e-02, -6.4906e-03,
          5.3874e-08, -2.3795e-08, -8.9553e-14,  2.9607e-02, -3.7510e-02,
          1.6278e-11, -3.8120e-02, -6.7012e-19, -8.9687e-26,  8.4354e-03,
          1.3380e-01, -8.0256e-02,  5.1227e-02, -1.5924e-02,  1.2492e-01,
         -1.3963e-08, -1.2981e-02, -1.6324e-13, -1.5020e-06, -1.9278e-10,
         -6.0474e-04,  3.5069e-10, -1.7758e-02, -7.3584e-03, -1.5571e-14,
         -3.3726e-02,  8.6598e-03, -4.6489e-10,  9.2035e-10, -3.8557e-36,
          2.7471e-03, -4.3765e-08, -6.0446e-02, -4.3033e-02, -5.7279e-06,
          1.0820e-01,  8.7477e-03, -1.9907e-10,  1.9992e-02, -1.6413e-07,
         -1.7605e-02, -2.1760e-05,  2.8793e-02,  4.0870e-06,  7.3686e-09},
        { 2.7937e-02, -5.2372e-09,  5.2058e-12,  1.8316e-14, -1.0902e-01,
         -1.7849e-02,  6.9478e-02,  4.9649e-07, -3.4127e-03,  7.0484e-09,
         -5.7890e-11, -9.2569e-04, -6.4821e-08, -1.5283e-02,  1.1339e-04,
          4.3440e-02,  3.8928e-02, -3.5045e-02, -2.3053e-05, -2.8018e-02,
          3.0146e-13,  4.3646e-10,  6.9128e-02, -9.5617e-03, -3.9769e-15,
         -3.4826e-02,  2.2406e-02, -2.0387e-03, -1.6880e-03,  5.4590e-02,
         -1.0399e-02,  4.3247e-02,  7.5827e-03, -1.3102e-07, -3.4249e-03,
         -3.2865e-14, -3.3780e-17,  1.8364e-14, -2.6514e-10, -4.0442e-03,
          8.5390e-10, -1.5504e-12,  1.6010e-10, -1.3070e-02, -3.1250e-02,
         -4.4125e-14, -6.4143e-02, -3.2293e-02, -3.3988e-03,  1.1972e-19,
          7.5234e-02,  4.8610e-02,  4.1912e-10,  3.6474e-03, -8.0924e-03,
          1.1592e-03,  9.3045e-02,  5.6611e-02, -8.3970e-09,  2.0984e-23,
         -2.2680e-02, -5.3471e-11,  1.4636e-02, -1.2964e-11,  6.3562e-06,
         -1.9378e-02, -6.7988e-05, -3.9926e-03,  2.7420e-13,  1.6989e-09,
         -1.4539e-12,  9.9351e-02,  2.2306e-07, -1.6653e-02, -3.2943e-03,
          2.3355e-09, -3.3512e-08, -5.9739e-15, -2.1440e-02,  5.5482e-03,
         -5.4068e-13,  3.6560e-02,  1.4582e-16,  8.3919e-26, -1.2614e-02,
          6.3656e-02,  5.3668e-02,  2.2338e-02,  3.8279e-02,  3.0849e-02,
         -2.0239e-08,  8.3397e-03, -2.0460e-13, -3.5854e-06, -4.1406e-10,
         -1.5446e-03, -4.9683e-10, -4.7897e-02,  6.5393e-02,  1.3623e-16,
         -1.6070e-02,  2.8243e-02, -3.9096e-09,  1.9231e-09, -3.0213e-35,
          4.0765e-02, -2.6137e-08, -3.7222e-02, -2.6091e-02, -9.2615e-06,
          7.1092e-02,  2.0433e-02,  3.7575e-10,  1.6068e-02, -4.3051e-08,
          9.6973e-05, -1.4770e-05,  4.7950e-03,  1.4837e-05,  2.1849e-09},
        { 4.3578e-02,  3.2424e-10,  4.2504e-12,  9.2213e-14, -5.4197e-02,
          5.6625e-02,  5.0051e-02,  8.9888e-09, -1.1388e-02,  1.8735e-08,
          1.6301e-11, -2.6731e-02, -7.8799e-08,  2.1909e-02,  2.7105e-05,
          7.0935e-02, -1.7880e-02, -3.0065e-02,  2.7004e-05, -2.8355e-02,
         -1.7291e-15,  4.4129e-10, -8.6593e-03, -1.0110e-02, -5.5471e-15,
         -1.8884e-02, -2.3214e-02,  2.0430e-02, -1.3565e-02,  6.7018e-04,
         -6.2320e-03, -1.4642e-02,  9.7131e-03, -1.4237e-08,  3.3281e-03,
         -6.2388e-14,  2.5741e-21, -7.5174e-16, -1.0528e-10, -7.1602e-03,
         -1.8531e-11, -1.4253e-15, -1.1880e-12, -1.9475e-02, -4.7523e-02,
         -3.3015e-14, -4.2752e-02, -1.0260e-02, -4.7255e-03,  3.9558e-23,
          6.7714e-02,  4.1640e-02, -4.8774e-10,  4.1486e-02, -2.5610e-02,
         -7.2256e-03,  2.4485e-02,  4.0216e-02, -1.6286e-08, -4.8891e-29,
         -3.6653e-02, -7.9927e-11,  1.9514e-02, -1.2242e-11,  6.9525e-08,
          1.3540e-02,  1.6335e-04, -4.8337e-03,  1.1284e-13, -3.5101e-11,
          7.0746e-13, -2.7788e-03,  4.8837e-08,  1.7095e-02, -1.2012e-02,
          2.0231e-09, -5.8988e-11, -5.5489e-14,  6.0451e-03,  5.8203e-03,
         -2.5647e-13,  2.2642e-02,  2.4978e-16,  3.7822e-26, -1.0800e-02,
         -2.2448e-02,  3.6152e-02,  1.1896e-02, -6.4784e-03,  3.7382e-02,
         -3.6962e-10, -1.3115e-02, -1.8512e-13, -2.4201e-06, -1.5485e-10,
         -6.5812e-04, -8.0962e-11, -3.0638e-02,  2.2430e-02, -6.1412e-16,
          4.2361e-03,  3.9336e-02, -5.5438e-14,  3.4187e-10,  3.6276e-35,
          1.1926e-02, -2.4884e-08, -4.7773e-02, -1.6739e-03,  2.1443e-07,
         -1.2874e-02, -1.3782e-03,  8.9946e-11,  6.4149e-03, -6.1632e-08,
         -1.6554e-02, -9.9567e-07, -6.3201e-02,  3.5897e-06, -7.3031e-10},
        {-2.4361e-02,  1.8772e-10,  4.4253e-12, -5.4003e-14, -6.2999e-02,
          2.6587e-03,  5.7001e-02, -3.8894e-10,  1.1554e-02, -3.1922e-08,
          2.4285e-11, -7.5617e-03, -1.7563e-08, -2.7606e-02, -2.6693e-06,
         -1.0111e-02,  1.4364e-02,  8.9923e-03,  2.2698e-05,  8.1524e-03,
         -7.5454e-16,  5.6110e-10,  1.1662e-01, -7.0492e-03, -4.5095e-15,
         -1.9640e-02,  3.0339e-02, -2.8144e-03, -3.1234e-02,  2.9096e-03,
         -1.2069e-02, -9.3115e-03,  3.5524e-04, -1.5430e-08, -1.3636e-02,
         -1.7050e-14,  1.9008e-21, -1.0695e-14,  1.1117e-09, -6.8227e-03,
          2.7874e-08,  1.7004e-10,  3.3366e-11, -1.2555e-02,  1.6576e-02,
         -2.1056e-14, -4.1872e-02, -2.4044e-02, -6.0917e-03,  5.2325e-23,
         -2.3001e-02,  4.0489e-02, -2.0428e-09, -4.0588e-03, -8.8710e-03,
         -2.8797e-03,  6.5736e-02,  1.7404e-02,  9.6119e-09,  1.7712e-29,
         -2.2764e-02, -1.9518e-11,  1.6985e-02,  1.1769e-11,  3.6616e-08,
         -2.4579e-02,  8.9581e-05, -4.3505e-03,  9.0032e-16,  5.3507e-10,
          5.1931e-12,  1.2298e-02, -2.4142e-07, -2.5094e-02, -6.1708e-03,
         -8.6983e-11,  7.0858e-10, -8.7604e-16, -2.0868e-02,  9.4074e-03,
         -1.6556e-13,  3.6900e-02,  5.2751e-20,  6.7308e-27, -1.1020e-02,
          5.7166e-03,  8.8977e-02,  4.1760e-03,  2.8884e-02, -2.5890e-02,
         -1.2205e-08, -8.8099e-03, -1.1236e-13, -1.2910e-06, -1.3567e-10,
          3.1426e-04, -6.8323e-10, -2.3499e-02,  4.3972e-02, -3.0873e-20,
         -1.7695e-02,  9.8532e-03,  1.8508e-11,  1.3965e-12, -1.3600e-34,
          4.2059e-02, -1.9077e-08,  2.7318e-02, -1.5088e-02, -1.1241e-05,
          4.6421e-02,  3.0717e-02,  4.2358e-11, -7.6238e-03, -1.7929e-09,
          1.3127e-02,  2.5362e-06,  5.1163e-02,  1.6863e-05, -1.9997e-10},
        { 2.7605e-02, -9.5306e-08,  6.5835e-12,  3.3876e-13, -2.1442e-02,
         -5.9298e-02,  1.7561e-01, -1.0211e-05,  4.5010e-02, -1.1504e-07,
         -2.3808e-08, -3.0866e-02,  1.3223e-07, -3.3823e-02,  4.2989e-05,
          1.4144e-02, -2.2285e-03, -4.8317e-03, -5.0151e-05,  4.1825e-02,
          7.8532e-14, -9.4694e-10,  7.6564e-02,  3.4508e-03,  4.5017e-15,
          4.3079e-04, -4.4748e-02, -1.5489e-02, -2.6651e-02,  1.6172e-02,
         -2.5609e-02, -1.9167e-02, -5.3128e-03, -2.3047e-07, -1.9546e-02,
          4.1268e-14, -1.7480e-16, -3.8551e-14,  3.4425e-09, -2.4604e-02,
          8.1180e-06,  6.4023e-08,  1.0730e-10, -2.7007e-02, -2.9836e-02,
         -2.7356e-14, -1.1353e-01, -8.5594e-02, -4.8394e-03, -2.8288e-16,
         -4.2188e-03,  4.6898e-02,  5.2055e-09,  9.2375e-02,  2.2839e-02,
         -7.6224e-03,  6.5438e-02,  3.6027e-02, -2.0822e-08,  1.4666e-17,
         -7.2280e-02,  4.9234e-11,  8.0663e-02, -1.0480e-11, -1.1790e-05,
         -5.6610e-02, -9.2759e-04, -1.6550e-02, -1.0333e-12,  2.5484e-09,
          8.1926e-13,  1.4239e-02, -2.4294e-07, -6.5074e-02,  5.2230e-02,
          1.0951e-05,  5.4825e-07, -5.9243e-12, -5.1786e-02, -8.4380e-03,
         -1.8714e-11,  7.7169e-02,  2.0457e-16,  1.7062e-25,  2.1777e-03,
         -6.2447e-03,  1.4310e-01,  2.8737e-03,  1.0243e-01, -2.2899e-02,
         -3.0792e-08,  5.5915e-02,  8.2823e-14,  1.4910e-06, -4.5648e-11,
         -5.5954e-05, -9.9758e-10,  1.9709e-02,  7.5496e-02,  5.9427e-11,
         -4.3143e-03,  9.6094e-04, -4.7295e-10, -8.8758e-10,  2.2158e-35,
          1.9556e-02,  1.3997e-08,  5.5874e-02, -6.8293e-03, -6.7287e-05,
         -6.3178e-03,  2.8671e-02,  1.2629e-10,  2.9122e-03, -2.8009e-07,
          6.1649e-02,  4.9578e-05,  4.0317e-03,  1.9423e-05, -3.0293e-09},
        {-4.3715e-02,  4.5962e-10,  1.8317e-11, -1.9954e-14,  4.4919e-02,
         -5.8239e-02,  3.4032e-02, -6.9907e-08,  3.2859e-03, -3.0368e-08,
         -5.9051e-12, -2.0689e-02,  1.6626e-07,  2.2362e-02,  7.6771e-06,
         -1.1841e-03, -4.5952e-03,  1.6640e-02,  9.7798e-06,  4.9535e-02,
          6.1451e-15, -4.3749e-10,  5.7906e-02, -1.6032e-03,  6.4526e-16,
          1.4454e-02,  1.4839e-02, -1.9031e-02,  1.0787e-02, -2.1607e-02,
         -1.2993e-02,  1.5288e-02, -1.6673e-02,  2.8166e-08, -1.2710e-02,
          2.9631e-14,  5.1034e-22, -2.3797e-14, -8.3992e-10, -9.7743e-04,
          2.7399e-08, -6.6125e-12,  2.2230e-11, -4.3796e-03,  1.0405e-02,
          1.7198e-14, -2.9046e-02, -5.1663e-02,  3.1048e-03,  2.0237e-23,
          1.6125e-02,  2.7729e-04,  2.6585e-09,  1.5037e-02,  4.2077e-02,
         -7.9492e-03, -3.9667e-02,  6.6222e-03,  2.7601e-09,  7.5819e-28,
         -3.2504e-02,  4.6564e-11,  7.2799e-03,  7.5665e-12, -3.5000e-07,
         -3.3764e-02, -4.4763e-04, -3.7934e-03, -1.0573e-13,  2.0537e-09,
          5.3042e-13,  8.0186e-03,  1.5890e-08, -3.8876e-02,  2.8479e-02,
          5.5741e-10,  9.9025e-09,  1.1826e-13, -2.4849e-02, -5.1358e-03,
         -1.9154e-14,  9.3499e-03,  2.4416e-16,  2.5160e-27, -4.5594e-03,
         -1.7480e-02,  9.4487e-02, -1.9442e-04,  8.0508e-02, -3.7496e-02,
         -7.3333e-09,  4.7409e-02,  2.3014e-13,  2.3252e-06,  1.9426e-10,
         -1.0625e-04,  1.4312e-10,  3.7418e-02,  2.9282e-02,  9.0476e-18,
         -1.0437e-02, -2.2083e-02,  3.8936e-16, -2.3848e-09,  1.0674e-34,
          1.5918e-02,  4.5634e-08,  9.9006e-02,  4.5462e-02, -1.2156e-06,
         -1.9954e-02,  1.2626e-02, -2.6644e-10,  1.7764e-02, -8.5124e-09,
          4.8287e-02,  1.2134e-05,  6.4737e-02,  1.9241e-06, -7.1514e-10},
        {-1.6331e-03,  9.6783e-09,  8.5027e-12, -4.0676e-13,  4.0986e-02,
          1.5686e-01, -1.1529e-01,  7.4843e-06,  7.2832e-03,  1.5968e-08,
          2.2479e-09,  7.5885e-04, -2.3873e-07,  4.3439e-02, -1.4838e-05,
          1.4605e-01,  1.2993e-02,  6.6406e-02,  2.1592e-05, -2.3711e-02,
          1.0401e-13,  3.3743e-10, -1.7735e-03, -8.4710e-03, -1.3498e-15,
         -5.0515e-02,  2.2834e-02,  1.4840e-02,  6.6087e-02, -4.6382e-02,
         -9.3340e-03,  2.7238e-02, -1.2859e-02, -1.6252e-08,  2.4528e-02,
         -1.2670e-14,  5.1443e-17,  1.5731e-14, -1.1714e-09,  4.6162e-03,
         -1.7609e-08,  8.5574e-11,  3.0590e-10, -2.9845e-03, -9.9951e-03,
         -7.8403e-14,  7.7741e-02,  4.7611e-02,  1.3209e-03,  9.9293e-18,
          1.1276e-01, -3.5526e-03,  1.5447e-09,  3.9786e-02,  3.3571e-03,
          3.1532e-03, -5.1874e-02,  4.5197e-02,  1.9577e-08,  1.0939e-16,
          2.7076e-02, -1.3149e-10, -3.2585e-02,  8.5968e-11,  2.2248e-05,
          4.6072e-02,  8.1262e-04, -2.8625e-02,  2.5301e-12,  5.9868e-10,
          1.9022e-12,  2.1318e-02,  7.3029e-08,  5.4858e-02, -2.2235e-02,
          3.1040e-07,  1.7337e-07, -4.7984e-14,  6.5574e-02, -2.1726e-02,
          8.0203e-12, -4.1790e-02, -7.5006e-17,  1.6333e-28, -1.2121e-02,
          2.4031e-02, -5.6564e-02,  3.3543e-02, -7.4259e-02,  7.1467e-02,
          7.5014e-09,  4.4432e-02, -3.4061e-13, -4.5511e-06, -5.2568e-10,
          3.1517e-03,  1.6147e-10, -5.4299e-02, -3.4661e-02, -1.0185e-10,
         -5.6753e-02,  2.2719e-02,  9.4587e-10,  2.5241e-09,  6.8035e-34,
          3.9186e-03, -8.8197e-08,  2.4928e-02,  2.6990e-02, -3.2265e-06,
          9.3093e-02,  1.4422e-02, -1.9311e-10, -4.9827e-02,  2.4166e-07,
         -9.8393e-03, -3.3014e-05,  2.2904e-02, -3.7617e-06,  6.5811e-10},
        {-5.6226e-02,  1.5257e-10, -2.8130e-12,  1.0264e-13, -1.5111e-02,
          4.9487e-02, -1.9401e-02,  5.2882e-08,  1.3226e-03, -2.1945e-08,
          3.0049e-10, -1.7721e-04, -1.3296e-08,  2.7190e-02, -5.9992e-05,
         -4.9214e-02,  1.2663e-02,  5.7720e-02,  4.2093e-05,  2.4082e-02,
         -4.5413e-15,  3.7067e-10,  1.1433e-01, -6.3061e-03, -4.4259e-15,
         -1.2993e-02,  5.1858e-02, -6.7209e-03, -2.3453e-02, -1.8750e-02,
         -4.3928e-03, -6.5911e-03, -6.2684e-03,  4.7043e-08, -1.0031e-02,
         -2.4452e-14, -3.7880e-23, -3.8423e-15,  1.9788e-09,  2.6979e-03,
          4.3346e-08,  1.9655e-11,  5.8074e-11,  1.3271e-03,  5.3856e-02,
          1.6428e-14,  5.5874e-03, -1.0864e-02, -5.4387e-03,  9.5300e-23,
         -3.2068e-02,  1.2374e-02, -4.5541e-09, -3.2525e-02, -9.3114e-03,
         -1.7539e-03,  1.6994e-02, -4.5811e-03,  1.1769e-08,  7.0158e-36,
         -9.6628e-04, -9.8758e-12, -7.2064e-03,  1.2805e-11,  9.0874e-07,
         -1.9505e-02,  8.3634e-04, -4.1216e-03, -3.7599e-16,  5.0448e-10,
         -1.2802e-12, -3.4046e-03, -1.3070e-07, -1.9825e-02, -1.5329e-02,
         -1.3414e-09, -3.5240e-09, -8.5070e-15, -1.4108e-02, -1.8216e-03,
         -1.8606e-14,  1.1546e-02, -2.3994e-16,  4.1159e-27, -9.7141e-03,
          5.0134e-04,  7.6996e-02,  6.8967e-03,  3.8380e-03, -2.7338e-02,
         -6.6254e-09, -2.5720e-02, -3.9733e-14, -2.8911e-07,  8.3902e-12,
          1.3938e-04, -3.8554e-10, -1.3765e-02,  4.2883e-03, -5.5920e-15,
         -1.9555e-02,  2.7051e-03,  2.2446e-11, -4.0329e-11, -9.2784e-35,
          4.3814e-02, -1.6398e-08,  6.4147e-02,  8.9629e-03,  4.4542e-06,
          5.8464e-02,  2.3980e-02, -1.6743e-10,  4.8894e-03, -1.5833e-09,
          9.9936e-03,  2.2558e-05,  8.1299e-02,  9.7146e-06, -2.1586e-09},
        { 1.2552e-01, -6.5492e-08,  1.1612e-11, -3.0083e-13, -1.8981e-02,
          5.7951e-02,  1.2871e-01, -6.5379e-06,  4.1906e-02, -4.8432e-08,
         -3.3495e-07, -3.9277e-02,  7.9226e-08, -3.2678e-02,  6.3694e-05,
          1.6224e-01, -3.3232e-02, -3.4840e-02, -1.7395e-05, -3.0056e-03,
         -9.2525e-14, -8.5193e-10, -3.2414e-02,  1.7106e-02,  3.6859e-15,
          3.2149e-03, -7.0427e-02,  2.5232e-02,  1.8584e-02, -1.3602e-02,
         -7.2383e-04, -3.6804e-02,  6.7091e-03, -1.6668e-07,  8.7397e-03,
          1.7181e-14, -3.2387e-16, -4.6875e-14, -7.4284e-10, -1.6181e-02,
          2.3068e-06,  5.2401e-07,  2.4643e-09, -4.2444e-02, -9.3445e-02,
         -5.1845e-14, -1.1520e-01, -8.1305e-03, -5.1829e-03, -5.7655e-15,
          7.1377e-02,  3.1730e-02,  1.1756e-10,  1.7840e-01,  1.3042e-03,
         -5.6513e-03,  3.4970e-02,  4.8586e-02, -2.2755e-08, -3.0359e-16,
         -5.8651e-02,  1.2205e-11,  7.8334e-02,  6.6833e-12, -2.2176e-05,
          1.5180e-02, -1.0265e-03, -1.7845e-02, -7.8780e-13, -1.2814e-09,
          7.3070e-12, -3.3561e-02, -1.2056e-07,  1.3816e-02,  5.4172e-02,
          7.3183e-05,  7.2846e-07, -2.4819e-12,  2.1722e-02, -2.5252e-02,
         -3.0624e-11,  4.9429e-02, -1.2455e-12,  1.6913e-25,  2.3964e-02,
         -3.7202e-02,  4.9115e-02,  1.3308e-02,  2.8877e-02,  5.8318e-02,
         -4.1285e-08,  6.1451e-02, -6.3551e-14,  1.2521e-07, -4.8568e-11,
          2.4957e-03, -6.9397e-10,  6.9944e-03,  2.0039e-02, -2.7971e-09,
          2.8819e-02,  3.2408e-02,  3.5194e-11,  2.3868e-08,  4.9539e-34,
         -2.2699e-02, -6.0708e-09, -1.7225e-02, -1.7708e-02,  1.9635e-05,
         -3.5240e-02,  7.2608e-03,  2.1310e-10, -3.7295e-02,  1.6580e-05,
          3.0839e-02, -6.7863e-05, -8.7328e-02,  4.9883e-06, -3.3134e-09},
        {-1.0959e-01, -7.2608e-09, -1.0766e-11,  9.7692e-14, -5.4611e-03,
         -2.5728e-02, -9.0355e-02,  2.1081e-05, -7.3138e-02,  2.5516e-08,
          5.7074e-08, -2.9857e-02,  6.0421e-07,  8.2761e-02,  1.0251e-08,
         -1.4325e-02, -2.5905e-02,  3.7021e-02,  1.7587e-05,  2.4526e-02,
         -1.3849e-13,  6.3618e-10,  1.7560e-02,  1.1429e-02, -6.8121e-15,
          1.1664e-02,  9.2981e-02, -2.1147e-02,  8.1124e-02, -4.0366e-02,
          2.7003e-02,  5.8289e-02, -7.8721e-03, -6.0125e-08, -1.7400e-02,
         -5.8547e-15,  1.9168e-18, -1.0100e-14,  2.1100e-10,  3.9611e-02,
         -1.0043e-07,  7.2011e-08,  1.0084e-10, -5.0418e-03, -9.3694e-03,
          4.0444e-14,  1.0523e-03, -1.0204e-02, -2.7899e-03,  1.7592e-16,
          1.0147e-01, -3.2684e-02,  1.1640e-09, -2.8212e-02,  3.6159e-02,
         -1.1303e-02, -1.1106e-01,  3.4165e-02,  3.7961e-09, -3.9140e-21,
         -3.3884e-02, -5.0651e-11, -5.7132e-02, -1.1687e-10,  3.8370e-05,
         -4.2606e-02,  1.5011e-03, -7.7951e-04, -3.9602e-12,  3.8303e-09,
         -9.6425e-12,  6.3603e-02,  1.5178e-07, -4.4666e-02,  4.2705e-02,
          3.7917e-09, -9.7267e-09,  1.8886e-13, -1.3096e-03, -3.4762e-02,
         -5.8789e-13, -2.2423e-02, -9.0100e-17,  9.9079e-27,  1.5999e-02,
         -4.5022e-02,  1.2563e-01, -1.1320e-02,  4.0687e-02, -5.9430e-02,
         -1.4506e-08,  5.7835e-02,  3.9550e-14, -6.6354e-07,  1.0310e-10,
         -2.8578e-03,  1.6129e-10,  9.9393e-03, -5.9473e-02, -9.4502e-12,
          3.7781e-02, -1.8462e-02,  7.5207e-10, -5.3494e-10, -1.4850e-34,
          1.5588e-02, -9.4549e-09,  1.1351e-01,  1.0125e-01,  7.8037e-05,
         -3.2468e-02, -1.5706e-02, -1.5892e-10,  5.7933e-02,  2.5630e-06,
          3.6929e-02,  3.2646e-05,  1.0205e-01, -1.0575e-05, -3.2394e-10},
        {-2.8547e-02, -4.8256e-19,  6.6625e-12,  6.9607e-16,  2.1430e-05,
         -4.0896e-03, -3.5653e-02,  3.1874e-09, -3.3644e-02, -6.4092e-09,
         -1.1954e-11, -1.0420e-02, -1.0738e-08,  4.7939e-02, -5.1532e-08,
         -1.9866e-02, -1.5382e-02,  7.6944e-03,  2.6733e-06,  5.0430e-03,
          4.7088e-15,  6.6085e-11, -1.7539e-02,  4.4240e-03, -7.2871e-15,
          1.1625e-02,  2.3799e-02, -4.3807e-03,  2.3702e-02, -9.0347e-03,
          1.5449e-02,  1.6269e-02,  4.3873e-04,  8.8522e-10, -5.2080e-03,
         -4.2464e-14,  2.5624e-22,  3.1732e-15,  3.7769e-10,  1.5901e-02,
         -1.4030e-12, -9.9822e-13, -7.2980e-15,  1.8113e-03, -2.3795e-03,
          2.1646e-14, -5.6394e-04,  1.9782e-03, -1.0187e-03,  3.6073e-29,
          3.4685e-02, -1.7325e-02, -1.9336e-09, -1.2983e-02,  5.4640e-03,
         -4.2393e-03, -5.0478e-02,  5.9002e-03, -7.7298e-09,  1.1788e-34,
         -8.4967e-03, -8.1996e-12, -2.1203e-02, -4.0478e-12,  2.1589e-08,
         -1.0401e-02,  1.7994e-04,  3.2659e-03, -1.1365e-15,  4.0330e-11,
          2.9864e-12,  1.2439e-02, -1.6637e-07, -1.1105e-02,  1.2987e-02,
         -4.4305e-17, -1.8609e-10,  3.0229e-14,  3.3380e-04, -1.1097e-02,
          8.5154e-16, -1.0601e-02, -4.0674e-18,  3.9006e-28,  7.6753e-03,
         -2.3544e-02,  4.0382e-02, -5.3225e-03,  8.1600e-03, -1.7415e-02,
          3.0151e-09,  4.9883e-03,  1.2475e-14, -3.4560e-07,  8.5523e-11,
         -1.5937e-03,  2.0388e-10,  9.5092e-03, -2.9372e-02, -4.3719e-25,
          2.5342e-02, -3.6632e-03, -7.9183e-23,  1.6478e-11, -2.9421e-36,
          1.7289e-04, -8.1001e-10,  2.4334e-02,  3.6559e-02, -3.8444e-06,
         -2.7054e-02, -1.3569e-02,  2.1397e-11,  3.2732e-02,  3.2845e-13,
          5.4075e-03, -4.6307e-08,  1.4392e-02, -1.0208e-05,  7.7675e-10},
        {-4.8492e-02,  2.4449e-08,  4.1708e-12,  1.0952e-13,  4.6534e-02,
         -3.2682e-02,  1.5830e-01, -2.9744e-05,  4.3602e-02, -7.9412e-08,
         -2.2184e-07, -1.8892e-02, -9.2441e-08, -9.2811e-03,  6.7992e-05,
          4.7953e-02,  1.5129e-02, -1.7696e-04, -2.8266e-05,  3.1521e-03,
          3.2451e-13, -1.1491e-09,  6.9381e-02, -3.8897e-02,  2.5830e-15,
         -3.4873e-02, -1.5648e-02, -7.6353e-06, -7.0217e-02,  4.5136e-03,
         -4.8832e-02, -2.7029e-02,  4.3975e-03, -8.4839e-08, -1.6647e-02,
          1.1938e-14, -2.3231e-16,  8.0391e-14, -1.3533e-08, -2.4483e-02,
          2.0405e-06, -7.2838e-07, -6.1408e-08, -1.1080e-02,  1.6026e-02,
         -8.2769e-14,  1.0301e-01, -4.1056e-02,  4.9521e-03, -3.1687e-15,
         -1.4466e-02,  1.2947e-01,  5.5661e-09, -6.4789e-03,  1.1965e-02,
         -1.1104e-02,  8.9071e-02,  4.8558e-02,  8.3199e-09,  8.6155e-18,
         -3.3173e-02, -5.8652e-11,  5.7851e-02,  4.7451e-12, -4.2463e-05,
         -1.3140e-02, -8.9298e-04,  4.0538e-03,  5.6097e-13,  1.2000e-09,
         -6.5430e-12,  1.0774e-02, -3.6243e-07, -1.2538e-02, -4.9254e-02,
         -2.2194e-06,  5.5017e-07, -5.9012e-15, -2.9631e-02,  8.5361e-02,
         -6.2568e-11,  3.4466e-02,  2.3116e-16,  4.3108e-26, -5.6531e-02,
          6.2418e-03, -3.1170e-03,  1.1958e-02,  4.6821e-02, -1.1101e-02,
         -3.6704e-08,  1.9584e-03, -4.5582e-15, -1.1019e-06, -4.7826e-10,
          9.3870e-04,  1.1044e-09, -2.4769e-02,  1.6771e-01,  7.9525e-11,
         -5.6378e-02,  2.6075e-02, -1.7013e-08,  1.9458e-08,  4.7481e-35,
          4.5062e-02,  1.0190e-08,  8.9851e-04,  1.3246e-02, -1.0069e-04,
          4.9259e-02,  3.7764e-02,  3.0565e-10, -2.5246e-02, -2.2258e-06,
          1.7415e-03,  6.6369e-06, -9.2633e-03,  2.2469e-05, -1.3984e-09},
        { 2.0428e-12, -2.4282e-38, -8.8848e-21, -1.9917e-26, -1.2787e-13,
         -2.1059e-13, -1.9472e-12, -5.0195e-42, -8.2386e-13,  1.9086e-18,
          7.5810e-43, -5.4969e-13,  1.4913e-23, -1.2058e-11, -4.1605e-18,
          6.5843e-13,  4.1810e-13,  8.6217e-13, -1.9166e-10,  1.4351e-13,
          6.2702e-15,  2.8413e-21,  9.8578e-13, -1.4130e-12, -6.8807e-27,
         -9.1753e-13, -9.8122e-13,  4.5267e-13, -2.1253e-12, -2.7081e-12,
          2.1726e-12, -1.0221e-12, -4.8063e-13,  8.7003e-21, -1.3656e-13,
         -7.1115e-27, -5.1288e-43,  3.0092e-25, -5.8294e-43, -6.2658e-13,
         -1.4073e-06, -2.0487e-42,  1.4882e-42,  1.7443e-12,  2.1000e-12,
          2.2674e-25,  1.6910e-13, -1.4597e-12, -2.2726e-13,  1.1365e-42,
          1.4748e-12,  4.6533e-14, -1.5158e-06,  1.9159e-12, -2.0132e-14,
          7.0643e-13,  7.4188e-13,  5.2349e-14,  6.5968e-20, -5.0026e-43,
         -1.7769e-12,  7.6266e-24, -4.1079e-13,  2.3340e-20,  8.5818e-37,
          1.1564e-12, -1.8179e-28, -3.8191e-13,  1.5370e-33, -2.5006e-11,
         -4.9186e-43,  6.8112e-13,  1.6978e-17,  1.6594e-12, -1.9074e-12,
          2.4001e-40, -1.9120e-14, -2.5363e-06, -2.4507e-13, -1.6220e-12,
         -1.0142e-10, -8.4779e-13,  6.0695e-06, -6.1175e-39,  1.9355e-12,
         -5.5960e-13,  1.2573e-12, -1.0162e-12, -2.1851e-12,  1.1155e-12,
          8.6127e-17,  4.7379e-13,  1.6745e-25, -1.0407e-17,  7.3887e-21,
          2.1625e-36,  2.3582e-09, -1.0885e-12,  1.3694e-13,  1.2744e-08,
         -1.3124e-12,  2.2228e-13, -2.7910e-08,  2.5074e-28, -5.0587e-43,
         -1.1378e-13,  1.0538e-20,  2.5257e-12, -3.4089e-13,  3.6487e-17,
          1.1933e-12, -3.7800e-13, -4.1030e-20,  1.5258e-12,  1.8483e-42,
         -9.5068e-13, -1.4182e-05,  1.8545e-12, -5.7731e-17,  5.7873e-11},
        {-1.6392e-02, -2.9167e-09,  1.1546e-11,  8.4690e-15,  1.9595e-01,
         -6.6117e-03, -3.7060e-02, -3.2760e-06,  1.5949e-02, -1.0296e-07,
          2.2555e-09,  7.9468e-03,  1.1046e-08,  1.2174e-01,  4.1110e-05,
         -1.6319e-02, -3.7462e-03,  5.4520e-02, -4.0612e-05,  4.5496e-02,
          3.5482e-13, -8.3743e-10, -8.6171e-02, -1.2876e-02,  3.5668e-15,
          2.6554e-02, -4.9808e-02, -1.0358e-02,  7.8847e-03, -1.2914e-02,
         -1.5833e-02,  1.5866e-02, -1.7493e-02,  1.3641e-07,  1.2891e-02,
          5.2137e-15,  2.4686e-17,  5.3894e-14, -9.8175e-08, -7.4966e-03,
          1.5538e-08, -2.3673e-08, -1.0524e-10,  3.3832e-02,  4.9419e-02,
          4.4673e-14,  1.1669e-01, -6.3265e-03,  1.6274e-02,  2.4855e-18,
          2.0865e-02, -1.7889e-02,  2.8767e-09, -1.2672e-02,  4.3739e-02,
         -1.3747e-03, -1.0858e-01, -2.4817e-02,  1.7827e-09,  1.0859e-18,
          3.2426e-02, -4.8280e-12,  2.0130e-03,  1.3980e-11, -9.5308e-06,
          2.0281e-02, -5.9888e-04,  1.0049e-03,  7.5261e-15, -1.7233e-09,
         -2.0821e-12, -1.9039e-02, -5.7737e-07,  1.8718e-02, -7.9532e-03,
         -4.7896e-07,  2.2145e-08,  4.3949e-14,  2.3970e-03,  1.1448e-02,
          8.2761e-12, -4.3755e-02,  2.0366e-16,  7.4144e-27, -1.7632e-02,
          4.3222e-03, -5.1744e-02,  1.4661e-02,  3.1184e-02,  2.5477e-02,
          2.0218e-08,  1.5262e-02,  1.4747e-13,  1.4163e-06,  1.0594e-10,
          1.4847e-03,  1.1038e-09,  5.9223e-02,  2.0145e-02,  1.3069e-14,
         -2.4118e-02, -1.8906e-02,  4.3120e-09,  1.0319e-08,  1.1314e-34,
         -1.7666e-02,  2.7350e-08,  6.1729e-02,  6.7354e-02,  4.7867e-05,
         -2.9364e-02, -1.9034e-02, -3.1126e-10,  4.4843e-02,  2.7153e-08,
          1.9627e-02,  2.3613e-05, -7.6613e-03, -1.5534e-05,  6.7318e-10},
        { 3.7565e-02,  5.0626e-08, -2.3734e-11,  2.3265e-13,  1.7202e-02,
         -3.1994e-02,  9.4537e-02, -3.0080e-05,  8.4415e-03, -3.4573e-08,
          9.4015e-09,  2.1993e-02,  1.4400e-07,  1.4013e-01,  4.9282e-05,
         -1.2662e-01,  3.5985e-02,  1.2764e-02,  2.2294e-06,  4.0071e-02,
          1.0213e-12,  1.2803e-09,  3.1586e-02, -1.6419e-02, -1.9095e-15,
          1.8354e-02, -5.4543e-02, -1.4150e-02, -6.8143e-02,  8.7013e-02,
         -2.0308e-02,  2.2402e-02, -3.2362e-03,  3.4752e-09,  9.3921e-04,
         -4.5549e-14,  5.4435e-18, -1.1611e-14,  2.6229e-09, -2.5365e-02,
          2.1328e-06, -3.4284e-10,  4.8107e-10,  3.6556e-02,  8.1720e-02,
          7.3308e-14, -4.4423e-02, -6.4542e-02,  4.2533e-03, -3.8178e-17,
         -5.5699e-03,  2.4447e-02, -1.5317e-09, -3.6272e-02, -5.6244e-03,
          4.0319e-03,  3.6156e-02, -2.0642e-02,  5.0715e-09,  1.2579e-17,
          8.8327e-03,  4.9660e-11,  4.8227e-02, -7.4500e-11, -3.2536e-05,
         -1.8391e-02, -8.4365e-04,  8.8257e-03,  7.5156e-12, -6.0649e-10,
         -5.5735e-13,  3.7203e-02,  2.2026e-07, -2.2058e-02, -4.4013e-03,
         -8.9742e-06, -4.7128e-07, -4.0690e-14, -6.3113e-02,  1.5149e-02,
         -2.6600e-12,  4.0854e-02,  5.2552e-13,  2.3026e-26, -1.8451e-02,
          5.7048e-02,  1.1161e-01,  3.0305e-02,  9.7301e-02,  2.5565e-02,
         -2.4768e-08, -6.9364e-02,  5.5166e-14,  8.0375e-07,  1.5260e-10,
         -1.2760e-03,  4.1589e-10,  3.5659e-02,  8.6952e-02,  8.1607e-10,
         -9.0788e-03,  1.2378e-02, -7.3205e-11, -7.0381e-10,  2.2475e-34,
          4.3045e-02,  3.5728e-08,  4.2752e-03, -5.5074e-04,  4.1178e-07,
          1.2330e-02,  2.0287e-04,  1.4066e-10,  1.2693e-01, -2.3138e-06,
          1.6556e-02,  3.4043e-05, -1.7040e-02,  1.1569e-05,  1.6777e-09},
        { 8.1213e-02,  3.2473e-08, -1.3299e-11,  1.7967e-13, -2.1369e-02,
         -6.1247e-02,  1.3822e-01, -8.2052e-05,  4.3190e-02, -4.6860e-08,
         -2.7554e-08,  3.2439e-02,  9.1815e-08,  3.4496e-02,  6.5743e-05,
         -8.0887e-02,  5.3675e-02, -1.9527e-02, -3.5055e-05,  3.7113e-02,
          1.0514e-12,  6.0792e-10,  6.7045e-02, -1.9311e-03,  1.4359e-15,
          1.8746e-02, -5.2640e-02, -1.3105e-02, -6.0766e-02,  1.0172e-01,
         -2.0459e-02,  1.7929e-02, -1.7622e-03, -1.5774e-08,  3.1293e-03,
         -1.0801e-14, -1.3719e-16, -5.1616e-14,  2.2613e-09, -3.1760e-02,
          2.7217e-06,  6.6718e-09,  1.7089e-10,  2.3678e-02,  5.9943e-02,
          3.4201e-14, -1.0283e-01, -6.3030e-02,  3.2568e-03, -5.5374e-15,
         -3.2674e-02,  1.9105e-02, -2.4679e-09,  7.4396e-03,  1.3828e-04,
          1.1008e-02,  9.9343e-02, -2.0762e-02, -7.5531e-10,  1.7894e-16,
          1.0551e-02,  8.7717e-11,  6.6503e-02, -1.5853e-11, -8.6403e-05,
         -2.0464e-02, -1.6866e-03,  4.5310e-03,  4.2580e-12,  1.0450e-10,
          2.1162e-12,  4.1011e-02,  1.9062e-07, -2.5903e-02,  1.6805e-02,
         -1.1516e-06, -1.0407e-06, -1.7207e-14, -5.9453e-02,  8.7931e-03,
         -5.5276e-12,  6.0474e-02,  5.4997e-14,  2.6711e-26, -1.8850e-03,
          8.5063e-02,  9.0059e-02,  2.7896e-02,  1.0429e-01,  3.2075e-02,
         -3.0356e-08, -4.1561e-02,  7.2597e-14,  1.5406e-06,  8.6662e-11,
         -5.9637e-04, -5.5234e-10,  3.5148e-02,  9.5849e-02,  6.2711e-10,
         -1.0436e-02,  5.5863e-03, -3.2804e-09, -9.5561e-10,  3.7690e-34,
          3.3079e-02,  4.0176e-08, -1.2312e-02, -4.9119e-02, -1.5075e-05,
          3.5215e-02,  1.8535e-02,  2.8122e-10,  7.5686e-02, -1.5971e-06,
          2.8022e-02,  5.0607e-05, -5.1846e-03,  2.6970e-05,  1.4157e-09},
        {-2.0331e-02,  7.7605e-09, -2.9753e-13,  1.9198e-13,  1.3724e-01,
          5.8642e-02, -9.4572e-03, -2.4242e-07,  1.7692e-02, -4.1769e-08,
          1.4733e-09,  5.2797e-03,  1.2503e-07,  1.4721e-01,  3.2073e-06,
         -9.2751e-02, -1.5156e-02,  8.9790e-02,  9.1374e-06,  4.6798e-02,
          1.0046e-13, -4.9884e-11, -3.9868e-02, -1.3151e-02, -1.2032e-15,
          1.9412e-02, -5.2588e-02, -6.0022e-03, -3.8841e-02, -1.4828e-02,
         -1.0788e-02, -2.5329e-02, -1.0417e-02,  5.0428e-08,  3.9570e-03,
         -4.0379e-14,  3.2578e-18,  8.4375e-15,  1.6316e-11, -1.1411e-02,
          3.7124e-07, -1.9178e-10,  8.0866e-11,  3.0793e-02,  8.3209e-02,
          7.1700e-14,  8.4492e-02, -8.3093e-03,  4.5475e-03,  2.7785e-20,
         -3.1219e-02, -1.6207e-04, -7.6625e-09, -1.7317e-02,  2.2433e-03,
         -2.1217e-03, -6.4514e-02, -3.1803e-02, -8.8459e-09,  7.1839e-22,
          2.3679e-02,  2.9404e-11,  2.3080e-02, -2.7085e-11, -2.0296e-06,
          7.7117e-03,  3.4773e-04, -2.1349e-03,  2.6817e-15, -1.9558e-09,
          1.7649e-12, -5.6410e-02, -2.2039e-07,  5.7961e-03, -1.8072e-02,
         -7.8781e-07, -2.5865e-08, -5.8388e-15, -1.1453e-02,  3.4789e-03,
          4.5355e-13, -9.8773e-03, -1.0488e-17,  2.8560e-27, -1.5789e-02,
         -2.3894e-02,  1.9668e-02,  1.0842e-02,  7.6698e-03,  3.9940e-03,
          2.9846e-09, -3.7243e-02,  1.0720e-13,  1.2040e-06,  2.5742e-10,
          1.5738e-03,  8.5946e-10,  4.0109e-02,  6.3612e-03,  5.5570e-14,
         -1.5726e-02, -3.2734e-03,  1.5354e-13, -1.4167e-09, -1.3538e-34,
          4.3142e-03,  2.3384e-08,  5.6508e-02,  4.5561e-02,  7.2887e-06,
         -2.2951e-02, -1.5760e-02, -2.1793e-10,  5.6872e-02, -1.8984e-08,
          8.4614e-03,  3.2274e-05, -1.2642e-02, -1.0650e-05,  9.1409e-10},
        { 3.7605e-15,  5.1568e-43,  1.1211e-28, -2.1908e-29, -5.1392e-15,
         -8.1207e-16, -2.0734e-14, -4.3749e-42, -5.5442e-16, -1.2603e-24,
         -3.2101e-23,  1.0239e-15,  4.2598e-18, -1.0225e-13,  4.2732e-21,
          4.3632e-17, -8.0023e-17,  4.6183e-16,  5.7680e-25, -1.3925e-16,
          1.6164e-10,  1.3496e-24,  1.4863e-16,  2.1450e-16, -6.9252e-34,
         -1.0007e-16,  2.5981e-16, -1.9372e-16, -2.1583e-16,  3.5298e-16,
         -7.5685e-17,  2.2360e-15, -2.0027e-16,  1.8388e-19,  7.2073e-16,
         -5.1848e-43,  1.0539e-33,  1.3503e-28,  6.1937e-43,  2.9039e-16,
          1.0417e-14, -1.3859e-42, -1.8749e-42, -4.0819e-16,  4.1688e-16,
         -6.1448e-26,  1.2539e-15, -4.5461e-16, -3.3134e-16,  9.8050e-33,
          3.5563e-15, -6.7127e-16,  2.7384e-06,  1.3827e-15,  1.2574e-15,
          5.5730e-16,  7.8458e-17, -4.8637e-16, -4.7892e-24, -4.9606e-43,
          1.5187e-15,  6.9798e-23, -7.8955e-16, -8.4500e-40,  5.5875e-37,
         -1.0809e-15,  3.0834e-41, -8.5754e-17, -5.1139e-27, -1.0294e-17,
          6.3851e-28, -4.5604e-16, -2.8792e-21, -7.6627e-16,  2.3333e-16,
          1.6133e-33,  5.3055e-12, -1.2906e-42,  6.1318e-17,  8.6008e-16,
          4.8531e-13,  3.3110e-16,  9.0366e-12,  2.0188e-39, -4.6037e-16,
         -1.8440e-15, -3.7388e-15, -1.2660e-15, -2.8399e-14,  1.0021e-15,
          5.2867e-21, -6.9343e-16, -5.2549e-43, -2.3081e-24, -7.3581e-22,
         -2.1073e-21,  1.7598e-08, -4.2738e-16, -1.6191e-16, -2.0841e-09,
         -2.3401e-16, -2.4992e-16, -2.4262e-12,  4.3202e-42, -4.9606e-43,
         -6.8825e-17,  8.9996e-23,  1.9994e-17, -1.2659e-15, -2.8258e-17,
          1.3307e-15, -2.8018e-17,  1.7432e-42,  4.2025e-16, -5.6192e-43,
         -1.9127e-15, -5.9835e-42,  3.5836e-16,  7.1283e-20,  4.7584e-10},
        { 7.7368e-02, -1.8403e-08, -2.2599e-11, -7.2619e-14, -9.5666e-02,
          1.9656e-02,  3.6400e-02,  2.9676e-06, -2.8143e-02,  6.1818e-08,
         -1.4779e-10, -1.0043e-02, -1.6255e-07,  5.3688e-02,  4.6570e-04,
          7.1725e-02,  1.5748e-02, -6.5681e-02,  2.6650e-05, -5.4503e-02,
          2.6644e-13,  1.1175e-09, -3.5325e-02, -1.4614e-02, -9.0694e-15,
         -2.8074e-02, -2.8956e-02,  1.3448e-02,  1.0456e-02,  5.3007e-02,
         -5.9176e-03,  6.0288e-02,  1.1397e-02, -1.0433e-07,  1.3525e-02,
         -6.7824e-14,  7.5472e-19,  2.3585e-14, -1.2302e-09, -8.8233e-03,
         -1.8483e-08, -6.8357e-12, -1.3229e-10, -9.8480e-03, -6.1778e-02,
         -5.2024e-15, -6.9160e-02, -1.7492e-02,  4.0278e-04,  3.0712e-20,
          1.5356e-01,  2.6491e-02, -6.1237e-09,  1.5331e-02, -1.5868e-02,
         -9.2797e-04,  4.7287e-02,  5.5124e-02, -1.5499e-08, -2.2536e-22,
         -2.3563e-02, -8.2447e-11,  3.9470e-03, -3.1745e-11,  1.0910e-05,
          1.4386e-02,  1.2824e-04,  4.1801e-04,  1.4466e-12, -3.1489e-10,
         -2.2838e-12,  9.6600e-02,  3.8399e-07,  1.9586e-02, -1.4237e-02,
         -1.1468e-08, -1.4909e-07, -4.6713e-14,  8.5359e-04, -4.5099e-03,
          5.2312e-13,  1.4725e-02,  2.4412e-12,  1.9506e-25, -1.5643e-02,
          4.5142e-02,  2.4869e-02,  3.1296e-02,  2.1939e-02,  7.5514e-02,
         -2.9502e-08, -3.5050e-03, -1.8006e-13, -2.6636e-06, -3.4848e-10,
         -2.9605e-03,  2.1613e-10, -4.7159e-02,  3.1733e-02,  1.5931e-11,
          2.7409e-03,  4.0302e-02, -1.8346e-09,  1.9249e-09,  2.5014e-34,
          1.4561e-02, -2.6735e-08, -8.9224e-02, -3.7968e-03,  3.9767e-06,
          1.9507e-02, -1.2189e-02,  3.3347e-10,  5.0610e-02, -3.3145e-07,
         -2.1867e-02, -1.9653e-05, -6.9403e-02,  4.6353e-06,  6.2052e-10},
        { 2.3151e-02, -1.2959e-11, -2.3836e-11,  2.2106e-13,  1.2766e-02,
          7.3980e-02, -4.6241e-02,  5.1514e-07, -4.2651e-03,  1.8946e-08,
          3.6214e-10, -1.4107e-03,  7.4623e-08,  4.6725e-02, -4.7208e-06,
         -1.0841e-02, -1.8170e-02,  4.6199e-02,  1.6056e-05,  1.4494e-02,
         -2.1997e-15,  2.3152e-10, -2.4919e-02,  1.5411e-02,  1.0678e-15,
          1.4215e-02,  1.9240e-03,  2.8931e-03,  2.8177e-02, -1.9094e-02,
          2.2362e-02, -9.2023e-03,  6.7698e-04, -6.0530e-09,  4.3766e-03,
          1.8742e-15, -9.6296e-23, -4.4985e-15,  1.1670e-09,  9.4903e-03,
         -1.3864e-13,  2.3357e-10, -4.1666e-13,  1.8487e-03,  4.2985e-03,
          4.1239e-14, -1.0078e-02,  2.7012e-02, -4.2882e-03, -2.2625e-23,
          1.1002e-02, -3.3076e-02, -1.0201e-09,  4.1069e-02, -7.3075e-03,
          1.4410e-03, -3.6409e-02, -7.2156e-03, -7.5659e-09, -1.7639e-29,
          6.7865e-03,  2.9083e-11, -2.0633e-03, -2.9445e-13,  1.8913e-06,
          5.1944e-03,  7.4526e-04, -6.1293e-03, -9.3893e-16, -3.5101e-10,
         -2.6576e-12, -2.5149e-02,  2.6945e-08,  4.4643e-03,  2.6112e-02,
          1.2361e-10, -1.0768e-08,  6.8279e-16,  1.9307e-02, -3.3224e-02,
         -1.0913e-12, -2.4862e-03, -2.9818e-16,  8.4613e-28,  2.3899e-02,
         -2.4740e-02,  3.5163e-02,  4.3733e-04, -2.0622e-02,  5.4505e-03,
          2.8845e-09,  3.8179e-03,  2.0630e-14,  8.9687e-07,  1.9652e-10,
          4.6063e-04, -8.9343e-10,  1.1497e-02, -6.6135e-02, -1.0854e-24,
          2.9208e-02, -1.1084e-03, -4.0572e-15, -1.6026e-10,  6.9941e-35,
         -1.1444e-02, -7.5854e-09,  3.5337e-02,  1.3734e-02, -4.9077e-08,
         -8.6726e-03, -1.1580e-02, -1.0986e-10,  1.0073e-02,  3.8788e-10,
          1.0357e-02,  1.1847e-05,  4.7065e-03, -6.6656e-06, -2.9482e-10},
        {-1.7459e-11,  2.0596e-27, -1.7217e-10, -4.6451e-08, -9.0408e-11,
         -1.4733e-11, -1.4462e-10,  8.2549e-13,  8.2216e-12,  5.7114e-13,
          1.7812e-07, -1.5607e-11, -3.8396e-09, -5.7879e-11,  1.2488e-10,
          5.4626e-12,  1.8209e-11,  1.0786e-11,  1.5380e-09, -8.0242e-11,
          1.0801e-17,  2.5495e-08, -5.9587e-11, -4.3774e-11,  9.0450e-25,
         -6.8127e-11, -2.8607e-11,  7.7002e-11, -7.3719e-11, -5.1514e-11,
         -6.6747e-11, -3.2396e-11, -2.9089e-11,  5.2165e-13,  7.5642e-11,
         -3.1444e-24,  1.9711e-35, -2.9213e-18,  5.0931e-17,  1.4306e-10,
          3.9703e-09, -4.2881e-07,  2.6825e-16, -3.9355e-11, -8.4167e-11,
          7.2657e-09, -3.6119e-11, -8.3017e-11,  2.0563e-11, -5.7572e-22,
          6.3420e-12, -4.1974e-11,  9.4237e-10, -3.2327e-11, -3.8931e-11,
          3.3022e-11, -1.1889e-10,  3.6281e-11, -7.6904e-14,  7.7649e-37,
         -1.0177e-10,  1.8569e-19, -1.0404e-11, -1.0378e-19,  1.7315e-13,
         -1.6968e-10, -1.2724e-11, -6.1056e-11,  2.5145e-11,  7.6080e-10,
          5.5674e-14, -3.5219e-11, -2.6177e-11, -1.8154e-10, -4.7262e-11,
         -8.7907e-12,  1.7447e-09,  6.4881e-09, -1.4586e-10, -1.2605e-10,
         -1.0333e-39, -2.4169e-11,  4.2998e-14, -2.7258e-40, -7.2067e-11,
          1.3294e-11, -2.1904e-11, -9.5079e-12, -8.4424e-11, -1.4531e-11,
         -1.3630e-15,  8.0254e-11, -1.1320e-20, -6.1761e-06, -2.6595e-11,
         -7.2831e-12,  1.8276e-19, -6.7801e-11, -6.1254e-11, -1.1878e-14,
         -6.0945e-11,  3.0646e-11, -9.8483e-07,  1.5575e-27,  2.5392e-42,
          6.9713e-13, -4.0155e-10, -7.6437e-11, -5.4371e-11,  9.6122e-14,
          2.7351e-11, -1.7805e-11, -3.6327e-08, -2.9505e-11,  2.6394e-11,
         -6.4712e-11,  1.4119e-26, -9.4426e-11,  1.7824e-14, -6.5807e-06},
        {-4.9698e-02,  1.7331e-10, -7.4841e-13, -6.2321e-15, -2.1561e-02,
         -4.7977e-02, -1.1994e-02,  8.2112e-08, -1.3138e-03,  1.1166e-08,
          3.7335e-11,  4.9244e-03, -6.4584e-08, -6.7116e-02, -5.1914e-05,
          2.9766e-02,  1.3562e-02,  5.1024e-03,  9.1645e-06,  2.2409e-02,
          8.1226e-15, -7.2508e-12,  1.0500e-01,  1.7322e-02,  3.8463e-16,
          9.1855e-03,  1.1286e-01, -1.1792e-02,  5.4012e-02, -1.4556e-02,
          1.7004e-02,  2.8215e-02, -4.1382e-03,  3.9975e-08, -9.8502e-03,
          6.3960e-14,  2.5416e-22, -3.3146e-14, -1.7613e-10,  2.3727e-02,
          6.0952e-09,  4.4986e-11,  1.1205e-10, -7.4188e-03,  1.8888e-02,
         -1.6370e-14, -1.4484e-02,  2.0038e-02,  6.1854e-04, -6.7673e-22,
         -5.6455e-04, -8.0583e-03,  4.7394e-10,  1.7674e-04,  3.2059e-02,
          2.3325e-03,  2.1861e-02,  5.6094e-03,  2.2543e-08, -6.1200e-36,
          7.5643e-03,  2.1027e-12, -2.4763e-02,  4.5145e-11,  3.5793e-07,
         -1.9859e-02,  4.6311e-04,  3.6300e-03, -7.9796e-14,  2.7630e-09,
          5.2261e-12,  3.0934e-02,  5.2217e-08, -2.1601e-02,  3.0871e-02,
          5.7000e-09,  2.6029e-08,  9.5991e-14,  1.4390e-02,  4.8216e-03,
          1.4054e-12, -5.5650e-05, -2.6637e-15,  1.1445e-26,  2.0408e-02,
          8.3532e-03,  4.1853e-02, -8.2582e-03,  3.6616e-02, -4.0953e-02,
          1.4992e-08,  4.7070e-02,  1.1062e-13,  9.3749e-07,  1.0581e-10,
         -2.1788e-04, -3.5014e-10,  9.3982e-03, -8.2100e-03, -4.3101e-14,
          1.3799e-02, -2.5105e-02,  2.6469e-11, -2.0259e-10, -1.7454e-35,
          1.6615e-02, -2.3853e-09,  7.3230e-02,  1.1023e-02,  1.5197e-06,
          3.4974e-02,  2.4526e-02, -8.2751e-11, -3.2056e-02,  1.5556e-07,
          3.2713e-02,  5.6420e-06,  1.3086e-01,  1.0922e-05, -4.0479e-10},
        { 4.0053e-03,  3.7850e-08, -1.4052e-11,  7.3640e-14,  6.6355e-02,
          8.2302e-02, -1.6489e-02,  2.9606e-06,  3.1406e-02, -4.0346e-08,
          6.5450e-07,  4.8326e-03,  1.8613e-07,  8.7082e-02, -1.2819e-04,
         -1.1876e-01, -1.2028e-02,  1.1238e-01,  1.4413e-05,  7.5916e-02,
         -2.6790e-14,  3.4122e-10,  4.0422e-02,  1.7067e-02,  6.3475e-16,
          3.7092e-02, -2.1631e-02, -1.4312e-02, -1.5271e-02, -2.3503e-02,
          9.9474e-03, -2.7721e-02, -1.5782e-02,  6.2847e-08, -1.6908e-03,
         -1.5037e-15,  6.7040e-17, -4.9429e-14,  2.0568e-09, -5.1259e-03,
          4.2343e-07,  1.7386e-07,  6.8184e-09,  1.6188e-02,  7.7139e-02,
          9.7055e-14, -3.8743e-02, -1.7946e-02, -5.3208e-03,  3.9040e-15,
         -6.3538e-02, -4.6659e-02, -4.2031e-09,  3.9622e-02, -7.8566e-05,
          2.3569e-03, -4.8171e-02, -4.6464e-02,  9.6364e-09, -1.3932e-18,
          7.4212e-03,  9.3542e-11,  2.8675e-02,  2.9137e-11,  4.6399e-07,
         -2.1280e-02,  6.7311e-04, -1.4117e-02, -2.9053e-12,  6.0026e-10,
          4.4738e-13, -6.0918e-02,  2.5219e-08, -2.7878e-02,  3.8017e-02,
          1.6794e-06,  4.7867e-08, -8.5420e-15, -1.6789e-02, -5.1528e-02,
         -1.2955e-11,  1.8498e-02, -2.0578e-16, -5.1271e-35,  2.4699e-02,
         -2.4265e-02,  1.2127e-01,  4.7131e-03,  2.0479e-02, -1.7949e-02,
          1.1104e-09, -1.6826e-02,  1.3179e-13,  2.4196e-06,  4.5851e-10,
          1.4806e-03, -6.7262e-10,  5.5422e-02, -5.7873e-02,  6.6363e-13,
          1.2811e-02, -1.9791e-02,  7.1007e-09, -3.2172e-09,  3.2722e-35,
          7.3666e-03,  2.0815e-08,  1.1979e-01,  1.4427e-02, -1.1992e-05,
         -1.1376e-02, -1.9191e-03, -3.3389e-10,  3.7767e-02,  1.7009e-06,
          4.3784e-02,  3.0719e-04,  4.6497e-02, -4.5834e-06, -7.4716e-10},
        {-2.7857e-02, -3.0964e-20, -1.7820e-12, -5.8134e-14, -1.4954e-02,
         -6.8426e-03, -1.3669e-02,  6.7684e-15, -2.7244e-03,  1.4399e-08,
          1.7995e-12,  1.4860e-03, -3.1977e-08, -8.1981e-03, -1.8891e-06,
         -3.8787e-03,  1.0964e-02,  1.4964e-02, -8.2443e-06,  1.3414e-02,
         -4.9310e-15, -1.6429e-11,  6.3677e-02,  2.8814e-03, -1.0325e-15,
         -3.2080e-03,  4.1573e-02, -8.6033e-03,  1.3885e-02, -5.5215e-03,
          1.1315e-03,  1.8224e-02, -5.3205e-03,  4.5721e-09, -5.2377e-03,
          2.8599e-14, -3.4602e-22,  2.1077e-14,  1.5604e-10,  6.4682e-03,
          3.9212e-13,  7.8582e-16, -1.8737e-15, -1.5494e-03,  1.4376e-02,
          1.3760e-15, -1.5481e-02, -4.2242e-03, -2.0892e-04, -2.7719e-24,
          5.4124e-03, -2.8940e-03,  1.2546e-09, -6.2305e-03,  1.1434e-02,
          6.2363e-04,  3.7056e-03,  3.4144e-03, -1.2332e-08,  2.5783e-30,
         -6.0311e-04, -1.1418e-11, -1.0460e-02, -2.0282e-12,  4.2973e-10,
         -1.4556e-02,  3.3250e-05, -2.3258e-03, -3.9837e-16, -4.3286e-10,
          3.0172e-12,  2.0544e-02, -7.0360e-08, -1.5409e-02,  8.5302e-03,
          1.8525e-18,  1.8720e-13,  1.6252e-15, -3.0290e-03, -4.1359e-03,
          3.1466e-16,  2.6050e-03, -8.4606e-17, -1.2085e-26,  2.5379e-03,
          9.0699e-03,  4.2860e-02,  2.4860e-03,  1.8767e-02, -1.7324e-02,
         -8.2329e-09,  1.4354e-02,  3.7579e-14,  4.5315e-07,  7.4965e-12,
         -2.9517e-04, -3.1964e-10, -1.4596e-03,  1.7475e-04,  6.7563e-29,
         -4.9413e-03, -8.5882e-03, -2.2728e-20,  1.6484e-11, -9.6274e-36,
          1.7548e-02, -4.5059e-09,  4.3631e-02,  7.6440e-03,  8.7886e-07,
          2.7064e-02,  1.3295e-02, -7.4073e-11, -3.8289e-03,  8.9612e-15,
          1.6972e-02,  5.1479e-08,  6.3194e-02,  7.0497e-06, -1.6579e-09},
        {-3.6088e-02,  3.0991e-07, -1.4089e-11,  3.6719e-13,  3.8765e-02,
         -5.2903e-02,  2.2925e-02,  2.5077e-07, -1.9223e-02,  1.2983e-07,
          8.4373e-08,  4.0577e-02,  1.0256e-08,  4.5634e-02,  7.2352e-05,
         -6.1638e-02,  3.0881e-02, -1.3245e-02,  5.2327e-05,  1.3511e-02,
          3.1207e-15,  1.1808e-09,  5.2064e-02, -5.5391e-03, -8.6202e-16,
          3.7695e-02,  1.1021e-01,  4.5313e-03, -1.0236e-02,  4.6931e-02,
          2.6555e-02,  2.9447e-02,  2.4266e-02,  7.2452e-08, -2.2042e-03,
         -7.4002e-15,  2.4948e-17,  6.9971e-14,  4.2012e-09,  2.4463e-02,
         -7.1377e-08, -3.1847e-07, -6.6238e-11,  3.5622e-02,  9.7230e-02,
          1.6172e-14,  1.4766e-01,  7.4194e-02,  1.1196e-02,  8.2055e-17,
         -4.1945e-02,  4.1954e-02,  1.7137e-10, -1.0750e-01,  7.2757e-03,
          7.3280e-03,  8.8779e-02, -3.7186e-02,  1.9249e-08,  1.1786e-18,
          6.5617e-02,  2.5807e-11, -3.2845e-02, -3.9895e-11,  2.6833e-06,
          2.3608e-02,  6.9785e-04,  4.6911e-02, -5.5905e-15,  4.1207e-10,
          5.3710e-13,  4.5548e-02,  4.0341e-07,  2.4646e-02, -3.0865e-02,
         -4.6579e-05, -2.6051e-07,  1.7877e-13,  1.5825e-02,  8.9915e-02,
          1.2437e-11, -1.7012e-02,  1.8734e-16, -1.6721e-25, -6.2776e-03,
          3.5930e-02, -3.4759e-02,  9.5595e-04,  4.9924e-02, -2.0167e-02,
          3.3997e-08, -6.7611e-02,  1.3095e-13,  5.9946e-07,  1.7355e-10,
         -1.4283e-03,  9.9454e-10,  2.9455e-02,  4.5100e-02,  5.0641e-13,
          3.9217e-02, -9.4795e-03,  1.7755e-10,  9.5368e-09, -1.4221e-34,
          2.5194e-02,  1.8815e-08, -5.5912e-03,  2.4062e-02, -1.9680e-06,
          3.8511e-02,  4.4453e-03,  2.1243e-10,  5.1460e-02, -1.8317e-05,
         -1.4260e-02,  3.2281e-05,  8.0107e-02,  3.8710e-06,  2.1657e-10},
        { 1.1223e-01, -9.9619e-09, -9.2998e-12, -3.1058e-13, -3.8272e-02,
         -6.9717e-03,  2.1008e-02,  2.7215e-06,  3.4947e-03, -1.0421e-08,
         -8.1818e-09,  9.6047e-03,  6.0756e-08,  2.7452e-02,  1.9627e-04,
          5.5678e-02,  2.4397e-02, -4.3644e-02, -4.5605e-05, -9.3100e-03,
          1.1793e-14,  1.0620e-10, -4.5138e-02,  1.2852e-02, -1.8781e-15,
          8.9507e-04, -4.1630e-02,  1.8569e-04,  4.3120e-02,  5.8987e-02,
          1.0281e-03,  5.2315e-02, -4.0924e-03, -3.9985e-08,  2.0969e-02,
         -2.2397e-14,  3.8188e-19,  1.1755e-14, -5.7122e-10, -8.7529e-03,
         -1.5826e-08, -5.5853e-12, -1.3744e-10,  6.6516e-04, -4.8777e-02,
         -3.7504e-15, -1.1357e-01, -2.5572e-02,  3.2834e-03,  2.4555e-19,
          1.0199e-01, -3.2911e-02, -6.6863e-09,  6.7606e-02,  9.7875e-03,
          8.6702e-03,  7.1609e-03,  2.0404e-02, -3.8147e-08, -1.6961e-23,
         -1.1852e-03,  1.4904e-11,  1.6913e-02,  1.6559e-11,  8.6850e-06,
          8.5776e-03, -3.6898e-04, -1.1561e-02,  6.7456e-16, -4.2541e-10,
         -1.3285e-11,  6.6217e-02,  3.0033e-08,  8.8976e-03,  4.1339e-02,
          1.0510e-07, -5.7774e-08, -4.5582e-15, -2.9710e-03, -4.1406e-02,
         -1.2506e-12,  1.4374e-02,  4.3954e-17,  1.3770e-26,  1.9798e-02,
          6.5350e-02,  2.1248e-02,  2.9767e-02,  4.1833e-02,  8.3369e-02,
         -2.8208e-09,  3.1985e-02, -1.0046e-13, -3.6347e-07, -1.1318e-10,
         -9.7276e-04, -3.2228e-10,  5.3936e-03,  2.5033e-03,  9.1492e-14,
          6.2556e-03,  1.0413e-02, -4.3217e-12,  1.5751e-09, -3.0828e-34,
         -1.2399e-02, -1.0560e-08, -4.0051e-02, -2.1292e-02, -2.1755e-06,
          9.8439e-03, -1.0948e-02,  1.5108e-10,  3.9542e-02,  8.2044e-08,
          1.6487e-02, -3.0966e-05, -4.7590e-02,  3.7380e-07,  9.7673e-11},
        { 1.1029e-01,  3.0525e-08, -5.4867e-12, -7.4038e-13,  3.8503e-02,
          1.9312e-01, -5.4818e-02,  4.1916e-06,  5.8091e-02, -3.4312e-08,
          4.5378e-07,  3.4987e-02, -2.9054e-08,  6.0540e-02, -6.7084e-05,
          3.1831e-02,  2.3313e-02,  8.5159e-02, -2.5822e-05,  3.5179e-03,
          2.6962e-14, -3.1808e-10, -2.3532e-02,  1.0930e-02,  3.7294e-15,
         -1.9620e-02, -6.3026e-02,  1.4059e-02,  9.8714e-03,  7.8010e-03,
         -3.2054e-03, -1.8391e-02, -1.1099e-02,  2.0898e-08,  3.5076e-02,
         -7.2645e-17,  2.8662e-17, -4.0354e-14, -3.1382e-08, -2.0122e-02,
          1.5398e-09,  2.1348e-07,  2.8694e-10,  1.5734e-02,  3.4618e-02,
          1.3311e-14, -1.8869e-02,  3.3561e-02, -3.0438e-03,  3.8441e-15,
          1.7789e-02, -4.0820e-02,  1.6311e-09,  9.0432e-02, -2.9719e-02,
          1.7852e-02, -4.2485e-03, -1.1961e-02,  1.6138e-08, -6.1469e-19,
          5.4955e-02,  2.1260e-11,  3.0037e-02,  1.0892e-10,  1.7594e-05,
          4.5834e-02,  2.2590e-04, -3.5040e-02,  3.1622e-14, -2.5914e-09,
          1.7840e-11, -4.1088e-02, -1.0638e-07,  4.9286e-02,  1.6739e-03,
          4.3366e-06,  2.0028e-08, -1.4432e-13,  3.6583e-02, -5.5805e-02,
         -4.1214e-12,  2.7040e-04, -5.4150e-16, -2.8510e-26,  1.6788e-02,
          5.1242e-02, -2.9775e-02,  4.1216e-02, -6.8473e-02,  1.0535e-01,
         -2.9402e-09, -1.6514e-02, -2.1624e-13, -8.8737e-07, -3.0492e-11,
          2.7314e-03, -9.4611e-10, -1.7391e-02, -5.2321e-02,  5.5015e-16,
         -3.6622e-02,  2.2651e-02,  2.4121e-09, -7.7093e-07,  2.5305e-34,
         -1.0959e-02, -3.0788e-08, -6.7879e-03, -4.4099e-02, -1.2280e-05,
          7.7090e-02,  3.3817e-03, -1.5120e-10, -1.7579e-02,  3.2347e-06,
         -3.4499e-03,  1.8581e-04, -3.3444e-02, -7.4750e-09,  2.9143e-09},
        {-2.3470e-03, -1.2885e-20, -1.0272e-11,  6.0705e-16, -3.6098e-03,
          1.7593e-03, -4.8268e-03, -1.7648e-36, -6.0816e-03,  1.8267e-08,
         -3.4736e-16, -9.6698e-04,  1.5387e-08,  1.3633e-02,  2.1132e-09,
         -1.1379e-02, -2.4951e-03,  1.8144e-03, -4.1804e-06,  1.3027e-03,
         -1.5054e-15,  1.4752e-10, -2.3145e-03,  3.3690e-04, -3.9968e-15,
          2.6358e-03,  1.1193e-03, -5.9818e-04, -2.0152e-04,  9.2981e-04,
          2.3066e-03,  1.0172e-04, -8.2009e-05, -5.4051e-12, -4.4332e-04,
         -2.9640e-14,  1.2678e-23, -8.7465e-16, -2.9679e-10,  1.6549e-03,
          1.4001e-34, -1.5042e-15,  1.1249e-16,  1.2256e-03,  2.7273e-03,
         -1.5370e-14, -3.8325e-03, -1.2798e-03, -4.3773e-04,  3.6450e-40,
          1.5428e-03, -3.2536e-03, -1.8978e-09, -4.1848e-03, -2.2237e-03,
         -2.5577e-04, -5.5380e-03, -1.7007e-03,  1.5111e-09, -3.4665e-35,
         -1.2029e-03,  7.1427e-14, -2.5599e-03, -8.2039e-13, -5.4185e-22,
         -1.6021e-03, -3.3345e-08,  6.4515e-04, -5.4490e-16, -3.8501e-11,
          1.5307e-12, -2.2478e-04,  1.1575e-07, -1.8406e-03,  1.3972e-03,
         -4.1906e-27,  1.4373e-28, -1.9026e-16, -1.8057e-03, -2.5442e-03,
          9.4932e-17, -1.6839e-05, -7.2947e-21, -2.0183e-28,  1.0116e-03,
         -4.3282e-03,  1.3231e-02, -8.7244e-04,  1.0838e-03, -2.6946e-03,
         -2.4678e-09, -4.5458e-03,  6.7748e-15, -2.8890e-08, -6.6063e-11,
         -2.4361e-06, -4.5489e-11,  2.0351e-03, -6.4886e-03, -4.9886e-43,
          5.1539e-03,  8.2504e-05, -5.1722e-23, -8.9326e-12,  1.2326e-36,
          1.0521e-03,  4.7088e-09,  1.9631e-03,  4.1470e-03, -9.0599e-07,
         -5.8360e-03, -2.4912e-03, -1.0860e-11,  1.0198e-02,  1.0454e-42,
         -3.0909e-04, -9.3340e-24, -6.2192e-04, -4.3762e-06,  9.7209e-11},
        { 5.4157e-09,  2.0535e-32, -2.4791e-16, -2.4841e-11,  9.7161e-09,
          7.7640e-09,  8.1988e-11,  1.4588e-42,  1.3326e-08,  6.3568e-11,
         -2.1560e-09,  1.1301e-08,  1.3084e-07, -4.9271e-08,  3.6785e-08,
          1.4879e-08,  8.9459e-09,  2.1480e-08, -1.4590e-06,  2.5408e-08,
          2.0419e-15,  1.5043e-07,  3.2353e-08,  1.5257e-08,  1.1350e-13,
          1.2130e-08,  2.6009e-08,  3.8021e-09,  2.9160e-08,  1.4917e-08,
          1.6658e-08, -2.5856e-10,  9.8721e-09, -1.2976e-09, -2.8650e-09,
          2.5310e-19,  2.6571e-28,  4.6014e-15, -3.8068e-10,  1.1780e-08,
          2.2280e-11, -1.3993e-11, -9.9049e-15,  1.3160e-09,  1.5850e-08,
         -7.1948e-22,  1.4612e-08,  1.2581e-08,  5.3164e-09, -6.1311e-10,
         -1.4890e-08,  8.4645e-09, -6.2940e-12,  1.6085e-08,  6.8534e-09,
          1.8497e-08,  9.2433e-09, -6.3049e-09, -1.4824e-12,  6.1517e-43,
          2.4924e-08, -2.2015e-16,  1.4205e-08,  2.8395e-18,  2.6343e-12,
          6.9221e-09,  1.6914e-11,  1.9558e-09, -1.8922e-21, -9.9198e-10,
         -1.6784e-10, -8.7302e-09,  1.8439e-12,  7.2691e-09,  2.4938e-08,
          1.5302e-05, -1.8335e-11, -1.0133e-11,  1.6063e-08,  1.5282e-08,
          9.7023e-06,  1.3402e-08, -5.2829e-43, -1.7715e-31,  2.1393e-08,
         -1.5024e-09, -1.4096e-08,  1.7106e-08, -2.2049e-08, -9.4605e-10,
         -8.3060e-11, -5.2054e-09, -1.1562e-28, -1.0514e-08, -3.1570e-14,
         -1.1000e-11, -3.5845e-20,  2.0273e-08,  2.1720e-08, -5.1147e-43,
          5.5897e-09, -2.6534e-09, -2.9888e-11, -1.6632e-15, -7.7366e-40,
         -5.7995e-09,  1.1899e-16,  2.5576e-08,  1.6662e-08,  2.5651e-07,
         -1.1313e-08, -1.5503e-09,  5.3292e-16,  2.4077e-09,  4.9326e-43,
          2.9318e-08,  3.0681e-06,  2.1916e-08,  7.6532e-12, -5.0742e-11},
        {-4.0054e-02,  1.2365e-08,  1.5855e-11,  2.9882e-14,  6.9333e-02,
         -5.6839e-02,  1.5569e-01, -4.2311e-05,  4.6698e-02, -4.2069e-08,
         -3.7624e-07, -7.6436e-03, -4.0859e-09, -5.2262e-02,  5.3954e-05,
          7.4378e-02,  1.1131e-02, -1.1032e-02, -3.0869e-05,  6.3857e-03,
          2.7330e-13, -1.9539e-09,  5.0569e-02, -1.8396e-02,  5.8901e-15,
         -3.0413e-03,  3.3539e-02,  3.0823e-03, -3.1413e-02, -1.3330e-03,
         -1.9174e-02, -1.6043e-02,  1.6913e-02,  1.1677e-08, -1.7148e-02,
          4.8027e-14, -7.3508e-17,  1.1238e-13,  2.0061e-07, -4.9635e-03,
          9.7463e-08,  4.1753e-08, -1.3220e-08, -1.2269e-02,  9.8493e-03,
         -8.2370e-14,  1.5408e-01,  1.8003e-02,  8.8316e-03, -6.8432e-15,
         -3.3884e-02,  1.1425e-01,  7.0342e-09,  4.7990e-03,  3.0294e-02,
         -7.0813e-03,  1.1579e-01,  3.0568e-02,  4.9716e-09,  3.6207e-18,
         -9.4672e-03, -2.2630e-11,  4.0584e-02,  1.7697e-11, -6.4097e-05,
         -3.5340e-03, -1.0973e-03,  2.1152e-02, -9.5951e-14,  7.1151e-10,
         -6.6543e-12,  1.8212e-02, -4.7649e-07, -4.8732e-03, -2.5879e-02,
         -2.0772e-06,  6.4705e-07,  4.8480e-14,  4.7411e-04,  9.9720e-02,
          8.2800e-12,  1.7212e-02,  2.4396e-16,  2.4757e-26, -3.0123e-02,
          4.6387e-03, -4.9111e-02, -3.6430e-04,  5.7920e-02, -2.9572e-02,
         -2.0249e-08,  2.4702e-02,  1.3531e-13,  2.1100e-07, -1.9678e-10,
          1.3839e-03,  6.9609e-10,  2.6996e-03,  1.3407e-01,  2.7861e-11,
         -1.0572e-02,  5.0637e-03,  3.8296e-09,  2.7535e-08,  1.7379e-34,
          1.6911e-02,  1.8938e-08,  1.5295e-02,  2.0100e-02, -1.0794e-04,
          4.2603e-02,  3.5193e-02,  3.3900e-10, -4.9629e-02, -6.5995e-07,
          1.1715e-02, -6.7385e-06,  2.6219e-02,  1.5943e-05, -2.1234e-09},
        { 8.1565e-03,  2.7805e-08,  2.6256e-12, -5.5195e-13,  3.9776e-02,
          1.8871e-01, -1.0733e-01,  1.5706e-05,  1.8808e-02,  1.4482e-08,
          5.8304e-08,  2.1846e-02, -2.6787e-07,  7.1159e-02, -1.5836e-05,
          7.7520e-02,  2.8284e-02,  9.4380e-02,  3.9611e-06, -3.1591e-02,
          2.7036e-13,  2.5851e-10, -5.8335e-03, -1.7114e-02, -5.3415e-16,
         -5.5695e-02,  3.3035e-04,  1.6440e-02,  2.1383e-02, -2.1733e-02,
         -9.4187e-03,  1.6858e-02, -3.5674e-03, -2.4601e-08,  2.6102e-02,
         -1.7057e-14,  1.1091e-16,  1.7853e-14, -5.6057e-10, -2.8818e-03,
          5.9610e-08, -8.3695e-10,  5.0070e-09,  1.1734e-02,  2.8238e-02,
         -3.3410e-14,  1.2035e-01,  6.1252e-02, -7.2842e-04,  8.5988e-16,
          7.0949e-02,  1.2230e-02,  3.7710e-09,  7.2329e-03, -2.3617e-02,
          8.5256e-03, -1.0271e-02,  2.9760e-02,  2.7431e-08,  7.9477e-15,
          5.2502e-02, -1.0411e-10, -1.8698e-02,  9.2519e-11,  5.3755e-05,
          5.2174e-02,  1.7686e-03, -2.3844e-02,  2.5301e-12, -1.0349e-09,
          2.5454e-12,  1.8671e-02,  4.8401e-08,  6.1558e-02, -4.9384e-02,
          5.7976e-08,  2.3793e-07, -1.2388e-13,  5.5459e-02, -1.1441e-02,
          1.5412e-11, -3.4945e-02, -4.7386e-16, -1.0594e-26, -2.2258e-02,
          4.6637e-02, -7.7172e-02,  4.0657e-02, -9.6052e-02,  7.8643e-02,
          2.6101e-08, -8.0053e-03, -3.4821e-13, -4.4449e-06, -4.6619e-10,
          2.9730e-03,  5.1858e-10, -6.7569e-02, -2.2678e-02, -2.1551e-10,
         -5.9941e-02,  3.3730e-02,  8.6852e-09, -5.2127e-08,  3.0493e-34,
          1.6054e-02, -6.4011e-08, -3.2090e-03,  6.1227e-03, -2.4880e-05,
          1.2615e-01,  1.3914e-02, -1.1383e-10, -3.2267e-02,  2.3122e-08,
         -2.8849e-02,  5.0393e-05, -4.0689e-04,  1.0502e-05,  2.5364e-09},
        {-6.1225e-13,  1.1558e-26,  2.1610e-20,  3.6783e-13, -6.4219e-14,
         -5.3646e-13,  2.7680e-13,  3.1388e-41,  6.0392e-13,  9.9453e-18,
          2.9792e-42, -3.1313e-13, -1.1778e-11, -1.4967e-11,  1.6624e-10,
          1.0475e-12, -6.8013e-14,  4.1014e-12,  2.0956e-08,  1.3852e-12,
         -5.2672e-11, -4.6831e-12, -8.3588e-13,  1.0337e-12,  3.1934e-11,
         -3.1740e-12, -2.3809e-13,  1.0051e-12,  4.6596e-12, -1.0954e-12,
         -3.6106e-12, -3.4748e-12, -1.3679e-12, -4.5650e-18, -3.0635e-12,
         -1.0187e-20, -1.0566e-21,  3.1253e-10,  3.9058e-24, -1.3023e-12,
         -3.0643e-36,  6.8035e-22,  3.2839e-22, -1.3372e-12, -3.5815e-12,
          5.8240e-09,  3.8210e-12,  7.8424e-13,  9.3947e-13,  1.4605e-10,
         -1.3361e-12, -3.8265e-13,  1.5900e-10, -4.8945e-12, -1.4539e-13,
          5.3311e-13,  2.2693e-12, -1.7546e-12, -1.7829e-17,  4.9186e-43,
          2.1947e-12, -9.0602e-21,  1.5514e-12, -8.4094e-07,  1.0192e-37,
          1.3404e-12, -6.6259e-22,  6.0427e-13,  7.5649e-10, -6.4937e-09,
         -1.1958e-05,  3.5259e-12, -4.1291e-16, -6.6071e-13,  1.9579e-12,
          1.0335e-39,  2.7822e-09,  4.6270e-13,  9.0955e-14, -1.6168e-12,
         -3.6989e-10,  8.8949e-13, -5.8014e-43, -1.0371e-35, -4.8030e-12,
         -6.8765e-13,  4.3388e-12,  2.3809e-12, -1.5745e-12, -2.7191e-13,
          1.8592e-09, -8.0524e-13,  2.4848e-08, -1.0403e-08, -2.6216e-12,
          4.1770e-15, -1.8046e-08,  2.1171e-12,  2.1050e-12, -5.3950e-43,
          1.9349e-12, -3.0339e-12, -2.7312e-34, -5.7790e-42,  2.4345e-40,
         -8.9037e-13,  2.3019e-12,  3.2780e-12,  4.2541e-12,  8.7219e-15,
          1.5916e-12, -1.7554e-12,  4.4952e-18,  1.7541e-12,  1.0663e-15,
          1.0761e-12, -3.3200e-10, -2.9916e-12, -1.1960e-15, -5.4485e-23},
        { 9.8145e-02,  1.6690e-09,  1.7050e-11, -1.7537e-12,  5.0193e-02,
          1.8573e-01, -3.1101e-02,  2.2783e-05,  6.3263e-02, -7.2070e-08,
          2.1172e-07, -5.2705e-03,  1.1007e-07, -2.3225e-02, -1.1575e-04,
          1.6273e-01, -2.2779e-02,  7.6459e-02,  3.0970e-07,  1.2680e-02,
         -1.2052e-13, -2.1424e-09, -2.4564e-02,  2.7052e-02,  4.5710e-15,
         -4.6428e-03, -9.7390e-03,  2.4827e-02,  6.2192e-02, -6.0473e-02,
          1.7543e-02, -4.4837e-02, -3.5755e-03, -9.7352e-09,  2.2676e-02,
          3.5791e-14,  1.9106e-16, -2.5948e-14, -3.4463e-09,  7.3971e-05,
         -4.5320e-07,  2.2483e-07,  2.0480e-09, -2.0255e-02, -3.0135e-02,
         -2.3003e-14,  8.6664e-03,  7.3955e-02, -5.5780e-03,  4.1820e-14,
          2.9645e-02, -2.5009e-02,  2.8129e-09,  1.6282e-01, -7.6988e-03,
          5.5806e-03, -5.7073e-03,  1.4568e-02,  4.7740e-10, -3.7457e-16,
          1.6377e-02,  2.7655e-11,  2.8072e-02,  7.1423e-11,  4.8958e-05,
          4.5554e-02,  4.6413e-04, -2.9586e-02, -1.9638e-12, -3.7973e-09,
          1.5673e-11, -7.3814e-02, -5.9983e-07,  4.8470e-02,  3.5802e-02,
          5.2392e-05,  1.4027e-06, -5.3381e-14,  7.9078e-02, -4.4755e-02,
         -2.6122e-11, -1.8870e-03, -2.1745e-14, -2.4949e-26,  3.6417e-02,
         -2.2809e-02, -2.7103e-02,  1.7621e-02, -6.7655e-02,  5.8684e-02,
          2.8424e-08,  5.8134e-02, -7.5223e-14,  2.1889e-07, -2.7743e-11,
          3.1767e-03, -9.5779e-10, -2.4651e-03, -7.8589e-02, -4.7486e-10,
          3.9487e-03,  1.1793e-02,  1.5679e-09, -4.6305e-07,  8.4375e-35,
         -3.5584e-02, -2.2142e-08,  4.1933e-02, -1.4911e-02, -9.5108e-06,
          3.1258e-02,  5.8983e-03, -1.7021e-10, -8.8823e-02,  2.3232e-05,
          1.9687e-02,  2.6814e-05, -7.4582e-03, -7.6012e-06, -9.2204e-10},
        {-3.7450e-06, -1.1929e-23, -1.3102e-15, -1.0568e-19, -3.4316e-06,
          4.0443e-06, -4.3484e-06,  6.9137e-16,  1.5837e-06,  9.5064e-11,
          1.9911e-10, -6.9634e-06,  1.7253e-13, -4.6748e-06, -1.3033e-12,
         -1.0744e-05,  2.8191e-06,  2.1464e-06, -4.4845e-10, -3.5996e-06,
         -1.4833e-15,  2.4454e-10, -6.8932e-07, -5.1771e-06,  2.4778e-11,
         -4.5366e-06, -5.9656e-06, -4.4352e-06, -1.1504e-05, -4.8514e-06,
         -6.2020e-06, -4.1747e-06, -4.3244e-06,  3.0833e-14, -2.6763e-06,
          1.9232e-11, -1.3121e-09,  9.7846e-18,  9.9031e-11, -5.1604e-06,
         -1.1753e-35, -7.5029e-35,  2.6826e-17, -5.6358e-06, -4.0266e-06,
          2.7530e-08,  4.2390e-06, -8.7619e-06, -2.6141e-06, -2.1090e-42,
         -3.2178e-06, -3.0491e-06,  1.2712e-10, -4.8652e-06, -6.2179e-06,
         -3.5181e-06, -3.5912e-07, -3.2101e-06,  1.7906e-10,  5.9275e-43,
         -6.6655e-06,  9.2828e-15,  1.8633e-07, -2.7593e-15,  3.8156e-31,
         -8.7922e-06, -2.3043e-19, -7.6562e-09,  1.3243e-06,  2.5289e-13,
          1.9106e-06, -1.5385e-06,  1.6180e-11, -8.9927e-06, -7.5568e-06,
         -5.8879e-29,  1.3143e-18, -3.1254e-17, -1.0014e-05, -9.3503e-06,
         -4.5191e-39, -1.4783e-06,  2.8889e-21, -4.7784e-43, -5.5158e-06,
          3.5744e-06, -3.6344e-06, -1.0626e-06, -6.4196e-06, -9.4205e-07,
         -8.9036e-13, -6.5746e-06,  7.1820e-19, -2.9140e-10,  1.9725e-10,
          9.1978e-11, -1.6152e-12, -4.5048e-06, -1.4192e-07, -8.6204e-13,
         -6.3379e-06, -2.6011e-06,  1.7736e-16,  7.5992e-28, -1.7060e-40,
         -1.5718e-06, -1.9651e-09, -1.9576e-06, -5.7903e-06,  2.8696e-09,
          5.2848e-06, -1.4256e-06,  4.1856e-10, -4.6837e-06,  5.1708e-43,
         -4.6763e-06,  3.4383e-27, -4.8828e-06, -9.3325e-10, -6.9826e-06},
        {-3.2914e-02,  4.4342e-09,  1.0637e-11, -1.8255e-15,  1.3309e-01,
         -1.3408e-01,  4.3749e-02, -6.5275e-05,  1.6037e-03, -3.0800e-08,
         -4.6007e-07, -9.2397e-03, -3.8667e-08, -1.7501e-02,  4.2451e-05,
          4.0727e-02, -1.6524e-02, -4.4471e-02,  1.9888e-05,  5.0512e-02,
         -1.2189e-12, -3.4377e-10, -5.7766e-03,  4.1570e-03, -1.1934e-15,
          6.0502e-02,  4.7420e-02, -6.6598e-03,  3.5816e-02, -2.6625e-02,
          4.1618e-03,  8.0995e-03, -9.1829e-03,  1.0511e-07, -4.7725e-03,
          9.5788e-15,  1.1034e-16,  6.5719e-14,  6.5186e-07,  1.4073e-02,
         -2.4470e-08,  3.4152e-08, -1.9647e-10,  6.4698e-03,  1.2482e-02,
         -2.8658e-14,  6.0973e-02, -7.9327e-04,  1.8028e-02,  2.6881e-13,
         -1.8698e-02,  7.6131e-04, -3.4089e-09, -1.5142e-02,  6.7245e-02,
         -6.9629e-03, -5.2533e-02, -2.5225e-02, -1.8238e-08,  3.6992e-17,
          4.0500e-03, -1.0877e-11, -1.2193e-02,  2.1953e-11, -1.2654e-04,
          5.6622e-03, -2.1906e-03,  2.9625e-02, -4.3513e-13,  1.6375e-09,
         -2.6079e-12, -2.7105e-02, -3.0450e-07,  2.3362e-03,  1.7957e-02,
          1.4384e-06, -1.3653e-06,  1.1629e-13,  6.9851e-03,  4.9727e-02,
          1.3960e-11, -3.1293e-02, -2.8792e-12, -2.4727e-26,  3.1389e-03,
         -3.1324e-02, -3.3687e-02, -1.5308e-02,  9.6147e-02, -3.6290e-02,
          1.5206e-08,  4.0882e-02,  2.0478e-13,  1.9247e-06,  2.6653e-10,
         -2.5418e-04,  8.6538e-10,  8.8959e-02,  4.6932e-02, -6.5907e-15,
          2.2748e-02, -3.9252e-02,  3.7800e-09,  1.1085e-06, -6.8309e-35,
         -1.8070e-02,  2.8304e-08,  5.7876e-02,  5.6244e-02,  1.8826e-05,
         -7.7702e-02, -5.3145e-03, -1.5383e-10, -2.2291e-04,  5.0361e-08,
          3.1654e-02, -1.6195e-04,  4.9430e-02, -1.2463e-05, -1.4440e-09},
        { 9.0257e-02, -2.4224e-08,  6.5851e-13, -1.0821e-13,  4.8434e-02,
         -1.0887e-01,  1.8162e-01, -1.3714e-05,  3.0565e-02,  3.8065e-08,
         -1.9123e-08,  5.9006e-03,  2.3632e-07, -3.7654e-02,  3.4761e-05,
          1.6286e-02, -1.7381e-02, -6.4154e-02, -1.5091e-05,  3.8042e-02,
         -7.1279e-14, -5.3019e-10, -4.1561e-02,  3.0993e-02,  5.5559e-15,
          8.5981e-02,  1.4192e-03,  9.8370e-03,  2.8917e-03,  4.6132e-02,
          3.8988e-02, -2.7764e-02,  3.0151e-02,  1.8736e-07, -7.4424e-03,
          4.5132e-14, -4.6290e-17,  1.4209e-14,  4.0297e-09,  8.5789e-03,
          6.6429e-08,  1.4257e-09, -4.0554e-09, -4.1937e-04, -1.1279e-02,
          1.7462e-15,  4.7949e-03,  4.2859e-02,  9.7587e-03, -1.1580e-17,
         -6.2742e-02,  2.5969e-02, -2.7121e-09,  6.7733e-02,  2.9432e-02,
          2.6276e-03,  1.0520e-01, -2.7661e-02, -2.8755e-08,  1.4796e-16,
          4.6443e-03,  1.1702e-10,  5.3482e-02, -6.8362e-11, -4.0609e-05,
          3.6778e-03, -1.5825e-03,  4.2492e-02, -1.8553e-12, -1.5820e-09,
          3.1299e-13, -2.0217e-02, -2.9466e-08, -3.2253e-03,  5.8807e-02,
          1.8309e-06,  2.6743e-07,  1.1329e-14,  4.7619e-03,  5.1292e-02,
         -1.1758e-11,  3.5184e-02,  5.6939e-16,  1.7507e-26,  4.2944e-02,
         -1.8334e-02,  2.5232e-03, -1.5539e-02,  1.1642e-01, -2.1489e-02,
         -1.9295e-08,  6.9606e-03,  3.3988e-13,  5.0029e-06,  5.0151e-10,
          2.6407e-04, -2.7967e-10,  9.3572e-02,  4.7650e-02,  1.7625e-12,
          1.0444e-01, -1.6817e-02, -4.6292e-10, -2.5069e-09,  1.0566e-34,
         -3.2671e-02,  6.2580e-08, -1.1811e-02, -3.1605e-03,  3.3403e-06,
         -7.4672e-02, -6.3301e-03,  3.5276e-10,  1.6488e-02,  1.1858e-07,
          3.6451e-02, -1.6799e-05, -3.2161e-02,  1.2062e-06, -2.6848e-09},
        {-6.9884e-02,  1.2271e-09,  1.7266e-11,  6.3196e-14,  6.7087e-02,
          3.9559e-02,  1.9392e-02, -1.8742e-06,  3.7325e-02, -6.2247e-08,
          6.8912e-09,  3.3938e-03, -9.5531e-08,  4.9796e-03, -6.6543e-06,
          8.5009e-03,  1.8487e-02,  6.2592e-02, -9.1265e-06,  1.2603e-02,
          9.9093e-15, -8.3636e-10,  6.5897e-02, -2.2516e-02,  9.4909e-16,
         -3.1846e-02,  1.6575e-02, -4.0472e-03, -3.9021e-02, -2.1645e-02,
         -3.1177e-02, -1.6993e-02, -6.1838e-03,  1.0632e-08, -6.1872e-03,
          1.0709e-15, -4.9885e-21,  3.0634e-14, -9.0748e-10, -1.0413e-02,
          1.5820e-07, -2.3244e-10,  8.2302e-11,  3.2736e-03,  4.7613e-02,
         -2.6800e-14,  1.3057e-01, -4.2494e-04,  2.4288e-03,  6.1439e-20,
         -3.8218e-02,  6.1192e-02, -1.4837e-09, -2.1422e-02,  5.4260e-03,
         -2.4988e-03,  2.4398e-02,  1.1385e-02,  2.2070e-08,  1.0103e-20,
          1.1076e-02, -3.5043e-11,  1.7010e-02,  2.9049e-11, -1.8674e-06,
         -8.6684e-04, -1.8204e-04, -6.6117e-03,  1.2651e-16, -5.6517e-10,
          4.5200e-12, -6.7657e-03, -2.0021e-07,  7.7299e-04, -4.4596e-02,
         -3.1994e-07,  7.5240e-08, -8.8426e-15, -2.6862e-03,  4.6782e-02,
          3.2719e-12, -8.3225e-04, -1.3722e-16, -3.4383e-26, -3.5744e-02,
          1.1568e-02, -2.9541e-02,  1.1003e-02, -1.3778e-02, -1.0201e-02,
          1.6016e-09, -4.9990e-03, -1.8141e-14, -1.1914e-06, -1.8802e-10,
          2.0700e-03,  8.2417e-10, -2.2075e-02,  6.7363e-02,  1.1992e-12,
         -6.1206e-02,  8.2774e-03,  4.1057e-11,  5.3037e-10,  9.4648e-34,
          3.1342e-02, -2.3615e-09,  4.5284e-02,  1.3775e-02, -1.4569e-05,
          7.2740e-02,  2.9021e-02, -8.7906e-12, -3.7704e-02, -7.1604e-08,
          6.2811e-04,  3.5692e-05,  4.3467e-02,  1.0968e-05,  1.0214e-09},
        { 2.2397e-02, -9.4150e-08,  1.4096e-12,  9.8873e-13,  1.2581e-02,
         -1.2561e-01,  7.4815e-02, -7.4620e-06, -3.3286e-02,  2.9544e-08,
         -1.9948e-06, -1.3265e-02, -1.0354e-07,  8.0850e-02,  9.5570e-04,
          1.8970e-02,  2.1833e-02, -9.4392e-02,  1.5782e-07, -3.1813e-02,
          2.3349e-14,  8.0633e-10, -6.8390e-02, -3.1109e-02, -4.6652e-15,
         -2.6680e-03, -5.1094e-02, -3.7554e-03, -1.8136e-02,  6.7276e-02,
         -2.0282e-02,  7.7901e-02,  1.1559e-02,  2.2237e-07, -3.6161e-04,
         -4.4624e-14,  2.6348e-16,  3.7671e-14, -1.6835e-08, -9.7096e-03,
         -1.7289e-08, -5.4155e-06, -1.6155e-08,  5.2360e-03, -4.6349e-02,
         -1.4115e-14,  3.3243e-02, -4.9280e-02,  1.5449e-02, -1.3662e-13,
          1.1413e-01,  5.5074e-02, -3.2937e-09, -5.9404e-02,  2.7204e-02,
         -8.1546e-03,  2.9024e-02,  3.7788e-02,  1.2217e-09,  3.8009e-17,
         -2.9759e-02, -7.5031e-11,  5.3631e-04, -8.4693e-11, -9.0839e-06,
         -2.6100e-03, -7.5943e-04,  2.3138e-02,  1.5770e-13, -1.3910e-09,
          5.4494e-12,  1.2024e-01,  1.9669e-07, -1.0855e-03, -3.1595e-02,
         -1.2539e-05, -8.5405e-07,  5.5494e-14, -3.4573e-02,  5.5496e-02,
          1.4179e-10, -5.8200e-03,  1.7599e-14,  1.7856e-25, -3.9913e-02,
          4.8457e-02, -1.6046e-02,  1.9025e-02,  8.9176e-02,  2.9313e-02,
         -4.4628e-08,  9.5291e-04, -6.2475e-16, -7.6877e-07,  1.7564e-10,
         -2.8804e-03,  1.0478e-09, -5.1754e-04,  1.0912e-01,  1.8435e-10,
          4.8583e-03,  1.4577e-02, -5.2416e-07,  2.2852e-07,  1.9554e-34,
          1.3402e-02,  1.6956e-08, -7.6967e-02,  4.3338e-02,  2.1467e-04,
         -7.7741e-03, -1.2453e-02,  4.7367e-10,  8.8465e-02, -8.0682e-06,
         -1.3594e-02, -3.8569e-04, -8.0594e-02,  8.2675e-06,  6.9741e-12},
        { 2.3042e-02,  2.4166e-08, -1.0832e-11, -2.4353e-13,  1.3341e-01,
          9.0807e-02, -1.9223e-02,  8.0223e-07,  1.0110e-02, -1.6705e-08,
          1.7040e-07,  4.2753e-03,  1.7023e-07,  1.9782e-01, -6.2231e-05,
         -1.2166e-01, -2.7801e-02,  9.8382e-02,  4.5782e-06,  4.9970e-02,
          1.1366e-13,  1.1164e-10, -8.8133e-02, -3.3915e-03,  1.5651e-15,
          2.7246e-02, -9.2334e-02, -4.0136e-03, -3.2701e-02, -2.6458e-03,
          6.8191e-07, -2.5828e-02, -7.5177e-03,  8.3209e-08,  9.5062e-03,
         -2.4086e-14,  3.4012e-16, -3.3662e-14, -3.4118e-08, -1.3012e-02,
          1.8232e-07, -1.6275e-07,  4.6092e-08,  3.6802e-02,  7.6065e-02,
          9.5538e-14,  4.1585e-02, -9.4618e-03,  2.2414e-03,  1.7890e-15,
         -1.0816e-02, -2.6003e-02,  1.9313e-09,  1.8532e-02, -7.2948e-03,
         -1.0053e-03, -8.8619e-02, -3.9508e-02,  4.5647e-09,  1.5087e-18,
          1.8048e-02,  4.4706e-11,  3.2988e-02, -7.1969e-11, -1.0353e-05,
          9.6420e-03,  4.4991e-04, -9.2838e-03, -2.1312e-13, -3.6788e-09,
         -4.9250e-13, -6.0863e-02, -1.7479e-07,  6.0025e-03,  5.8381e-03,
         -1.7322e-06, -2.5368e-07,  5.1661e-16, -1.2540e-02, -2.3992e-02,
          4.3748e-11, -2.8895e-03,  3.6470e-17, -3.6489e-26,  8.2836e-04,
         -3.3815e-02,  6.5497e-02,  1.5097e-02,  5.7907e-03,  2.0695e-02,
         -2.5829e-09, -4.5816e-02,  8.5251e-14,  1.3797e-06,  3.7464e-10,
          4.6203e-04,  5.3590e-10,  4.8894e-02, -3.7244e-02,  2.2707e-11,
          1.0077e-02,  6.2076e-04, -5.4520e-10, -5.1889e-10,  9.3098e-35,
         -1.0042e-02,  2.3540e-08,  5.0692e-02,  5.2863e-02,  1.7853e-04,
         -4.7771e-02, -3.0542e-02, -1.4855e-10,  9.4563e-02,  7.8338e-07,
          1.7584e-02,  1.5024e-04, -5.1390e-02, -1.7293e-05, -1.0487e-09},
        {-1.9169e-02, -5.1949e-10,  3.7326e-12, -1.0017e-14,  6.7284e-02,
         -8.2352e-02,  3.8033e-02, -5.4389e-07, -1.7518e-02, -1.5225e-08,
         -5.2942e-10, -2.0836e-02,  1.2753e-07,  4.7436e-02,  1.3354e-05,
         -3.8790e-03, -1.8642e-02, -2.5957e-02,  5.9381e-06,  3.1769e-02,
          3.6730e-15,  1.0890e-11, -2.4049e-02, -4.7485e-03, -2.2326e-15,
          3.0410e-02, -8.8588e-03, -8.6772e-03,  3.9367e-03, -5.5067e-03,
         -7.1235e-03,  1.2128e-02, -8.2652e-03,  2.9261e-08, -6.3579e-03,
         -1.3252e-14,  5.3139e-22, -2.9960e-14, -9.8925e-10,  1.3198e-03,
         -4.5392e-13, -3.7692e-11, -3.3793e-13,  2.8810e-03, -4.1155e-03,
          2.2509e-14,  6.6177e-05, -4.1366e-02,  7.9113e-03,  2.4505e-21,
          2.5281e-02,  2.8823e-03, -3.9992e-09, -5.8600e-03,  3.5251e-02,
         -8.8662e-03, -5.8522e-02, -3.9060e-03,  3.7153e-09, -3.5729e-25,
         -2.5967e-02,  4.4056e-11,  1.6634e-03, -2.1850e-11, -3.6368e-06,
         -1.2599e-02, -8.2622e-04,  1.1928e-02, -1.4071e-15,  9.9833e-10,
          4.8328e-13, -4.9741e-03, -2.8487e-08, -1.5891e-02,  1.4295e-02,
          9.9105e-09,  1.6002e-08,  7.1174e-14, -2.0960e-02,  1.6122e-02,
          4.2841e-13, -6.7163e-03,  5.2021e-16,  3.6380e-27, -6.1994e-03,
         -2.9054e-02,  3.4575e-02, -3.9396e-03,  7.4573e-02, -2.0010e-02,
          5.7999e-09,  1.8884e-02,  2.1450e-13,  1.8024e-06,  2.4070e-10,
         -8.6476e-04,  9.8686e-10,  5.0849e-02,  3.6195e-02,  3.5584e-19,
          1.2698e-02, -1.4850e-02, -1.0473e-13,  7.6196e-09, -9.9971e-35,
         -4.2137e-03,  3.8948e-08,  3.6764e-02,  5.3083e-02, -3.9584e-06,
         -6.9352e-02, -1.1141e-02, -1.1891e-10,  4.4309e-02, -3.0038e-10,
          2.2025e-02, -2.1033e-05, -9.6583e-04, -8.5657e-06, -7.8849e-10},
        { 7.2108e-12, -2.4082e-26,  4.3929e-27,  1.1256e-08, -1.5255e-12,
          1.0889e-12,  1.1542e-11,  5.0026e-43, -4.8559e-12, -7.2066e-12,
         -8.2212e-30,  3.3387e-12,  4.0211e-10, -1.7322e-09, -1.6982e-06,
         -2.1157e-13,  2.3100e-12, -5.6279e-12,  1.3167e-11, -7.0119e-12,
          5.8855e-44,  3.6263e-07,  8.4665e-12,  1.7028e-12, -8.8153e-15,
         -1.4859e-12, -7.4182e-12,  4.9472e-13, -5.8466e-12,  1.0883e-12,
         -7.0072e-12, -2.9746e-12,  1.7446e-12,  3.6267e-07, -7.0599e-13,
         -1.3438e-16,  5.2549e-43, -2.5934e-13, -1.7631e-12,  4.1831e-12,
          2.5564e-10,  2.0639e-19,  7.6493e-19,  2.2394e-12, -7.4089e-12,
          1.2769e-10, -1.0555e-12, -4.6386e-12,  9.7302e-14,  6.6941e-10,
         -1.4495e-12, -3.9410e-12, -1.6359e-08,  7.4509e-12,  3.5395e-12,
          3.6327e-13, -8.7846e-12,  2.5838e-12, -8.2124e-12,  4.9326e-43,
          6.4311e-12, -2.1684e-26,  3.4255e-13,  2.8879e-07, -6.0989e-39,
          1.8460e-12, -2.4025e-13, -1.6623e-12,  1.9572e-19, -2.3051e-42,
         -6.2377e-09, -1.4648e-12,  5.0329e-12,  1.9673e-12, -2.3578e-12,
         -6.3048e-09,  1.6999e-07,  6.7878e-13,  3.6656e-12,  2.1299e-12,
         -1.2245e-05, -2.8428e-12, -8.3173e-19, -1.4256e-32, -1.7281e-12,
         -3.5394e-12, -4.2872e-12, -1.9472e-12,  7.8970e-12,  2.8865e-12,
          6.6859e-13,  1.8320e-13, -4.9186e-43, -7.9464e-09, -1.0304e-11,
          3.9678e-11,  1.3238e-08,  2.7780e-12,  1.6555e-12,  4.3538e-42,
         -4.2686e-12,  8.1809e-13,  1.2147e-35, -3.2566e-42, -4.9003e-42,
         -2.7302e-12,  6.6093e-07, -4.8118e-13,  2.4648e-12,  1.7103e-10,
         -2.3817e-12,  5.8537e-12,  3.6013e-43,  1.0414e-12, -4.1593e-09,
         -4.8152e-12,  3.3414e-08, -6.8429e-12, -2.8662e-16,  8.7568e-11},
        {-9.2354e-02,  4.5304e-09, -1.6931e-11,  9.5326e-15,  3.6465e-02,
         -5.7170e-02, -2.8402e-02,  1.0283e-06, -5.5872e-02,  2.8132e-08,
          5.0572e-08, -2.7785e-02,  2.1539e-07,  8.4934e-02,  3.1011e-05,
         -4.9638e-02, -2.1968e-02,  2.9323e-03,  7.3271e-05,  4.0660e-02,
         -3.3883e-14,  1.2618e-09,  4.8556e-02, -7.4861e-03, -8.4430e-15,
          2.8169e-02,  7.1146e-02, -1.1290e-02,  1.2244e-02, -2.9046e-02,
          7.2279e-03,  2.3839e-02, -9.5106e-03, -9.2603e-08, -1.6116e-02,
         -3.5453e-14,  2.9038e-18, -2.1192e-14,  7.9860e-10,  2.2097e-02,
         -2.6507e-07, -1.1684e-08,  1.0371e-10,  5.3216e-03,  2.8200e-02,
          5.3706e-14,  1.2971e-02, -3.3748e-02,  2.6040e-03,  2.3733e-16,
          2.4443e-02, -8.2287e-04, -2.1265e-09, -7.1975e-02,  2.4661e-02,
         -1.3670e-02, -7.8626e-02, -3.4401e-03,  5.4076e-09,  3.0318e-21,
         -2.9842e-02, -2.8432e-11, -4.1622e-02, -4.6194e-11,  1.6925e-06,
         -2.5913e-02,  4.9264e-04,  1.5485e-02,  1.4010e-13,  2.8871e-09,
         -2.0015e-11,  9.7478e-03,  2.2274e-07, -2.7812e-02,  8.9696e-04,
         -5.3110e-07, -1.5157e-07,  7.5523e-14, -2.0885e-02,  1.3715e-02,
          3.2089e-12, -1.6081e-02,  3.4476e-16, -1.6372e-26, -9.1030e-03,
         -4.9741e-02,  1.0633e-01, -1.0885e-02,  6.3743e-02, -5.9204e-02,
          8.9021e-09, -6.3886e-03,  1.0261e-13,  2.0946e-07,  2.3605e-10,
         -2.0358e-03,  9.0213e-10,  3.9421e-02,  1.0591e-03, -3.5385e-12,
          1.8772e-02, -1.4751e-02,  4.0599e-11,  3.0001e-07, -2.2614e-35,
          2.8282e-02,  1.9319e-08,  8.5202e-02,  8.3185e-02,  2.3730e-05,
         -5.2857e-02, -6.6024e-03, -2.3612e-10,  6.9036e-02, -1.3497e-06,
          1.7484e-02,  6.3176e-05,  7.3726e-02, -9.4081e-06, -1.1606e-10},
        { 3.3958e-02,  1.1512e-09, -3.4962e-12,  1.3029e-13,  2.0140e-02,
          1.0745e-01, -9.8896e-02,  1.0035e-07,  1.4856e-02,  2.1146e-09,
          2.0991e-11,  3.4653e-02, -1.7416e-07,  5.0456e-02,  4.8547e-06,
          5.5131e-02,  4.9089e-02,  4.3443e-02, -1.5691e-05, -2.4377e-02,
         -1.0843e-14,  1.1872e-10, -7.4169e-04, -9.4943e-03, -1.3643e-15,
         -3.6709e-02,  2.0030e-03,  6.6911e-03,  3.0095e-02,  1.2181e-02,
         -8.6600e-03,  4.3587e-02, -7.8622e-03, -2.2892e-09,  2.7367e-02,
         -2.8525e-14,  1.9029e-19,  8.1558e-15, -5.5677e-10, -4.6547e-03,
          3.6179e-10,  2.5235e-11, -5.1617e-11,  1.8232e-02,  2.5912e-02,
         -1.6190e-14,  5.1592e-02,  3.6026e-02,  3.4200e-03, -1.7351e-21,
          7.1594e-02, -1.7914e-02, -2.8107e-09, -6.8539e-03, -6.1343e-03,
          1.3178e-02, -5.7719e-03,  1.1657e-02,  5.4102e-09, -4.4975e-22,
          5.6455e-02, -6.9940e-11, -2.4294e-02,  7.4586e-11,  1.5288e-06,
          4.1773e-02,  3.3230e-04, -1.5417e-02,  6.1587e-14, -7.1452e-10,
         -7.2614e-12,  4.3059e-02, -4.1312e-08,  4.9004e-02, -2.8868e-02,
          2.5234e-08, -5.1349e-09, -7.4121e-14,  3.4711e-02, -2.0566e-02,
          5.0528e-12, -3.4411e-02, -3.9991e-16, -4.3756e-26, -1.2233e-02,
          8.2299e-02, -7.6318e-02,  3.9756e-02, -5.0210e-02,  8.2851e-02,
          7.3594e-10, -3.4300e-03, -2.8118e-13, -3.3082e-06, -4.0342e-10,
          1.3892e-03,  5.4107e-10, -4.1162e-02, -1.1295e-02,  2.1231e-15,
         -4.9741e-02,  1.7939e-02,  2.5223e-13,  2.7673e-09, -3.1351e-34,
          1.0962e-02, -6.6261e-08, -1.6151e-02, -1.0028e-02,  1.0636e-06,
          1.1290e-01,  1.1921e-02, -1.6959e-10, -9.0432e-03,  6.4828e-10,
         -1.7617e-02, -7.2710e-06,  1.2313e-02,  5.6231e-06,  4.4946e-09},
        { 2.1810e-02,  5.7350e-10, -1.3416e-12,  1.9285e-13,  1.0980e-01,
          1.0044e-01, -4.0611e-02,  2.8677e-08,  2.9516e-02, -2.6149e-08,
         -2.0942e-11,  1.2857e-02, -1.9864e-08,  9.6540e-02,  8.3167e-07,
          3.8662e-03,  1.1576e-03,  7.0209e-02, -4.0131e-06,  1.6684e-02,
         -1.2646e-14, -4.4652e-10, -4.1633e-02, -9.6672e-03,  4.2711e-15,
         -5.0481e-03, -5.0335e-02,  5.1871e-03, -6.1329e-03, -1.4568e-02,
         -1.3469e-02, -9.5521e-03, -1.0834e-02,  2.7012e-08,  1.9571e-02,
         -1.0143e-14, -2.3068e-21,  4.8817e-15, -1.5061e-10, -1.3772e-02,
          9.9740e-10,  1.7100e-11, -2.0776e-11,  2.1377e-02,  4.8070e-02,
          2.5605e-14,  6.8455e-02,  1.4940e-02,  4.7251e-03, -1.2668e-21,
          1.5171e-02, -9.7036e-03,  1.9199e-09,  1.8596e-02, -4.2731e-04,
          3.8110e-03, -4.4191e-02, -1.3765e-02,  2.4225e-08,  1.1515e-26,
          3.6725e-02, -1.8380e-11,  1.1912e-02,  1.7490e-11, -3.6693e-08,
          3.3706e-02,  1.4627e-04, -1.4339e-02, -1.5113e-15, -1.5399e-09,
         -2.7500e-12, -3.2869e-02,  2.2343e-08,  3.5638e-02, -1.9845e-02,
          1.6648e-10, -7.3097e-10, -5.0451e-14,  1.8567e-02, -6.1522e-03,
          3.3469e-13, -1.9353e-02, -2.0023e-16,  1.4476e-26, -1.2107e-02,
          8.5202e-03, -3.5981e-02,  2.4233e-02, -2.3408e-02,  5.3384e-02,
          4.6098e-10, -1.3095e-02, -6.5122e-14, -6.8332e-07, -3.3971e-11,
          2.9211e-03,  7.4619e-10,  8.1370e-03, -1.0738e-02,  7.8561e-19,
         -3.5400e-02,  7.7641e-03, -1.0150e-14,  1.8359e-10,  4.6369e-34,
         -5.7639e-03,  2.2130e-10,  2.4244e-02,  1.9069e-02, -1.3188e-06,
          1.7972e-02, -7.4956e-03, -2.2777e-10,  1.1769e-02,  1.2185e-11,
          1.3977e-04,  5.9815e-06, -1.7824e-02, -7.4254e-06,  2.5643e-10},
        { 1.7371e-01,  1.0062e-07,  2.6646e-11,  1.1566e-13,  1.0503e-02,
          8.1792e-02, -4.4019e-02,  1.8174e-05,  2.2688e-02,  6.4436e-08,
          1.2450e-06,  4.1230e-02,  1.2593e-08,  6.0465e-02, -8.8769e-05,
         -4.5428e-02,  7.5046e-03,  1.2509e-02,  3.0683e-05,  4.1254e-02,
         -4.8010e-13,  9.7004e-10, -5.8240e-02,  5.1750e-02,  7.0516e-16,
          6.2638e-02, -4.2231e-02,  4.0666e-03,  4.8759e-02,  4.9536e-02,
          4.2667e-02,  5.9226e-03, -9.4965e-03,  8.7745e-08,  3.4885e-02,
         -6.2680e-15,  1.0015e-14, -1.4968e-13, -3.6501e-07, -3.6150e-04,
         -5.6241e-07,  3.1026e-06,  3.7420e-07,  2.4847e-02,  2.5752e-02,
          4.3960e-14, -1.5914e-01,  2.1542e-02, -5.4266e-04,  1.3574e-12,
          8.0905e-03, -1.2528e-01, -3.6025e-09,  9.9965e-02, -8.2729e-03,
          2.3545e-02, -3.4743e-02, -6.3028e-02,  8.5728e-09, -1.0030e-13,
          5.3374e-02,  1.0395e-10,  1.9202e-02,  5.9256e-11,  1.5933e-05,
          2.9333e-02, -6.4488e-04, -5.4965e-03, -2.6965e-13, -1.5951e-09,
          1.7796e-11, -4.3761e-02,  4.8566e-07,  2.5047e-02,  7.6201e-02,
          2.2693e-05, -2.3150e-06, -3.5086e-14,  1.8943e-02, -9.5860e-02,
          1.2402e-09,  7.1248e-03, -1.4419e-16, -6.8733e-26,  7.5781e-02,
          3.8846e-02,  3.9229e-02,  2.7790e-02,  1.8356e-02,  8.6765e-02,
          2.7097e-08, -2.0400e-02,  2.7499e-14,  1.8700e-06,  5.5918e-10,
         -1.1688e-04, -1.7364e-09,  7.0339e-02, -1.0502e-01, -9.5130e-12,
          5.7477e-02, -1.3437e-02, -5.3126e-08, -2.9478e-07,  7.1030e-34,
         -4.1716e-02,  2.3795e-09, -5.6400e-03, -4.3300e-02,  7.0416e-05,
         -2.3760e-02, -2.5467e-02, -4.0654e-10,  5.5953e-02,  2.6272e-05,
          2.6784e-02,  1.0380e-04, -2.6170e-02, -1.1760e-05,  1.2071e-09},
        { 8.5884e-02,  4.1819e-08,  1.0787e-11, -2.4167e-13,  1.3863e-01,
          2.9596e-02,  1.2145e-01, -2.5643e-05,  6.5316e-02, -1.1152e-07,
         -2.6329e-08, -1.4049e-02,  8.7207e-08,  6.4669e-02,  4.3313e-05,
          3.0980e-02, -1.6072e-02,  6.5418e-03, -3.6610e-06,  3.9316e-02,
          1.3132e-13, -9.4586e-10, -5.8079e-02, -1.4655e-02,  5.9530e-15,
          1.8323e-02, -1.4316e-01,  1.1267e-02, -6.3313e-02, -8.1772e-04,
         -4.0282e-02, -5.0895e-02, -1.1876e-02,  2.2092e-07,  1.5176e-02,
         -2.3529e-15,  1.7978e-18,  1.6900e-14, -1.2804e-09, -4.5343e-02,
          3.5014e-08,  2.5596e-10,  7.0074e-10,  4.4511e-03,  1.3459e-02,
         -1.5690e-14, -3.6588e-03, -4.7146e-02,  9.2909e-03, -5.0423e-17,
         -7.4958e-03,  3.8179e-02,  1.9875e-09,  8.6272e-02,  1.0511e-02,
         -4.0158e-03, -2.5076e-02, -1.1711e-02, -2.2351e-08,  9.5447e-19,
         -1.6197e-02,  5.5610e-11,  8.8252e-02,  2.7815e-11, -4.9664e-05,
          2.7948e-02, -2.0309e-03, -9.8491e-03,  4.6055e-14, -2.7534e-09,
          5.0428e-12, -8.4354e-02, -4.5000e-07,  2.4348e-02, -6.6046e-03,
          2.6876e-06,  2.9507e-07, -8.4498e-14, -1.4987e-02,  1.8298e-02,
         -5.4750e-12,  2.6328e-02,  3.5003e-16, -7.2190e-27, -1.8979e-02,
         -1.7578e-02, -6.6075e-03,  2.4053e-02,  4.3811e-02,  6.2543e-02,
         -1.4084e-08, -1.0223e-02,  7.1670e-14,  1.9346e-06,  7.3161e-11,
          3.7189e-03,  4.5194e-10,  5.3247e-02,  8.8215e-02,  2.3537e-11,
         -3.3102e-02,  1.6488e-02, -9.4850e-11, -3.4736e-10, -1.3335e-36,
         -1.5607e-02,  4.0477e-08, -1.0334e-02,  2.5287e-03,  2.5087e-06,
         -4.3468e-02,  1.3380e-03, -4.7619e-11,  1.1839e-02, -5.1642e-07,
          1.5128e-02,  3.9052e-05, -1.0686e-01, -3.8966e-07, -1.5388e-09},
        { 2.6007e-02,  1.0527e-08,  1.5924e-11, -7.1901e-13,  1.5674e-01,
          1.1526e-01,  2.0137e-02, -5.4208e-06,  7.2084e-02, -1.0117e-07,
          3.5615e-09,  5.6480e-03,  2.2507e-08,  5.7288e-02, -9.8259e-06,
          4.6874e-02, -1.4013e-03,  7.8411e-02, -1.5888e-05,  2.5334e-02,
          2.4372e-13, -1.0481e-09, -2.8901e-02, -1.9174e-02,  8.8730e-15,
         -1.5041e-02, -8.9496e-02,  1.0666e-02, -3.9919e-02, -3.5288e-02,
         -3.7941e-02, -4.2621e-02, -1.5326e-02,  7.6531e-08,  1.9910e-02,
          1.3889e-14,  1.0221e-19,  1.6730e-14, -1.3912e-09, -3.2784e-02,
          1.8520e-07,  7.4308e-11, -1.1604e-11,  1.3615e-02,  5.3901e-02,
         -2.4179e-14,  1.0434e-01,  7.6411e-03,  7.4279e-03,  3.2006e-19,
         -1.7889e-02,  3.0141e-02,  5.2633e-09,  5.3135e-02,  5.0140e-03,
          1.0850e-03, -3.1426e-02, -9.3752e-03,  1.7653e-08,  5.1660e-20,
          2.8985e-02, -1.6516e-11,  4.9575e-02,  7.3013e-11, -1.2905e-05,
          4.4347e-02, -6.3641e-04, -2.1300e-02, -3.0220e-15, -3.1186e-09,
          5.5552e-12, -7.7433e-02, -3.3387e-07,  4.5548e-02, -3.6310e-02,
          1.4233e-08,  2.4589e-07, -9.9129e-14,  2.1356e-02,  1.8358e-02,
          2.7207e-12, -8.5874e-03, -1.1419e-16, -2.2513e-26, -2.7788e-02,
         -1.3522e-03, -6.4885e-02,  2.8412e-02, -2.6299e-02,  5.9704e-02,
          1.8247e-08, -6.6207e-03, -3.0710e-14, -3.2096e-07, -1.4802e-10,
          5.2269e-03,  6.5069e-10,  9.1662e-03,  4.7249e-02,  1.4387e-11,
         -6.9816e-02,  1.3999e-02,  6.9534e-11,  4.0125e-10,  1.8599e-34,
         -7.0368e-03,  7.4915e-09,  2.3928e-02,  9.5456e-03, -4.2806e-06,
          3.1778e-02,  9.8718e-03, -2.0342e-10, -3.3245e-02,  2.0406e-08,
          1.9892e-03,  3.3939e-05, -3.8792e-02, -3.2066e-07, -4.0569e-11},
        {-4.2387e-02,  3.8950e-09, -3.0070e-11, -2.6626e-15, -8.0574e-03,
          6.1310e-02, -7.0630e-02,  6.2408e-06, -9.7202e-03, -9.9168e-10,
          8.4738e-09,  2.4781e-02, -1.9887e-08,  8.9565e-02, -4.2815e-06,
         -8.9696e-02,  2.9838e-02,  8.4561e-02,  1.5018e-05,  2.3132e-02,
