/* Auto-generated by export_lenet5_weights_to_h.py (int16) */
/* Do not edit by hand. */

#ifndef LENET5_WEIGHTS_INT16_H
#define LENET5_WEIGHTS_INT16_H

#include <stdint.h>

/*
 * C_CNN name mapping:
 *   conv1 -> w_c1 / b_c1
 *   conv2 -> w_c3 / b_c3
 *   conv3 -> w_c5 / b_c5
 *   fc1   -> w_f6 / b_f6
 *   fc2   -> w_f7 / b_f7
 */

/*
 * Integer tensors: per-tensor symmetric quant, dequant approx q * scale (float).
 */

static const float conv1_weight_scale = 1.703383896e-05f;
static const int16_t conv1_weight[150] = {
    -1111, 6922, 13253, 24617, 5996, 17345, 32767, 29690, 14437, 14351, 15058, -6425,
    -12420, -8021, 2568, -19715, -20144, -20325, -20634, -15545, -7157, -13119, -5702, -3315,
    213, 8544, 7581, 11870, 16914, -2552, 9829, 3031, 22914, 3955, 4776, 5004,
    9691, 9425, 19015, 6141, -13483, 5049, 14876, 11058, 9827, -22066, 1266, 22618,
    21655, 10146, 4227, -8701, -2271, -14796, -3060, 3008, -2200, -14897, -8172, -9136,
    816, 3810, 6829, 6027, 11430, 992, 19294, 10679, 20198, 4891, -9111, 14215,
    -5018, -6739, -64, 22445, 29300, 25115, 19692, 6239, -1989, 4385, 18707, 12569,
    -2331, -1825, -4907, 13154, 7769, -2184, -24716, -19578, -9232, 10585, 9507, -13563,
    -19666, -1164, -2655, -6312, -13537, -3778, -17000, -4959, 23530, -20337, -23406, -12614,
    22888, 21523, -7732, -10805, 2988, 31552, 21687, -3487, 6292, 20792, 27935, -3491,
    8522, 8294, 11028, 16101, -6861, 1431, 450, -12592, -12582, -2486, -7902, -7682,
    2476, -7080, 437, -5099, -13158, -1358, -9453, -10383, -6337, -12077, -3584, -6913,
    290, -11263, 5193, -9042, -10483, 6590,
};

static const float conv1_bias_scale = 8.655267266e-06f;
static const int16_t conv1_bias[6] = {
    17223, 12277, -3639, 32767, -3688, 25222,
};

static const float conv2_weight_scale = 1.017980867e-05f;
static const int16_t conv2_weight[2400] = {
    5833, 4242, -4016, -5831, -109, 2060, -5394, -2375, 3917, -8341, 15045, 19402,
    6175, 8062, -3512, 274, 3927, -2710, 1759, 11041, -7527, 99, -11516, -3277,
    179, -3351, 3384, 1049, -1063, 1786, 11149, -3635, 9045, 10963, 678, -2784,
    3088, 4919, 541, 2483, -7386, -10688, -7301, -13151, -6324, 931, -8803, 1371,
    -11602, -7671, 3033, -2279, 6801, 9239, -673, 8398, -68, 2465, -1723, -2711,
    4468, 6433, -3142, 5352, 8466, 4476, 5958, -4443, 2411, -4344, 3774, -2370,
    -6780, 1037, 3356, -11171, -2213, 549, 954, -16733, -7631, -12694, 7848, 6738,
    -2476, 4223, 7209, 10946, 5027, 4319, 2939, 11052, 3318, 885, 3011, -2814,
    -5919, -8662, -5789, -3768, 5140, 175, 4285, 2826, -6693, 8127, 10080, 11311,
    2368, -1219, -8253, -79, -5878, 1625, -927, -2366, -9424, -10186, -3836, -13842,
    5678, -7523, -9188, -12613, -9258, 7643, -7285, 1481, -3632, -1379, 2836, -8030,
    -2633, -8906, 342, -6029, 5786, -383, -6290, -4800, 3996, 8445, -2775, -4794,
    -5407, 4639, 8648, 6192, 7937, 4527, -5188, -10585, -7869, -2832, 2080, 6659,
    -3576, -14050, -7466, -4013, -12090, -9721, 4614, -5459, 1724, -5359, 2477, 11625,
    9514, 14781, -3319, 4669, 1460, 2370, -7601, 2701, 9324, 6617, -14941, -4363,
    10459, 25194, 14475, 10202, -12613, 10125, 19889, 17384, 17244, -7539, -11017, -497,
    3082, 626, -7365, -15222, -12620, -17619, -4868, -13583, 3034, 2598, 3434, 8554,
    4672, -739, -1327, 3414, 6532, -1746, 4515, 7316, -2406, 8013, 6207, 4517,
    -4175, -1247, 6930, -6190, -8031, -1676, -3384, -2225, -2752, -8829, -6404, 2380,
    -10300, -4813, 7783, 10771, 5650, -15109, -13233, 8871, 2548, 12679, 12934, 2376,
    -8174, 5043, 11988, 16208, 15225, -1904, -1629, -5400, 6981, -760, -4358, -1228,
    -4245, -14219, 5839, -11002, 5449, -11813, -14431, 2516, -3674, -5375, -7535, 4255,
    -1331, -7755, -10711, 1607, -6456, -15689, 996, -9663, -9189, 3374, 1298, -3406,
    5029, -8738, -9715, -5520, 7471, 3025, -12307, 3100, -2815, 1285, -4441, 20,
    -287, -116, 4042, -3818, -664, 7235, -5648, 1637, 7981, 8102, 1833, -3417,
    399, 9578, -252, -2001, -7134, 3742, -861, 2601, -10979, -8855, 8387, -7318,
    2382, -13491, 7556, 1011, -10529, -10563, -12405, -4654, -5443, -9287, -5344, -1898,
    -4061, 2281, -5134, -181, 1412, -1951, 4175, -4319, -4867, -3148, -3783, 178,
    -3472, 1885, 2125, -6172, 3591, -8624, -2034, 9869, 2010, -5163, -8398, -3113,
    7001, 6205, 8799, -1617, -5193, -1254, -3958, -2859, -4184, 183, -3768, 898,
    -1130, -2436, 2263, 5303, -8898, -8514, -2029, -1831, -1488, 5412, 1315, 2120,
    -3166, -5543, 751, 9919, 1490, -703, -6723, -3168, 5745, 1553, 5208, 4382,
    -3692, -4015, -6531, -1527, -2885, -550, 1203, -5121, -1352, 999, -842, -284,
    -10686, 3884, 1462, 3064, 6073, -2946, -853, 4354, 8404, 1093, 6055, -9558,
    13868, 4765, -3325, -2858, 1691, 14407, -8514, -6198, -8405, 8864, 3044, -13217,
    -5507, -8858, 10654, -4114, -6010, -8577, -4124, 5445, 7926, 3922, 7829, 4411,
    1465, -853, 2604, -3109, 5103, 9734, -4143, -1067, -2560, -4736, -5205, 1433,
    1544, -1629, -3711, 8233, -2543, -1064, 2521, 1970, -2131, 3355, -11818, 4582,
    6634, 183, -10321, -9082, 6094, 7072, 279, -11407, -9304, 7693, -7978, -9608,
    -9021, -2677, 1534, -7664, -7232, 368, -7590, -1641, 5596, -885, -12275, 4937,
    10162, -5380, 1301, 1448, 13035, -4418, -4941, 4228, 1112, -3076, -3403, -4462,
    -9249, -3797, 13239, -5143, 4851, -6864, -2248, 13106, 5983, 771, 703, 3809,
    -2555, -3957, -1273, -5661, 5705, 10408, 4725, -7905, -3306, 5531, -3289, -1577,
    1815, -456, 4422, -3463, -1302, 7494, -6437, -4357, 1343, -1261, -5420, 9126,
    -1157, -11114, 6743, -2306, 1694, -9387, -2625, 5539, 2302, -10286, -1014, 1808,
    -4584, -5744, -14373, 3532, 11702, -10888, -895, -12221, -3505, 5484, -1727, -4945,
    -7934, 1729, 2138, -1283, 958, -8701, -228, 13607, -3438, 412, -11524, 16141,
    8966, -5777, 4510, -5120, 13108, -1756, -1031, 6375, -7918, -4328, 4610, 5306,
    1432, 7134, -1998, 9721, -1895, 5402, 2913, 756, -71, -611, 7356, 4776,
    2623, -5875, -6232, 3069, 6436, 1567, -2987, -6566, -7574, -2594, -562, -390,
    445, -10285, 5989, 1210, -5813, -2090, 7377, -444, -3556, -2425, 6063, 4349,
    5082, 2064, 12930, -10112, 1163, 8366, 7264, -2260, -8363, 7493, 5307, 4777,
    -6794, -3633, 1947, -13107, -500, 6418, -4671, -4700, -10508, 6018, 2327, 2910,
    -2143, 20, -2639, -11883, -3456, -9335, -8186, 3716, -3959, 7792, 3689, 2680,
    10550, 1092, -3161, 8123, -1005, 5887, -2177, 3434, 6164, 3557, -6340, -979,
    -1972, -3859, 3382, 1121, 4462, 5814, 12538, -800, 4261, -85, 8826, -223,
    -5281, -3892, 7895, 765, -4945, -1276, 12415, -1298, 3308, 7099, -6119, -5518,
    -3287, 1889, 5043, -2920, -3631, -4628, -12870, -17028, -6829, -9385, -751, -11526,
    -8568, 11416, -722, -1318, 5511, 5504, -3412, -11556, 3069, 14402, -9473, -4472,
    -3376, 12056, -8949, -1891, 13993, 8330, -4524, 1984, 14884, 5893, 5400, -13818,
    25338, 8061, -5263, -5382, -9193, 7773, -4720, 3906, 4473, -5460, 1236, -4526,
    1866, 2456, -7560, 6016, 4582, -5146, -2375, -224, -3091, -1374, -2452, -7479,
    6140, -1008, -2355, -4957, -4901, -6795, 3087, 1063, -427, -8891, -8970, 8173,
    4430, 1089, -3902, -14185, -597, 320, -5410, -15991, -5126, 18715, -2635, -16706,
    -8373, -2860, 9192, -4429, 3811, -3741, -4216, 1575, 1640, -4216, 11351, 19748,
    255, -15392, 3749, 22437, 20110, -8763, -7552, -3096, 17702, 7725, -10387, -12760,
    -6759, 10144, 5374, -5098, -2411, -3581, 5584, 1760, -380, 4112, -5920, -4594,
    2559, -817, 4764, -5502, 1931, 1891, -3278, -3977, -6484, -4001, -6323, 5886,
    195, -7173, -3869, -433, -4385, -4363, -8198, -11848, -5333, -6515, -1641, 6270,
    14205, 233, -2312, -1783, -4816, 9181, 3809, 3632, 516, -7973, -5995, -13588,
    1573, -2238, -3546, -6599, -6772, 5881, -3667, -8923, 5804, -7450, 2337, 3789,
    5250, -11682, -7759, 1506, -4967, 7941, 12079, 1502, -1447, -2526, 11734, 23859,
    -8216, -7978, -10389, 18826, 7647, -444, -7942, -6667, 4850, -3837, -9947, 6107,
    -6708, -8140, -2905, -7182, -5031, 7056, -2070, 4649, -12273, -749, 1011, -146,
    5691, -713, 2853, -5919, -2489, -8753, 2447, -5119, 359, -2927, 722, 1571,
    7385, -3276, 4962, -6008, 4088, 5603, -9777, 8624, 10450, 1962, 1412, -4258,
    8291, -5644, -11439, -2582, -5388, -9565, 15991, 10952, 1990, 3322, 18379, 17674,
    6402, 13182, 11926, -2945, -10261, -16046, 5953, 1432, 1326, 5064, 3473, -12356,
    8696, 1892, 8799, 4416, -2404, -395, -3686, -2665, 4420, -5757, -9406, -6306,
    -6133, -12396, -9361, 4652, 7130, 8906, 8352, 5747, -3711, 4873, 1533, -5580,
    -8847, -10063, -3698, 7975, 9693, 658, -2581, 7322, -3557, -384, -5583, 2338,
    -4309, 4638, 1991, 17041, 4104, 2256, -11673, -7104, -1587, 1704, 3423, -312,
    2213, -12816, -4851, 13721, -3963, -12157, -4619, 1964, 4642, 2263, 7028, -4395,
    7888, 14863, 4912, 11485, -9217, -17183, -7666, 12037, -2524, 10205, -787, 8919,
    3182, -7579, 5023, -6286, 569, -6331, 12632, -2898, -3968, 2498, 8731, 2497,
    -11725, -12140, -10608, -8775, -3360, -5700, -6371, -8187, -11030, -10263, 6576, -5859,
    -6020, 234, -9669, 2633, -10333, -6950, -2327, -1961, 2675, -10503, -3915, -5782,
    -7300, -1490, -7990, -9228, 4273, 7019, -6158, 2351, -8730, -10373, -9456, -4082,
    -871, -4273, -8443, -3426, 649, -6225, -13315, -13392, -14595, 5445, 187, -9337,
    -8136, -19353, 1336, 3116, 3270, -6725, -14318, 11542, -3734, -7569, -6940, -4179,
    4253, 3676, -3242, -6870, 9140, 15315, 19194, -6159, -14137, 13142, -1065, 8884,
    -8625, 3345, 15736, -9734, 4926, -4232, -5407, 5457, 7587, -7041, -2103, -8193,
    -3530, 6460, 8152, -3650, -3439, -5833, 1549, -2264, -6861, -10660, -5327, -7721,
    -10958, -7909, -3429, -9804, 2369, -2896, -10133, -2372, -10839, 4935, -4650, -10356,
    -8261, -10411, 8324, 1530, -15097, -12636, 3095, 9763, 12047, -11554, -10509, 5309,
    -1057, 11318, -7665, -13537, -6285, -3632, 9714, -4816, -10097, -5890, -4902, -3237,
    -11867, -14350, -4371, 2429, 5018, -12243, -12208, 8919, 13426, 10856, -11922, -5336,
    18980, 11425, 4739, -6682, -5013, 16342, 15349, 2832, -12103, 4998, 17076, -3282,
    -5955, 70, 6396, 7939, -2388, -8160, -4803, 6499, 3678, 4494, -9393, 2764,
    2687, -2857, -7747, -8687, 5385, 6863, 5045, -5382, -2125, -4018, 157, -638,
    -7740, -6640, -2186, 3149, 8947, -3966, -10666, -13966, 5140, 14330, -9972, -4274,
    -11769, -14408, -7622, -10710, -12683, -7208, 4145, -2244, -1872, -12892, -5167, -7193,
    -258, 1101, -1844, 9528, -544, -10260, -9540, 10637, 22763, -10016, -7798, -16706,
    12607, 24379, -6856, -18797, -15724, 9252, 24194, -1765, -11986, -15697, 7678, 4166,
    -2034, 1824, -311, -7228, -6200, 7376, 3185, -1019, -5830, 2013, 1798, -9579,
    -7650, -12575, -10196, -6150, -1729, -7979, -4531, 2297, 10110, 4613, -1554, -2393,
    4123, -4383, 7158, -4245, 2236, 4435, -13069, 744, 2755, -2221, 9700, -8275,
    2626, -7823, -5229, 8613, -6263, -1426, -14820, -6819, 7120, 6378, -10413, -18854,
    -12133, 4733, 1038, 3591, -2186, 11734, 17806, -2746, 2863, -7497, -1595, 23010,
    -5453, -10607, -22878, 12175, 16284, -14314, 3678, -3301, 8239, 2658, -16651, 1199,
    -6668, 4511, 4111, -15129, -4861, -6234, 8152, 2860, 2565, -8235, -3483, 5473,
    3474, 2468, -7341, 223, 966, 4973, -7950, -1974, -3375, 2797, -4349, 2591,
    6140, 4391, 550, -7400, -3227, 241, -4006, -5345, -10090, 2381, 7009, -9113,
    -3519, -7247, 13851, 16121, -13788, -3415, 13900, 16612, -297, -3424, 7188, -1514,
    45, 4343, 2506, -3941, -2966, 8333, 1042, -12789, -3333, 10096, 3260, -9607,
    -6342, 6064, -812, -13597, -6661, 3442, 11882, -7470, -7659, -14825, -2722, -4588,
    -9906, -4788, -7266, -695, -5472, -4219, -2951, 3367, 3132, 4298, 1859, 4576,
    2533, 3354, 5103, 10813, 2235, 2197, 1132, 3477, -8021, -10147, 5208, 2402,
    -2358, -7783, 6563, 480, 2570, 3043, 15216, 10179, 5124, -4650, 4175, -4471,
    -13674, 1627, -10679, -9312, -18191, 2058, 9069, -2313, 11, 4603, 386, 1025,
    9882, 9185, 3723, -268, 1226, 7495, -2453, -272, 3521, -2353, -4805, -232,
    22515, 14362, 2187, -585, 32767, 23888, -3583, -21130, 29144, 23953, -6710, -21670,
    -11751, 18395, 2724, -17732, -13817, -14303, -1634, -17523, -12794, 2480, -14004, 997,
    594, -5139, -9037, 4002, -2427, -8689, -12906, -1667, -8526, -3290, -2586, -4597,
    -2754, 2411, -11414, -7703, 4346, -2463, -6514, -8275, -11644, -6891, -6629, -8030,
    5961, 1123, 7002, -2986, 4288, -6678, 376, -2584, -3065, -5467, -7374, -7825,
    -5259, -4470, -3499, -2906, 4959, 4930, -701, -2935, -11567, 4338, 7459, -2908,
    -1643, -7904, 5680, -145, -10134, -11242, -7321, -8272, -6852, -2369, 2255, -1452,
    -6400, -8674, -2550, 6363, 749, -3877, -7828, 1356, -1820, -4144, -1017, 1339,
    3245, -9886, -770, 2255, 283, 5202, 2905, 2760, 514, 1940, -1161, -5477,
    -3853, 3133, 10852, 8676, 2133, 6948, 6652, -976, -1545, 1272, 5533, -958,
    3608, 7302, 1242, 7853, 10481, -2881, 1548, -6919, -5377, 1702, -6200, 1906,
    2430, -3021, -13479, -13177, 3504, 7425, -4592, -4211, 7780, 12515, -1998, -7778,
    -3326, 7413, -2861, -768, -4646, 5416, 2006, -10121, -8068, -1316, -4749, -9805,
    -7000, 6095, -8086, 12844, 13784, 5345, -808, 16034, 16313, -9309, 2922, 1872,
    17764, -9309, -9687, 8302, -9489, 7695, 8218, -2477, -3151, 5956, 3778, 2700,
    -5302, -4460, 3703, -4560, -2632, 2298, 5297, -1689, 3930, -4323, -4839, 3077,
    1169, 2027, 2613, 5206, 1646, -5144, 2646, -10361, 1495, 2763, -11228, -4288,
    -3088, -3322, 4747, -3012, 2077, -4666, 534, 4980, -10416, -247, -477, 4744,
    -8090, 1484, 4609, 5865, 6831, 3772, -19672, -2300, -1853, -2336, -7608, -7308,
    -7067, -11086, -4882, -9745, 1011, -6579, 176, -12424, -8610, 64, 14266, 966,
    6198, 13735, 9625, 11122, 13986, 13254, 15664, 7409, -5186, -8595, -5362, -5114,
    5719, -3889, -9337, -1117, -2, -7170, 5318, -1010, 9574, -798, -1361, -3080,
    14683, 2099, 7071, -1401, -3548, 2283, 1405, -4550, -9120, 2281, -7254, -9398,
    -6569, -8177, 208, -7853, 4153, 3461, -8892, -10439, -6420, -70, -1748, -9670,
    626, 1236, -7695, -3470, 2688, 13753, 17653, 9493, 5863, 4386, 752, 19162,
    1240, 6589, 8661, -2751, 4944, -11127, 7420, -8742, 1738, -638, -799, -5788,
    7774, -10079, -4029, 5821, -5402, 6859, -10071, -4276, -6000, 477, 9917, -5059,
    -9111, 6135, 2590, 1471, 2344, -513, 5047, -112, -7343, -5173, -3583, 4084,
    -3263, 5342, 3551, -4140, -547, -1095, -6490, -398, -10839, 3436, 29, 3452,
    5326, -917, 3962, -2033, -12555, 45, -2306, 3067, -1898, -7450, -12083, 1919,
    -11157, -13851, -12286, 5298, -4539, 9255, 10225, 18987, 3883, 21224, 17649, 19869,
    13784, -3844, -8239, 1514, -10221, 2517, 4073, -5752, -5501, 4497, 4218, 2673,
    812, 7665, 519, -584, -7224, 284, -8335, -4844, -5847, 682, -2025, -4826,
    -12421, -6623, -2616, 9774, -1720, 1869, 3415, -3271, 2551, 9348, 9737, -1703,
    -1050, -3994, 646, 1705, 3151, 11724, 5806, 13843, 2071, 4423, 689, -6901,
    -1234, -7715, 431, 3446, 1224, 2599, -6651, 1231, 2222, -8840, 5181, 4564,
    -6227, -1984, 6751, 1245, -10988, -7207, 1370, -9496, -9738, -984, -1933, 4524,
    15591, 16602, 19996, -963, -3610, -3185, 10532, -6916, 285, 9069, 5013, -756,
    -10797, -4897, -2513, -10031, 8199, 6104, 10535, -5298, 2741, 10166, 12311, 1798,
    -3679, -5640, -18677, -12762, -4555, 3474, -5519, 592, -1900, 1154, 1010, -11566,
    1494, 2011, -4819, -144, -3386, -14190, -11375, -3839, -3663, -4272, -7796, 2037,
    665, -4094, -2087, -7494, -1767, -8474, 2176, 3638, 13868, 18770, 10627, -9903,
    -8665, -11705, -11028, -1547, 7283, -4947, 5880, 4665, 4880, 12581, 16964, 25492,
    30729, 19893, -19337, -14028, 6282, 2573, -1841, -11168, -11339, -12709, -14109, -5234,
    -5270, -876, -11169, -11112, -2337, 5106, 11726, 13593, 10287, 14382, 837, -1818,
    -1647, 12861, 9399, -2681, -15912, -4165, -235, -8224, -5560, 2251, 2802, -6658,
    -10813, 1953, -152, 7690, 4270, 7453, 7028, 16327, 14727, 12235, -2484, -8577,
    -8060, 1852, 4251, 7188, 3385, 6672, -2103, -2626, 2940, -5880, -7276, 2924,
    19701, 13144, -8770, -16988, -20925, -17858, -15449, 8801, 5145, 2694, -9125, -9370,
    14820, 27460, 21252, 16934, 15552, -5276, -317, -2692, 5309, 2775, 7009, -7123,
    -20135, -15617, -11473, 1301, -6232, -11215, 6671, 995, -6521, -342, 11719, 9263,
    -4218, -12678, -6662, -6051, -12342, -10310, -10720, -19181, -7323, -2219, 3805, 7872,
    2762, -2982, -153, 4915, -930, -2190, -4335, -1440, -1142, -9691, 869, -5683,
    -7369, 660, -2646, 1330, -8259, -5213, 6203, -5177, -1145, 7055, -385, -655,
    -729, 5290, -2684, 6287, -3590, 9145, 2309, 12704, 9851, -886, 5963, 10252,
    -4633, 1467, -6633, 5422, -11825, -8830, 9020, -235, -4858, 5272, 12791, 13863,
    -6556, -7853, 3770, 3552, -769, 11568, -1468, -14484, -3178, 8487, 4429, -8297,
    -14245, 2122, 3711, 3488, -15835, -2809, -9426, -6229, -9094, -5535, 290, 4956,
    -2159, -10075, -2571, -2737, -5166, 9357, 7285, -2289, -1011, 2945, -5987, -4446,
    -3561, 4752, 701, 3839, -850, -9402, 10872, -2579, 750, -80, -6656, -4687,
    2271, -3607, 2351, -1096, -9083, 857, -4742, -1162, -1576, -6591, 5276, 10999,
    7606, -434, -2693, -10429, -13367, -10043, -10673, -4037, -11443, 1608, -1946, -17653,
    -10826, 10014, 9574, -5093, -5213, -6419, 3299, -2791, 4689, 5045, -2401, -8086,
    -6986, -2578, -3920, -12799, -5902, 7340, 10944, -13217, 3667, 13796, 7518, 684,
    13675, 14386, 9920, -1552, -8864, 5625, -7189, 1100, -5832, -2782, 6077, 4643,
    -6222, 8406, -4443, -5413, 1531, 4141, 6507, 6142, 9276, 500, 4906, -3829,
    6450, -8865, 2213, -7493, -3958, 2294, 1881, 8656, 9875, 11013, 4303, 7177,
    -3385, -1393, 10561, 11270, 1547, -10525, -1733, -717, 3688, -5158, 2514, -4882,
    13252, 10436, 8344, 4424, 2213, 11751, 10591, -2574, -12026, -11686, -8151, -6318,
    -19926, -10508, -21047, -6125, -6785, -18949, -14860, -16189, -9263, 5810, 2681, -5950,
    3928, 10475, 5476, 4529, 11531, 6102, 12774, 7683, -2658, 950, -2241, -2073,
    -7962, -8922, -4366, -3549, -8959, 7896, 3240, 609, 8146, 11633, 9469, 3158,
    3927, 10411, 4663, -1030, -7477, 6459, -799, 5482, 9594, 886, 3625, 11482,
    5653, 1802, -3531, -4008, -2165, -329, 267, -16019, -16022, -17008, -19702, -4307,
    -10994, -15519, -4238, 1902, 1486, 9813, 3055, 8563, 7774, 7795, -2303, 805,
    200, 131, -3347, -16614, -9206, -21823, -10310, -9205, -671, -9425, 1418, -3230,
    14734, 12763, 15380, 10164, 4843, -8828, 15281, 6357, -1411, -14874, -8902, -920,
    -4553, 8049, -1915, -6263, 6583, 3712, -3484, -3008, 3652, 1973, 4499, 6577,
    8066, 2227, -4114, -4387, -8277, -8513, 24, 2080, -3985, 4899, -8885, 6952,
};

static const float conv2_bias_scale = 2.377365718e-06f;
static const int16_t conv2_bias[16] = {
    31328, 23687, -10378, 24862, -28618, 7865, 2025, -14010, 16700, -32053, 13521, -19407,
    -32767, 28150, -18935, -16190,
};

static const float conv3_weight_scale = 6.202199529e-06f;
static const int16_t conv3_weight[48000] = {
    -1617, -2276, 590, 4361, 9849, -97, 1113, -5918, -6468, -4941, 229, -9826,
    5109, 4155, 4749, -3605, -1786, -1806, -3211, -6809, -1082, 212, -5576, 10520,
    2340, -2661, 9530, 4534, 3808, 3531, 4509, -3095, 3962, 4025, -5522, 18152,
    16880, 1511, -3695, 5908, -3450, 3209, 6579, 7305, 1080, -10254, -3043, -6962,
    -1441, 1717, -557, 2664, 2003, -6063, 2694, 2651, 2203, -1263, 1049, -2703,
    95, -3538, 1546, 3847, 7877, -7458, -5556, 780, 1618, 114, 2689, -733,
    1113, -1947, 4898, 9424, -6343, -4731, 158, 6703, -1206, -3532, -6321, 6049,
    -3014, 1511, -4060, 462, 5692, 1031, -3790, -2677, 3613, 6441, 6505, -3875,
    -8041, -6947, -3936, -6, -1842, 5426, -3635, -2444, 4030, -1399, -10697, -5572,
    6057, -6680, -3810, -2452, 3339, -9043, 5908, -2004, 954, -9617, 2715, 6301,
    -5460, -2313, 1390, -4651, -6081, 12131, 1682, 1369, -5375, -4593, -4039, -11536,
    -74, -15825, 2528, -1265, -17705, 2311, -1647, -7401, 1854, -8569, 4078, 413,
    -5556, 2650, -259, -2454, 3970, -2701, -5624, 8533, 7394, -6618, -6127, -3988,
    667, 5936, -5285, -6795, 7888, -3642, -2084, 3605, -3179, 6491, 5498, -1666,
    10577, 1586, -4633, 2433, 1305, -4146, 647, 3721, -7059, -3140, -607, -5469,
    7262, -3376, -1325, 7170, -4915, -2892, 8660, -6959, 9668, -5087, -345, -7919,
    4214, 4485, -4187, 392, 1398, 23, 7306, -2024, 6745, 3377, 1644, -3069,
    3272, 3495, 8769, -5475, 2509, -12375, 9377, 7845, -4531, -6470, -2497, -2974,
    -9854, 1204, -4460, 3257, -9239, -656, -755, -2800, 7543, 5952, 14055, 8677,
    5508, -387, -3419, 2974, -5929, 1084, -5792, -4783, -20616, -11228, -13615, -6014,
    -7052, -10638, -8358, -9697, 430, -334, -4826, -9480, -7935, 1723, 8041, 802,
    6418, -5502, 5853, -5600, -609, -6912, -4676, -2369, -11808, -4606, 5398, -3532,
    4147, -119, -4732, -7462, 3802, -6563, -3714, 1416, 7968, 95, 6314, 5738,
    -8247, -8810, -9348, 2816, 881, -8414, -4399, 5856, 1081, -8676, -6069, 2325,
    -5491, -4355, -11508, -755, 7520, 13648, 7779, -2457, -2728, -502, -3306, -4210,
    281, 7668, 11729, -5499, -6795, -5996, -106, 6503, -1411, 3858, 679, -2087,
    7214, -9274, -1399, 5899, -1487, 2903, 2985, -1274, -5779, -1443, -816, 3252,
    1616, -10902, 3549, 17217, 12892, 6026, -3131, 2361, 7576, -106, -1646, -205,
    15990, -34, -6272, -6997, -4333, 5898, 2498, 8599, 5917, 5605, 2030, 6143,
    12525, -1174, 2655, 2192, -8615, 1282, -918, -5813, -4235, -10818, -1566, -7625,
    -8054, -11337, 3040, -7550, 8484, -513, -3913, 6431, 923, 7499, -1221, -6824,
    3867, -800, -7032, -3475, 10650, 1548, -8146, -1796, -11247, -8659, -3999, 8859,
    -6837, -12334, -8276, -5406, -4600, 1360, -6342, -1800, 5425, -1452, 5359, -637,
    11294, 8598, -4248, 1787, -12650, 322, -4321, -6318, 6694, 2901, 4179, -2615,
    647, -691, 5750, 7760, -1084, 6972, 9148, 2590, -7868, 1951, -8126, -4833,
    8218, 1098, -3913, 9480, 3771, -16540, -14208, 3140, 12, 9618, -15689, -2093,
    13412, 5030, -1837, 15315, 20545, 10616, 9092, 1720, 6050, 20565, 2336, -7940,
    -2891, -1663, 6999, -4833, -326, -4331, -2939, 2223, 8749, -5134, -811, 12614,
    113, -1738, -306, -6896, -1777, 1705, 239, 4331, 7541, 1109, -1244, 1126,
    1984, 2014, 6235, -4886, -1014, 4983, 3116, 4199, 6791, 8302, 6464, -4132,
    -47, 10607, -6526, -10215, 5321, -10027, -7301, -2526, 3797, 7250, -2648, 264,
    760, 1253, 3959, -3232, -3601, -10390, -4279, 6666, -31, 9851, -4945, 2128,
    -844, 3486, 3801, -4709, -657, 5949, 6280, -5881, -2463, -1305, -1784, 5889,
    -3271, -1237, -3021, 1151, -8118, -8727, 9026, -925, 1559, 7643, -8387, -9768,
    -9722, -6052, -6223, -5218, -11280, -5612, 11279, 4865, -461, -4207, 7892, 2611,
    18441, 9053, -2511, 11186, 1408, 10300, -285, -14391, -321, 366, -10856, -9098,
    -1915, 8501, 3256, -10093, 5288, 2763, 10397, 617, 2856, -2243, 1854, -5296,
    -7226, -2317, 6850, 1995, -2900, -5419, 3415, 15181, 4975, -1553, -758, -3239,
    -4033, -15415, -7647, -314, -1525, 5903, -9206, 3736, -6700, 10109, -1725, 3070,
    15477, -4417, 6604, -8067, 7150, 16306, 863, 7211, -6602, 2392, 8799, 3317,
    -2967, -510, -13227, -11753, -4950, 8348, 14479, 4891, -19304, 2642, 4663, 2588,
    18743, 335, 407, 8844, 1850, 2968, 3024, 1252, 13695, 2928, -5773, -12358,
    -1286, 672, -385, 3153, -12176, -8752, 12058, 17192, -5220, 3480, -10302, 1437,
    -9420, -10688, 722, -3134, 649, 2329, -2837, -10814, -5279, 1919, -3767, -2728,
    -2023, -4918, -4029, 11246, 9949, -1516, 3451, 1161, 6702, -4931, -4474, -1196,
    -6164, -3474, 2697, 1087, -60, -953, 6821, -116, 2539, 5235, 1525, 3906,
    2157, -6895, -9832, 5208, 5955, 4167, 5333, 1704, -1632, 5269, 9847, 6056,
    -5191, -6407, -5585, 6443, -10313, -7252, -3125, -14629, -8182, -9833, -6770, -5803,
    1620, -778, 8973, 2349, -11116, 2241, 9989, -1375, 11687, -6945, -13026, 4421,
    12553, 100, 3633, -3290, -504, -958, -11488, 5614, 2647, 2868, -8466, -6260,
    -10354, 11422, 11746, 9072, 5417, -475, -190, 8974, 10783, 4833, -9101, 2011,
    -1385, 4996, 18377, -3093, 2907, -334, -7865, -13783, -7696, 11849, 2308, -4846,
    -6355, -7017, -4269, -4640, -2874, -4912, 12019, 1812, 1837, 1013, -6017, 2101,
    -20834, -14844, -6122, 5244, -1529, -2707, -1220, 4294, 8315, 7953, 11749, -6998,
    -4163, 1498, 7791, -593, -4669, -482, -6168, -1792, 10496, 13379, 4671, 10651,
    3109, -1462, -4680, -2836, -1098, -17798, -7902, -7036, -3832, -6311, -5397, -7050,
    -7312, -1402, -10256, -5500, -11315, -9674, -6198, -1090, -5468, 743, 1004, 5951,
    9799, -1719, -6351, 3633, 9423, 4409, 3380, 938, 1425, 1479, 7889, -2762,
    6934, -4596, -11512, -8698, -3569, 8550, 7003, 11870, -599, -8791, 4775, -774,
    2850, 5487, 2615, -4634, -14504, -55, 5219, 10821, 6055, -8590, -9958, 4395,
    -7099, 1853, 17210, 12183, 10288, 1482, 8871, 566, 5759, -2990, 830, -6501,
    -7000, 3172, -687, 9588, 205, -405, -5040, 2088, -1421, -428, 6292, -2278,
    -3078, -2144, 4828, -4575, -6989, -4219, -2424, -9391, 1997, -5760, 3534, -6964,
    -605, 2031, 5610, 3136, -5324, -442, -8016, -1903, 3828, -8875, 3687, 5897,
    -5245, -2061, -6331, 9100, 2012, -5426, -275, -6028, -5355, 2727, -2014, 761,
    1050, 917, -5193, 4050, -437, -1750, -771, 4045, 9302, 7463, -8615, 3093,
    11868, 8614, 4408, -2091, -8289, -914, -5565, 1831, -6161, -4380, 159, 6549,
    4369, -4480, -8641, -2797, 6350, -6610, -4582, -16616, -1946, -11873, 6613, -2685,
    8807, -13931, -9516, -678, -2174, 14118, -9890, -4784, 6996, -2661, -5082, 6693,
    -4305, 1736, 3165, 3225, 657, 311, -1724, -3658, -4521, 2791, -5025, -6372,
    -1963, -5176, -6981, 597, -6401, -3847, 2887, 9775, 13770, 2559, 1992, -3764,
    775, 9690, 4372, 3549, -7324, 3682, -1846, 11433, 1946, 4365, -8748, -287,
    6763, -1654, 2919, -1212, -4978, 1584, -4800, 1959, -6817, 7786, 6799, 3402,
    -8484, 4760, -6345, 9545, -1703, -2948, -5526, 8554, -196, 558, -143, 2381,
    -10512, 5482, 7870, 2329, 9103, -3954, -10236, -1506, -6289, 307, 1953, 1620,
    210, -2860, -12016, -4462, -6722, -1450, 8209, 4611, 9570, -5061, -460, 3735,
    -8589, 3816, -3404, 2032, -3931, 5840, -66, -3836, -4759, 4018, -657, 1399,
    -7096, -5445, -7822, -13324, 12701, -254, 1029, 8134, -7329, -8109, -3420, 3659,
    -5717, -8008, 4278, 8171, 2636, -5109, 557, -6187, -755, 3893, 8837, 1908,
    -6547, -712, -7433, -2493, -4790, 8660, 2920, -2007, 45, -913, -7606, 4809,
    401, 5487, 4462, 6078, 6453, 1912, 10664, 2760, 16552, 4779, 216, -399,
    1575, 4331, -6780, -6436, -2406, -1806, -5207, -3336, 5462, 8847, -869, 302,
    4237, -417, 5668, -2122, 3350, -1312, -5997, 6641, 370, -2117, -3819, -3010,
    -7672, 3973, 3338, 6489, -10052, 7162, 9279, 9369, 3107, 739, 8854, 1732,
    14432, 2775, 4281, 798, -10293, 7862, 5172, -1019, 4217, 3404, 12869, 686,
    -9162, 3208, -2113, -615, -3748, -10965, 4074, 2990, -440, -3008, 3396, -480,
    -5422, 4829, 427, -1434, -8000, 9, -1979, 7805, -2648, -5396, -5964, -2166,
    -1619, 1405, 1495, -992, -7789, -7444, 1880, -2610, -682, 3503, 4918, -4528,
    -2808, 4679, -713, -6918, -4192, 2299, 5735, 7850, 5391, -259, 3761, -2742,
    6155, 4222, 7531, 5761, -9992, -558, -2436, -241, -9721, -1528, 3302, -8690,
    5301, -3134, 348, 206, 5489, 4615, 2576, -3287, 2904, -5783, 3792, -867,
    -4507, 1844, 2210, -4838, 2284, 8448, -3059, -8623, -1585, -2736, -740, -4707,
    -9352, -10347, -9973, -3331, 8843, 6012, -14108, -3871, 3895, 2881, -869, 6912,
    174, 8951, -1269, 2143, 7928, 2654, -5662, -5790, -7574, -7159, -3797, 1978,
    -1637, -4872, -8463, 7233, -3788, -6273, -264, 930, 814, -8260, -4468, 1340,
    4761, -6319, 4448, 7927, -1270, 7555, 4539, -7919, 8661, 8389, 4457, 10093,
    -4633, 10406, -3673, -7080, 532, 6780, 985, 5554, 5218, 4897, -4600, 728,
    -2549, 3227, 4718, -1558, 2007, -1696, 1457, 9216, 3537, 5728, -2775, 7530,
    5479, 3182, 657, -168, -2392, 10812, 3930, 4696, -8031, -5540, -9537, -4617,
    -6593, 4953, -6533, 5394, -6859, 5180, -5479, 2822, 7215, 374, -10098, -6095,
    2137, 2046, -4079, 6653, 2893, 3299, -3346, -5313, -6491, 4900, 5447, 3355,
    -9837, -2353, -3200, -7079, 2819, 5430, 6074, -7778, 7993, 4601, 8042, -3784,
    -3097, 10253, 8037, -6163, -635, -9744, -1887, -11009, -7682, 42, 1666, -11184,
    571, -67, -1391, 3262, 8458, 567, 1480, 701, -2240, -3242, 5507, 500,
    -39, -12194, 3, -78, 2762, -4686, -1701, 4762, -8386, -8670, -2187, 6901,
    956, -5785, -2509, -914, 2428, -15, -433, 6948, -2466, 4001, 653, 6279,
    -410, 6059, -727, -1447, -1849, 6283, 7248, 8741, -753, -7116, -5834, -8511,
    -2997, 1546, 710, 611, -12321, 5099, 8210, -9655, 13116, -2565, 7367, 1985,
    -3820, 10706, -3392, 838, 6155, 8984, 2795, 8325, -3724, -6461, 5675, -1483,
    -367, 843, 6455, 9695, -1150, -4630, 108, 1276, -6677, 226, 4404, 12027,
    -8482, 11253, -3372, -9603, 4714, 7715, 9252, 3772, 1203, -10265, 6910, 4466,
    10851, -5616, 1183, -7812, -1313, -2953, 2670, -2756, -6527, -9331, 5828, 6461,
    -2256, 2078, -4702, 6848, 940, 6404, -1012, 4612, 1929, -3950, 763, -3128,
    7060, 6821, 8370, -2646, -2503, 6098, 9257, -3100, -3728, 6116, 902, 5846,
    -11217, -2240, 980, -4658, -13903, -4516, 5854, 7266, 5234, 2257, -7450, 2959,
    5756, 5417, 496, 6392, -3165, -4665, 1539, -2959, 3592, -2493, -514, 3462,
    -3110, -1802, -2440, -2628, -5239, -11604, -7794, -4403, -7802, -3083, -2191, -389,
    -5635, -3439, 6006, 3150, 3221, 2405, -1231, -7913, 9733, 120, 11210, -1238,
    1245, 3549, -9970, -3660, 2362, 8963, -10731, -13730, -6177, 4914, -8583, -15761,
    -2280, -8323, -1387, 6307, -5706, -612, 4694, -9382, -13367, 2527, 7119, -4584,
    -7334, -7650, 4911, -1052, -7389, -3588, 9318, -3696, 599, 1983, 4759, -7390,
    -1315, -997, -2601, 6782, -134, 7992, 4433, -737, -856, -3765, 7753, 7526,
    -132, -7839, 1747, 6593, -2016, -9509, 6760, -5051, -8542, -11952, -2964, 2880,
    -10837, -8137, -7233, -4534, -1876, 2483, -3027, 7193, -2951, -4904, 524, -8113,
    -2211, -2396, -3669, -6365, 3053, -3322, 10708, -6804, -3741, -1191, -5590, 2427,
    -6540, 5203, -653, 3996, -10829, -957, -4399, -4569, -13261, 3971, -10814, -4423,
    2626, -12452, -7381, -3613, 5262, -10421, -5948, -3613, 7112, -6348, -9786, -1213,
    239, 10354, 6527, 405, 1618, -11118, 625, 3008, -1405, 3465, 8626, 5861,
    -3939, 12091, 9330, -4711, -3842, -2981, 8663, -6893, -2029, 4519, 9326, 8016,
    -6028, 5420, -3103, 2742, -4493, -6817, -4366, -1513, -2038, 7852, -1111, -6941,
    5281, -3923, 15499, 4017, 3557, -506, 4209, -2962, -770, 2384, 3211, 4766,
    1379, -233, 4038, 2355, 4826, 3919, -1857, 730, -3713, -1218, -13946, -4968,
    15318, -3954, 7706, 1395, -5411, 6223, 4630, 4495, 6956, -846, -8998, 2457,
    -6694, 5036, 1180, -1845, 2620, -788, -1414, -4964, -225, 4270, 3926, 12973,
    10194, 3319, 6114, 1940, -5289, -6795, 7563, 6658, 3459, -5440, -6557, 2678,
    413, 3254, -5149, 1467, 7130, -242, -6128, 5005, -23, 6420, -2752, -2043,
    -9754, -6774, 8041, 5889, -1106, -5205, 6770, -3503, 3330, -5181, -2891, -7517,
    -8191, -1468, 1562, 1317, -6714, 5119, 7284, 12505, 4547, -8581, 2870, 9281,
    995, 5144, -2356, -4214, 10618, 16312, 10190, -4233, 2201, 1753, 9300, 8382,
    -722, -379, 906, -302, 7885, 5001, -5548, -5112, -7450, 5820, -1363, -6562,
    -174, 10728, -482, -502, 4857, -13, 9847, 2124, 592, 5611, 1542, 8520,
    2971, -2110, -6445, -3831, 6478, 3198, 2059, -5686, 3547, 6511, -5495, -8990,
    -604, 5547, -1232, 4372, -1770, 2780, -2951, 2711, 12302, 7383, 5575, 2563,
    18597, 4784, 8411, 1629, 15188, 17623, 2831, 4309, 204, -5854, -5025, -707,
    9519, -1549, 101, -1583, -30, -5271, 14249, 6305, -4141, 136, 6846, 9371,
    7986, 5788, 2638, -3293, -4999, 1328, -2907, -7195, -3119, -6202, -4539, 4972,
    4436, -1861, 1581, 3538, -8969, -7864, 5306, 9466, 2131, -5651, 2158, 6205,
    5673, 8408, -535, -8801, 5243, -881, 8848, -3689, -8417, -6472, -3292, -3527,
    -4316, -3747, -3623, -5763, -9872, -12614, -6483, 5778, 11893, 505, 9562, 4734,
    2074, 6346, 15678, 479, -1805, -2212, -7828, 8657, 927, -5473, -6462, -14241,
    8794, 4046, -2113, 5269, -6988, -127, -8777, -26593, -19723, -5471, -14909, -15428,
    -10744, 5891, 12900, 2446, -6776, -4817, 4163, 3000, 387, -13105, -3267, 4741,
    -7525, 9177, 4215, -3250, -11331, -11460, -3064, 186, -7986, 6167, 268, -3176,
    2714, 2058, -1391, 7483, -2256, -667, -2228, -5430, -5646, -916, -6684, 1726,
    -299, -6548, -9151, -880, -1695, -8313, -6808, -6011, -16572, -2695, 2253, 12476,
    2513, 4273, -3978, -4978, 7769, 2471, 7185, -5589, 2482, 425, -178, -6450,
    704, -7269, -6945, -1513, -3764, 2456, -1263, -5466, 5373, -2427, -8097, 5164,
    1305, 4348, 494, 5421, 6664, -1975, 5503, 5030, -4562, 5971, 7100, -3421,
    5512, 6825, -3788, -7078, -2359, 3484, -3589, -6484, 4249, 5697, 5589, 1307,
    1081, 4334, 1801, -4792, 4772, -4936, -5541, -8456, 3540, -5807, 3570, -3520,
    -3772, -2781, -227, -6509, 4952, 3381, 1609, 1072, 5784, -1560, 5996, -4319,
    6907, 5112, 2539, 7435, 7188, -3934, -4402, 2540, -5282, -3223, -918, 5498,
    -953, 5535, 7874, 3556, 3858, 5210, 91, 1661, -2282, 6879, -1275, 7782,
    -5274, 4249, 991, 2303, -3206, -1427, -4670, -2658, 2290, 2622, 361, 7950,
    -4846, -4092, 2134, -3000, -6030, -2481, 704, -938, 3477, 6559, 4822, -7805,
    7625, -7254, -2716, -5538, 7326, 5388, 6945, -7850, -2355, 1107, -6462, 4230,
    6830, 1235, -4402, 4974, -4326, -1968, 1596, 7028, 559, -515, -3524, 6136,
    1069, -239, -6060, -1623, 4781, 3429, -5674, -5302, -2431, -1584, -7247, 4002,
    -2794, 3669, 6070, -4988, -5501, 3630, 251, -4902, 6010, 1476, -3589, -5374,
    4715, 8090, 500, -5331, 4962, -5598, 7014, -2877, -952, 65, -3375, 7850,
    -1555, 2459, -3760, 5104, -6439, -2597, -6626, -867, 7175, -4676, 4919, -6009,
    1346, 6154, 6650, -5987, -972, 4687, -8428, -2946, 4064, -4832, 7326, 5272,
    -1728, 4068, -73, 7211, 1293, 4032, -3333, 3740, 4033, 2067, 1430, 2234,
    4127, -4842, -7415, -3188, 3260, -5959, -5057, 6975, -2414, -1662, -1254, -7462,
    -2301, 3109, 3263, -6035, -29, -2529, -321, 4476, 3302, -5769, -4510, 3246,
    -3727, -7094, 4060, 7406, -4172, 7336, 1006, -2556, 3515, -403, -1498, -4714,
    -3794, -6653, 6486, 1622, 4410, -2356, 4543, 8043, 8057, -2467, -7667, 4402,
    4901, 445, 3067, -6051, -1011, 5885, -5377, -3994, -503, -262, -7342, -237,
    277, -1940, 2295, -6515, -5869, 6104, -1946, 2726, 3113, -248, 124, 2783,
    5004, -137, -4529, 6768, 1514, -6269, 5824, -2861, -228, 1646, 5427, -2851,
    -7488, -4, 4416, -216, 3601, -2315, 3743, -4469, 6363, -7728, 2716, -1435,
    5649, 2903, -5822, 4709, 593, -4731, -2909, -3001, -5298, -2056, -4888, 209,
    -6973, -7577, 5365, -3295, -6316, -2743, 619, 5408, 632, 2197, 2447, 5670,
    4983, -4499, -4744, -5703, 4726, 4984, 5899, 2061, 1389, -1303, 4294, -6449,
    -5287, -3260, -574, -277, -3499, 580, 4658, 2009, 196, -7406, -8938, 3741,
    7732, 1340, 2669, -4626, 5965, -61, -502, -6714, -6851, -7061, 5436, -1158,
    1260, 977, -5129, 4724, 5812, -4514, 680, 2746, -6516, -7377, 8255, -996,
    -1481, -6090, 1437, 7768, 8219, 3464, -6841, 93, -5766, -84, 4214, -945,
    3088, 4445, 3426, -2252, -7373, 6666, 1562, -3561, 6413, 7008, -4840, -8463,
    6162, -2753, 727, -2223, 6419, 6483, -5293, 916, 2634, -3683, -1108, -4605,
    11120, 3359, 2686, -717, -3775, 485, -8121, 546, -6519, -936, -3809, 5882,
    1947, -1542, 9707, -12848, -13473, -8263, 5545, 10719, 2302, 10211, 9705, 1915,
    -3569, 9060, 753, 7107, 8173, -959, -8444, -3189, -3196, 5423, 16330, -3447,
    -7701, 218, 1852, 5127, -18346, -11608, -2530, 2855, 2460, -999, 173, -9578,
    -4608, -8033, -4129, 6083, -5129, -247, 3712, -1542, 2726, 5100, -4042, -436,
    -3554, -4445, -436, -5458, 5717, -1138, 473, 5417, 5197, -4328, 312, 1528,
    -6625, -3330, -6318, 10196, -4910, 2821, -5191, -4959, 2077, -8100, 2056, 7682,
    2480, -8577, 1087, -3110, 349, 220, 12136, 2131, -5225, -3726, -7518, 10754,
    -1919, 1232, 848, -1710, -311, -5342, -3565, -2342, -5895, -7707, -4376, -9062,
    -6067, 10991, -1977, 14625, 16279, -2265, 6541, 712, 8700, 3727, -1652, -5620,
    -7095, 270, -3432, -8700, -9136, 5890, 5842, -10763, -2626, -2304, 333, -2938,
    23740, 24766, -2155, -15052, 2043, -7924, 322, -7681, -5922, -5476, -16339, -17345,
    -7699, -3501, 1179, -7105, -16053, -5938, 4259, -1422, 14532, -4262, -5810, 4604,
    3337, 10055, 5626, 10830, 4295, -11863, 122, 8150, -1033, -3060, 3627, 7521,
    -6955, -3213, 9444, 7996, -8170, 4889, 4791, -3210, -6994, 7118, 8031, 6533,
    2340, -7931, 3958, 4509, 3264, -8716, -9548, -2516, 5630, -14480, 2824, -13980,
    -9771, 4910, -8577, 9265, 1635, 1619, -1768, -4649, 2541, -2834, -2008, 7113,
    3709, -1839, -1204, -2671, 5590, 2359, -14377, -8400, -10275, -3597, -3513, 3193,
    2539, 2664, 5397, 3437, 14307, 3325, -2065, -4299, -5638, -3166, -823, -11802,
    -13341, -4695, -9343, -12322, -10113, -5309, 6632, -9420, -9635, 8080, 12974, 19519,
    10511, 18750, 9657, 10094, -1342, -160, 3263, -7962, -2876, -9468, 7186, 4712,
    900, 5574, 2346, 1325, -8359, -1243, -3036, -4079, 1266, 1850, 11038, 5665,
    -1822, 4670, 9485, 2151, -5463, -3184, 1961, -2111, -11106, 4148, -5868, -6236,
    -758, 10835, 1326, -5553, -3726, 5917, 11567, -6880, -7782, 2939, 11673, -1764,
    7676, -3213, -2454, -5253, -8628, 2011, 4148, -3946, 3293, 260, -6000, 2157,
    4098, 4536, 1739, -2658, 428, 10105, -3920, -5700, 7184, 7536, 484, 5797,
    10341, 11182, 11637, 5225, -3776, 8103, -8523, -4700, -2216, 9362, 5507, -6982,
    -9914, -1136, 17231, 11510, 1486, -8143, 4598, 2325, -7629, -3767, -5360, 1184,
    -376, -4929, -5225, 586, 2202, -8731, -299, 5327, 12780, 6262, 11350, 681,
    -2870, 5704, -2689, 1607, -8031, -5217, 3061, -2210, 2522, -8421, 7362, -616,
    11044, 4669, 393, -1377, -4024, -2083, 2729, 5288, -8237, -3776, -9903, -113,
    -9255, 1661, 6693, -7027, 1276, -134, -3769, -340, 2784, 1019, -9261, -6194,
    -7682, 11779, 14129, 8647, 3702, -554, 13716, 7874, 2451, -6594, 3094, -12569,
    -2528, -12402, -8289, -1366, 5496, 7234, 9018, -9061, -2077, 3446, 3137, 1635,
    -6995, -2810, 990, -9592, -247, -11912, -9789, -3685, 2924, 282, -3984, 3420,
    -4412, -2175, 7773, -2698, 7500, -5078, 7542, 3349, 5390, -10151, 1802, -2815,
    -1516, 15377, -2774, 2434, -8532, -9073, 9017, 7399, -73, -4426, -15315, -8020,
    -2493, 2700, -5944, -6490, -7985, -7338, 5301, 5126, 4891, -1665, 2563, 5131,
    4986, -3074, 5451, -483, 7872, -3927, 2088, -375, 5327, -7664, 6118, 1817,
    2980, 1876, -4403, 1372, -7418, 8409, -3400, -3741, 5581, 1127, -65, -8059,
    -2402, -3623, 4236, -5974, 6268, 5215, -2768, 7346, -1663, 5491, -332, 2389,
    -3760, 6109, -2603, 5869, -3200, -6121, 3832, -229, 8294, -2116, 13209, 2912,
    2842, -4314, -1696, -4286, -13720, -9866, 6899, 489, -2224, -114, -1517, -8309,
    -1650, 2053, -13059, -6239, 7160, 7847, -1976, -4057, -1499, 1649, -748, 7370,
    -5474, 5005, -2966, 1853, 5942, 1704, 8792, 13935, 9653, 13543, 15703, 11524,
    5281, -7300, 7494, 1034, -1528, -1435, 12319, -4263, -10617, 793, -1463, -4764,
    -2570, -8383, -2972, -8816, -1513, -2265, 2338, -1082, -7406, -14761, -9027, 767,
    6194, -3900, -3654, -9421, -7393, 8, -3827, -230, -6227, 881, -2225, 7094,
    7537, 3626, 1754, -6564, 4108, -369, -935, 10776, 9299, -753, -688, 5598,
    1380, 4803, 1515, 9072, -699, -896, -8144, -102, -2754, 5781, 2702, -2812,
    -6106, -4633, 3386, -8363, 7083, -4964, 6179, 7860, 1751, 8203, -1507, 11485,
    -1110, 5348, 6827, -1726, 6816, 902, -822, 3110, -2946, 3703, 1906, -3005,
    5373, 934, -5313, 6173, -584, -9942, -4279, 5096, -3775, -3320, -6528, 3374,
    9732, 534, -6488, 2088, 8112, -15449, -9956, 6263, 10177, 2682, -3025, 8254,
    3317, -1857, 7170, 2575, 5364, -9816, -6278, 7159, -4723, 1866, -1836, -3405,
    6125, 2464, 4899, -6602, -1580, -7022, -2640, -6042, -2133, 1693, -283, 3795,
    -7007, 1499, -5672, 6692, -883, 4745, 5329, 3869, 8233, -4686, 6693, 2608,
    7269, 7301, -9, 2599, 3913, -8948, 2271, 6485, 5337, 4472, 3567, -5087,
    6714, 6897, 1018, 7032, -2594, -1943, 4028, 5354, -2392, -6212, -10772, -12143,
    -7688, -3491, -337, -14836, -1581, -5245, 8185, -13351, 775, 7372, -814, 802,
    -56, -4961, -8673, -8242, -10796, -3079, 10067, 4976, -1993, -6827, -3340, 335,
    3611, 2217, 1003, 4714, -12063, -24389, -10688, -1270, -8002, -13873, -9727, 730,
    -7310, -1884, -6412, -7255, 6817, -321, 5201, -8981, -1664, -2965, 4553, 147,
    -196, 724, -7420, -6325, -5352, 314, 737, 10392, 8631, -5113, -3086, 5754,
    -4665, 2528, 1890, 919, 5083, -6448, 1061, 6870, -5873, 10035, 6802, -7097,
    554, -7271, 5243, -9048, -6339, -137, -8627, -12568, -9133, 605, -9005, -4184,
    3954, 24, 5595, 3306, 2191, 3250, 774, 2894, 3627, 25, 8138, -500,
    -5283, -2650, -7431, 8476, -2183, -1712, -4322, -1020, -792, 3661, -9565, 2476,
    3313, 6493, -182, 4586, 11586, -2892, -2096, -5135, 7115, 3009, 11151, 10436,
    -3021, -4403, -6824, -677, 5582, -8865, 3932, -4260, 123, -2969, 4091, -2082,
    1973, 5421, 3497, 9628, 4645, 4491, -1022, -5206, 11122, 3100, 6279, -5768,
    -1659, -320, -5522, -3931, 821, -3312, -6634, 5416, 5848, 5445, 5333, -6459,
    1953, 115, -6293, 5514, -3923, -6139, 4188, -359, 5666, -4509, 3454, 6541,
    -4150, 5311, 134, -7205, -6157, -1336, -8672, 351, 422, 3793, 841, -6110,
    -356, 362, -6211, 1616, 2078, -5483, 546, -5329, 2220, -7780, -1238, -3171,
    -4032, 978, -4499, -7239, -1575, -665, 9342, 2448, -5028, 5092, 4591, 6755,
    6890, -5577, -2612, 6035, -4110, 8445, -4574, -3617, 993, -411, -3741, -5521,
    -2354, -5201, 4408, 6990, -2620, -7900, -11264, -5690, -2686, 12852, 4367, -7103,
    -5808, 2754, 6172, 2885, -4058, -3852, -3761, -2724, 2019, 5804, -8766, 10692,
    10697, 1656, 6525, 1988, 3484, 3180, 6521, 4462, -845, 1540, -6621, -3622,
    -6984, 9171, -6017, -10058, 130, 508, 8644, 5306, -3403, -2239, 3792, 1243,
    -8100, 2201, 5434, -2866, -9855, -6047, -2644, 5175, -5458, -1946, 750, 228,
    5778, 4005, -10474, 4319, 10793, -2212, 122, 2428, 2456, 5648, -3453, 58,
    -547, -1714, 6225, 1285, 4738, 1462, -8320, -1499, 4364, -9993, 2161, -8841,
    -943, -966, -10802, -3160, -7411, 4897, -4810, -2563, 12129, 5729, 4143, 189,
    2815, -4495, -4336, 2352, 7318, -2439, -159, 7373, -3384, 2820, -8123, 159,
    -2043, -13343, -12398, -838, -8873, -5776, -7872, 2244, 14081, 13548, -4802, 7113,
    1732, 7555, -884, -6852, -5765, -9318, -7230, -4929, 5778, -6549, -10492, 2821,
    7201, -6079, -743, 610, 5109, -361, 7043, -4811, 3228, 5768, 2604, -5849,
    -2574, 7837, 4866, 3967, -7615, 4154, 4364, -8508, -8527, -2627, 625, -7864,
    7366, 2950, 10248, 1030, -4483, 7686, 10395, 2419, 769, 10591, -6905, -9493,
    3546, 1229, 6709, 4451, -7741, -7044, 5532, 3129, -7601, 6974, 1369, -2087,
    5490, 4110, 4731, -675, -5388, -6801, 8591, 8383, 4124, -9621, 5827, 2563,
    4004, -1597, -4487, 13542, -419, -6324, -6195, -2724, -864, 211, -4767, 8780,
    -5235, 1954, 1700, 727, -5754, 201, 829, 13439, 17244, 19219, 10884, 7219,
    2632, -6319, -2468, -2194, 10467, -9004, -2118, -9485, -8479, -4715, -9125, -299,
    6877, -9391, -6247, 930, 3914, -7098, -4364, -2380, 4028, 6125, -6584, -4592,
    -3159, -6816, -9593, -3559, -2247, -5418, -6109, -8582, -1457, 3280, -6379, -12527,
    -3569, -6586, 4276, 1021, 1900, 2836, 8500, 1521, 5120, 20399, 7609, 2480,
    -1825, 3776, 1709, -8827, -7527, -3737, 444, -9514, -2363, -6736, -1951, -7209,
    -7669, 2528, 5819, -5923, 736, -422, 113, 907, -8763, 4304, -2278, -1006,
    -1034, 5948, -1926, -2628, -3761, -2818, 5080, 1101, -3131, 4550, -3567, 6236,
    -5961, -7299, -2784, -5173, -3801, 9175, -11021, 4158, 2765, 4874, -2661, -4373,
    12903, 4454, -1046, 1879, -592, 8957, 4883, 3877, -10613, 6187, -2900, -324,
    1864, -4994, -3559, -3430, 8150, 7896, 7713, -4423, -2960, 1241, -1290, 3254,
    -676, 123, 5836, 3616, -1544, 2142, -8447, 9094, -116, -4380, 3836, -8174,
    3611, -5429, -1682, 10310, 1466, 4051, 4566, 3078, 7391, -4853, 97, 413,
    1492, -2042, 1926, -5654, 4173, 712, 5783, -9665, -7088, 2124, -4131, -3588,
    5511, 3067, 5585, 5118, -4353, -1324, -4140, 427, 1100, 2503, 6647, 2252,
    1930, 839, 4, 3631, -9224, 4937, 4803, -5649, 4674, -8999, 108, 6366,
    1734, -7041, 3931, 6467, -1795, -6520, 7061, -3292, 3997, -3026, 1593, 4369,
    -6206, -2123, -1738, -4853, -1272, 3479, -1859, 5622, -3757, -6065, 11920, -8605,
    -7902, 298, 6237, 11722, -4766, 6023, 5779, -1496, -3408, 2915, 7818, -4340,
    572, 4645, 1104, 1567, 575, 538, -4574, -10047, 4303, -3054, -7039, 2618,
    -7324, 1144, 3895, -3940, 10958, 4018, 3811, 2852, 11378, -6407, 9035, -8859,
    7301, -1014, 4778, -4793, -3477, 10578, -8520, 3819, 9771, 204, 6162, -7402,
    3185, 932, -8401, -2218, 7332, -5249, 3079, 8276, -1544, 10094, 767, 3636,
    3821, -1337, 5502, 837, 1137, 1624, 1911, 5087, -5240, 3346, -7357, 2305,
    -1934, -4320, 13115, -8250, -7257, -4905, 6871, 2627, 6601, -3550, -790, 4532,
    3489, 8779, -1844, -5324, 2232, -278, -6143, -5230, 9328, -9263, -8534, -5897,
    1769, 4191, -13915, 1182, -10485, -400, -218, -6434, 2654, 2449, 3050, -1683,
    3475, -4050, 7590, -7639, -5103, 5939, -1271, 4115, -2622, 582, -1567, -6586,
    -701, -2812, -4160, 43, -6603, 2534, -2539, -5201, -6757, 2086, -2888, -4533,
    -888, 4255, -4336, -2764, 2191, -3340, -6550, -1718, -1550, 1328, -558, 4419,
    -7822, -7189, 2995, 5684, -4361, 5148, -3869, -5337, -3209, 5763, 9286, 3017,
    -2536, -12444, -7540, -892, -568, 834, 5172, -546, -6998, -6081, -3595, 8811,
    4913, 6312, -2768, -3234, 5593, 1134, -4648, 4404, -5765, 6741, 5219, 7288,
    7909, -5755, -8865, -10195, -4856, 5535, 244, -2750, -8596, 2632, -5875, 241,
    5228, -4111, 1369, -7779, 1407, 9345, 1276, 7090, -1257, -3618, 92, 10186,
    10397, -6021, 1426, -1303, 7689, 4111, -3349, -2628, 3457, -120, -343, 3434,
    1001, -10311, -9379, -3024, -4849, 16, 6440, 1576, -6934, -5463, -6801, 4624,
    -3051, -5095, 3951, -7602, -7329, 1345, -724, -4529, -3967, -7011, 1797, -3041,
    -8731, -8366, -871, -2194, -1502, 3674, -5423, 3229, -5278, -4598, 1716, 2340,
    -1755, 1021, 3567, 2841, 5495, 7414, 232, -931, 2142, -789, 2375, -6502,
    4538, 2000, -4528, 1070, -5440, -1367, 400, -7104, 5720, 4601, 7852, 8493,
    9313, 3817, 10747, 5376, -316, -1164, 1012, 45, -5492, -1315, -5613, 2664,
    -6936, -8156, -1222, 4817, -5572, 209, -1302, 3047, -2616, 6481, 8141, -638,
    -3367, 10387, 8470, -5396, -593, 4992, -6855, -8023, -3941, 2189, 173, -3559,
    3560, 3962, -6529, -3684, 5937, -3370, 569, -1217, 936, 4949, -2944, -4760,
    7100, -1454, -3525, 7437, 4290, -6584, 7280, -5698, 1539, 7425, 3815, 4476,
    -4223, 4990, 6469, -5400, -2181, -110, -2065, -5472, -2495, -4333, -394, -3741,
    2784, -1774, 6406, 3123, -7646, 3870, -3224, 1537, 3175, 211, -3153, -5453,
    -2663, 4743, 5283, 6231, -1714, 6903, -3687, -6748, -4906, -2996, -3246, 5493,
    6345, 6391, 832, -1656, 4680, -6545, 4876, -8063, 3787, 4663, -282, -1280,
    -5487, 6149, -6811, -2672, 3099, -5247, 3325, -4006, 2229, -706, -5011, 377,
    7159, -2216, -1079, -2343, -6126, 2861, -5769, 5425, -6049, -735, 5383, -5660,
    -7641, 322, 7723, -1043, 2684, -1347, 1136, -7995, 4075, -2094, -6161, 5077,
    -1, -2848, 2193, 2706, -136, -5926, 6982, -4170, -5758, -1739, -4190, 1761,
    4707, -331, -5040, -3544, -9834, 284, -2596, 2960, 5263, 1879, 3032, 3134,
    -4392, -6657, -3357, 220, -936, -4164, 6730, -7166, 5258, -8229, -3254, 1322,
    2510, 4461, 2981, -5315, 3195, -4440, 1019, 5282, -5076, 4718, 7717, -830,
    225, -155, 8273, -1515, 3077, -1660, -7280, 4924, 3078, -3126, -5074, -5107,
    3523, -3256, 6708, -2849, -1091, -4944, -3121, 8003, -2408, 4082, -5183, 3293,
    -965, 3681, -6071, -5192, -6763, -7575, 6591, -378, 1668, -5799, 2485, 6526,
    5756, 4818, -1333, -6048, -1664, 8105, 5324, 4352, -3547, -4046, 5986, 4019,
    -5876, 1970, -4075, 1986, 1280, 5743, 4286, 7609, 6369, -332, -5681, 5820,
    4675, -1479, 4894, 5434, -5486, -336, -2340, 1768, -6876, -3518, -3449, 6992,
    -1879, -5015, -2926, -606, 5040, -3787, -4033, 7791, 7524, 8269, 2375, -1678,
    7836, -7929, -1016, -1699, -15, -4567, 2026, 2420, 552, 4344, 5391, 8921,
    2559, 5022, 6431, -3537, -3771, 8850, 1341, 2859, -361, -2242, 10333, 5116,
    -6863, 6720, -530, 5262, -4250, 1476, -3180, 2663, -7744, -1656, 2644, -5594,
    -3792, 2031, -8449, -7315, -1438, -5643, 9122, 5686, -2780, 4781, 9765, -240,
    4801, 6845, 5236, 4067, -4141, -1934, 7744, 7053, -5777, -7341, -5806, 5210,
    3424, -3910, 6661, -4416, -5496, 1146, -7251, -5180, -159, 1693, -4640, -2600,
    -339, 68, -4788, 4276, 4873, -202, 6029, 6814, -9149, -8841, -683, -6282,
    8366, -3382, -703, 4559, -5476, -2448, 4989, 8534, 1398, -3691, 5614, 3882,
    -3298, -6141, 6635, 200, 6315, -1987, 1164, -5666, -3557, -7896, -7062, 141,
    -7852, 1864, 5818, 193, 2332, 363, -2335, 3084, -1449, 7577, 1826, -1418,
    -6501, 92, -1814, -6059, -459, 3199, -3490, 6228, 5482, -4043, 7381, -3631,
    -5734, -7906, 7508, -165, -3385, 8674, 2431, -5186, -1275, -2180, 8954, 8183,
    7795, 1064, -5963, 2618, -2573, 2977, 4549, -4291, 106, -3441, -484, 3228,
    3729, -1534, -1875, -6088, 538, -4535, 1308, 4388, 2850, 3544, 7802, -2711,
    -672, 4557, 2905, 6295, 4831, 3352, 1053, -12, -424, 381, -6787, 2707,
    -2704, 69, -4983, 3915, -6397, 4219, -5383, -5887, -2623, 2111, -799, -2065,
    -7220, -1137, -5280, 1150, -7125, 5678, 6719, -4063, 3788, 3524, 6172, -4451,
    -6369, -3773, -971, 722, 358, -3924, -1462, -6446, 5680, -5212, -23, -8597,
    2826, -4811, -74, 4, 1824, 3771, -6604, -5334, -7013, 2055, -838, 4359,
    417, 3712, -746, 5168, 4311, -1258, 5352, 1733, -2697, -3164, 4501, -7547,
    2524, 2071, 1690, 922, 1713, 4066, -3724, -7345, -2495, 5148, 8103, -3609,
    1651, -6929, 5096, 1900, -2779, -3977, 5947, 2294, 1, 4699, 1519, -2586,
    -7656, 4504, -6308, 2357, 6208, -6641, 4902, -2832, 5226, 2356, 1152, -5124,
    4460, -5896, -4605, -125, 3719, 7288, 818, 1061, 3470, -2029, -7188, 5479,
    5495, -75, -5205, 4450, -161, 1806, -5561, -5292, -1600, -3705, -4685, 2832,
    3629, -6538, 2643, -3402, 246, 7194, -7928, -5014, -5343, 4513, 5253, -2711,
    -1528, -1617, 3112, -6082, -6377, -912, 1683, 7374, 466, -7626, -1697, 5039,
    2267, 920, 975, -4319, 1769, 4419, 1665, -8638, -5233, 845, 863, -3449,
    -7914, -4200, -103, 5346, 2597, -407, -1327, 6467, -2731, -8104, 7064, -5299,
    5006, 380, -1884, 7769, 4965, -1688, -1084, -1784, 2673, -7100, 6056, -3690,
    4455, -3733, 7155, -6663, -5521, 1913, 4129, 6237, -6265, 4752, -3810, -7503,
    6091, -1674, 2413, -424, -6734, 2597, 7779, -146, 6020, -2082, -3627, -578,
    -2202, 6813, -7580, 2099, 6571, 7791, -6875, -5431, -6213, 2980, 3609, -7422,
    6893, -4643, -7266, 7788, -1752, 1116, 2460, 4897, -1757, 5084, -8498, -8318,
    638, -7356, -2450, -5766, -2612, -4525, -8122, -1727, -7285, -7256, -2993, -7577,
    543, 5285, 1246, -4886, 1292, -707, 2977, 1005, 934, 2220, -5828, -7833,
    -7188, 3457, 5210, -2640, -5521, -5012, -5424, 2701, 2054, -779, -4661, 8490,
    2820, -6614, 1301, 3439, -6825, 4569, -4260, -24, -219, -5390, 4923, -4814,
    3778, 8169, -6099, 3851, -6206, 2946, -3307, 5850, 7390, -3245, 5907, -5733,
    -3896, 1364, 7711, -3585, -4501, -1851, -7527, -7198, -3106, -866, -2223, 6619,
    -2945, -4452, 1009, 1256, 7057, -6862, -849, -8095, -4039, -4981, -5314, -4405,
    397, -3735, -6690, 7932, 2647, 7318, 3678, 6278, -5960, -6175, -3249, 1969,
    4274, 1031, -3690, 110, -1231, -6457, 1288, 3604, -3917, 459, 2720, 831,
    -7838, -3159, -1722, 6853, -280, 2340, -5222, 251, 3973, -3236, -442, 2508,
    -8228, -8424, 10966, 14011, 969, 4765, -14032, -6425, 2897, 3680, 1125, 2777,
    4774, 645, -6168, -903, -3777, 1567, -3936, -8716, 3051, 11916, 3493, -3157,
    3665, -170, 3061, 5864, 1804, -8125, -4330, -1562, 3490, -6522, 713, -1563,
    3801, -6518, -861, -6179, 5474, -2742, 6461, -9935, -2435, 1806, -943, -1235,
    4255, 221, -8497, 8501, 7043, 5325, -8223, -6338, 5762, -691, -3492, -1144,
    5741, -6858, -740, -573, -2405, 4214, -4051, 8110, 1826, -9920, -8424, 9033,
    -1292, -4484, 585, 2013, -402, 5119, -349, 130, -7169, 5753, 3668, -7539,
    -13611, -5493, 144, 7972, 1613, 4457, 5441, 6939, 2205, 4365, 5408, 1413,
    -854, 181, -147, -4832, -2022, 7356, -584, -112, -11076, 126, -7741, -4082,
    -6575, -1322, 5967, -17, -2834, -10909, 156, 10143, 8568, 2878, -1803, -11481,
    -2060, -3722, -9222, -1612, -3784, -2777, 3470, 1240, 5210, 10675, -3450, -6954,
    -1646, 8220, 10778, 2660, -6240, -5375, -1705, -6708, 468, 717, 8300, 6420,
    4951, -3178, 4208, 3440, -7178, 4636, 3726, 8536, -13409, -15314, -2037, 5895,
    -2126, -6811, -5981, -10248, 1484, 5776, -5736, 7206, 2992, 3305, -8671, -8678,
    -2719, 4365, -1018, 6782, 7082, -5846, 11588, 8168, -9060, -3585, -6253, 2289,
    -7037, 9912, 5892, -4781, -2452, -3620, -5070, -1840, -7028, -1498, 3174, -2424,
    591, -426, -4419, 3722, 6225, 527, 666, -2055, 5730, 107, 5242, 14421,
    -11277, -11673, 6108, 7233, 3782, -7874, -13653, -12325, -16507, -1951, -6463, 2070,
    326, 11051, 6576, 3131, -2000, 14905, 59, -3291, 7049, 77, -6025, -6702,
    4854, -4018, -6667, -1850, -54, 4928, 8702, -6334, -750, 9749, 10039, -2451,
    6820, 8798, 870, -3388, -3911, 7267, -7820, -2594, -3680, 6868, -8754, -2221,
    949, -4203, 5886, 2261, 6302, -3485, 7040, -2975, 3183, 1512, 1337, -2478,
    -11647, 509, -2500, 2049, -12630, 6572, 5151, 99, 1567, 10416, -1035, 8103,
    -8196, 3316, 803, 9295, 11462, -6215, -1352, -142, 3153, 5133, 3294, 3121,
    -1889, -6589, -4082, -1490, -5491, -6285, -1203, -110, 4024, 7459, 4951, 13772,
    6960, -8664, -403, 6937, 17670, 4328, -2199, -9594, -154, 4293, 2348, -10832,
    4365, -5353, -10615, -7557, 6661, -460, -337, -15162, -8257, -6432, 8603, 3017,
    1292, 12176, 4244, -4753, 8284, -3456, -8654, 5803, 4848, -4962, -1770, 1515,
    3229, -2229, 8145, -2675, 178, 4510, -7543, 1463, 3748, 8205, -7165, -11144,
    -116, -7263, 8807, -739, 3339, 13999, 1876, -1045, -3556, 2523, -1001, -2304,
    -9891, 7345, 8242, 5107, -5737, -8567, -1187, -4592, 3162, -6247, 11237, -5019,
    -869, 2462, 10719, 5999, -2985, 7054, 2523, -234, -7464, -6694, -1779, -7236,
    -6626, -1037, 14, 2569, -3012, -1393, -2505, 1883, -1283, -2380, 3367, 952,
    -3151, -1491, -3840, 7360, 4150, -7371, 1575, -7645, 181, 939, 6886, 4623,
    4236, -1286, -4404, 6776, -3105, 5310, -2968, 6475, -8361, -651, -1752, -6314,
    -2751, -935, 7865, 6277, -5443, 2211, 6620, 5632, -7098, -5963, 805, 1259,
    -2506, -3468, -8061, -7355, -1658, 7343, -2, -7153, -5599, -6383, -3038, 7668,
    5759, -3077, -5447, -6927, -3728, -6707, 3011, 1948, 8412, 731, 3747, -3022,
    -129, -4008, -6061, -5338, -2780, -5800, -413, -6291, -7793, 7916, 3801, -2470,
    7853, 6396, 7782, 7927, -3041, -5209, -7161, 4362, -7823, -5764, -4324, -6643,
    -4646, -1010, -8130, -2340, 4820, -2809, 6265, 4992, 6508, -3052, 365, 7029,
    8465, -2037, 1038, 2277, 5475, -7562, 6557, -5774, -3255, -2155, -5400, -1864,
    -6912, 6541, -3478, -5195, 1314, 5144, 7970, -1271, 5210, 5878, 7262, -4841,
    956, -6645, 6060, -5292, -5734, -5874, 1679, 1290, -3672, 3030, -4255, 7026,
    5149, 2270, -887, 5289, 1040, 7289, 2002, 3151, -5262, 2315, -5001, 5241,
    -3664, -6009, -7774, -2420, -861, -1916, 1835, -4218, 2737, -857, 1056, 6433,
    -4307, -1287, 7171, -2322, -4929, -7387, 1004, -1312, 1248, 3714, 7307, 2862,
    4909, -894, 2672, 1814, -1548, 8132, 7460, -4313, 3096, 2670, 9448, 6214,
    -7934, 5191, -2220, -3637, 5686, -7117, 3389, 3521, 531, -6759, -6235, -317,
    -3072, 5449, 7779, -990, -2103, 5169, -5504, -2134, -1752, -3008, 512, -474,
    7109, -5151, 2765, -4197, -9257, -5488, 182, -7797, -6884, -3490, 4731, 4197,
    -371, -4609, 7157, -508, 414, 8093, -6231, -3382, -2890, -193, 3687, -1938,
    8248, -5458, -2414, 1484, -907, 1427, 6451, 7865, 4749, -3653, 6355, -6709,
    7343, 4584, 4297, 6796, 5514, 202, 6847, -522, -1329, -139, -3100, 2012,
    -6004, 290, -2914, -6874, 5311, -4639, 4144, -6223, -2698, 7625, 5310, 2496,
    72, 1710, -4624, -2956, -5353, 852, -5822, -2533, -6334, 5547, -5423, -4585,
    6968, 6073, 7892, 5185, -1487, -6519, -3954, -1472, -3326, 5895, -1974, 6960,
    -1568, 6158, -2317, -8021, 6737, 694, -3987, -2945, 6205, -4882, -6315, 4036,
    335, 3254, 1409, -7999, -4582, 8918, 8963, -3335, 578, -6946, 5602, 7426,
    1835, -8440, -5459, -6893, -2016, -5450, -4369, -1855, 6221, -6043, -824, 2664,
    -1618, -1480, -4757, 6132, 3188, -6368, -2816, 5072, -3833, 6095, 7589, 5980,
    -2525, 5169, 7448, 5891, 852, -6121, 1711, -7546, -1942, 7656, 8892, 6220,
    -984, -7698, -7520, 1117, -5745, -6227, -2287, 5192, -6847, -2768, -5557, -1580,
    3739, 1849, 1665, -4607, -8657, -3682, -764, -3345, -7402, 1271, -5250, -6645,
    -6832, 1372, 5634, 3321, -886, -7654, 5309, 678, 7984, -8728, 2165, -12416,
    -4888, -1694, 4417, 887, -5194, 9149, -4102, -6720, 12217, 26, -6810, 1238,
    1289, -1326, 1158, -3813, 5662, -12100, -9626, 308, -4416, 1484, 2603, -10602,
    -5252, 177, -5673, -5769, 2618, 10188, 4673, 3534, 10062, 7238, 8768, -11977,
    9589, 1808, -2304, 2859, -1330, 3023, -9679, -7846, -1087, 3317, -8109, 10828,
    4029, -2983, -3774, -4531, -5852, 5585, 8286, 2815, -259, -1271, -1010, -3549,
    4972, -7190, -9061, 5153, 2861, -3262, -5702, 11310, 5763, -3896, 6012, 4921,
    6275, 4173, 4193, 3576, 131, -3704, 10, -6423, 48, -3, -7271, 3411,
    -2071, 5985, -8060, 2415, 6633, 8290, 488, 8646, 7833, 8047, 6081, 3768,
    -1963, -3593, 1895, -1164, 6653, 5194, 2197, 3799, -5947, -5463, 8158, 1256,
    -3590, -7225, 2205, -815, 2938, -6866, 4824, 3473, -3958, 2386, 4735, 3929,
    -1499, -1722, 4198, -8078, -3213, 5350, 9807, 3583, 4729, -1705, 3807, 5630,
    3792, 6906, -6437, -5381, 896, -3618, 5058, -425, -4146, 3957, 754, 8346,
    8282, -4011, -5065, -5835, -2374, 2896, 1593, 6726, 1298, 10474, -748, -6,
    1592, 11221, -2897, 3420, -475, -3453, -3650, -3875, -2732, -12827, -4019, -1790,
    3406, 6294, -3157, 4470, 4869, -3643, 6046, 4635, 10791, -1023, -2873, 2035,
    -7976, 7250, -6480, -486, 823, -10545, -3200, -1831, -2963, -3650, 1534, -8143,
    4322, 664, 4703, 8102, -2655, -7758, 4029, -7368, -434, -3926, -5042, -102,
    -7689, -6050, -6305, 4416, 1588, 12143, -6043, 2034, 519, 10896, 8962, 5807,
    6713, -1489, 5219, 15020, -2520, 3438, -516, -8131, 8973, 892, 5613, 2592,
    -62, 9629, 10359, -7421, 1890, -4913, 10357, 4313, 6438, 1668, -1437, -5108,
    -5553, 8425, 8706, 3085, -9037, -11611, 4669, -4275, 12517, -6001, 10959, 4741,
    -4050, 6721, -2692, 2625, 3960, -3490, -7968, 1007, 1473, -3033, -4942, -385,
    8114, -4718, 9274, 4174, 3487, -8759, -3318, -2588, 3738, 4796, -3933, 5700,
    -6052, 3996, 7081, -9048, -5026, -1301, 7831, -6298, -8703, -4572, -2759, 3385,
    6289, -3820, 7785, 11809, -5848, 2051, -7046, -2449, -3089, -3719, 4985, 9547,
    8588, -2432, -3475, -6228, 10148, -1052, 4237, 12372, 4225, -5516, -3443, -4205,
    -3823, -9251, -2959, 185, 2931, -6512, -10645, -5660, 2679, -2910, -2584, -7842,
    -6916, -5182, -7191, 7261, 13765, 9819, 734, 5557, -10106, -13638, -5151, -9163,
    11603, 6585, -1799, 3461, 2051, 6095, -7691, -7150, 3947, -3771, -7058, -2634,
    -25, -6749, 4312, -801, -5472, 835, -4827, 6268, -632, 3852, -8255, 5068,
    -7021, 1946, -3906, -1175, -3205, 8223, 10561, 10244, -3309, 4042, -3507, -5196,
    10822, 7175, 1080, 12298, -2203, 369, -6887, -6487, 1577, 6386, 1275, -2539,
    -2970, 5960, -2320, 947, -6773, -2861, 7809, 3511, 3491, -2076, -7915, -1260,
    7058, 6295, 2694, -1626, -7846, -7036, 5744, -4242, 3670, 36, -5622, -9894,
    -9868, -4388, 6741, -5282, -7502, -4976, -1363, 1387, 6246, 5970, 4895, 1771,
    -1344, -6516, 7866, -3100, 2238, 6841, -2839, -7224, -2070, -7307, -702, -3595,
    -2958, 694, -9802, -3408, -12111, -4987, -1954, 10854, 10482, -91, 207, -1382,
    12218, 11461, 1203, -4949, -9153, -160, -252, 5307, -1595, -7916, 3103, -2364,
    -3010, -5635, 1527, -1479, -5008, 3129, 2172, 23, -1997, -6951, -7579, -3479,
    -1007, -5012, 8551, -3802, 135, 413, -3053, 2258, -8707, 1439, -6941, -357,
    -4890, 1221, -207, -3696, -1300, -1636, -717, -1598, 4154, -1334, -802, 661,
    -2083, -7188, -7650, -4241, 8231, -1852, 167, -1812, -9148, -2639, -6127, 6646,
    9241, 8922, -3972, 2861, -3971, 11044, 62, -879, -9185, -8576, 5278, -6422,
    -2273, 2698, 9513, 2650, -2446, 3023, 681, -3366, -7636, -7050, -839, -11448,
    -4630, 4455, 3672, -4255, 8565, -1653, -5315, -4215, 5334, 10831, -638, 3154,
    2706, 6212, 6451, 3859, -1898, -5504, -7155, -2092, 851, -4574, -3999, -5306,
    3830, 9251, -4442, 5443, 3543, -4014, 7595, 3916, 980, -843, 6050, 4432,
    10861, 1925, -2589, 10480, -712, -3292, 9310, -7703, -9285, -2349, -3115, 7391,
    -7520, -488, -8459, -4467, -1106, 956, 5455, -9163, -5962, 5590, 7034, 2855,
    -8818, 4689, 4741, 2500, -396, -4805, -1792, 10957, -3189, -9430, -12189, 2061,
    -6185, 1264, -861, -10083, -2829, 5127, -4414, -2629, 5847, -570, -3785, -4877,
    -3470, 3754, -5827, -3932, -370, 2772, -301, -179, -1029, 376, 11096, 1396,
    -10853, -13065, -2401, 15284, 4629, 2475, -7739, -7422, 2757, 7080, 10157, 11378,
    -14376, -9583, 7707, 11679, 3850, -5924, -10443, 1580, 11751, 5621, 4015, 6956,
    1995, 431, -2166, -2795, 1261, 4314, 3479, 7140, -2858, -308, -3792, 8361,
    -3182, 2029, 4091, 3768, 6258, 6110, -8820, -10866, -10281, -7752, -5551, 6323,
    425, -4562, 435, 1365, -4562, -3889, -4941, 8787, 6903, -7592, 638, 15306,
    -731, -4321, 5750, -7287, -4123, -2542, -4371, -3037, -1584, 1176, -10401, 1269,
    6930, -2923, -4631, 218, -3740, 981, -11054, -1357, 6222, 2191, -5119, 5372,
    9327, 11487, 1219, -3934, -5536, 3315, -1334, -3780, -7713, -7658, 6367, -998,
    -314, -2849, -3407, 4643, -1951, -4248, 9434, 1427, 5132, -3475, 1776, 1325,
    -808, 7193, -5100, 1773, -11593, 3247, -557, 3364, -4877, 486, 633, 9050,
    -10987, 499, -321, -838, 7867, -2390, -8022, 1373, -8787, -1467, 5914, 2131,
    -8518, 4376, -2779, -5167, 1085, 1573, -555, 1733, 5049, -8500, -5663, 1351,
    -4221, 3122, -2322, 10334, 8977, 5812, -10408, -8817, 7840, 681, 3817, -4038,
    -3283, 2468, -1700, -1824, -3195, 9920, -3166, -6119, -2570, -4603, -6796, -3626,
    -8438, -6331, -7613, 4280, 4646, -5328, -4663, 1128, 5928, -6905, 4514, -5082,
    5729, 5481, -5915, -6960, 862, 1095, -5682, -2628, -4008, 7953, -1312, 7847,
    5548, -6644, -3792, -5100, -6131, 3663, 5141, 7222, -6562, -1119, 6406, -1103,
    -3925, -3721, -628, -5585, -6098, 4155, -151, 3504, -1423, -7366, -78, -1584,
    -4796, -1211, -176, 2456, -1313, -5797, -6778, -3928, 7941, -4323, 6124, 4335,
    -7428, 5115, -2465, 2785, 1731, 2092, -6980, -3208, 1158, -1235, -5521, -5727,
    -3043, -4678, 7840, -7702, -7001, -2708, -6746, 4883, -6416, -5250, 6790, -2327,
    85, -3104, 1825, -540, 822, 2389, 3994, -2724, -4354, -7220, -3773, -3008,
    -6034, -2282, 5734, -4196, 4374, 4160, -3488, 5287, -5869, -2642, -5320, 59,
    -7067, -4290, 7248, -3199, -1191, -3205, -2098, -1375, -1385, -4204, -949, 5577,
    6591, -5921, -4645, -7194, 338, 931, 4585, 2937, 4865, -4483, 1273, 4966,
    -467, 948, 930, -5599, -2771, 4138, -6666, 4220, 2263, 5442, 2062, 296,
    -5439, -6954, 4514, -6441, 1192, 7323, 2791, 7023, 6524, -7484, -5505, -3752,
    1036, -3431, 7761, -4285, 1349, 591, 3142, 2769, -6209, 2008, -6848, 251,
    6917, 4535, -1514, -2695, -7060, -5179, -3730, 104, -2247, -6687, 3991, 5322,
    -2521, 274, -7651, 6603, 5663, 3282, -5957, -554, -3564, -4490, 3149, -7715,
    -3521, -4819, 4582, 2533, -1600, 573, 1740, 3615, -1797, -7235, 1455, 7680,
    -3987, -7432, 7735, 7984, 1285, -3765, -4106, -240, -3902, -4608, -2175, 4623,
    3319, 4425, -4518, -98, 7112, 254, -5127, 2060, -1072, -7710, 926, 241,
    3091, -7601, -6698, 1421, 2715, -1679, 358, 6529, -2841, 2739, -2700, 3780,
    4187, -5143, -5872, 5269, -4456, -4788, -2485, 6033, -8033, 1254, 7204, 1363,
    3548, -5115, -7973, 2134, -6816, 1591, 4197, -5451, -4787, 4894, 5791, 6224,
    4642, 99, 3737, -3132, -5256, -5335, -2781, -6969, 6555, 5058, 4925, -4404,
    1546, 4768, 5526, 7773, -1445, -3130, -2625, -2378, -7432, -750, 5290, -6563,
    -1462, -5161, 5159, 554, 6056, 363, 4466, 8012, 4907, 1730, 4941, 3744,
    3332, 6473, -4030, -888, -4165, 6360, 6987, 918, -3834, -5247, -6480, -6157,
    -760, -7910, 3366, -6082, -573, -6444, 1698, -7894, 3311, 378, -6901, 1604,
    -1431, 1738, -3130, -2106, -5850, 3767, -4409, -6790, -3154, 1820, -4766, 2212,
    -1942, -7324, -240, 6635, 2371, -6086, -949, -4138, 3047, 2428, 126, 682,
    6651, -3445, 4013, -5714, 5906, -3939, -6249, -872, 3043, 4697, -7898, 226,
    -5568, 562, -1143, 4226, 753, 7845, -130, -5350, 150, -108, -6806, -4816,
    -4553, 5764, 5396, -4456, -4263, 5938, -1814, 1818, 247, -4031, -4498, -461,
    -2762, 2752, -7267, 763, -5912, -7642, -7824, -2552, 6313, 1591, -2179, -1920,
    -7066, 4790, 5805, -2519, 891, -5020, -2962, 7603, -4012, -3712, 6526, 7709,
    2444, -4359, 8452, 6768, -4669, 4243, -5225, -6435, -5094, -2735, 1750, 1207,
    -9791, -4338, 6940, 1409, -6711, 1562, -5702, 887, 7255, 9088, -475, 3666,
    3359, 9744, -3877, -9134, 6649, 2726, -7407, -3326, -2625, -4409, 925, 6688,
    -9343, -4820, 2071, -544, -4010, -5781, 4258, 891, -1603, 1230, -5008, 2995,
    -2461, -5307, 4422, -6521, 5422, 7832, 4953, 3981, 8166, 6671, -3087, -4481,
    6490, -947, 8804, 7854, 5127, -293, -652, 3832, 2889, -7058, -4266, -6746,
    -9797, 5994, -2888, 4669, 942, -7732, 10190, -573, 2298, -3490, 2417, 417,
    -263, 3423, 10135, 5016, 1987, 3842, -1691, -5380, 6802, -5052, -7779, -4838,
    2251, -6611, -4617, 6707, 3325, 1094, 1441, 2749, -767, -2532, 7489, 971,
    -5851, 4202, -2781, 893, 5378, -3045, 3866, 2102, -8429, 3543, 8373, 6129,
    -2282, 3279, -7328, 4796, 741, -7187, -1967, 1669, 3554, 2389, -7393, 3107,
    -8447, -4547, 8440, 387, 5139, -1262, -1515, -2706, 1179, 5201, 1971, 64,
    -10530, -6587, 3881, 3177, -1096, 5983, 917, -8664, -7627, -3815, -5843, -3143,
    -8558, -9051, -3890, -9856, 6028, -5527, 604, -5917, 934, -4951, -2408, 6715,
    5971, -4195, 1805, -4975, -4344, 659, -2884, -5237, 2896, -6032, 6940, -961,
    4387, -633, 2338, 4238, -4214, -3264, -1138, -5502, -4267, 3645, 1330, 3459,
    2172, -2605, -5520, -52, 2025, -5600, -7443, -5649, 715, 5199, 3599, -5649,
    -2780, -6350, 2751, -5944, 4038, -3386, -2150, 6351, 4580, -682, 3251, -3606,
    4063, 3627, -1294, -1910, 1392, -1631, 10228, 2959, 899, 365, 11795, 3829,
    -3697, 8866, -5398, 8994, -3686, 985, -961, 3752, 3967, 3136, 3828, -4527,
    1628, 1428, 4978, 2446, -4390, 24, -6, -5665, 3183, -5168, -324, -2430,
    -3686, 5337, 1677, -2487, 6682, -1655, 8159, 8174, -5947, -7615, 4478, 175,
    -3917, 116, -4142, 5594, -5827, -808, -3345, -1003, 1604, -10192, -4586, 5115,
    5032, -2447, -4378, -1744, -2786, -2417, -5978, 136, 3167, -173, 973, 1176,
    8650, -3572, 5997, -8401, 7101, 1239, -2136, 4648, -7824, 2889, -9057, -5391,
    5022, 1652, 2430, -7224, 849, 7255, -6332, -1230, -3883, -5994, 7185, -318,
    1467, -6690, -4701, 8428, 559, -2556, -622, -246, 250, 6352, 4670, 9180,
    6744, 1648, -1423, -5562, -9549, 275, -3757, -7901, -299, -112, 4344, 1670,
    6620, -6321, -8418, 1874, 3610, -9221, -412, 3794, -5906, 6438, -7019, -1156,
    -3315, 6018, -2086, 1348, 7046, 12064, -3776, -4374, -8631, -941, 5790, 2467,
    4573, 3113, -3409, 1119, -4297, 5134, 395, -1938, -1075, -6931, -4214, 3758,
    -834, -10071, 5855, -4107, -4275, 9466, 12278, 1772, 1030, 6489, 1487, 1400,
    -3347, 7513, -556, 6577, 804, -3988, -1209, 650, 4056, 4816, 7790, 9186,
    -2069, -3798, -166, 3467, 4395, 4536, 400, 287, -5773, 7772, -3322, -4880,
    -4329, -5251, 4118, 2204, -8231, -580, 5102, -2731, 6970, 7278, -4821, 6972,
    -6527, 3224, -1990, 3855, 5179, -1451, 607, -5083, -2619, 2576, -3469, 5093,
    -681, 6251, -3437, -3200, -2010, -6144, 722, 5316, 3117, -2007, -6056, 3592,
    -747, 1356, -2565, -472, 6788, -2111, 1422, 2779, -4828, 2676, -6082, 5313,
    304, -2840, -1608, 1060, -3707, 4789, -922, -1281, -1502, -5665, 5776, 6041,
    -2823, -1311, 701, 3488, 7290, -1845, -7545, -7346, 727, 6137, -7523, -6577,
    -2440, 1653, 3801, -8007, -6505, 6957, 5140, 5511, -382, 3362, -3452, 6264,
    -1378, -3916, -5720, 4554, -5274, -8253, -3606, -4294, 8160, 5673, -46, -4932,
    -8018, 1512, 1822, -5467, 423, 3078, 2376, -7763, -5496, 1828, 4372, 2537,
    5343, -2122, -3585, -1844, -1944, 1, -7797, -5663, -1277, 5999, -4923, -8667,
    -2756, 1669, 1935, 1182, 4111, -8281, 4648, 784, 1883, 8078, -1663, 3320,
    1097, -4120, -6302, -4596, 5866, -251, -613, 5404, 5628, 6794, 2287, 4669,
    4391, 263, 573, 148, 4519, -618, -6382, 2266, 7339, 3922, 4956, -2224,
    4712, 7723, 582, -6061, 924, -1192, 585, 1990, -5021, 6019, 30, 6455,
    -3932, 5433, -6735, -4746, -214, 1284, -1827, 2779, -6374, 4529, 2870, -3794,
    -4673, 6564, 1713, -4795, -767, -1262, -4404, 1649, 4662, 7655, 8018, 1863,
    6911, 396, 7297, 6443, 1433, 6553, -6438, 6499, -5419, -3045, -7353, -4936,
    3016, 343, -2867, 6128, 6455, 135, 5455, -7589, -7540, 3902, 8512, 6433,
    5771, -6650, -53, -11436, -1349, 1148, 331, -249, -9364, -498, -1314, 1282,
    -7979, 562, 3499, -2848, -3575, 6917, 2393, -5301, 4984, -1943, -3895, 2767,
    6665, -6939, -4596, -3045, 4263, -3717, 3387, 7908, -7439, -2166, -2848, 3725,
    -2387, -420, 1919, -213, -1190, 1501, -3727, -4339, 8096, -3068, -5513, 2387,
    6803, -7417, 3205, 5944, 685, -5639, 2366, 2807, -5979, -1740, -5427, -6053,
    -4578, -4214, -5153, 5652, 5252, 5066, -207, -6373, 5745, -6118, -1523, 488,
    -1645, 7164, -6121, 5723, 805, -6438, 6766, -7837, -4193, 785, -4815, 4579,
    -4005, 786, -4091, -2211, -7956, -382, -8794, 1147, 5753, 3866, 1358, -3568,
    -2947, 3646, -4515, 6223, 9413, 4478, 2211, 7177, 5881, 3212, -5315, 5450,
    8643, 2197, -4301, 3965, -7873, -1264, 728, 4827, 3446, -8043, 5257, -8212,
    5630, -2084, -2744, 1892, 5872, -4959, -7729, 1481, 5212, -2522, -7684, -1852,
    5301, -1296, -6094, -3172, -706, -1668, 6280, -8300, 215, -3886, -5264, -6039,
    -3914, -3398, -5372, 8172, 6522, -3619, 5431, 1898, -5345, 1459, 759, -6220,
    -1620, 84, -8922, -6996, -7575, 759, -6858, 5517, -4273, 4113, 1843, 4348,
    -2147, -5915, 6507, -1620, -3188, -6362, -7024, 2864, 4645, 6706, -3990, 4887,
    6861, 8115, 3631, -5828, -2286, -1027, -4668, 5270, -9607, -224, -1572, -2156,
    4640, 7524, -4870, -2796, -6358, 3136, 659, 8531, 12341, 4003, -6505, 1625,
    -1967, -4196, -1110, -2852, 2043, 11975, 1427, -7198, 2988, 2139, -2390, -1975,
    6886, -5448, -6187, -10334, -1799, -2441, 5315, 2051, -3553, -5545, -6415, -3549,
    7240, 1532, -7469, -3952, -2594, 5161, 1887, -468, -7826, 2902, -4931, 7045,
    1261, 7956, -6544, -130, -3287, -7481, -203, -2943, -1318, -103, -6540, -2736,
    -6637, -4925, -2298, 7301, -6566, -5410, 1210, 2842, -2673, -4521, -3969, 4403,
    -4921, -5541, -4044, 7751, -4745, -4048, -6958, -3667, -7990, -3108, -5778, 8094,
    3758, -3272, -3048, -9735, -7760, 348, -206, -6440, -5162, 7726, 1504, 7278,
    7086, -2826, -13, 844, -4929, 5812, -7257, -4180, 4806, -559, -3596, -1765,
    -3145, -7083, 1923, 6692, -1318, -7779, 2533, -5915, 6260, 9145, -729, 2070,
    -5251, 2259, 9636, 152, -4347, 1162, -1682, 353, -6951, -4027, 528, 160,
    -24, 4661, -546, -6198, -2500, -3856, 3536, -4687, 1289, 2428, 6566, -8627,
    -4454, 7241, -4536, 2268, 8819, -446, -3062, -4853, 2954, -1307, 1495, -2775,
    -6321, -8102, -4962, -1200, 5717, -1149, 4961, -3642, -3469, 5952, 5272, -66,
    7871, -3169, 1703, 2267, -8709, 3699, 6412, 3364, -2667, 2729, -2050, -9288,
    4805, -642, 903, 2259, -5134, -8567, -613, -3115, -11231, -6437, -4042, 5735,
    9716, 258, 5952, -500, -3548, 6396, -2798, -5018, -841, 9041, -4194, 3560,
    -4428, -1975, 3712, 13024, 9771, 6365, -6222, 4425, 10179, 3559, -2536, -10516,
    3887, -8934, -5468, -5872, -7281, -6184, 3519, 1878, -5562, -3075, 196, -3785,
    2316, 3087, -2559, 4266, 8422, 1585, -3486, -4340, 2953, -9695, -606, 7074,
    -2002, 1273, 7548, -4993, -3102, 3121, 2680, -1734, 5992, 296, 2365, -7293,
    -6813, -6219, 5, 449, -6908, -6510, -1342, -9071, -2549, 3107, -6504, 701,
    -5015, 4176, 6599, -2111, -2727, -2199, -1764, -1022, -1864, -7101, -7623, -6230,
    5438, -8392, 5464, 6101, 947, -8126, -4965, 7378, 6755, 717, 893, -7965,
    -4280, 2252, -3005, -999, -353, 7766, -9920, -2824, 3870, 2885, -5661, -7247,
    -12, -5895, -6769, -4009, 1886, -3119, -3629, 7856, 12263, 4077, 53, -4133,
    -3440, -6163, -10608, -8731, -13687, 4289, -6635, -5179, -798, -786, -7146, -2938,
    -866, 2984, 4277, -5275, 1870, 994, -1492, 7835, -12, -3497, -3099, 2890,
    -56, 2855, -6499, -1191, -5969, -4378, 10271, 4188, 3562, -32, 10938, 8974,
    -6341, -3673, -1936, 1703, -9041, -3112, 5078, -9185, 8284, 8111, 78, -5692,
    -1337, -6238, -2282, -5557, 6583, -7593, -3079, 3484, 2500, 5967, -3230, 6026,
    4961, 2975, 545, 6631, -5161, 119, -673, -6588, -5807, 5964, -561, 10450,
    -2675, 94, -1053, 5654, 3132, 49, -1096, 2507, -5830, -3278, 3680, 936,
    -2261, 1100, 5370, -1089, 2867, -6906, -10189, 4027, -2137, -9407, -2486, 5658,
    8800, 4612, -6584, 2098, -480, -2637, -6822, 375, 9322, 4651, 1084, -1870,
    304, 1295, -8734, -6738, -771, -11786, -10269, -2637, -10143, 5024, -1631, -1739,
    -2974, -1389, 7894, -7606, 5382, -743, -3943, -1934, 3674, 5200, 7730, 349,
    4920, -1414, 3078, 5995, -6982, 5615, -5327, 950, 9515, -4366, 1922, 8921,
    -8315, -6030, 6187, 2754, 8768, 97, -4416, 350, 7918, 2561, -1709, -7887,
    6772, -4709, -7710, -2331, 4437, -7146, -4505, -1323, 6787, 3755, -5591, 5455,
    -5574, -4267, -5594, 5036, -2633, 1976, -1087, 4786, -7655, -5428, 5230, -8283,
    4796, 1394, -2359, -6945, 4797, 4974, 6266, 8677, -5503, -1395, -4366, -1875,
    -5982, 7168, -6851, 966, 872, -3545, 6030, 2810, -21689, -7824, -3596, 11048,
    -7106, -11034, -2703, -273, 11735, 3167, 1993, 5779, 6787, -9502, 922, 5474,
    6889, 930, -7788, -238, -4840, 1414, 6626, -897, 1044, 9409, -1047, 1992,
    -2650, -1832, 7926, -844, -3941, -4316, -4965, -5884, 2504, -3897, -6402, -11277,
    -7243, 2957, 2428, 6871, -10017, -9421, -1547, -7107, -3330, 3835, -7870, 3276,
    4226, 9187, -6067, -6626, -9769, 5637, -6316, -5369, -2743, -2890, -6099, 3221,
    -3806, -61, -5983, 2074, 3421, 9349, 5387, 371, 458, 1141, 5127, -111,
    -8526, 1421, -1556, 12420, -11023, -416, 3345, -279, -2197, -8292, 5957, -1642,
    -5600, -1437, -1172, 8163, -5687, -7014, 70, 2974, 5773, 1598, -5197, 9420,
    4904, -13522, -10325, -6504, 5377, -4542, -12837, -11360, -257, 7226, -5988, -12552,
    1649, 4016, 3867, 2233, -3786, 3109, -6115, -9125, 5557, -3670, 5017, -1773,
    4703, 2623, -3385, -137, -3517, -202, 6558, 6848, 6658, 739, -978, 5446,
    5579, 8273, -6409, 9432, 5824, 8629, 1687, -1258, 3505, 634, -2864, 2783,
    6562, -1011, 4637, -6772, 5846, -2977, -6265, -5108, 7845, -2471, -5540, -9009,
    -6162, 2818, -2907, -7611, -3262, 7960, -3952, 2970, 2209, -3943, 13427, 11144,
    -4215, -5061, 5024, 2586, -3724, -4201, -4140, 11528, 9218, 3736, -491, -508,
    -7414, 6306, -8042, 6485, -8171, 3240, 6330, -4223, -2729, 2933, 7550, 12229,
    6469, -5024, 8071, 933, 8536, 2235, -5992, -2855, -5285, -255, -492, 136,
    -3804, -6005, 377, 515, -6403, -9559, -585, -9017, -4812, -8499, -3967, 1907,
    5815, -6143, -6169, -5777, -5787, -8521, -8446, -1286, 1639, -1084, -799, -6629,
    1609, 3911, -5720, 7450, 3369, -4354, 4567, 4252, 3040, -1208, -4907, -3288,
    4995, -218, 2130, 3156, 6417, 2005, -8220, -245, -2341, -2260, -8814, -3584,
    9438, 9436, -6621, -2781, -3410, -7220, 6963, 1626, 5578, -1834, -751, -4016,
    7712, -2836, 4686, -4695, -3247, 5955, -5665, -5719, -723, 1902, 1823, -662,
    -548, -1794, -6143, 2342, -5396, -6970, -5132, -3977, -4797, -5499, 938, -6691,
    -2645, -1256, -7887, -1791, -6935, 5660, 6636, 6504, -7225, 3798, -5490, 1228,
    -2186, 1159, 5837, -7287, 10160, 7373, -4562, 4929, 3778, 8055, 559, -195,
    -3990, -4846, 6953, -3581, -460, 7426, -4553, -7228, -7483, 6245, 284, -1255,
    2495, -6553, 4358, 4482, -1865, -4186, -7044, 6638, -6056, 593, 4305, -1282,
    7965, 6104, 1652, 2211, 4230, -982, 4522, -5338, 160, 30, -7620, -3273,
    4873, -2962, -5613, 4191, 6409, -5983, 1665, 133, 4414, -6648, 7457, -4378,
    -747, -2613, 4210, 993, 599, -6190, -581, -4235, -6327, 7036, -2747, 4625,
    -5563, 4487, 916, 5678, -5709, -2784, 6017, 7959, -3044, -4917, 1920, 4046,
    4661, 2924, 7554, -854, 1559, 1968, -2596, 8122, -5883, -1670, -5189, -6652,
    -3880, -3469, 4013, 9231, 117, 3728, 3631, 2669, -6534, -3816, 6659, 11750,
    -5952, 4301, -8451, -4152, 3994, -2545, 2046, 6616, -1080, -1241, -5255, 4154,
    5622, -3246, 1883, 4763, 6129, -2625, 5199, -4850, 5898, -3296, -4298, 3431,
    -2021, 6626, 1641, -5263, -3662, -2567, -4123, -7208, -2307, -3702, -4902, 4679,
    -5974, 7014, -2555, 776, 3347, -6316, -5380, 968, 6541, 7182, -6890, -6874,
    6122, 830, 2927, -6926, -2228, -4990, 4941, -3437, 5337, -3780, -5650, 5948,
    -4211, 909, 3623, 8013, -4140, 5594, 3512, -1599, 1842, 8310, -6526, 2917,
    -5680, 1890, 7729, 6270, -3464, 1322, -5919, 1968, -5854, -3101, 2236, -981,
    8523, 2415, -831, 7527, 178, 3549, 644, -3466, 9625, -6154, -1282, -2606,
    1838, -6135, -1393, 1781, 3915, 1908, 7213, -8325, -6060, -5306, 6822, -6984,
    4270, -4121, -1889, -1433, 4530, 2085, -2780, 1867, -7186, -1094, -8013, 5747,
    -1935, -3226, -4578, 5332, 6767, 365, 1484, 8095, 7271, 3035, -2321, -4981,
    -5015, 5351, -1326, -2426, 1926, -7671, -401, -3597, -6120, 4537, -5363, -2062,
    2469, -1134, -4218, 7172, -5822, -2053, -2818, 2507, 6053, 729, -2924, 739,
    -6550, 1958, 8494, 4504, 7697, 4233, 8349, -7146, 7977, -1100, 1791, -7293,
    752, -8151, 5971, 7609, 903, -4971, 7008, 5423, 1810, 6130, 6518, -6119,
    -2196, -4621, -8714, 6254, -1399, 5530, 5214, 1959, -2386, 1181, 2629, 7607,
    -1928, 3233, 6097, 7622, -6441, 411, 5036, 1289, 3567, -7099, -4836, -200,
    6764, -3803, -8357, -7606, 8727, 1503, -6626, -6553, 2298, -4333, -6266, 6364,
    6279, 3169, 7222, -5275, -5935, 5985, 6977, -5488, 1000, 5841, -5896, -8588,
    5851, 7545, -6090, 4609, -3482, 5693, -1599, 6716, -3174, 2311, 4440, -1496,
    6507, 8000, -4812, -4027, -8428, -678, -1002, -97, -2356, 1744, -4601, -5213,
    -783, 5123, 1067, -6811, 6613, -7765, -10777, 1386, -3791, -6937, -3812, -9237,
    -7021, -5357, -1187, 8043, 448, 6993, 874, -3989, 7169, 8768, 7454, -1154,
    -8712, -1757, -16579, -16855, 471, -5805, -5872, -2349, -3265, -6377, -4741, -5973,
    1655, 14288, 297, -1483, 446, 3766, 2992, 2084, -77, -9047, 3604, -1047,
    -13660, -728, -8583, -5987, -13825, -9500, -9377, 554, -1880, 6527, 428, 6537,
    -5943, -6771, -2746, -3260, 4357, -1379, -8170, -4037, -300, 5738, -3216, -3841,
    5589, -5078, -1870, 1245, 1440, -4054, -7706, 4685, 1697, 5794, -2866, -2089,
    -3886, 6111, 12789, -1621, 5090, 6107, -373, -1053, -4004, 5049, -4784, -3586,
    -4828, 838, 5707, 3751, -2530, 3046, 4293, -7590, -910, -1131, 6853, 7496,
    -5960, -5869, 6098, 6563, 75, 2047, 5582, -7244, 1970, -10841, 3208, -7444,
    5219, -2324, -13063, -2924, 1288, -1437, 3971, -395, -2139, -7546, 4744, 5158,
    7960, -6973, -8913, 8344, 2364, 353, -2440, 686, 7980, 10918, -9258, -8141,
    7078, 14373, 7830, -4185, 28, 1506, 3595, -7221, -613, -390, 375, -773,
    743, -7296, -4603, 678, 3015, -1405, -6797, -1217, 6088, -186, 4598, 3680,
    -5346, -109, -8333, -15661, -1481, -9037, -9655, -10528, -1382, -14272, -11320, -3133,
    4007, 2060, 2028, 1321, -6231, 6583, -371, 3545, -7724, -2466, 3805, 9456,
    8969, -1838, -2230, 8993, 7425, -12632, -11745, 9313, 6820, 11776, -8922, -13345,
    1165, 3111, -5060, 3333, -4858, 5615, -11031, 1738, -3437, -2168, 8093, -931,
    -5, 6613, -1780, -5472, 2535, 13515, 4637, 1250, -5049, 13743, 7175, 2674,
    -1558, -7936, -7855, -8489, 12775, 2237, -6289, -10532, -1759, 16285, 3778, -4679,
    -2225, 11986, -1817, -8131, -7379, 5316, 16985, -8188, 3003, -951, 17173, 11547,
    -21225, 2188, -6282, 6656, 8756, 683, 4319, -3011, 510, -6363, -2157, 4997,
    -3592, -3039, 4278, -4308, -5488, -6418, 3195, -8003, -5238, 3936, 8191, 2625,
    5534, 3506, 1023, -6266, 10305, 10162, -3580, 5003, 1002, -568, 10019, -354,
    -2608, -5983, -550, -2042, -6081, -8314, -1763, 3529, -2474, -6636, -9196, 15108,
    3029, -5354, 5380, 7066, 1344, -4592, 5949, -3892, -9318, -2672, 3664, 5039,
    3091, -5901, -7175, 6596, 810, -10923, -9455, -1570, -14123, -21713, -11774, -3880,
    9845, -4420, -3079, 3622, -4448, -1152, 1360, 4804, -477, -3269, -10243, -7556,
    3118, -7453, -5333, 3636, -7833, 9982, -769, -572, -3375, -1091, -4265, -8336,
    -5398, -3769, -14607, -15212, 4454, -3927, -6461, -7207, 6817, -6677, -7915, -2635,
    -6930, 10795, 44, -4598, 4604, 9141, 6154, -10339, 4371, -4229, 4459, 3952,
    5780, -4022, -2733, 7252, -4775, 1924, -4804, 1328, -5200, 9984, -1903, 8614,
    -1796, -2259, 1493, 6577, -2936, -6821, 813, -1141, -10925, -3123, -2280, -10297,
    -14231, -1206, -7033, 12582, -9116, 1623, -3722, 5083, -3704, -772, -1550, 177,
    -1526, 7426, 7495, -6268, -4913, -10404, 8189, 6327, 3160, 6010, -2684, -2989,
    2112, 1760, 6756, 9873, -5086, -8589, 6319, -4673, -3125, 6170, -6444, -8256,
    -9958, 3790, 62, 2113, 5429, -1838, 4845, -2101, -2758, 11946, 1695, -3075,
    -6107, -12792, 960, 1281, -2994, -12115, -9073, -211, -6391, -9097, 6152, 6988,
    3216, -4265, -2811, -1742, 7476, -6783, -6470, -8310, -8219, -7209, 630, 2240,
    7833, 1151, -5538, -4145, -1383, 4228, 4699, 7217, 5945, -195, 2144, 8423,
    -7402, 6061, 214, -1688, -3647, -4368, -12236, 5454, 6040, 8294, -6842, 2580,
    -54, -4656, -2166, -1484, -3299, -3197, -1909, 11898, 4057, -5521, 2189, 7495,
    9290, 2507, 2988, 508, 2192, -3132, -7810, -5772, -707, 5449, -1183, 7252,
    7164, 3093, -3354, 7502, -4378, -5746, 4400, -4233, 7643, 6773, -5560, -1632,
    -4572, -3229, -2689, -11323, -8192, 2, -3506, 12657, 13271, -5096, 6619, -8336,
    9297, 10021, 1745, -2321, 2427, -2201, 7138, 2484, 3557, 4843, -3936, 667,
    4819, 1608, 5519, 5560, -6750, -1233, -3935, 5134, -4928, -4343, 8053, -3292,
    -4738, 4818, 11323, 2497, -2584, -8344, 2261, -7372, -327, -1558, 440, -3096,
    729, 4910, 3730, -2072, 513, -2831, 841, -8047, 9350, 2767, -3279, 6917,
    11162, 6196, -9219, -2044, 5808, 3897, -1002, -3065, 2958, 8322, 6673, 952,
    6304, 799, -2967, 4528, 4005, -7340, -3235, -7178, -3132, -7393, -2281, -6998,
    8306, -3211, -5390, 6476, 1936, 10324, 9493, 1626, -2686, 6298, 10198, -2034,
    8040, 4742, 14164, 4232, 6245, 7205, 3871, -2610, 2075, -1543, 2757, -2290,
    2510, -1291, 5591, -775, -3774, -5782, 12101, 7480, -259, -7780, 372, 7222,
    2830, -5857, 128, -5184, 3100, 2183, 1684, -2778, 5248, -7416, -8367, 8710,
    -10526, -3324, -1941, -4995, -4569, 1420, -6233, 4686, 6091, 178, 1411, 5246,
    5578, -8579, -7335, -502, 6154, -5940, -4951, 10865, -4385, 1754, -3252, -5846,
    9385, 10558, 7520, 1456, -1841, -5996, -5857, 9901, -6614, -3546, 3954, 3225,
    -2094, -4691, -631, -3608, 9441, -4151, -9206, -6672, 2430, 2015, -8882, -1513,
    -8050, -4128, 1900, 6002, 4226, 6406, 4839, -8719, 7335, 11233, -3586, -2125,
    -614, 572, -3801, 4147, 7382, -1565, 1098, -8989, -4902, 3372, 12848, 1567,
    5532, -3433, 53, 4644, -2595, -8699, 3711, -11328, 3211, -8646, -1451, 2354,
    275, -1098, -5132, -3997, 3019, -3535, -10733, 2095, 3712, 5944, 528, 3861,
    -9277, -1119, -1699, 5246, 4010, 6699, -7792, -3543, 5044, 5782, -10084, -6446,
    5098, -3678, 4330, 6578, 4395, -7682, 5054, -604, -2747, -7444, -6569, 2729,
    2689, -6914, 3652, -2627, 6524, 565, 1394, -7340, 1548, -5005, 3651, -9341,
    -7614, -6395, -1806, -3576, -2051, -3848, -5910, -7125, -1172, -11488, 950, -1608,
    3108, 7825, -3407, 3891, 2447, 4409, -6174, 6192, 1047, -2876, 2097, 7438,
    8691, -748, -2855, 6938, -2536, -6895, -4007, -4059, -4546, -4194, 1099, -482,
    -6599, -1865, 7385, 1640, -4483, -4246, 9042, -179, -2977, 3666, -5795, 7470,
    5505, -6993, -3875, 910, -2493, 4147, 4259, -5472, -5584, 7666, 7200, 6314,
    9644, 5196, 5988, -619, 8125, 6282, -5335, -8134, 1441, -1285, 1587, -1937,
    -2243, 6647, -2365, 6166, 1910, -5070, -5408, -5143, 1472, 6142, -5384, -3649,
    -615, 727, -2620, 8447, 8767, 4341, -1651, 2107, 4513, -5587, -2713, 3565,
    -1161, -6972, -5472, 9425, -659, -4184, -2644, 2082, 256, 6424, -2104, -2641,
    -6235, -1852, 6365, -901, -6225, -5364, -3311, -34, 5249, -2772, 4404, -8814,
    -14141, -7202, -1458, -9594, -2935, 1154, -2893, -5572, 6086, -475, 6969, -6104,
    6288, -845, 2899, 741, -546, 2009, 6091, 5350, 857, -332, 8856, 1165,
    -9667, -4434, -1805, 7524, 4370, 8283, 3623, -1691, -3238, -3294, -1673, -4139,
    -3400, -394, -5346, -7, 5545, 3836, 2644, 1022, 690, -3158, 1344, 685,
    -3208, 6410, 2145, 1949, -6887, 5038, 3238, -5726, -3420, -6781, 7367, 5217,
    6696, 112, 4975, -4857, 8149, 8162, -6323, 9695, 1199, 6734, 1320, -9026,
    1095, -7885, 4447, 1828, 943, -2770, -2815, 3911, 5989, -5743, 2276, 3134,
    5691, 8190, -2509, 3773, -5992, 7956, 1709, -3733, -6435, -1595, -358, 7706,
    -169, 1592, -6017, 6253, -3934, -4076, 6366, -6727, -3845, -2409, 5574, -8216,
    2646, 6955, 11541, 1702, 5097, -6248, -885, 7178, 2898, -4506, 7590, 6489,
    -7661, 7863, 617, 1775, -1388, -14873, 1777, 2504, 163, -3268, -12867, 2344,
    -1822, -12997, -9368, 3632, -5117, -7829, 6982, 3395, -5940, 232, -3548, -3499,
    5003, -2369, 1447, 3426, 1171, -7272, -6965, -994, -6641, -8432, 1277, -9092,
    5460, -1575, -5068, -893, -3430, 1612, 3907, 6329, 8648, -5729, -6259, 7981,
    920, -7940, 6272, -5884, -1235, -683, 775, -8112, -3149, -1034, -12090, -6249,
    -7333, -1937, -1003, 5945, 12973, 32, -3889, 1674, 5157, 5934, -5234, -1331,
    -3631, -7474, -9343, 1352, 4599, -112, 7572, 3961, -5488, -5511, 6671, -2206,
    3820, -1004, -1763, -1892, 6753, 1266, 2630, 317, 72, 12176, -591, 10519,
    -1654, -5813, -4980, -8119, 4415, 6864, 5887, 860, -5658, 2222, 517, 5664,
    -6500, -10238, -3241, -8325, -386, 8199, 2734, 3989, 1517, 16503, 14819, 3728,
    124, 836, -7063, 5429, -7338, -8249, -3200, -4216, 6431, -8589, 2053, -1008,
    -8147, 3926, -2102, 5598, 2781, -462, 7042, -3517, 7028, 1192, 2019, 4586,
    -5745, 6765, -4975, -4502, 3171, -9311, 2655, -520, 7139, -3259, 2082, -124,
    3179, 8188, -10764, -5524, -6467, 4214, 3430, 7125, 3483, 8299, 5535, 7190,
    11699, 7898, 1932, 6263, 1818, -840, -1291, -8297, 3516, 4602, -1889, -4125,
    -4297, -2022, 5224, -8577, -4169, 6584, -5471, -1575, -284, -2919, 9511, 11133,
    -353, -6048, 1142, -1394, 4030, 2030, -2576, 8115, -1619, -5861, 10063, 4172,
    -9676, -14349, -9217, -8881, -6382, 2074, -262, -463, 2420, 4237, 11256, 2644,
    6218, -3860, 9475, 9029, -3053, 5564, -2253, 3623, -5759, -4873, 972, -8442,
    -9393, -5073, -6410, -6860, -7723, 7361, -3045, 4102, -8101, 11, 170, 1665,
    -3765, 8431, 6914, 2916, -912, 4633, -5291, 3975, -11048, -710, -2607, 6889,
    -7256, -8800, 5023, -3370, -3752, -1138, 1881, 9075, 2657, -1694, 6056, 6524,
    716, -2352, -1151, 2533, 4013, 5811, -4461, 5819, -4807, -4957, -2364, -1725,
    6829, 5249, -477, 7716, 14805, 4375, 2045, 3364, 8359, 7424, 3503, -2457,
    -2185, -1313, 6644, 4701, -4203, -2292, 1203, -2821, 1714, 98, 35, -1982,
    -9832, -5264, -6755, -4601, 7726, 1038, 1137, -11793, -4381, -2676, -3881, 5664,
    8318, 4843, 3293, -11284, -2637, -3500, 4956, -5486, -6413, 5505, -6994, -485,
    -5472, -1796, 1228, 1519, -7597, 4109, -6160, 4368, -7567, -1163, -7659, 7762,
    -5388, 6933, -4159, 6467, 5228, 232, -1535, -9905, 5233, 3356, -8256, 4202,
    -5221, -2027, 5959, 2530, -1002, -2554, 840, -653, 4066, 6248, 8918, -1528,
    -506, 4234, 5692, 3873, -7290, -3802, 5945, -3237, 7162, 6164, -8674, -7934,
    -3266, -3454, 5637, -2741, 4384, -8550, -5577, 5403, -783, -6651, -4725, -10456,
    -3895, -7087, -5959, 4342, 4270, 3268, -10339, -12547, 229, 6953, 6670, 56,
    706, 834, -619, -264, -8003, -2496, -3402, -6171, -5919, 8198, 2156, -4541,
    -2982, 6855, -2899, 4132, 66, 4824, 3548, 2077, 4278, 1298, -3385, 2274,
    -5730, -6092, 1592, 35, -11344, -4189, -5149, 3207, -6630, -8601, 193, 3223,
    6820, 2898, 12265, -4094, 8039, 2719, -2828, -4252, -4594, -4009, -4414, 687,
    -7279, 8046, -3585, 5739, 937, -12400, 217, 512, 2077, 4473, 5645, 13638,
    10885, 2622, -1972, -4796, 2887, -2785, -1364, -4509, -7002, -2810, 1612, 1859,
    3649, 5466, -3729, -5359, 4678, -3470, 3746, -13123, -10344, 2794, 6009, 255,
    6903, 9148, -1922, 5423, -4042, 8952, 5542, -4092, 5656, 8151, 6344, -4710,
    -701, -12238, -2270, -5740, -737, 1126, -7250, 746, -2449, -1723, 5518, -939,
    -176, -3074, 858, -3569, 14561, 5020, 12463, 388, -137, -1450, -77, 4079,
    -2581, -1200, -8943, 8052, 2849, -5394, -610, -754, -607, -7013, 3504, 885,
    10119, -2228, 1664, 3189, 3382, 3363, 11144, 7654, 4253, -388, -5978, 3794,
    -1961, -2464, -8717, -8242, -3620, -4332, 4103, 862, -9335, 707, -5721, -6986,
    4199, 5557, 15869, 6888, 6019, -595, 11744, 12220, 9693, -441, -6572, 2247,
    4698, 1977, 10071, -2010, -11873, -6958, 926, 10636, 163, 1845, -3777, 1413,
    -3705, 5312, -3332, -4484, 1198, -3746, -9544, -4926, 3555, 5318, 4864, 7646,
    402, -2566, -1903, 1359, 279, 8444, 10314, -6321, 825, 831, 5020, 1878,
    2189, 2357, 754, 2384, 829, -8392, 290, -14614, -61, 3687, 6550, -2724,
    2055, 9254, 9264, 965, 6350, -730, 12809, -820, -231, -465, -9609, -5360,
    5025, -2316, -6727, 2341, -2786, 972, -7220, -5557, -6822, 337, 553, -5341,
    2305, -80, -2753, 576, 4966, 3029, -7005, -9354, -2324, 4015, -261, -1665,
    -4293, -527, 5794, 5780, 1146, 3285, 1780, -7627, -1896, 3864, 4961, 7699,
    -2780, 6168, -534, -3493, -4445, -1650, -6462, -2334, -934, -5058, -191, 3399,
    3354, 107, -4050, 5930, 3640, -7465, 4081, 316, 10988, -6359, -8521, -2930,
    5150, -6035, 7516, -3194, 594, -5384, -3018, 4196, 1121, 3512, -6982, -7448,
    -5879, -718, 1166, 1364, 8392, 5800, -11457, 6341, -960, -1490, -5513, 2750,
    408, -463, -9745, 5552, 8433, -3365, -10096, -796, -3525, 5705, -10623, -6739,
    -5215, 6220, 5537, -1437, -534, 7116, -5271, -1720, -4543, 7573, -7764, 3083,
    -3911, -7059, 7523, 6987, 2550, -1000, -1899, 10120, -3136, -1664, -4155, 291,
    -4540, 4832, 2973, -6018, -6866, -7087, -8119, -6341, -5128, -6319, -3454, -755,
    5889, 4370, -8161, 951, -2137, 609, 5463, 6667, -1391, 952, 4968, -3021,
    -361, -8573, -9485, 4650, -4155, 4444, -8764, 1678, -1260, -12768, -13582, -10535,
    -6901, 926, -9336, -12340, -307, -8579, -3328, 5077, 8462, -11521, 2350, 3860,
    -291, 605, -7565, 843, -2793, -3315, -6544, -4571, -471, -10394, 4896, -7711,
    1737, -3323, -12012, 5144, -1119, 8351, 4504, 5517, -5152, 398, 6974, 4082,
    7023, 2214, 9300, -5536, 4786, 3953, -3375, -7274, -2722, 889, -10585, -2012,
    -761, -3456, -3246, 797, 4951, 9849, -1941, 1347, -7009, 837, -1555, -4952,
    550, 2212, 4792, 1140, 3579, 5822, 4631, -5389, -6863, -8575, -6284, -7800,
    -5451, 2656, 7169, 4445, -2350, 166, 357, -6813, 8546, 2726, 5067, 6825,
    -2134, -2959, -1215, -4805, -3976, -7365, 6874, -4033, -6728, -4886, -2899, -1699,
    1179, -3304, 9935, 2156, -7059, -3339, -6284, 3702, 5039, 703, 7843, 3888,
    -4697, 7385, 9726, 978, -251, -12622, -3907, 5261, -3582, -3526, -5350, -4542,
    -8571, -11839, 6707, 9756, 9745, -8353, -10583, 4047, 3283, 5177, -896, 7074,
    4840, 1566, 2537, -3672, -8195, 1196, 8728, -6386, 8519, 5725, 209, 3063,
    2750, -357, -2319, 941, 363, 5806, -793, 1664, -3416, 5250, 4296, -6997,
    78, 2598, 1636, -6389, -1387, 6900, -4535, 3358, 6137, 5962, 1586, 1039,
    -13010, 4009, -7647, -12104, 9610, 1862, 10595, 502, 2133, 6046, 6604, 4819,
    5073, 10261, -4748, -573, 2146, -4390, -4314, -120, -5249, 1127, 1177, -5700,
    4732, 3081, 488, 4738, -9546, -5963, 519, 2834, -2756, -8788, -3775, -3483,
    -8678, 2291, -10833, 5131, 11372, 5988, 5893, 8404, 11333, -5439, -3300, -9641,
    -324, 1146, -7143, -888, 4605, 6839, -3569, -8887, -2210, -3605, 6405, -7875,
    -2432, -3603, -8772, -6639, 14433, 5509, 10043, 13865, -5606, 469, 3550, -5465,
    1978, 8398, -4631, -2409, -5458, 6622, -8016, -7023, 2653, -3535, 2943, -7563,
    -6175, -2744, 4473, -7583, -6027, 8290, -4622, 7641, 7905, -9081, -1586, 4653,
    1025, -9579, -7085, 4634, -4153, 7140, 8160, -3589, 3691, -2986, -3676, -379,
    7438, -6027, -9148, 2687, -5156, 5658, -992, -5488, 6236, -6245, -2099, -8991,
    -1328, 1014, -2096, 3168, 1523, -1310, -3054, 8591, -4034, -5925, -2705, -6144,
    -7610, 4352, 6210, 6384, 4968, -6578, 8440, 9379, 3089, -6553, -2275, -6029,
    -5427, -1120, -10252, -2247, -6722, -8360, 1379, -3046, 5176, -7007, -15121, 5646,
    -1872, 2121, -3499, 157, -10498, 4835, 8393, -3668, 273, -18808, -5473, 4802,
    -52, -2333, -4572, 8289, 4786, 8189, 6581, 7777, 2964, -1369, -8683, 5187,
    -8116, -5377, -8994, -6648, 8456, 169, -2311, -9952, 11749, -2031, 6882, -4018,
    724, -5431, -2095, 1053, -8874, 8220, 1232, -4147, -4581, 2936, 10064, -4911,
    -6080, -2452, 1722, -136, -4127, 4770, -4799, 5310, -3140, -2309, -6665, 1478,
    -3702, 6045, 2387, -4286, 1007, -7160, -7303, -8383, 6316, 5692, -6128, 9713,
    -178, -347, -7055, 3112, 741, -397, -2387, -2356, -7485, -485, 10530, 7188,
    534, 3538, 8543, -2813, 5731, -5649, -2347, -3907, -2841, 5429, 256, 633,
    -1874, 6862, -12004, -4753, -346, -9051, -6799, 6979, 11168, -10158, 1745, -11253,
    20894, 6148, 6245, 4655, -2387, 1608, 1796, -10730, -5205, -8869, -8515, -10492,
    3983, 898, -5775, -5125, 1997, 5331, -6972, -6739, 7782, 9027, -4667, 8240,
    2129, 7115, -2555, 5280, 3353, 7901, 3685, 3122, 250, 172, -4992, -1596,
    -2786, -5550, -7320, -7635, -188, 6473, -4283, -1764, -7180, 9011, -5868, 8833,
    8260, -4192, -8791, -7438, 1223, -6948, 8556, -4685, -9097, -5837, 3452, -4710,
    -14541, -7391, 6691, 6934, 7777, 6629, -2499, -3894, -422, -10357, 7386, 8113,
    7298, 3897, 8972, 10531, 9341, 267, -4221, -291, 3959, -7795, -5490, 2527,
    5397, 4009, -9611, -4492, -813, 2597, -342, -8078, 356, 511, 2780, 9164,
    13192, 9489, 3184, -7733, 5643, -3055, -662, 6923, 9327, 798, -5669, -3554,
    -1152, 5423, -41, -5878, -2046, -924, -1235, -3209, 5158, 2858, -7717, 4107,
    -2577, -6646, 7037, 6582, 4090, -5205, -6532, 5321, 6376, -1117, -4214, -9641,
    10169, 2140, 1502, -10646, 1668, -3042, -2777, -3478, 1276, 11357, 806, -12319,
    -5552, 10820, 14792, 2197, 9495, 5527, 12653, -2164, -8982, 3202, 175, -1018,
    -7165, 5010, 2817, 6479, 2749, -1500, 9977, -2753, 4966, -2933, -8045, 5967,
    -1105, -9401, -4035, -10273, 1246, 2070, 5289, 2314, 1390, 7458, -5491, -4389,
    3776, -1358, 9170, -2907, -1467, 624, -1394, 14480, 8429, 1925, -3779, 6685,
    -2005, 2094, 3576, 828, -8968, -37, -1599, 513, -10725, -11346, 12217, -4613,
    -3878, 875, 16393, 9167, -469, -8859, 7054, 743, 684, -3669, 2807, 3805,
    -6785, -1708, 2660, -1818, 4619, -2664, 881, 8455, 7645, 4353, 3636, -1715,
    -8645, -775, -5395, -6914, -4227, 4327, -3474, -6920, 277, 3006, 5833, 49,
    -10134, 7420, 3296, -4275, 6223, -7333, 5925, -230, 8659, -5313, 13034, -3001,
    -7774, -594, -1595, 3520, -1999, 3946, -3429, -1545, -5190, -6109, -4017, 4547,
    -149, -7044, 5426, -5095, -8994, 4050, 2351, 9101, -341, 8083, 5220, -3588,
    809, 11402, -1408, -1407, 3046, 1900, -7462, 627, -3321, 4230, -608, -3067,
    -9260, 6519, -6875, -4241, 9277, 15476, 11276, 2242, -2958, 9719, 9387, 10147,
    4247, 4051, -9978, 672, 6463, 3067, 4211, -4624, -2374, -2316, 6944, -6822,
    1301, -4870, -25, -1468, 2724, -10107, 5828, -215, -12527, -13012, -8318, 9346,
    4572, -5434, 2170, -5583, 7703, 2643, 6676, 8497, -3070, -2992, 4600, -7834,
    -1875, -933, 1559, -1892, -989, 3875, 9992, 5065, -5785, -7406, 809, 6167,
    5496, 2464, -4017, -12920, 6875, 3359, 3445, -2271, -7406, -1892, 7760, -8614,
    8276, 7101, 1769, -6461, -2567, -3460, 11104, 2615, -5646, -3347, -9140, -7157,
    1261, -3272, 5060, 2844, 10456, 2807, -10521, 2909, 10188, 5595, 1078, -14075,
    1310, 6170, 2081, 5304, -4647, -12188, -2840, -2426, 934, -1072, -7548, -5496,
    -4748, 411, -6397, 7956, 3816, 15312, 1330, 10737, -2751, 5359, -437, -1744,
    6686, -5596, -1248, -6000, -8738, -2594, -5385, -1736, 3265, -1036, 2943, 289,
    2294, 4951, -2023, 4107, -637, 3224, -7440, 3899, 4799, -147, 58, 2387,
    4629, 41, 7733, -7628, -3894, -1639, 3414, -6048, 546, -899, -248, -1608,
    3440, 6221, -1733, -13455, -3278, -1639, 10286, -6237, -4949, 2360, -4948, -6331,
    968, 3996, 1888, 3557, -6244, -2005, 2181, 405, -6223, 2101, 1853, 105,
    -6245, 6273, 4741, 3879, -1086, -8417, -1603, 1647, 9822, 7924, 5687, -6949,
    2091, 6199, -709, 5647, -7460, 3100, -5148, 4568, 1544, 3904, -3799, 9279,
    9098, -4886, 5853, 167, 2678, -11018, 1853, -9285, -4792, -9741, -11769, -9375,
    -11, -4774, 8842, -4044, -8546, 3709, 7832, 3213, 884, 1112, -892, -5323,
    9426, -3984, 1055, 8122, 6589, 8642, 6461, 6419, -3929, -14, -843, -4468,
    -5230, 1455, -7284, -4795, -6826, 1843, 3457, 1473, -2222, -2735, 5557, -8075,
    -863, 112, 6163, 1572, 5153, -1938, 13770, -313, -6616, 4907, -4451, -2421,
    4700, 643, -147, -2966, -316, -4460, 303, 5210, 6910, -2998, -8451, -3268,
    6079, 2036, -10952, 2379, 8514, 4859, 3336, -5778, 2540, -5362, -4419, -12450,
    -9372, 773, -9452, 2073, 5978, 500, -397, 431, 1551, -4967, -7807, -6199,
    -1465, -5668, -2569, -5349, 953, -3007, -2332, -2864, -5393, -13982, -10886, -5145,
    -4213, -12449, -4588, -17740, -14167, -9678, 4709, 6137, -3065, 4260, -8408, 2287,
    2744, -1960, -1258, -7804, -3524, -3195, -501, 1453, 567, 7371, 7303, -6419,
    5379, 10106, 6659, 615, -2022, -9187, -220, 6314, -4858, -3690, -3747, -7342,
    5755, -181, 870, -5844, 952, -6867, -1719, 2571, -3303, -3362, 6125, 8177,
    7603, 4194, -509, 1771, 8653, -2544, 8009, 12402, 8736, -3597, 4042, 2270,
    1289, 2115, 5979, -5476, -332, -3478, 1278, 3210, -1273, 4137, -9224, -5356,
    9370, 509, 7564, -4792, 2473, 7405, 2088, -589, -5157, -5532, 247, -1999,
    -1977, -6479, -956, -765, -3613, 7278, 2726, 5175, 11433, 4232, -6696, 4381,
    -8163, -3626, -5593, 1815, -1970, 6043, -13305, -15974, -9680, 10679, 5972, -10410,
    -4002, 982, -8801, 4959, 5192, 385, -2669, 3645, 98, -14308, -512, -7158,
    -10922, -2382, -12732, -959, 241, -3325, 70, -1412, -587, 2121, -1752, 3835,
    -6787, 918, -6678, 8477, -5844, 10946, -3597, -2059, 2196, -363, 4204, 6237,
    -2486, -536, 7680, -2041, -6785, -13177, -2418, -3190, 1219, 11, -8061, 2824,
    1698, -6970, 5057, 798, 3067, 6318, 2244, 8431, -2249, -6143, 7379, 1754,
    12208, 1515, -1766, 6343, 3586, 8957, -3549, -5749, -1617, 2657, -3147, -10509,
    -3868, 11393, 2154, 3190, 4954, 2324, -5688, 1977, 1234, 5313, 1722, 4807,
    5643, 1573, 6421, 6324, -3064, 12238, 1341, -6946, -4756, 8121, 11731, -2575,
    657, 10272, 11472, 3021, -9172, -2084, -2657, -2953, 7707, -1216, 637, 7650,
    1028, 7379, -1748, 2812, -1760, -1676, -4134, -6224, 8100, 9823, 7626, 5556,
    4635, 5165, 1767, 2580, -3170, -5037, -6435, 6163, -2956, 9497, 2332, -6084,
    2575, -4312, -2698, -10647, -8274, -4974, 357, -11916, -13318, -8244, 14229, -5720,
    329, 15453, 9493, -480, 6591, 3159, 3217, -2614, -1580, 7406, -6276, -8774,
    3328, 133, 5018, -2523, -13694, -6081, 1614, -7317, -2217, -357, 5666, 7701,
    2186, 3965, 9269, 8152, 6232, 3076, 54, 6477, 7448, -91, -5054, -6865,
    -7394, 4185, 1048, 7175, -2166, -9277, -143, 1900, -10884, -23369, -6919, -9763,
    348, -14602, -6685, 1061, 13288, 9465, -10105, 8058, 21112, 7808, 1532, 8743,
    3912, -6367, -6137, -2503, 2147, 7012, 3603, 1867, -3959, 2991, -324, -351,
