/* Auto-generated by export_lenet5_weights_to_h.py (int32) */
/* Do not edit by hand. */

#ifndef LENET5_WEIGHTS_INT32_H
#define LENET5_WEIGHTS_INT32_H

#include <stdint.h>

/*
 * C_CNN name mapping:
 *   conv1 -> w_c1 / b_c1
 *   conv2 -> w_c3 / b_c3
 *   conv3 -> w_c5 / b_c5
 *   fc1   -> w_f6 / b_f6
 *   fc2   -> w_f7 / b_f7
 */

/*
 * Integer tensors: per-tensor symmetric quant, dequant approx q * scale (float).
 */

static const float conv1_weight_scale = 2.599078175e-10f;
static const int32_t conv1_weight[150] = {
    -72843560, 453624896, 868560768, 1613318656, 392946816, 1136743296, -2147483648, 1945813888, 946155904, 940550464, 986856704, -421093664,
    -813985600, -525668704, 168289536, -1292064128, -1320218880, -1332046592, -1352332672, -1018782464, -469087904, -859799488, -373716640, -217283504,
    13971103, 559936704, 496876128, 777928704, 1108518656, -167273552, 644205056, 198675472, 1501714432, 259178016, 313000640, 327929984,
    635113856, 617717632, 1246206080, 402465536, -883665024, 330915584, 974915520, 724703104, 644051456, -1446164480, 82979840, 1482363520,
    1419229568, 664968512, 277044000, -570266304, -148867984, -969672256, -200544784, 197113760, -144178864, -976297472, -535601696, -598765952,
    53448408, 249722048, 447576320, 394976512, 749092928, 65006108, 1264494464, 699859712, 1323747968, 320557952, -597094272, 931606208,
    -328870528, -441685920, -4183313, 1470983552, 1920232064, 1645992064, 1290572928, 408884864, -130362448, 287353856, 1225990272, 823776000,
    -152761712, -119578576, -321566048, 862096064, 509190720, -143167520, -1619805184, -1283132544, -605032192, 693710464, 623082432, -888889920,
    -1288892544, -76291424, -173998784, -413653728, -887176960, -247624416, -1114123648, -325015552, 1542134784, -1332827264, -1534004096, -826681344,
    1500017920, 1410559104, -506721312, -708121024, 195824736, 2067830528, 1421343232, -228498528, 412344768, 1362647808, 1830797696, -228766368,
    558502720, 543582784, 722731648, 1055222144, -449668064, 93816432, 29486040, -825237632, -824584448, -162958016, -517910208, -503449792,
    162243488, -464012352, 28656342, -334156832, -862358272, -88979280, -619498944, -680456576, -415291360, -791478144, -234881264, -453048256,
    19000894, -738174208, 340324416, -592578304, -687054912, 431922336,
};

static const float conv1_bias_scale = 1.320648729e-10f;
static const int32_t conv1_bias[6] = {
    1128741376, 804638912, -238503152, -2147483648, -241696384, 1653009280,
};

static const float conv2_weight_scale = 1.553268070e-10f;
static const int32_t conv2_weight[2400] = {
    382267104, 278021472, -263212384, -382165600, -7170790, 134988112, -353495808, -155655856, 256705088, -546652352, 986030208, 1271573760,
    404677024, 528357376, -230158000, 17962738, 257365552, -177640624, 115292936, 723630592, -493329856, 6503593, -754742016, -214756016,
    11704954, -219645216, 221761568, 68775368, -69669720, 117081440, 730683520, -238258144, 592780992, 718476736, 44402468, -182445296,
    202387984, 322386880, 35464432, 162727856, -484031680, -700477952, -478460704, -861898176, -414433728, 61041664, -576946112, 89836808,
    -760364288, -502772416, 198772816, -149369392, 445743552, 605487872, -44132828, 550363200, -4448881, 161551968, -112889408, -177658192,
    292807360, 421583904, -205898240, 350741248, 554860672, 293318720, 390468736, -291168928, 157996080, -284721120, 247316704, -155308320,
    -444330720, 67977504, 219921792, -732140928, -145033616, 36002628, 62538932, -1096642048, -500114720, -831928384, 514334176, 441605792,
    -162273792, 276785728, 472474240, 717358912, 329464256, 283043520, 192627632, 724348096, 217435200, 58014272, 197349088, -184423248,
    -387904384, -567710592, -379428832, -246920960, 336851136, 11437517, 280821504, 185225968, -438661376, 532638976, 660605440, 741283328,
    155220624, -79887616, -540852608, -5203368, -385222592, 106526424, -60751468, -155038880, -617602752, -667563520, -251416400, -907185472,
    372115168, -493061248, -602193728, -826639872, -606750720, 500915136, -477455744, 97089248, -238023936, -90385960, 185885712, -526257120,
    -172562624, -583704640, 22421994, -395117440, 379191584, -25103314, -412252352, -314574336, 261911424, 553466560, -181841424, -314215776,
    -354358048, 304008000, 566769088, 405832448, 520201152, 296721824, -339992480, -693751424, -515698560, -185633024, 136340816, 436393408,
    -234336160, -920817920, -489297728, -263012560, -792346944, -637078144, 302396480, -357773888, 112990232, -351228896, 162335680, 761870720,
    623506816, 968690816, -217540608, 306014592, 95699080, 155341424, -498173088, 177040048, 611068544, 433638496, -979221568, -285922688,
    685469440, 1651145088, 948686336, 668596672, -826647872, 663581376, 1303513088, 1139329536, 1130155008, -494107584, -722006336, -32570236,
    202010752, 41043780, -482709600, -997612992, -827118528, -1154696576, -319036704, -890227968, 198871152, 170282704, 225037648, 560636864,
    306192992, -48434852, -86954984, 223768880, 428085728, -114409680, 295931424, 479444992, -157685648, 525142176, 406817440, 296023200,
    -273647552, -81748536, 454180384, -405676544, -526359360, -109832000, -221766176, -145805232, -180389136, -578610304, -419682080, 156003568,
    -675039488, -315458496, 510095456, 705913920, 370276992, -990218112, -867275840, 581357248, 167019680, 830967616, 847646784, 155735024,
    -535725568, 330485888, 785637120, 1062270976, 997786368, -124753272, -106761968, -353908928, 457501280, -49840616, -285645120, -80471448,
    -278202528, -931897920, 382672608, -721080384, 357143328, -774182208, -945779712, 164866416, -240808144, -352259776, -493806080, 278890688,
    -87239608, -508248352, -701998144, 105319920, -423095904, -1028236160, 65297576, -633268352, -602209920, 221123728, 85085904, -223230640,
    329597024, -572687296, -636695808, -361751936, 489627040, 198254064, -806581504, 203192544, -184473392, 84238024, -291031744, 1337603,
    -18795774, -7604658, 264892192, -250227488, -43516752, 474163392, -370156352, 107295312, 523054400, 531019456, 120126160, -223973888,
    26144306, 627726656, -16497870, -131146056, -467563744, 245230896, -56416624, 170464560, -719515648, -580316544, 549641920, -479625408,
    156144144, -884191360, 495217856, 66266388, -690075648, -692282880, -812980416, -304982976, -356691328, -608624896, -350255936, -124404760,
    -266144720, 149475056, -336495360, -11883554, 92534864, -127851960, 273613152, -283082304, -318983552, -206332128, -247955024, 11641027,
    -227540768, 123513072, 139267024, -404532832, 235341136, -565175104, -133319424, 646787072, 131747280, -338395296, -550381504, -204021984,
    458833952, 406653312, 576693312, -105973280, -340356320, -82158744, -259423712, -187351712, -274180480, 12004573, -246960880, 58884780,
    -74056576, -159681040, 148315760, 347580192, -583154496, -557971200, -132964464, -119971768, -97498576, 354723296, 86151864, 138932496,
    -207485040, -363293984, 49230892, 650092928, 97683728, -46093064, -440588320, -207633264, 376508256, 101777848, 341293984, 287183936,
    -241935344, -263154944, -428052416, -100106096, -189106112, -36028884, 78867952, -335623712, -88615344, 65465000, -55164340, -18638298,
    -700322624, 254578112, 95797880, 200822576, 398025760, -193075520, -55887500, 285354528, 550796928, 71662128, 396830560, -626440512,
    908873600, 312259200, -217893456, -187286224, 110792008, 944214208, -557961984, -406183424, -550839680, 580953088, 199467792, -866207232,
    -360902784, -580531904, 698273024, -269610496, -393857408, -562116480, -270295520, 356845184, 519441664, 257031728, 513076480, 289108960,
    96000472, -55907996, 170685936, -203747584, 334420288, 637923136, -271500064, -69947160, -167785872, -310358208, -341116928, 93935112,
    101212112, -106730072, -243202256, 539570816, -166680400, -69717680, 165211296, 129110728, -139641856, 219854272, -774560128, 300279680,
    434771744, 11995360, -676399104, -595236096, 399388384, 463501056, 18301818, -747600640, -609790592, 504197152, -522883456, -629707968,
    -591224064, -175429328, 100507464, -502254336, -473944384, 24089868, -497408544, -107536976, 366725632, -57969304, -804452672, 323556288,
    666012608, -352604736, 85286096, 94911104, 854280320, -289516128, -323801920, 277119392, 72866376, -201614352, -223032288, -292423968,
    -606154240, -248815648, 867640832, -337082432, 317933312, -449866272, -147328768, 858919040, 392113728, 50556632, 46072108, 249628720,
    -167422976, -259323040, -83434056, -371013920, 373874464, 682140800, 309677600, -518085056, -216670528, 362479136, -215586912, -103329488,
    118976920, -29885948, 289802688, -226971264, -85308544, 491161312, -421859136, -285567264, 88006064, -82664880, -355185376, 598083136,
    -75843392, -728393216, 441922848, -151158608, 110999960, -615198976, -172029984, 363021056, 150879632, -674153344, -66471056, 118478912,
    -300407392, -376454848, -941998272, 231460448, 766933824, -713586944, -58668024, -800939520, -229722528, 359401184, -113163400, -324117696,
    -520001696, 113283112, 140102016, -84113288, 62813080, -570245888, -14969014, 891758400, -225345936, 27014504, -755229056, 1057857792,
    587643520, -378607360, 295591424, -335549376, 859051904, -115061712, -67540248, 417829408, -518940704, -283638368, 302151776, 347758304,
    93861200, 467540416, -130977264, 637081792, -124217360, 354046016, 190936304, 49542096, -4654528, -40025196, 482125632, 313025664,
    171877792, -385028256, -408402464, 201107312, 421786784, 102717512, -195732000, -430300320, -496414752, -170008032, -36815660, -25538648,
    29139880, -674052160, 392483520, 79300456, -380973280, -136986160, 483474528, -29109846, -233037440, -158901824, 397372032, 285009024,
    333064192, 135272496, 847409984, -662698240, 76192136, 548312640, 476048512, -148125056, -548080896, 491086592, 347824832, 313075232,
    -445278784, -238070448, 127593944, -859008832, -32758132, 420599648, -306097856, -308023648, -688665728, 394415168, 152500080, 190711472,
    -140418784, 1290296, -172929424, -778817728, -226497296, -611787200, -536504832, 243548096, -259464256, 510698848, 241773696, 175609120,
    691417600, 71576864, -207157120, 532376096, -65866976, 385836736, -142663008, 225047120, 403985792, 233117808, -415484480, -64165504,
    -129223896, -252885232, 221643408, 73464192, 292410432, 381049856, 821732800, -52456776, 279260480, -5581680, 578423808, -14597659,
    -346120960, -255091888, 517418048, 50120312, -324090816, -83620128, 813676224, -85053744, 216800016, 465238624, -401021920, -361640608,
    -215431136, 123828120, 330477888, -191402896, -237998224, -303339328, -843452160, -1115956480, -447590944, -615042816, -49187640, -755418048,
    -561542400, 748208384, -47286672, -86349000, 361210752, 360690240, -223602976, -757336640, 201128032, 943904704, -620855168, -293071552,
    -221242896, 790095872, -586507840, -123956744, 917056512, 545933888, -296492640, 130049448, 975473984, 386239872, 353903360, -905635008,
    1660581248, 528271424, -344933408, -352721024, -602502336, 509414592, -309330656, 255987408, 293143200, -357843424, 81022624, -296655488,
    122320816, 160937776, -495462240, 394257632, 300290560, -337253152, -155677760, -14658135, -202599904, -90060664, -160680672, -490147040,
    402389600, -66044936, -154363664, -324880192, -321229696, -445358944, 202316896, 69688984, -27959228, -582687744, -587894656, 535624576,
    290308224, 71352848, -255749488, -929625536, -39152860, 20969548, -354547392, -1048000256, -335932256, 1226562816, -172680032, -1094879232,
    -548737600, -187444016, 602394368, -290264992, 249794400, -245195040, -276327328, 103251960, 107498872, -276327296, 743906688, 1294256640,
    16724041, -1008758144, 245676176, 1470496768, 1317945216, -574314048, -494969088, -202914016, 1160163584, 506275168, -680759552, -836244608,
    -442994944, 664826560, 352170592, -334082080, -157991248, -234694496, 365995232, 115370608, -24889022, 269523520, -388016160, -301086784,
    167728400, -53533232, 312210208, -360557824, 126561432, 123931360, -214837008, -260612192, -424933952, -262237424, -414380608, 385773376,
    12789551, -470123616, -253541824, -28380434, -287391648, -285913184, -537303232, -776501952, -349532288, -427008384, -107571992, 410895328,
    930991552, 15278584, -151536848, -116838928, -315600192, 601684672, 249656560, 238061520, 33829300, -522511712, -392898624, -890541248,
    103092376, -146671488, -232426864, -432491168, -443820736, 385411584, -240336672, -584784896, 380411296, -488228512, 153152528, 248306896,
    344089312, -765638080, -508487360, 98693440, -325501568, 520416800, 791605440, 98445360, -94816808, -165557072, 769031424, 1563687552,
    -538477632, -522862080, -680890176, 1233820800, 501190944, -29088452, -520492672, -436960096, 317876960, -251466704, -651893248, 400210464,
    -439635936, -533495232, -190419696, -470686976, -329733920, 462412800, -135675488, 304704384, -804363776, -49103496, 66278392, -9570517,
    372990112, -46750868, 186975840, -387887360, -163104912, -573675392, 160373920, -335495456, 23546142, -191832960, 47315236, 102936616,
    484027488, -214733040, 325231136, -393784992, 267950624, 367193920, -640785472, 565226944, 684877056, 128563552, 92563624, -279039232,
    543399168, -369904960, -749716736, -169219024, -353102816, -626844864, 1048024832, 717765504, 130450200, 217738528, 1204507264, 1158286976,
    419543712, 863905152, 781628992, -193012704, -672466624, -1051633472, 390163008, 93835736, 86891056, 331914240, 227603792, -809804032,
    569886464, 124028656, 576672512, 289399072, -157538384, -25877886, -241543520, -174687088, 289672896, -377324480, -616425024, -413273984,
    -401915424, -812438784, -613505664, 304885600, 467304704, 583656064, 547380096, 376672480, -243218736, 319358880, 100452304, -365729600,
    -579826176, -659483328, -242346896, 522660256, 635237248, 43107904, -169185840, 479872544, -233121488, -25186936, -365882144, 153241424,
    -282416064, 303989696, 130517832, 1116823424, 268987584, 147862448, -765016064, -465571904, -103985592, 111695328, 224322656, -20418616,
    145013264, -839960512, -317942912, 899254848, -259747744, -796777408, -302723424, 128748048, 304202080, 148282848, 460614688, -288051488,
    516952416, 974068736, 321913792, 752700480, -604036672, -1126146432, -502425376, 788850688, -165403632, 668784896, -51598108, 584549248,
    208574192, -496711968, 329184320, -411977024, 37258588, -414899712, 827849600, -189939936, -260044128, 163710976, 572190912, 163618688,
    -768452352, -795616128, -695242688, -575120256, -220234112, -373596288, -417541504, -536543168, -722886976, -672599680, 430960224, -384008224,
    -394550560, 15307114, -633717440, 172579488, -677222848, -455485472, -152480304, -128529352, 175331024, -688345728, -256593360, -378925184,
    -478438464, -97620968, -523639072, -604769408, 280048384, 460003872, -403554592, 154080512, -572123968, -679813056, -619709440, -267551664,
    -57060260, -280015104, -553317824, -224522800, 42525804, -407994432, -872608000, -877702272, -956532224, 356870784, 12262471, -611924608,
    -533243680, -1268374272, 87537712, 204198352, 214281056, -440736096, -938375616, 756415232, -244749920, -496049504, -454834784, -273914912,
    278702688, 240947840, -212465392, -450230112, 599013888, 1003690368, 1257923968, -403681216, -926487808, 861321728, -69794776, 582265152,
    -565273344, 219239968, 1031327360, -637950464, 322833664, -277377536, -354368864, 357672192, 497222496, -461424032, -137845776, -536974784,
    -231332864, 423352544, 534266400, -239230688, -225386976, -382264384, 101527544, -148349184, -449652128, -698651200, -349128960, -506026176,
    -718196224, -518324672, -224721616, -642519680, 155236832, -189820032, -664099328, -155431664, -710389248, 323418688, -304769664, -678742528,
    -541439808, -682332544, 545527040, 100275440, -989426048, -828142144, 202807920, 639872128, 789551360, -757228800, -688766720, 347973952,
    -69297584, 741755392, -502366240, -887192896, -411894880, -238027792, 636632000, -315655040, -661744000, -385995872, -321289920, -212137056,
    -777772160, -940502080, -286464384, 159194624, 328882240, -802351616, -800108800, 584548160, 879913024, 711450880, -781333120, -349705120,
    1243920768, 748769408, 310587488, -437956352, -328512480, 1071051712, 1005924864, 185632960, -793230144, 327580160, 1119096320, -215090704,
    -390258304, 4595768, 419210656, 520311744, -156513248, -534808384, -314786336, 425953696, 241077808, 294547232, -615589440, 181129968,
    176085792, -187252480, -507694912, -569342912, 352948608, 449817248, 330646432, -352722272, -139245664, -263351872, 10317251, -41785176,
    -507253888, -435143296, -143296272, 206378544, 586360768, -259904576, -699058048, -915293824, 336842784, 939182528, -653562048, -280141024,
    -771303424, -944295552, -499554464, -701886720, -831238336, -472380544, 271670976, -147062880, -122682136, -844891072, -338631040, -471395008,
    -16907804, 72146552, -120854600, 624440448, -35637300, -672421568, -625259712, 697138816, 1491870976, -656458304, -511095968, -1094854400,
    826226752, 1597767808, -449323328, -1231886208, -1030488640, 606366336, 1585610240, -115697720, -785557504, -1028731072, 503202368, 273063936,
    -133303760, 119525600, -20409082, -473717728, -406326848, 483393856, 208729600, -66764436, -382067104, 131898208, 117819088, -627770368,
    -501362912, -824165632, -668252160, -403085472, -113329016, -522956704, -296939296, 150546688, 662557376, 302352064, -101816784, -156864608,
    270183040, -287239072, 469142624, -278186176, 146514080, 290629440, -856542528, 48780284, 180533280, -145554128, 635691328, -542336064,
    172097200, -512712448, -342726304, 564465664, -410439168, -93484568, -971258304, -446930016, 466619360, 417999264, -682422912, -1235626752,
    -795172160, 310171136, 68005240, 235343408, -143281904, 769045632, 1166995328, -179961872, 187647584, -491306496, -104516064, 1508054016,
    -357410976, -695152000, -1499401856, 797900352, 1067239872, -938137984, 241026352, -216369088, 539974848, 174202944, -1091299456, 78581072,
    -437012384, 295621920, 269431072, -991527424, -318559072, -408568768, 534249664, 187437424, 168122144, -539725504, -228274112, 358701888,
    227662848, 161736336, -481141664, 14585465, 63317268, 325905952, -521039328, -129363864, -221182656, 183337504, -285036000, 169783824,
    402424320, 287792736, 36058404, -484968320, -211523872, 15776391, -262566080, -350299840, -661259200, 156029056, 459332544, -597225024,
    -230620048, -474959296, 907763776, 1056557888, -903634560, -223822832, 911000576, 1088696960, -19495752, -224409616, 471076128, -99202520,
    2938190, 284624064, 164247168, -258276160, -194377616, 546119680, 68279920, -838133312, -218423440, 661656512, 213653728, -629639808,
    -415628928, 397393056, -53220888, -891097472, -436537696, 225595728, 778726656, -489600256, -501938336, -971594560, -178412576, -300691968,
    -649234368, -313804672, -476168288, -45556536, -358652928, -276510432, -193414304, 220692960, 205244288, 281668256, 121835256, 299870976,
    166033584, 219836672, 334409152, 708659776, 146509840, 143964880, 74177208, 227876464, -525704640, -664981696, 341343968, 157425344,
    -154528944, -510079744, 430129152, 31489174, 168407408, 199445520, 997214016, 667080000, 335787968, -304783936, 273640672, -293017664,
    -896193600, 106602408, -699887552, -610262720, -1192172288, 134874720, 594382144, -151613872, 701026, 301699808, 25320706, 67154384,
    647630528, 601966208, 243991296, -17558204, 80360672, 491185440, -160766736, -17836172, 230740464, -154190944, -314911584, -15215741,
    1475604352, 941225152, 143301600, -38353636, -2147483648, 1565539328, -234848656, -1384790656, 1910011264, 1569860480, -439742432, -1420218240,
    -770120128, 1205581952, 178496656, -1162127360, -905549504, -937397376, -107110160, -1148436096, -838525824, 162545680, -917768256, 65366148,
    38923260, -336767424, -592244096, 262315840, -159061040, -569458176, -845848832, -109271200, -558768192, -215611088, -169475504, -301267232,
    -180487376, 158021312, -748043072, -504813088, 284824576, -161436160, -426928480, -542344384, -763103936, -451653952, -434475392, -526267008,
    390668608, 73624584, 458919680, -195718160, 281054208, -437681600, 24647024, -169317808, -200862416, -358296576, -483258528, -512835648,
    -344642784, -292937248, -229292080, -190440880, 325014368, 323114080, -45970640, -192383600, -758085504, 284273824, 488845312, -190587680,
    -107706888, -518021024, 372266976, -9502671, -664192576, -736805952, -479798080, -542101504, -449059616, -155282656, 147771264, -95176880,
    -419440992, -568476928, -167148880, 417018336, 49080712, -254115664, -513036512, 88839816, -119303312, -271564672, -66624748, 87785704,
    212670960, -647899776, -50431988, 147786320, 18518858, 340942944, 190372896, 180892912, 33666268, 127146824, -76114960, -358981696,
    -252485184, 205299088, 711249088, 568618112, 139815888, 455384544, 435944576, -63965004, -101263608, 83378112, 362616448, -62807268,
    236441232, 478543808, 81401552, 514662528, 686922048, -188797856, 101473584, -453444320, -352424320, 111576960, -406308128, 124919600,
    159245584, -198011584, -883381312, -863576064, 229665024, 486637536, -300953152, -275951040, 509882208, 820202560, -130944824, -509743008,
    -217974464, 485853024, -187477408, -50339412, -304494176, 354940544, 131449752, -663310592, -528746208, -86247944, -311253536, -642576832,
    -458754144, 399431552, -529968000, 841797184, 903393280, 350292416, -52976236, 1050838400, 1069099776, -610068480, 191498320, 122663224,
    1164205568, -610120640, -634842112, 544095168, -621910912, 504347104, 538589696, -162358016, -206485456, 390339584, 247575520, 176946704,
    -347491840, -292280672, 242704496, -298865472, -172505440, 150577248, 347179680, -110707160, 257548432, -283319488, -317163904, 201661184,
    76641176, 132814848, 171223536, 341198144, 107860512, -337152320, 173383760, -679017536, 98007384, 181096704, -735848000, -281053472,
    -202350736, -217734832, 311127104, -197406736, 136140784, -305800704, 35024968, 326349472, -682616064, -16191194, -31243630, 310944512,
    -530214336, 97258024, 302055072, 384377120, 447681280, 247190400, -1289294208, -150740416, -121455952, -153084080, -498601248, -478926240,
    -463157184, -726547072, -319937408, -638647488, 66239096, -431157856, 11542731, -814266816, -564314048, 4202741, 934994112, 63277136,
    406192768, 900188672, 630786944, 728937536, 916600064, 868633536, 1026598592, 485571264, -339898464, -563308480, -351384768, -335162272,
    374828096, -254902160, -611947456, -73196040, -136255, -469882720, 348522336, -66178044, 627431616, -52290872, -89191328, -201873712,
    962309888, 137584080, 463420768, -91807472, -232540736, 149632608, 92111720, -298189024, -597681152, 149464368, -475388704, -615902592,
    -430534368, -535909184, 13634435, -514699488, 272154240, 226813008, -582775296, -684134528, -420740736, -4612316, -114541936, -633729792,
    41058408, 80998016, -504324128, -227420352, 176169248, 901360896, 1156972416, 622172608, 384259584, 287437504, 49308712, 1255863424,
    81285920, 431822432, 567621824, -180305088, 323988640, -729264000, 486286400, -572926784, 113887584, -41794592, -52362156, -379306080,
    509469696, -660546176, -264085168, 381473888, -354063264, 449510816, -660047296, -280259456, -393215328, 31264782, 649972864, -331531424,
    -597104064, 402073824, 169763792, 96421416, 153618112, -33594004, 330763520, -7316000, -481243712, -339045376, -234812512, 267637184,
    -213843680, 350136672, 232695504, -271327360, -35842708, -71785120, -425316160, -26114760, -710360640, 225208400, 1896976, 226212256,
    349055680, -60094272, 259671568, -133233576, -822836352, 2939810, -151123536, 201009088, -124396672, -488243520, -791873856, 125770264,
    -731200064, -907780096, -805218304, 347234272, -297476928, 606538368, 670103872, 1244369920, 254473456, 1390978432, 1156679168, 1302201088,
    903408064, -251898864, -539975040, 99223560, -669877248, 164957344, 266920800, -376945120, -360547360, 294756160, 276421280, 175161696,
    53248132, 502369344, 34010340, -38300868, -473440896, 18585178, -546259648, -317478432, -383228384, 44677388, -132730712, -316255104,
    -814049600, -434089600, -171473728, 640599168, -112725888, 122480184, 223816576, -214370480, 167208816, 612680768, 638161664, -111604096,
    -68820880, -261738832, 42341488, 111744480, 206497328, 768399424, 380540960, 907268544, 135754048, 289842048, 45183992, -452248128,
    -80841640, -505636832, 28257350, 225824032, 80190304, 170331872, -435877856, 80677144, 145596112, -579334272, 339566848, 299095840,
    -408098208, -130010456, 442450592, 81564888, -720129600, -472327168, 89816792, -622339648, -638230656, -64493672, -126668000, 296479200,
    1021803968, 1088046208, 1310478720, -63087916, -236593792, -208711808, 690233600, -453265216, 18686704, 594338240, 328523744, -49540160,
    -707623040, -320961152, -164689504, -657382464, 537344384, 400017056, 690415360, -347231136, 179658336, 666274688, 806832896, 117808904,
    -241118704, -369611200, -1224081024, -836365056, -298502208, 227660064, -361673536, 38790004, -124526032, 75625592, 66216964, -757982848,
    97891536, 131809344, -315859936, -9439484, -221922144, -929977344, -745504960, -251621664, -240057776, -279972768, -510939968, 133488208,
    43577476, -268306208, -136809312, -491123168, -115776984, -555361024, 142583040, 238434160, 908907712, 1230143744, 696500800, -649038208,
    -567862848, -767094144, -722760960, -101394568, 477344608, -324185888, 385365088, 305709088, 319810560, 824537664, 1111770112, 1670666240,
    2013918464, 1303715328, -1267286144, -919394816, 411722368, 168628272, -120626592, -731944896, -743112256, -832928704, -924686464, -343041376,
    -345393184, -57411752, -732017344, -728247680, -153145936, 334617632, 768520832, 890868672, 674206656, 942536576, 54872628, -119125432,
    -107908824, 842899712, 615970176, -175706592, -1042808384, -272988192, -15378018, -539010496, -364385216, 147514736, 183629472, -436327648,
    -708648256, 128021512, -9964136, 504003552, 279838240, 488458112, 460592288, 1070040704, 965150400, 801877120, -162819680, -562097472,
    -528233696, 121399400, 278586752, 471060288, 221856384, 437301088, -137823488, -172100000, 192671728, -385355776, -476859680, 191613872,
    1291187840, 861417472, -574744384, -1113373696, -1371377024, -1170401920, -1012467840, 576789120, 337216992, 176540800, -598046016, -614073280,
    971267712, 1799670016, 1392795392, 1109820416, 1019239360, -345798784, -20794046, -176460320, 347921728, 181839440, 459384896, -466813632,
    -1319632128, -1023520064, -751922176, 85270912, -408412736, -734994304, 437229120, 65220124, -427397184, -22401944, 768034112, 607060032,
    -276407648, -830880256, -436599712, -396591616, -808844032, -675703296, -702569792, -1257102464, -479916288, -145398512, 249386048, 515904000,
    181034656, -195416224, -10043703, 322121760, -60973732, -143536800, -284075488, -94385448, -74861480, -635135680, 56934232, -372473440,
    -482974272, 43239968, -173431376, 87176928, -541307648, -341672544, 406550848, -339279488, -75057704, 462345024, -25247890, -42957276,
    -47800260, 346691744, -175923808, 412041504, -235289952, 599352448, 151356688, 832605632, 645591872, -58065604, 390794624, 671886720,
    -303669184, 96114376, -434710656, 355369504, -774966464, -578716928, 591139200, -15413566, -318366016, 345530176, 838264896, 908575296,
    -429650048, -514650336, 247081552, 232821760, -50390988, 758157440, -96241664, -949280384, -208310608, 556205184, 290236544, -543790720,
    -933602624, 139093792, 243184000, 228611328, -1037808960, -184093184, -617756608, -408210752, -596025216, -362754560, 18979004, 324838688,
    -141517792, -660296192, -168492368, -179404960, -338597856, 613264768, 477432256, -149990048, -66287624, 192986480, -392371968, -291387136,
    -233394128, 311412992, 45940044, 251607456, -55715424, -616190976, 712530624, -169014336, 49150860, -5214188, -436199520, -307147136,
    148813280, -236402768, 154058592, -71829624, -595314368, 56145160, -310765312, -76134008, -103314032, -431937824, 345785504, 720862144,
    498493888, -28428380, -176520160, -683478144, -876031616, -658186304, -699499584, -264575184, -749931584, 105410544, -127543176, -1156950400,
    -709501568, 656324864, 627428352, -333796448, -341617248, -420716800, 216207120, -182908256, 307277184, 330642784, -157363600, -529965184,
    -457870784, -168938528, -256876288, -838833088, -386816032, 481022656, 717257664, -866246208, 240336656, 904158080, 492731424, 44840500,
    896216192, 942843968, 650136384, -101730960, -580939776, 368669440, -471184928, 72102488, -382232192, -182297776, 398290112, 304318400,
    -407752672, 550891264, -291190880, -354752768, 100329016, 271367744, 426485888, 402534432, 607907840, 32748564, 321560032, -250935056,
    422719136, -580971264, 145014512, -491057376, -259392160, 150375904, 123271656, 567325248, 647220032, 721739840, 281992384, 470370912,
    -221843600, -91282584, 692134784, 738637312, 101385440, -689771264, -113590056, -46970096, 241723600, -338055904, 164735520, -319931104,
    868510912, 683947264, 546834816, 289953344, 145020064, 770115008, 694093952, -168724208, -788172352, -765897152, -534207488, -414037088,
    -1305916160, -688690624, -1379402880, -401395136, -444675616, -1241869824, -973896512, -1061020864, -607088192, 380792032, 175702224, -389925696,
    257434864, 686542336, 358887648, 296803872, 755698560, 399906912, 837179584, 503560896, -174182352, 62274468, -146874512, -135864192,
    -521838912, -584751680, -286128256, -232591232, -587156992, 517491040, 212332080, 39928584, 533857472, 762385408, 620591296, 206977264,
    257393872, 682285376, 305631872, -67533224, -490049920, 423338176, -52362224, 359279360, 628755328, 58080280, 237564384, 752521984,
    370476064, 118094360, -231388448, -262689696, -141903760, -21571300, 17512074, -1049851904, -1050050368, -1114697216, -1291238528, -282282720,
    -720506880, -1017085568, -277764576, 124634936, 97392880, 643122816, 200191968, 561210816, 509487872, 510881760, -150928368, 52772256,
    13083501, 8595846, -219379808, -1088845056, -603360896, -1430250752, -675686976, -603262208, -43983128, -617701888, 92915816, -211716480,
    965646784, 836479040, 1007954048, 666143360, 317389632, -578592832, 1001510336, 416639104, -92482968, -974816896, -583395264, -60299452,
    -298412320, 527486944, -125518304, -410482656, 431424064, 243305712, -228355040, -197122816, 239315216, 129327192, 294837856, 431056480,
    528630528, 145952880, -269600032, -287510432, -542450048, -557915520, 1561213, 136346176, -261184560, 321078240, -582324800, 455651584,
};

static const float conv2_bias_scale = 3.627461526e-11f;
static const int32_t conv2_bias[16] = {
    2053156992, 1552394368, -680129088, 1629436160, -1875574272, 515487264, 132709704, -918189824, 1094493568, -2100712192, 886112960, -1271898368,
    -2147483648, 1844879872, -1240951552, -1061049088,
};

static const float conv3_weight_scale = 9.463516776e-11f;
static const int32_t conv3_weight[48000] = {
    -105952928, -149186784, 38694696, 285815680, 645451200, -6330388, 72958296, -387845920, -423924256, -323851040, 15040546, -643952192,
    334817440, 272299584, 311245568, -236242592, -117048760, -118336944, -210419232, -446243040, -70940504, 13912618, -365442240, 689435072,
    153368464, -174395376, 624587520, 297169696, 249583888, 231433760, 295514720, -202815968, 259641904, 263805744, -361873344, 1189651968,
    1106313728, 99040408, -242168016, 387178368, -226133504, 210299248, 431183776, 478746752, 70812896, -672019392, -199448320, -456244928,
    -94448136, 112501720, -36479884, 174580336, 131242704, -397334944, 176559072, 173762512, 144397280, -82772728, 68763584, -177144752,
    6234351, -231860544, 101316688, 252135968, 516271488, -488811424, -364158976, 51148848, 106044752, 7501985, 176237728, -48016372,
    72944456, -127578968, 321021088, 617598528, -415677696, -310037888, 10350019, 439268800, -79067152, -231473088, -414244736, 396433216,
    -197519456, 99055296, -266087264, 30253146, 373035072, 67583728, -248364944, -175451792, 236820800, 422106048, 426327200, -253934384,
    -526987136, -455321376, -257958848, -364768, -120704568, 355614112, -238202544, -160202192, 264117008, -91666000, -701066496, -365191104,
    396992896, -437818848, -249676352, -160715936, 218844272, -592665344, 387227520, -131326616, 62523028, -630283968, 177921296, 412978560,
    -357821568, -151574496, 91104560, -304808640, -398542656, 795049344, 110263776, 89702160, -352298816, -301011712, -264711680, -756064448,
    -4822234, -1037143488, 165710192, -82913848, -1160329984, 151462928, -107921152, -485018624, 121519080, -561612480, 267258064, 27083888,
    -364104320, 173649520, -16942466, -160836000, 260199312, -177026256, -368599648, 559231616, 484560896, -433744544, -401542016, -261387840,
    43687636, 389048640, -346395456, -445348448, 516938080, -238673568, -136587840, 236274192, -208347952, 425393152, 360345248, -109162904,
    693212672, 103932480, -303644544, 159443152, 85558208, -271729760, 42409020, 243836208, -462648416, -205798960, -39760740, -358433568,
    475930912, -221256576, -86813456, 469925152, -322141984, -189519824, 567588992, -456048928, 633618368, -333417984, -22598950, -519026720,
    276175936, 293938528, -274439904, 25666584, 91623096, 1498831, 478806528, -132659856, 442070976, 221296512, 107755688, -201136272,
    214441088, 229043952, 574692736, -358819776, 164448976, -811063296, 614551808, 514169856, -296950624, -424040000, -163666784, -194906464,
    -645796352, 78875672, -292303808, 213477456, -605503808, -42962460, -49461960, -183495312, 494375424, 390085824, 921118784, 568665856,
    361014272, -25377332, -224064416, 194941904, -388582720, 71066808, -379581184, -313437920, -1351145472, -735856576, -892321600, -394144032,
    -462198304, -697189120, -547784960, -635552576, 28175272, -21881266, -316298464, -621302784, -520032256, 112944160, 526961664, 52575500,
    420600992, -360581664, 383614208, -367017120, -39895356, -452981824, -306477888, -155249680, -773885696, -301879392, 353771104, -231499504,
    271779424, -7812289, -310095488, -489067328, 249180640, -430129984, -243417520, 92801536, 522216832, 6253826, 413809664, 376041984,
    -540504384, -577379200, -612656640, 184524976, 57768068, -551431040, -288300128, 383822464, 70868056, -568640128, -397741984, 152378960,
    -359874720, -285397184, -754185024, -49466284, 492851168, 894435200, 509840480, -161012960, -178784800, -32908014, -216681424, -275912128,
    18411350, 502560960, 768712512, -360419424, -445346720, -392982112, -6963147, 426222880, -92462440, 252821248, 44492796, -136769904,
    472815936, -607784128, -91692504, 386597696, -97443112, 190278352, 195602640, -83466256, -378733184, -94563928, -53493260, 213149552,
    105932624, -714478848, 232590480, 1128360192, 844925696, 394955424, -205205248, 154748976, 496528832, -6932098, -107848744, -13406097,
    1047947072, -2254520, -411027584, -458581824, -284003872, 386555616, 163726000, 563579648, 387769824, 367329088, 133066456, 402574656,
    820831040, -76933592, 173998672, 143652096, -564625728, 84003848, -60158464, -380980096, -277554112, -708973376, -102656064, -499702528,
    -527840288, -743015616, 199233056, -494787392, 556007872, -33621712, -256437968, 421458176, 60461132, 491458144, -80018472, -447217024,
    253412768, -52423916, -460838976, -227741216, 698005376, 101485168, -533880320, -117725776, -737115456, -567463552, -262057840, 580591360,
    -448108704, -808318976, -542368192, -354299488, -301489344, 89151040, -415625600, -117946384, 355523264, -95186576, 351226144, -41747528,
    740217792, 563508864, -278424096, 117105336, -829064832, 21072664, -283182016, -414077728, 438736064, 190156080, 273866624, -171402928,
    42399608, -45297100, 376851808, 508546400, -71018280, 456963264, 599518016, 169754960, -515623040, 127842480, -532584960, -316729728,
    538613056, 71947400, -256455152, 621322880, 247149792, -1084019200, -931136704, 205779936, 790049, 630365760, -1028213888, -137194976,
    878988096, 329636288, -120387888, 1003711360, 1346494464, 695773568, 595890240, 112757880, 396474432, 1347793664, 153129024, -520343200,
    -189470144, -108967888, 458717984, -316728224, -21383128, -283849152, -192613648, 145674480, 573372480, -336456096, -53143616, 826692480,
    7426930, -113931688, -20043590, -451953088, -116485528, 111723888, 15651107, 283859488, 494233952, 72697320, -81510064, 73800320,
    130051776, 131993376, 408655744, -320202112, -66483804, 326553376, 204194928, 275195072, 445059744, 544120768, 423625056, -270814048,
    -3079947, 695157568, -427677472, -669474432, 348750624, -657176128, -478461472, -165535728, 248838624, 475139936, -173512192, 17297074,
    49826768, 82139424, 259472240, -211789232, -236018496, -680915392, -280461824, 436851136, -2021909, 645584448, -324069888, 139470736,
    -55322536, 228447824, 249092992, -308591360, -43054972, 389865824, 411573632, -385459840, -161439504, -85501808, -116895256, 385939392,
    -214385040, -81085768, -197986128, 75461960, -532038016, -571954112, 591547904, -60618528, 102182040, 500907008, -549670848, -640156480,
    -637140928, -396657248, -407834112, -342007520, -739277440, -367817600, 739231872, 318845280, -30234504, -275718656, 517238528, 171098048,
    1208590336, 593317760, -164558800, 733091008, 92279144, 675041536, -18704106, -943167616, -21031750, 23989774, -711450944, -596232576,
    -125491296, 557142464, 213396448, -661492672, 346589664, 181050544, 681425792, 40412232, 187178576, -147032720, 121513104, -347069216,
    -473552416, -151835536, 448924128, 130733936, -190064432, -355156384, 223796720, 994958912, 326042592, -101791384, -49678884, -212261904,
    -264294656, -1010277248, -501148896, -20550472, -99978000, 386848768, -603332416, 244876048, -439116576, 662545344, -113059808, 201178160,
    1014305344, -289492384, 432822784, -528691296, 468604192, 1068648640, 56586528, 472572256, -432657280, 156736320, 576643008, 217357328,
    -194473264, -33394342, -866873280, -770284736, -324394720, 547140416, 948904512, 320578208, -1265122688, 173136032, 305620640, 169593824,
    1228401280, 21950554, 26704576, 579589440, 121268432, 194494608, 198199248, 82070032, 897546048, 191875056, -378340512, -809918464,
    -84266688, 44028156, -25248860, 206667856, -797960896, -573589312, 790254848, 1126707456, -342081024, 228073440, -675162944, 94201936,
    -617351808, -700450240, 47305208, -205394880, 42513576, 152609280, -185947968, -708720384, -345973600, 125768928, -246859376, -178807568,
    -132567568, -322339136, -264084880, 737011712, 652032320, -99348104, 226175424, 76103328, 439241824, -323173280, -293210976, -78391584,
    -403986112, -227666448, 176771792, 71223560, -3915541, -62468728, 447018208, -7572876, 166391712, 343088992, 99944104, 256002576,
    141369072, -451864800, -644350336, 341291264, 390280096, 273070176, 349546400, 111708696, -106950264, 345325952, 645375872, 396926240,
    -340176352, -419921248, -366041056, 422276128, -675897216, -475291552, -204802688, -958732544, -536224896, -644467520, -443674496, -380312704,
    106168128, -50958384, 588064832, 153948192, -728510400, 146865936, 654626432, -90121128, 765958720, -455178624, -853676352, 289745280,
    822683584, 6545148, 238107056, -215650480, -33028868, -62763536, -752931520, 367952032, 173483056, 187938560, -554848896, -410289056,
    -678563200, 748582080, 769797184, 594536320, 355009792, -31098650, -12461317, 588142848, 706675712, 316757952, -596475520, 131810016,
    -90759936, 327436032, 1204376960, -202740080, 190521968, -21905438, -515474112, -903282176, -504397312, 776529344, 151285280, -317626240,
    -416490816, -459851168, -279790144, -304083168, -188358768, -321906528, 787685376, 118765144, 120391120, 66402276, -394318304, 137708800,
    -1365419648, -972828480, -401240512, 343686112, -100181496, -177402080, -79973656, 281433984, 544919424, 521200736, 770020608, -458644928,
    -272815584, 98165360, 510590464, -38882484, -306019616, -31574740, -404207680, -117435272, 687882752, 876801280, 306113056, 698042688,
    203779872, -95810792, -306729152, -185880336, -71977744, -1166456960, -517862432, -461141440, -251138192, -413617472, -353692480, -462048384,
    -479228160, -91875392, -672155520, -360457536, -741556288, -633983744, -406177440, -71431856, -358392960, 48701800, 65775176, 390043328,
    642186880, -112669680, -416254976, 238072320, 617584384, 288940032, 221545648, 61486188, 93417272, 96916904, 517043008, -180996720,
    454458016, -301244928, -754468544, -570043072, -233900736, 560380224, 458934592, 777964480, -39224496, -576167872, 312946016, -50705380,
    186808240, 359628736, 171399776, -303696800, -950576832, -3627976, 342031232, 709156800, 396845184, -562987008, -652635584, 288062944,
    -465234112, 121451248, 1127937792, 798443392, 674248704, 97142056, 581357248, 37076732, 377427744, -195973536, 54415340, -426071488,
    -458736000, 207866832, -45049392, 628373632, 13425232, -26530676, -330319456, 136819728, -93120944, -28059452, 412342080, -149328240,
    -201744336, -140515936, 316437984, -299826240, -458046624, -276492416, -158883936, -615465024, 130850920, -377530368, 231623664, -456435008,
    -39653212, 133078144, 367640896, 205547280, -348902720, -28990226, -525330432, -124688832, 250886896, -581679808, 241652192, 386502240,
    -343732416, -135069936, -414910400, 596395392, 131859088, -355591104, -18006962, -395078400, -350931296, 178721184, -131974856, 49857536,
    68815312, 60100960, -340366208, 265457232, -28631876, -114674304, -50498832, 265069136, 609606720, 489135744, -564580992, 202711968,
    777793792, 564549248, 288885344, -137059696, -543217984, -59923912, -364698912, 119979984, -403789664, -287083936, 10409144, 429193024,
    286307456, -293614208, -566343040, -183290160, 416173760, -433186912, -300321376, -1088960640, -127532936, -778143680, 433402784, -175941600,
    577184064, -913037248, -623682112, -44460276, -142498368, 925251904, -648197888, -313525120, 458489568, -174421280, -333060320, 438615840,
    -282155744, 113759936, 207451632, 211381568, 43064516, 20378680, -113010672, -239729520, -296288320, 182933104, -329308288, -417576640,
    -128679592, -339252352, -457551584, 39156600, -419512416, -252152064, 189179872, 640650624, 902439424, 167715536, 130581944, -246682160,
    50798900, 635075712, 286509056, 232613072, -480033056, 241285040, -120966736, 749265280, 127523184, 286096032, -573311040, -18805478,
    443234592, -108406704, 191305696, -79421464, -326234208, 103787800, -314599200, 128363024, -446790368, 510259584, 445576640, 222947712,
    -556018944, 311952192, -415838944, 625556800, -111600864, -193194272, -362136160, 560624128, -12834992, 36562140, -9386396, 156071824,
    -688949120, 359306848, 515796032, 152615952, 596580480, -259165312, -670872768, -98676560, -412140992, 20133788, 127972024, 106158360,
    13744198, -187423520, -787504768, -292404672, -440568928, -95007984, 538013696, 302171968, 627212096, -331687008, -30122428, 244770864,
    -562918656, 250125232, -223067744, 133200408, -257617216, 382736864, -4319750, -251405648, -311900736, 263323280, -43080292, 91666712,
    -465076608, -356853056, -512641504, -873215104, 832389952, -16633194, 67451704, 533101632, -480313824, -531416576, -224161744, 239794000,
    -374676768, -524838944, 280341824, 535487712, 172774192, -334861824, 36515948, -405467904, -49489988, 255157952, 579187008, 125029888,
    -429051040, -46670028, -487151840, -163376768, -313945792, 567554880, 191391456, -131511584, 2942914, -59849900, -498454560, 315146400,
    26266168, 359592448, 292453696, 398326656, 422897952, 125292096, 698906048, 180898320, 1084806016, 313204512, 14127012, -26173936,
    103236496, 283850848, -444375008, -421779424, -157693360, -118374656, -341235904, -218655200, 357975648, 579784448, -56981952, 19805916,
    277674496, -27342444, 371452640, -139088528, 219573520, -85963048, -393055520, 435259072, 24273312, -138756928, -250282720, -197276160,
    -502777856, 260395120, 218780464, 425259424, -658814848, 469377376, 608133376, 614055808, 203655136, 48440092, 580246400, 113544272,
    945866432, 181876608, 280589152, 52321488, -674602112, 515282912, 338960768, -66812604, 276386912, 223059952, 843377088, 44987236,
    -600455296, 210272928, -138510304, -40282912, -245614800, -718613120, 266993936, 195936736, -28832572, -197166336, 222537328, -31437838,
    -355374912, 316463424, 27976732, -93963208, -524300768, 609973, -129699312, 511511232, -173577008, -353648864, -390884800, -141928816,
    -106112168, 92090488, 97961776, -65018840, -510480832, -487880640, 123181592, -171077600, -44711016, 229609088, 322317248, -296771168,
    -184053952, 306678496, -46754556, -453359200, -274732864, 150680032, 375888576, 514484544, 353308928, -16945370, 246458624, -179681632,
    403356960, 276722592, 493558272, 377544416, -654829632, -36592116, -159636384, -15807839, -637081664, -100165088, 216410544, -569504128,
    347412480, -205368416, 22810058, 13512077, 359728416, 302430624, 168835392, -215396560, 190349792, -378989504, 248498720, -56797044,
    -295380704, 120852096, 144818192, -317098240, 149705904, 553651584, -200464080, -565121216, -103902032, -179316096, -48485644, -308498272,
    -612921984, -678124928, -653614592, -218287216, 579558272, 394025280, -924634176, -253670096, 255282464, 188841776, -56941060, 453007360,
    11390121, 586601216, -83187856, 140455184, 519562176, 173954336, -371056992, -379487968, -496404736, -469162240, -248849056, 129660808,
    -107266512, -319302656, -554680768, 474035520, -248262688, -411145088, -17306814, 60974412, 53319184, -541373248, -292818336, 87829112,
    312013376, -414144896, 291507008, 519546368, -83252280, 495156512, 297459008, -518973536, 567632192, 549781248, 292083744, 661488192,
    -303624352, 681987648, -240714400, -464035648, 34860888, 444336768, 64579684, 363976768, 341951872, 320916640, -301444608, 47742020,
    -167064032, 211510928, 309219008, -102081848, 131516568, -111146400, 95508552, 603983424, 231793344, 375415648, -181871648, 493504736,
    359065344, 208553664, 43058820, -11030803, -156783168, 708624192, 257556768, 307761728, -526357728, -363087904, -625014784, -302595680,
    -432066752, 324626752, -428132896, 353515936, -449549376, 339471424, -359075776, 184977664, 472847136, 24520820, -661822336, -399463936,
    140038784, 134077824, -267336640, 436006880, 189604240, 216189856, -219317040, -348213632, -425429824, 321167360, 356991136, 219879840,
    -644725952, -154226880, -209734384, -463966720, 184739936, 355890304, 398106720, -509742912, 523863136, 301535104, 527073504, -247976688,
    -202938768, 671993216, 526730720, -403919872, -41615376, -638575872, -123694336, -721523200, -503460928, 2739228, 109167088, -732967744,
    37417088, -4387882, -91137728, 213808736, 554291840, 37168412, 97019624, 45948672, -146799968, -212489040, 360905696, 32739328,
    -2566333, -799150976, 171987, -5109585, 181032496, -307085792, -111485528, 312060064, -549582272, -568207552, -143339536, 452269056,
    62646856, -379153376, -164457312, -59930384, 159146000, -969011, -28353812, 455353888, -161611392, 262192320, 42783684, 411488448,
    -26861014, 397101312, -47662896, -94850912, -121160672, 411764000, 474997088, 572881600, -49367268, -466398400, -382333344, -557826560,
    -196384848, 101316288, 46499260, 40016940, -807514624, 334153984, 538097088, -632784704, 859566208, -168137408, 482810752, 130082352,
    -250377648, 701617792, -222328272, 54925732, 403377952, 588811264, 183196160, 545628032, -244034240, -423416736, 371922336, -97185992,
    -24034706, 55231044, 423019616, 635362496, -75387200, -303449440, 7079332, 83630728, -437596672, 14794296, 288610528, 788233728,
    -555920640, 737508096, -221020688, -629334336, 308937568, 505651168, 606370048, 247215536, 78837544, -672724928, 452866784, 292708992,
    711158912, -368045120, 77557296, -511994624, -86063744, -193514736, 175004256, -180654768, -427780256, -611525632, 381959616, 423464000,
    -147832528, 136213360, -308183104, 448809472, 61601492, 419679392, -66304756, 302267200, 126430816, -258877200, 50020440, -205032736,
    462680864, 447065504, 548530432, -173398800, -164026160, 399650592, 606669184, -203198576, -244304784, 400858752, 59121176, 383148544,
    -735108608, -146784992, 64244768, -305282944, -911202432, -295940704, 383685376, 476192864, 342993856, 147932128, -488230912, 193916336,
    377217536, 355000544, 32493132, 418950560, -207426272, -305764864, 100856824, -193924272, 235388224, -163357072, -33658736, 226916704,
    -203817872, -118082472, -159932608, -172218608, -343344320, -760521088, -510817152, -288575264, -511299040, -202047536, -143583552, -25462690,
    -369336992, -225358224, 393617216, 206413728, 211095744, 157601680, -80644736, -518579200, 637853696, 7880247, 734701888, -81125912,
    81581432, 232610768, -653427776, -239863184, 154800352, 587398784, -703282240, -899818752, -404831552, 322053312, -562483392, -1032949632,
    -149434448, -545455424, -90929744, 413320992, -373929216, -40130460, 307654016, -614909312, -876078464, 165640240, 466553280, -300402912,
    -480640992, -501372480, 321841344, -68959232, -484266688, -235178832, 610671040, -242197456, 39240224, 129963152, 311898336, -484344032,
    -86169264, -65319612, -170483728, 444457056, -8794345, 523779424, 290544992, -48272768, -56090900, -246724336, 508128544, 493230304,
    -8622023, -513775712, 114497984, 432117504, -132115424, -623231808, 443011648, -331023872, -559845888, -783303680, -194229408, 188740656,
    -710263168, -533274784, -474040128, -297136352, -122922472, 162706112, -198352416, 471390528, -193427504, -321393760, 34311252, -531701184,
    -144900944, -157045840, -240441104, -417149216, 200058320, -217728496, 701772224, -445892992, -245178736, -78030640, -366364512, 159072544,
    -428643584, 341007360, -42767440, 261896144, -709733952, -62701696, -288309056, -299455488, -869116096, 260242336, -708752448, -289844384,
    172122064, -816107776, -483759744, -236801904, 344839520, -682952128, -389789120, -236771936, 466091616, -416031072, -641331648, -79511224,
    15688195, 678550592, 427788768, 26532746, 106053600, -728652736, 40954264, 197162176, -92058120, 227119472, 565353728, 384109120,
    -258183552, 792408128, 611453824, -308776192, -251766704, -195365824, 567768768, -451781152, -132969936, 296163264, 611197952, 525371136,
    -395058656, 355228512, -203389232, 179690912, -294468928, -446778880, -286134592, -99135640, -133581704, 514603680, -72824288, -454912896,
    346105120, -257128928, 1015750976, 263295008, 233090848, -33163296, 275848832, -194152848, -50434060, 156265952, 210463248, 312331712,
    90363432, -15257413, 264612336, 154341984, 316318976, 256857312, -121703536, 47830368, -243327984, -79844840, -914009088, -325580224,
    1003886912, -259137584, 505007744, 91451600, -354621536, 407863232, 303452352, 294607200, 455871008, -55462760, -589733312, 161012016,
    -438703488, 330043360, 77366352, -120939968, 171725952, -51647952, -92641496, -325318976, -14724549, 279877952, 257286112, 850194112,
    668121920, 217506224, 400669184, 127141440, -346644704, -445358560, 495631488, 436382208, 226698064, -356508800, -429721152, 175507472,
    27053440, 213242080, -337445600, 96168072, 467314688, -15842985, -401624192, 327991072, -1477530, 420726080, -180337232, -133910352,
    -639244928, -443963360, 526960000, 385938496, -72459128, -341098720, 443679968, -229546992, 218263424, -339551776, -189464320, -492669536,
    -536826336, -96197376, 102347192, 86327896, -440048608, 335472608, 477400800, 819520768, 298027904, -562403072, 188064992, 608242368,
    65231220, 337153440, -154433296, -276160192, 695890048, 1069035264, 667822848, -277404192, 144253120, 114883712, 609482688, 549334400,
    -47323256, -24848308, 59365900, -19770466, 516787968, 327781728, -363615072, -335055168, -488249184, 381426432, -89358184, -430046784,
    -11371228, 703097536, -31612716, -32909696, 318310752, -844369, 645373632, 139231584, 38827660, 367744480, 101081336, 558389440,
    194697712, -138256608, -422378624, -251071264, 424525088, 209613072, 134935632, -372680032, 232445424, 426747936, -360107680, -589186688,
    -39583832, 363549056, -80768192, 286539904, -116003952, 182200032, -193390640, 177703152, 806229440, 483888192, 365346752, 167945520,
    1218788864, 313524608, 551272448, 106773696, 995376832, 1154947968, 185523808, 282433536, 13353128, -383628928, -329322112, -46307384,
    623826496, -101515952, 6611042, -103747688, -1979484, -345476960, 933818368, 413247680, -271388512, 8929834, 448699712, 614149248,
    523376704, 379317344, 172912000, -215849040, -327611872, 87066216, -190532688, -471574624, -204443872, -406476416, -297495712, 325885088,
    290705920, -121937352, 103620824, 231876816, -587809792, -515400928, 347756192, 620403392, 139658304, -370377600, 141433952, 406657856,
    371807360, 551014528, -35038732, -576813056, 343647584, -57706252, 579891648, -241787504, -551628864, -424157216, -215736336, -231120992,
    -282830976, -245602880, -237443824, -377722720, -646999744, -826725248, -424890176, 378669504, 779473408, 33112620, 626693568, 310274752,
    135949760, 415934656, 1027477632, 31379056, -118314832, -144991808, -513052448, 567331968, 60741788, -358675584, -423505408, -933314496,
    576346688, 265171632, -138510000, 345333536, -457980128, -8326744, -575221632, -1742824448, -1292613120, -358540384, -977086848, -1011108352,
    -704165760, 386058752, 845433792, 160330704, -444096800, -315719232, 272820192, 196621136, 25355494, -858851136, -214084512, 310736864,
    -493180800, 601468800, 276254080, -212990608, -742604160, -751046720, -200832976, 12205100, -523398560, 404200416, 17539610, -208157696,
    177838096, 134883664, -91175568, 490410656, -147828720, -43717820, -146039584, -355846304, -370002176, -60034476, -438056192, 113089072,
    -19566330, -429140480, -599765696, -57666740, -111074472, -544823040, -446166944, -393960928, -1086124544, -176631680, 147644000, 817660480,
    164673376, 280075776, -260717008, -326256032, 509134816, 161957760, 470866176, -366275136, 162637216, 27846056, -11695818, -422699328,
    46126976, -476376576, -455180512, -99159920, -246702608, 160979968, -82788808, -358260416, 352106912, -159054976, -530643136, 338426272,
    85504984, 284942528, 32407074, 355280352, 436722592, -129415704, 360685216, 329657984, -299014240, 391341664, 465311360, -224216320,
    361213728, 447295712, -248253584, -463902976, -154607840, 228352928, -235217936, -424945536, 278459136, 373398848, 366263808, 85647048,
    70851520, 284021376, 118008184, -314057856, 312737536, -323488096, -363176928, -554158976, 231987472, -380578816, 233945296, -230699184,
    -247205232, -182288864, -14857675, -426596384, 324532512, 221605856, 105473040, 70240448, 379064800, -102270632, 392948352, -283028608,
    452662720, 335004384, 166380224, 487278688, 471106208, -257804176, -288474208, 166447376, -346184896, -211222176, -60142620, 360347552,
    -62470412, 362772768, 516052992, 233050592, 252836960, 341451552, 5956654, 108838000, -149529584, 450825696, -83588672, 510042912,
    -345663744, 278453792, 64976924, 150959024, -210114752, -93545072, -306079776, -174191520, 150108112, 171866112, 23652166, 520997728,
    -317586464, -268160240, 139890672, -196634080, -395203328, -162581392, 46112604, -61454536, 227865296, 429873248, 316041920, -511512800,
    499746528, -475427168, -178015904, -362922112, 480103072, 353094816, 455175296, -514479776, -154341072, 72573936, -423486944, 277203968,
    447635232, 80924104, -288530816, 325963808, -283531648, -128989840, 104574096, 460572064, 36661432, -33750256, -230929648, 402161728,
    70081000, -15664842, -397141536, -106354664, 313368416, 224740992, -371866720, -347472992, -159304048, -103795136, -474979296, 262282816,
    -183093024, 240480560, 397784000, -326871008, -360501408, 237922480, 16451840, -321293280, 393887584, 96704064, -235199760, -352177024,
    309013248, 530220224, 32737938, -349383104, 325173024, -366868064, 459692768, -188577136, -62415164, 4283931, -221207664, 514489024,
    -101918136, 161188112, -246445088, 334536064, -421979200, -170223888, -434226272, -56852428, 470207168, -306435168, 322357760, -393849120,
    88223968, 403315040, 435817600, -392354464, -63728660, 307199712, -552378176, -193059248, 266374640, -316675968, 480108160, 345512096,
    -113238544, 266616608, -4764691, 472590112, 84721200, 264255840, -218469568, 245138736, 264294624, 135480016, 93720480, 146433520,
    270507488, -317316320, -485968928, -208931232, 213685728, -390545024, -331410144, 457154080, -158234400, -108956360, -82214888, -489025664,
    -150800000, 203731040, 213881904, -395526368, -1880871, -165748864, -21062432, 293364480, 216392240, -378058048, -295554400, 212757120,
    -244291280, -464901536, 266076816, 485383936, -273412768, 480774496, 65900628, -167515664, 230353456, -26443552, -98151888, -308937376,
    -248676176, -436012864, 425101504, 106275056, 289048000, -154399936, 297723264, 527150784, 528011168, -161667360, -502506944, 288514208,
    321233472, 29163576, 200978928, -396556576, -66232472, 385703168, -352368064, -261789104, -32962614, -17140076, -481199136, -15551347,
    18143970, -127120024, 150429424, -426995296, -384672448, 400064032, -127521376, 178668384, 204003712, -16263454, 8096730, 182403504,
    327949952, -8959410, -296817728, 443590560, 99195928, -410884608, 381680192, -187474192, -14934236, 107892744, 355666080, -186872208,
    -490736096, -248456, 289427296, -14138695, 236012000, -151743952, 245329008, -292914048, 417045184, -506468896, 177968608, -94075344,
    370205504, 190234160, -381534944, 308632672, 38843564, -310065344, -190659264, -196687088, -347214144, -134772000, -320345152, 13677390,
    -456998848, -496563840, 351638272, -215924656, -413944448, -179789120, 40548444, 354448800, 41403616, 143982736, 160390016, 371618464,
    326589408, -294858688, -310895264, -373762176, 309707264, 326672000, 386634816, 135075600, 91015736, -85378016, 281438304, -422683552,
    -346490144, -213625072, -37609976, -18185350, -229310096, 38003320, 305300640, 131666032, 12825612, -485360608, -585746496, 245189472,
    506716960, 87853032, 174910208, -303181920, 390966336, -3993208, -32879934, -439990112, -448969216, -462739744, 356243968, -75907920,
    82593496, 64010696, -336132832, 309580672, 380928768, -295820224, 44593512, 179935328, -427075552, -483448480, 541024768, -65250672,
    -97067936, -399146336, 94202944, 509070208, 538669504, 227023296, -448336384, 6106150, -377884416, -5517404, 276176256, -61934692,
    202390816, 291285984, 224515840, -147616480, -483205152, 436890368, 102379448, -233382128, 420295072, 459320032, -317183264, -554639488,
    403874912, -180410192, 47627764, -145704352, 420695712, 424886432, -346889152, 60065020, 172630976, -241372240, -72612584, -301801344,
    728814912, 220158736, 176048592, -46989060, -247403936, 31762246, -532256288, 35756516, -427243808, -61369184, -249641168, 385486720,
    127618272, -101080488, 636207488, -842036224, -883020672, -541568704, 363416960, 702488448, 150859520, 669217472, 636030976, 125505688,
    -233918592, 593774976, 49344052, 465798912, 535637312, -62836264, -553406208, -208991648, -209473904, 355391776, 1070250240, -225879696,
    -504690976, 14265280, 121373432, 336005408, -1202372608, -760740160, -165830240, 187142320, 161227984, -65452376, 11334562, -627726784,
    -302023520, -526475904, -270596672, 398653184, -336141472, -16171087, 243256576, -101032920, 178644224, 334253728, -264885088, -28598918,
    -232913072, -291322112, -28605718, -357710528, 374657888, -74593032, 30994694, 355047104, 340570720, -283681024, 20419062, 100163248,
    -434196992, -218271920, -414089024, 668224768, -321792576, 184883920, -340237984, -324983072, 136095744, -530831104, 134777504, 503459104,
    162535216, -562116800, 71241104, -203822752, 22862954, 14397111, 795377344, 139663600, -342426272, -244214432, -492700064, 704799552,
    -125762152, 80759752, 55555428, -112043520, -20391150, -350079520, -233613040, -153461680, -386328448, -505099584, -286821600, -593935808,
    -397642336, 720304512, -129560992, 958494400, 1066875456, -148433616, 428659808, 46633304, 570196864, 244238688, -108257368, -368309696,
    -465003904, 17708056, -224952640, -570162304, -598730880, 386033472, 382848192, -705378432, -172127552, -150968944, 21837330, -192579056,
    1555855744, 1623139712, -141264016, -986475776, 133863032, -519321856, 21104966, -503374976, -388114464, -358868128, -1070796928, -1136764928,
    -504579328, -229419440, 77292376, -465659840, -1052050432, -389193120, 279116416, -93220840, 952380096, -279344544, -380803744, 301751840,
    218704880, 658988032, 368686400, 709789824, 281458432, -777467712, 8012787, 534128896, -67689520, -200529504, 237733904, 492930304,
    -455794528, -210541968, 618932352, 524028672, -535470912, 320386752, 313992192, -210398592, -458364640, 466496800, 526310848, 428184352,
    153386944, -519777152, 259393968, 295520352, 213912112, -571221824, -625743808, -164908976, 368992128, -948996224, 185070848, -916191680,
    -640355584, 321818560, -562121216, 607178624, 107164992, 106096104, -115838608, -304655200, 166516032, -185737776, -131615760, 466194592,
    243057136, -120512744, -78883992, -175024704, 366380448, 154611424, -942233728, -550502400, -673398784, -235727056, -230218928, 209253648,
    166375520, 174588464, 353718144, 225266128, 937654272, 217926992, -135333584, -281766400, -369479072, -207514144, -53915204, -773462912,
    -874341568, -307697024, -612345088, -807562688, -662808896, -347932256, 434638432, -617347392, -631465216, 529539040, 850263616, 1279230208,
    688882048, 1228815488, 632921344, 661521408, -87972680, -10499486, 213822944, -521840576, -188465600, -620532736, 470931200, 308802944,
    59008268, 365286368, 153729600, 86812088, -547857024, -81457088, -198968896, -267302832, 82995400, 121225816, 723378624, 371287328,
    -119381104, 306077664, 621640448, 140953600, -358066048, -208682176, 128552280, -138368768, -727838784, 271821696, -384570560, -408726688,
    -49689948, 710110336, 86931112, -363913984, -244170464, 387818592, 758076864, -450898432, -510012960, 192628736, 765036160, -115580632,
    503038624, -210544832, -160825520, -344244960, -565456256, 131777136, 271867008, -258631664, 215787712, 17068362, -393231360, 141395808,
    268558912, 297249376, 113998984, -174221008, 28041292, 662274880, -256907440, -373564160, 470842272, 493926912, 31699366, 379950112,
    677735680, 732813120, 762669952, 342411616, -247467360, 531058752, -558562880, -308042272, -145250896, 613590016, 360942848, -457614112,
    -649763072, -74472448, 1129300224, 754358144, 97385008, -533692288, 301346976, 152347120, -499995456, -246853184, -351254240, 77622768,
    -24636250, -323046688, -342457792, 38425160, 144339808, -572223680, -19600396, 349089248, 837574080, 410366912, 743864960, 44613144,
    -188105920, 373821664, -176246544, 105321328, -526352128, -341896832, 200604032, -144821696, 165305008, -551876800, 482509376, -40354936,
    723824192, 306012224, 25776222, -90264408, -263737040, -136492224, 178883888, 346548000, -539860928, -247487616, -649038016, -7389523,
    -606556544, 108865408, 438613696, -460513088, 83612552, -8768028, -247034496, -22303744, 182437008, 66802372, -606950720, -405969312,
    -503488704, 771985472, 925961728, 566735552, 242649152, -36285108, 898917056, 516066080, 160656768, -432188928, 202759376, -823734656,
    -165698128, -812821824, -543249664, -89520368, 360208256, 474078208, 591014208, -593824192, -136152848, 225812656, 205570448, 107164272,
    -458464320, -184129216, 64902680, -628615936, -16168525, -780693760, -641524672, -241484304, 191621472, 18514002, -261093616, 224153072,
    -289151296, -142562016, 509414080, -176820704, 491544480, -332796448, 494270720, 219474400, 353219840, -665291328, 118096648, -184522160,
    -99343240, 1007801536, -181770160, 159497728, -559139584, -594623232, 590974592, 484907776, -4778038, -290045888, -1003684416, -525626464,
    -163356352, 176938608, -389547104, -425338464, -523305632, -480947872, 347425024, 335971936, 320546560, -109132320, 168002576, 336283200,
    326756800, -201481936, 357220352, -31653626, 515882560, -257385120, 136825584, -24544742, 349134656, -502313248, 400965184, 119066024,
    195325632, 122935968, -288581824, 89936704, -486133760, 551116480, -222818352, -245148112, 365743936, 73844664, -4243289, -528159648,
    -157400160, -237421584, 277591232, -391539552, 410787456, 341764192, -181396224, 481440352, -108972776, 359844096, -21740334, 156590640,
    -246399472, 400382720, -170592816, 384621728, -209709760, -401157088, 251139952, -15008203, 543596992, -138657088, 865672064, 190814176,
    186290464, -282731296, -111141360, -280908928, -899150848, -646621056, 452125568, 32058274, -145752192, -7492198, -99447944, -544581120,
    -108124072, 134567184, -855877824, -408907648, 469283520, 514256032, -129482784, -265919856, -98222952, 108083704, -49040344, 482983712,
    -358733184, 328045792, -194374896, 121449336, 389405312, 111660608, 576190400, 913294592, 632626560, 887561344, 1029172032, 755289792,
    346076480, -478432608, 491110880, 67794320, -100164992, -94078680, 807391872, -279385088, -695836544, 51957676, -95910760, -312233568,
    -168461920, -549412352, -194811552, -577777984, -99180504, -148446352, 153246304, -70926968, -485349056, -967428928, -591638720, 50282228,
    405971808, -255613296, -239483232, -617405696, -484543328, 512980, -250836352, -15084380, -408072672, 57734628, -145839088, 464914176,
    493980256, 237672768, 114959528, -430219552, 269251552, -24196922, -61284672, 706247744, 609415616, -49375312, -45082008, 366900128,
    90464248, 314751328, 99320616, 594546560, -45811176, -58715232, -533715200, -6709656, -180517344, 378902560, 177112192, -184274240,
    -400204704, -303623680, 221922144, -548100672, 464204704, -325357536, 404941696, 515142656, 114788288, 537628928, -98774832, 752678848,
    -72767872, 350466752, 447459616, -113142264, 446735104, 59117480, -53852564, 203811072, -193099040, 242683840, 124945064, -196941232,
    352164224, 61240724, -348214848, 404551072, -38282832, -651566848, -280427744, 333971840, -247422768, -217558560, -427824384, 221138992,
    637844736, 34979832, -425210656, 136843616, 531634784, -1012469568, -652474816, 410495360, 666986112, 175764672, -198264512, 540956160,
    217371280, -121696824, 469930976, 168736256, 351541280, -643349568, -411480096, 469180288, -309528928, 122270688, -120351992, -223129952,
    401403360, 161517040, 321066464, -432656448, -103523640, -460179968, -173027024, -396000576, -139819280, 110951896, -18531746, 248703984,
    -459218176, 98269448, -371728512, 438561120, -57876992, 310976928, 349278432, 253598208, 539553728, -307128320, 438613376, 170940928,
    476388544, 478489056, -593248, 170344992, 256440880, -586406592, 148840128, 424981312, 349757600, 293110368, 233788432, -333372000,
    440017280, 452040320, 66744988, 460845600, -170011488, -127315656, 263958496, 350879328, -156759552, -407140096, -705957952, -795846080,
    -503852160, -228820160, -22079580, -972299136, -103619136, -343724864, 536397152, -875002880, 50759784, 483115200, -53368912, 52583584,
    -3679966, -325104064, -568437312, -540156800, -707569792, -201799856, 659762880, 326105952, -130638144, -447404320, -218918704, 21930296,
    236631840, 145289424, 65723828, 308916032, -790609536, -1598378496, -700462144, -83210360, -524441792, -909194688, -637485376, 47834340,
    -479091072, -123476520, -420221088, -475479328, 446791648, -21030918, 340843712, -588620608, -109033448, -194314752, 298425536, 9661845,
    -12856409, 47426408, -486318176, -414560000, -350758528, 20604160, 48330384, 681089536, 565668864, -335073408, -202229136, 377118368,
    -305736960, 165692208, 123864368, 60226060, 333117152, -422594080, 69556472, 450245184, -384916416, 657700224, 445773312, -465091168,
    36278032, -476532736, 343607360, -592997632, -415432160, -8981753, -565380416, -823653824, -598568512, 39645548, -590180736, -274240224,
    259115680, 1588477, 366706400, 216640960, 143563024, 212996416, 50743256, 189679152, 237719584, 1611764, 533338752, -32765810,
    -346259840, -173657216, -487032544, 555474240, -143038624, -112223008, -283256352, -66850428, -51894284, 239963712, -626874432, 162247248,
    217140192, 425560896, -11939735, 300586944, 759322240, -189535904, -137394176, -336527264, 466319168, 197175296, 730836928, 683984896,
    -198008016, -288565120, -447222208, -44357044, 365842336, -580965696, 257706352, -279188640, 8075548, -194601840, 268106288, -136478800,
    129335128, 355283520, 229205584, 630992640, 304405088, 294342176, -66979536, -341162304, 728908864, 203151424, 411521056, -378053056,
    -108747744, -20993032, -361872512, -257642272, 53828952, -217078896, -434805856, 354923872, 383282144, 356857376, 349517792, -423319168,
    127984736, 7552682, -412462528, 361365952, -257090448, -402347520, 274485248, -23540016, 371336928, -295512224, 226400848, 428661920,
    -271953184, 348063360, 8809649, -472189344, -403521984, -87556776, -568368000, 22988592, 27635288, 248609536, 55099592, -400447456,
    -23334418, 23692198, -407063712, 105884696, 136203024, -359338528, 35792528, -349239776, 145504048, -509855392, -81153336, -207819760,
    -264251456, 64102596, -294887008, -474418336, -103221456, -43550204, 612249408, 160456672, -329555936, 333701952, 300873696, 442703840,
    451535040, -365528448, -171197456, 395536864, -269335008, 553469312, -299750880, -237033376, 65111652, -26943052, -245158736, -361805120,
    -154260080, -340868480, 288864416, 458136192, -171699200, -517746368, -738204224, -372916928, -176056624, 842316416, 286216640, -465540384,
    -380673792, 180464128, 404498784, 189083056, -265979040, -252447232, -246457584, -178553168, 132305312, 380357696, -574483520, 700761920,
    701071168, 108533904, 427605024, 130282992, 228354432, 208381888, 427402720, 292461472, -55401772, 100921048, -433897600, -237378048,
    -457711072, 601029184, -394362144, -659191168, 8524702, 33318768, 566528256, 347743424, -223058400, -146768112, 248551488, 81494352,
    -530874464, 144244960, 356159136, -187858576, -645861376, -396320128, -173314720, 339166912, -357738784, -127561600, 49183120, 14967462,
    378649024, 262452912, -686459136, 283068576, 707367808, -144999904, 7966212, 159140736, 160964224, 370177280, -226296336, 3773452,
    -35880104, -112320672, 408006208, 84214816, 310490144, 95802152, -545308608, -98250768, 286023104, -654900288, 141650416, -579406080,
    -61780716, -63280892, -707933248, -207132640, -485714688, 320960544, -315223424, -167964832, 794920000, 375454496, 271541696, 12387429,
    184490160, -294612320, -284142848, 154138624, 479627840, -159876864, -10398264, 483225184, -221789248, 184847744, -532391552, 10390209,
    -133861488, -874451456, -812533184, -54952988, -581525888, -378520000, -515887296, 147061360, 922861376, 887900352, -314722368, 466153280,
    113526168, 495124064, -57912016, -449045696, -377807808, -610700288, -473849120, -323022752, 378687584, -429196704, -687624768, 184872912,
    471924384, -398395104, -48673812, 39977608, 334811936, -23631012, 461596288, -315300000, 211537456, 377990752, 170681984, -383359776,
    -168666080, 513591584, 318926560, 259956720, -499056928, 272255968, 285981568, -557575616, -558867648, -172190544, 40973740, -515365344,
    482767456, 193329920, 671611072, 67513216, -293796544, 503745088, 681250432, 158547504, 50424968, 694123776, -452530976, -622156736,
    232426784, 80516584, 439693344, 291698944, -507329056, -461672224, 362573888, 205066800, -498183136, 457086400, 89700192, -136774064,
    359787488, 269374816, 310042624, -44268024, -353127968, -445722560, 563019136, 549381824, 270294848, -630514880, 381920800, 168004432,
    262409472, -104636392, -294040256, 887540672, -27455958, -414464416, -406033120, -178532048, -56656428, 13809871, -312392032, 575435520,
    -343078272, 128081104, 111394024, 47630740, -377075104, 13144068, 54302372, 880777344, 1130148096, 1259565952, 713322304, 473148864,
    172485824, -414162688, -161754512, -143762800, 685989952, -590078784, -138797152, -621603072, -555668736, -308979712, -598005824, -19580272,
    450706624, -615479232, -409443264, 60963700, 256507008, -465172768, -286014304, -156008864, 263999072, 401431008, -431484032, -300955104,
    -207007664, -446714624, -628702272, -233264704, -147285936, -355106208, -400362624, -562416576, -95513312, 214989024, -418090464, -821004288,
    -233934112, -431600544, 280271840, 66932348, 124499752, 185846784, 557081408, 99709616, 335529760, 1336913920, 498666144, 162512832,
    -119620528, 247472944, 112015552, -578532544, -493330880, -244898016, 29077338, -623545856, -154886160, -441490240, -127879008, -472435968,
    -502596224, 165704208, 381371712, -388149568, 48225336, -27643774, 7385866, 59455996, -574293120, 282057312, -149264272, -65939644,
    -67742488, 389821056, -126249000, -172225200, -246490544, -184653760, 332901088, 72147216, -205224640, 298205344, -233775312, 408668288,
    -390657888, -478330016, -182427376, -339033056, -249141392, 601340160, -722275328, 272480416, 181242160, 319405056, -174365808, -286578720,
    845614656, 291911904, -68532192, 123115672, -38807192, 587028352, 320021440, 254122960, -695568768, 405481952, -190071472, -21204980,
    122156800, -327296064, -233233936, -224779376, 534120128, 517520512, 505488064, -289857440, -193984912, 81356920, -84549312, 213265792,
    -44275908, 8063492, 382469312, 236981488, -101205112, 140357184, -553585472, 595972224, -7575658, -287069344, 251390912, -535675488,
    236669712, -355827872, -110235224, 675700736, 96107528, 265478768, 299259232, 201707568, 484416032, -318078400, 6358136, 27062770,
    97766400, -133816712, 126218064, -370541184, 273477184, 46684136, 378998176, -633444928, -464535168, 139233264, -270748160, -235155072,
    361208960, 200978576, 366061888, 335453984, -285265312, -86797528, -271316256, 28015968, 72111064, 164009088, 435639136, 147582256,
    126503384, 55015308, 253189, 237967456, -604511744, 323579328, 314759776, -370194656, 306333184, -589759488, 7075388, 417245856,
    113641000, -461436832, 257598816, 423824416, -117636848, -427294784, 462735968, -215748544, 261928032, -198327296, 104430400, 286318720,
    -406722400, -139152480, -113915184, -318073152, -83342560, 227981792, -121849432, 368476992, -246230768, -397469888, 781207680, -563923136,
    -517885056, 19524616, 408763616, 768223040, -312359392, 394707264, 378771264, -98042256, -223363200, 191055104, 512355488, -284440352,
    37475120, 304419328, 72374856, 102672840, 37701612, 35250444, -299765728, -658489600, 282030976, -200147488, -461301312, 171574176,
    -479974272, 74994656, 255256016, -258199376, 718147328, 263319824, 249761104, 186893200, 745698688, -419889184, 592155008, -580619584,
    478477376, -66483472, 313129440, -314136320, -227853488, 693230912, -558376256, 250308320, 640378432, 13359612, 403867296, -485107840,
    208721248, 61053116, -550570880, -145338048, 480515296, -344028288, 201781088, 542408768, -101217656, 661558848, 50266300, 238285280,
    250448928, -87594512, 360581088, 54865568, 74525640, 106433072, 125238216, 333361216, -343409152, 219308832, -482168928, 151057904,
    -126775760, -283099808, 859554624, -540689792, -475629120, -321486208, 450330240, 172184128, 432619296, -232645616, -51784940, 297032960,
    228666960, 575326080, -120837360, -348940480, 146306048, -18195646, -402598880, -342747872, 611337280, -607091840, -559308416, -386494880,
    115944896, 274672832, -911935808, 77454800, -687158976, -26197076, -14313558, -421649824, 173925584, 160481584, 199900800, -110325000,
    227753872, -265453904, 497405728, -500655360, -334435840, 389231360, -83295512, 269702656, -171855648, 38142860, -102666864, -431663136,
    -45922984, -184318864, -272668800, 2837581, -432729056, 166074816, -166384000, -340846560, -442842720, 136682752, -189286736, -297106144,
    -58189948, 278869440, -284160640, -181168560, 143589040, -218886848, -429300960, -112609272, -101554920, 87051784, -36553012, 289595264,
    -512639744, -471151968, 196286944, 372545344, -285798304, 337360512, -253589840, -349795040, -210317328, 377679168, 608583744, 197704080,
    -166210544, -815584384, -494161952, -58479716, -37224444, 54687000, 338964960, -35753524, -458643296, -398560448, -235613616, 577465920,
    321987360, 413657312, -181440768, -211934704, 366570240, 74287448, -304643744, 288649920, -377837152, 441784448, 342011520, 477636704,
    518359072, -377191872, -581009216, -668143616, -318269632, 362723872, 15997173, -180256048, -563389440, 172465808, -385028928, 15766783,
    342662432, -269427616, 89724640, -509810176, 92236792, 612432320, 83626712, 464669952, -82381576, -237085264, 6014394, 667573568,
    681400704, -394573984, 93484952, -85364440, 503902528, 269436096, -219512976, -172252432, 226562608, -7856266, -22499062, 225055344,
    65593788, -675779392, -614666688, -198187456, -317769952, 1077295, 422058592, 103309936, -454455904, -358003808, -445729888, 303045632,
    -199988800, -333930368, 258909936, -498214496, -480356992, 88171304, -47424544, -296794304, -259957600, -459496448, 117765592, -199290480,
    -572193024, -548264896, -57091360, -143763792, -98416680, 240770464, -355438112, 211652208, -345884384, -301346624, 112460160, 153374304,
    -115019304, 66929508, 233763376, 186166400, 360139264, 485911936, 15214972, -61001096, 140407056, -51680676, 155632848, -426129536,
    297427392, 131084104, -296726016, 70148728, -356523104, -89619672, 26198552, -465593280, 374897408, 301566208, 514587616, 556636288,
    610387328, 250167712, 704328000, 352357440, -20703778, -76292920, 66311452, 2969440, -359948032, -86159312, -367877472, 174577472,
    -454556992, -534514816, -80094192, 315671200, -365145280, 13683744, -85314152, 199690560, -171438240, 424724896, 533562848, -41793728,
    -220684256, 680773056, 555092480, -353621792, -38834904, 327184192, -449238912, -525828672, -258311136, 143462640, 11316905, -233264928,
    233285984, 259648064, -427889184, -241458528, 389087520, -220877936, 37290144, -79788248, 61329900, 324336608, -192920976, -311960288,
    465291488, -95287352, -231017904, 487415584, 281130464, -431520864, 477113120, -373437216, 100894888, 486650080, 250041552, 293315680,
    -276756032, 327032736, 423940704, -353922176, -142934608, -7194801, -135352784, -358601792, -163539456, -283955968, -25832914, -245170800,
    182479152, -116263208, 419841536, 204700272, -501073248, 253631632, -211280704, 100743728, 208112192, 13799095, -206671344, -357383680,
    -174538800, 310814144, 346268192, 408342336, -112301800, 452407680, -241635376, -442266688, -321537536, -196382528, -212741680, 359990368,
    415867328, 418844800, 54512948, -108562120, 306688224, -428969056, 319547392, -528463264, 248183856, 305583968, -18501020, -83870944,
    -359637248, 402971264, -446367136, -175089552, 203113056, -343885632, 217898384, -262528944, 146075760, -46247272, -328412416, 24717880,
    469210400, -145227200, -70731016, -153587584, -401470560, 187519216, -378121088, 355541664, -396417632, -48146128, 352819104, -370965856,
    -500776448, 21098742, 506140256, -68330544, 175882368, -88304792, 74438184, -523995104, 267075712, -137239776, -403756064, 332738272,
    -45115, -186627456, 143725504, 177372864, -8926471, -388408416, 457563648, -273277984, -377356000, -113994856, -274630944, 115386888,
    308515840, -21669710, -330294816, -232238752, -644511808, 18600822, -170117584, 194014320, 344910752, 123163304, 198703152, 205402320,
    -287839584, -436275680, -220023264, 14436462, -61367816, -272902848, 441092768, -469632672, 344582848, -539292992, -213266112, 86642648,
    164529504, 292348448, 195396848, -348305056, 209370768, -290956608, 66772900, 346186528, -332644800, 309237376, 505735424, -54391168,
    14737681, -10145838, 542200064, -99281368, 201671904, -108764032, -477129888, 322739872, 201701888, -204853936, -332556800, -334719136,
    230893184, -213403424, 439631072, -186693376, -71514904, -323988544, -204514320, 524469216, -157786928, 267543408, -339660736, 215818336,
    -63226364, 241213504, -397859616, -340286144, -443200736, -496451904, 431940576, -24762600, 109318784, -380064320, 162872784, 427720800,
    377249920, 315757536, -87338936, -396368736, -109047400, 531179712, 348948320, 285196064, -232459808, -265169504, 392323328, 263378384,
    -385110400, 129077832, -267090640, 130128536, 83875560, 376401088, 280872640, 498647072, 417437856, -21742590, -372338080, 381400256,
    306370656, -96946792, 320752960, 356117792, -359563936, -22001874, -153330816, 115849048, -450608192, -230567520, -226019120, 458233664,
    -123122464, -328643168, -191755056, -39684380, 330310816, -248184752, -264338880, 510605056, 493125568, 541951104, 155620976, -109983576,
    513534176, -519667616, -66586172, -111344384, -976014, -299296800, 132811376, 158603232, 36191832, 284719040, 353320096, 584654912,
    167737952, 329144032, 421470560, -231834896, -247128656, 580015424, 87874144, 187348384, -23655456, -146930640, 677184000, 335307072,
    -449764896, 440413088, -34751948, 344830624, -278566208, 96748592, -208440176, 174532576, -507506272, -108561784, 173259648, -366592928,
    -248517776, 133126344, -553711744, -479436896, -94275288, -369838016, 597826624, 372631104, -182210880, 313335552, 639979712, -15708533,
    314641728, 448593376, 343171776, 266515520, -271404000, -126732824, 507545696, 462255200, -378638304, -481146432, -380487488, 341435296,
    224383632, -256248928, 436574112, -289386176, -360179104, 75087216, -475187552, -339494816, -10438982, 110931200, -304074816, -170430896,
    -22184764, 4442835, -313765856, 280226688, 319339520, -13241002, 395131104, 446596064, -599638336, -579425664, -44772720, -411692864,
    548268160, -221649104, -46051144, 298794048, -358910208, -160405552, 326946016, 559272384, 91625792, -241911088, 367909952, 254388224,
    -216131504, -402478144, 434859584, 13101659, 413897856, -130220608, 76286976, -371337728, -233127264, -517517536, -462860928, 9266182,
    -514636160, 122194736, 381290720, 12673631, 152835872, 23783962, -153023312, 202146144, -94937600, 496575168, 119651224, -92931176,
    -426067264, 6041132, -118871000, -397096672, -30093214, 209637632, -228753888, 408185984, 359259744, -264995488, 483767200, -237956608,
    -375813280, -518154400, 492084576, -10782552, -221864320, 568495040, 159302304, -339856800, -83587144, -142863776, 586852864, 536280320,
    510898336, 69701552, -390777984, 171549696, -168660288, 195122048, 298109344, -281230432, 6966662, -225500000, -31693486, 211548784,
    244415216, -100512600, -122852064, -398974880, 35287928, -297239136, 85725824, 287550496, 186767664, 232280608, 511353568, -177645408,
    -44034788, 298641760, 190414192, 412549600, 316582560, 219708928, 69008216, -786318, -27764182, 24947250, -444809376, 177417584,
    -177205168, 4529943, -326590432, 256576352, -419219584, 276491360, -352796832, -385829088, -171881008, 138327040, -52391092, -135309472,
    -473165888, -74524656, -346008416, 75397224, -466968608, 372129952, 440320000, -266293424, 248244480, 230973872, 404530304, -291723872,
    -417409216, -247264512, -63623724, 47314972, 23442626, -257178736, -95800080, -422458208, 372274048, -341613920, -1503043, -563408512,
    185187728, -315286624, -4846269, 282095, 119516776, 247128064, -432825600, -349573952, -459626400, 134668944, -54943452, 285654080,
    27307686, 243262304, -48901980, 338721216, 282504736, -82453224, 350787168, 113602032, -176752288, -207374304, 294960128, -494588672,
    165449984, 135718736, 110789696, 60454808, 112285288, 266481168, -244041824, -481395200, -163505024, 337384096, 531064704, -236507152,
    108204368, -454088960, 333988224, 124508992, -182145248, -260651424, 389723008, 150346112, 33800, 307957344, 99565200, -169513168,
    -501752224, 295205792, -413445088, 154468736, 406852352, -435224416, 321251072, -185601600, 342477024, 154379536, 75496192, -335818656,
    292299520, -386425952, -301810048, -8211353, 243708320, 477619648, 53592252, 69563648, 227427808, -132979368, -471111136, 359064096,
    360119296, -4886676, -341092896, 291647680, -10582761, 118368648, -364426400, -346823104, -104843560, -242824464, -307056608, 185606176,
    237805680, -428455680, 173248608, -222964736, 16096624, 471490432, -519579360, -328616640, -350146240, 295768256, 344239520, -177654800,
    -100146368, -105989248, 203977936, -398602880, -417956352, -59764624, 110302368, 483295936, 30511812, -499761088, -111240448, 330233056,
    148606880, 60270184, 63899856, -283069376, 115910784, 289603392, 109117424, -566144192, -342963808, 55387436, 56570172, -226027088,
    -518668704, -275289088, -6730618, 350370176, 170216736, -26662500, -86987728, 423851552, -178987040, -531136672, 462955200, -347265792,
    328082976, 24908856, -123454288, 509147616, 325412032, -110637736, -71073128, -116910520, 175197696, -465305280, 396870560, -241812528,
    291969312, -244649472, 468930560, -436701984, -361816288, 125347000, 270600320, 408732448, -410610656, 311421696, -249675840, -491712736,
    399190816, -109738400, 158157296, -27805362, -441356256, 170234880, 509833984, -9560734, 394567424, -136424896, -237734464, -37870680,
    -144334880, 446484192, -496765504, 137551728, 430667264, 510620832, -450570048, -355932000, -407217248, 195316896, 236554656, -486421568,
    451760480, -304298528, -476188640, 510379520, -114793552, 73163184, 161198672, 320968320, -115148872, 333185920, -556973824, -545134656,
    41828796, -482079424, -160568544, -377897728, -171176384, -296583808, -532324608, -113172384, -477423424, -475563968, -196181152, -496567264,
    35612680, 346381760, 81667544, -320232800, 84649840, -46365000, 195089952, 65861992, 61193056, 145477952, -381964192, -513331136,
    -471069952, 226539680, 341436352, -173039168, -361864640, -328505280, -355499296, 176998464, 134643984, -51079804, -305501472, 556416704,
    184848848, -433441152, 85273016, 225367680, -447281952, 299475168, -279198176, -1549768, -14329581, -353263744, 322649600, -315506528,
    247582336, 535348192, -399735392, 252359024, -406757152, 193085808, -216727168, 383370368, 484326688, -212647824, 387131488, -375748736,
    -255328560, 89421992, 505370016, -234923440, -294988416, -121287448, -493301440, -471717728, -203582400, -56769284, -145665616, 433822144,
    -193040960, -291795008, 66098552, 82297456, 462490464, -449695456, -55612108, -530544992, -264730912, -326417344, -348268096, -288672704,
    26012732, -244791200, -438440256, 519840608, 173476192, 479577632, 241029616, 411460992, -390612736, -404687712, -212933728, 129014176,
    280105600, 67561352, -241852272, 7236748, -80677088, -423161312, 84430296, 236218496, -256743776, 30095726, 178264048, 54454964,
    -513695584, -207021936, -112836928, 449119712, -18373252, 153388960, -342270336, 16479028, 260387296, -212099904, -28958232, 164360752,
    -539222336, -552062080, 718712896, 918232704, 63476304, 312277376, -919620800, -421092064, 189848096, 241198752, 73758552, 181968720,
    312858112, 42301452, -404250880, -59207604, -247506336, 102675888, -257990016, -571232640, 199926432, 780955264, 228903792, -206931424,
    240221856, -11127912, 200632512, 384302208, 118230848, -532516256, -283768640, -102356384, 228722208, -427446496, 46723664, -102445344,
    249113104, -427153984, -56445120, -404984768, 358772544, -179678208, 423467104, -651095104, -159554656, 118358944, -61777920, -80945784,
    278833696, 14489514, -556908608, 557122112, 461561792, 348984128, -538889088, -415381024, 377649568, -45291864, -228831328, -74952984,
    376268288, -449471968, -48495316, -37535596, -157599616, 276208288, -265500768, 531485536, 119669536, -650168064, -552093056, 592036096,
    -84658104, -293897120, 38365060, 131897656, -26340178, 335458656, -22866082, 8528959, -469855648, 377029888, 240371312, -494069024,
    -892036864, -360021280, 9470216, 522477312, 105704400, 292078656, 356592832, 454742528, 144520048, 286098784, 354460576, 92587776,
    -55998772, 11870361, -9614548, -316684128, -132497752, 482084896, -38247772, -7330992, -725931392, 8226876, -507337216, -267519824,
    -430880256, -86669232, 391072992, -1139966, -185714528, -714985216, 10229025, 664744064, 561526272, 188634384, -118182840, -752466816,
    -135016672, -243949616, -604399552, -105669896, -247971904, -182015376, 227424112, 81285488, 341420768, 699596224, -226097360, -455750944,
    -107890144, 538744832, 706352512, 174313872, -408976352, -352294208, -111723976, -439630560, 30647276, 47002084, 543995840, 420783648,
    324454208, -208307536, 275806336, 225480208, -470437600, 303849216, 244220160, 559430848, -878810496, -1003651840, -133530920, 386352640,
    -139305344, -446381952, -392013280, -671646272, 97283720, 378540128, -375937152, 472240640, 196094608, 216571680, -568299136, -568738240,
    -178174368, 286074816, -66694584, 444497920, 464172544, -383123552, 759468480, 535294784, -593792896, -234943824, -409805440, 150019568,
    -461215904, 649592704, 386118880, -313334880, -160688640, -237276240, -332280896, -120585160, -460614208, -98197064, 208022832, -158857264,
    38730392, -27924168, -289614528, 243899744, 408004800, 34519364, 43624176, -134700240, 375535296, 7044010, 343519072, 945135296,
    -739079104, -765055424, 400296608, 474015072, 247850896, -516025184, -894805376, -807751872, -1081837056, -127896112, -423550592, 135677488,
    21374110, 724285632, 430994560, 205193952, -131096720, 976832256, 3889890, -215676464, 461983168, 5030728, -394877664, -439209280,
    318108224, -263348448, -436911360, -121223912, -3558148, 322966048, 570338304, -415107424, -49139312, 638932800, 657953152, -160626368,
    446937472, 576632128, 57005736, -222037392, -256322160, 476297344, -512490816, -169991024, -241151776, 450122720, -573745600, -145560832,
    62213592, -275436416, 385777184, 148152016, 412999488, -228420768, 461356640, -194962160, 208625616, 99081168, 87602856, -162426240,
    -763335104, 33369036, -163868976, 134299600, -827723328, 430707776, 337570080, 6511890, 102697240, 682672256, -67823136, 531083296,
    -537136576, 217295408, 52651964, 609151104, 751218560, -407310208, -88596400, -9319009, 206666048, 336377440, 215904432, 204553312,
    -123830736, -431851776, -267522384, -97678568, -359843424, -411896544, -78850928, -7239511, 263718656, 488839616, 324460928, 902597248,
    456150528, -567795136, -26389790, 454647648, 1158051328, 283660576, -144136000, -628786368, -10093261, 281346976, 153912192, -709874880,
    286047392, -350843648, -695653632, -495275008, 436572576, -30178850, -22080484, -993708160, -541121920, -421516640, 563810112, 197709040,
    84684488, 798014720, 278173440, -311497600, 542906880, -226492032, -567137024, 380299520, 317708512, -325230048, -116017592, 99285160,
    211640864, -146093920, 533786240, -175285648, 11676469, 295594944, -494338272, 95884936, 245666528, 537769472, -469577696, -730338752,
    -7612900, -476010464, 577170752, -48450908, 218810672, 917491712, 122926552, -68486624, -233070016, 165346016, -65584592, -151031888,
    -648241984, 481344640, 540142016, 334734528, -375970400, -561436288, -77808840, -300928096, 207199232, -409406368, 736460864, -328944992,
    -56973528, 161325680, 702470848, 393142976, -195639296, 462302112, 165339872, -15312579, -489144032, -438712960, -116610056, -474245024,
    -434233536, -67970936, 895561, 168394832, -197398000, -91310088, -164182320, 123414376, -84085808, -155985200, 220666064, 62400956,
    -206513488, -97713616, -251686512, 482354112, 271962400, -483109792, 103205160, -501027072, 11891339, 61535608, 451278656, 302951552,
    277603104, -84313224, -288631520, 444061440, -203506208, 347978016, -194544112, 424336192, -547934976, -42651596, -114804872, -413776960,
    -180308880, -61255656, 515439200, 411362976, -356705888, 144877856, 433893312, 369104096, -465194176, -390797984, 52777860, 82534128,
    -164240640, -227265280, -528270272, -482061824, -108641440, 481249664, -152936, -468803776, -366972064, -418313856, -199099872, 502545408,
    377400992, -201667632, -356992544, -454010752, -244331488, -439543680, 197326032, 127697360, 551286464, 47912324, 245539984, -198057120,
    -8443597, -262654368, -397226912, -349847552, -182206432, -380109824, -27099834, -412329632, -510758272, 518801280, 249122912, -161848320,
    514658592, 419186304, 510033568, 519539200, -199312320, -341393888, -469315520, 285851776, -512718944, -377780608, -283412480, -435354080,
    -304521312, -66221948, -532795584, -153356832, 315864064, -184099312, 410576704, 327169792, 426507808, -200003552, 23952468, 460668064,
    554787456, -133511976, 68055832, 149235008, 358791328, -495572672, 429718112, -378420736, -213341200, -141214832, -353904320, -122147776,
    -452994592, 428713088, -227969120, -340490304, 86108448, 337143008, 522308288, -83280128, 341422848, 385230400, 475966656, -317297536,
    62670060, -435478400, 397165984, -346795680, -375785056, -384951168, 110015560, 84546848, -240676320, 198584480, -278885440, 460452096,
    337464224, 148758064, -58131780, 346642432, 68190488, 477684480, 131202592, 206503392, -344870464, 151736960, -327736992, 343461824,
    -240148912, -393797632, -509461440, -158601936, -56400876, -125551384, 120257016, -276423904, 179393408, -56185156, 69220944, 421614304,
    -282292256, -84325320, 469942368, -152195936, -323023520, -484151648, 65786648, -86015448, 81782232, 243437936, 478884896, 187593264,
    321739168, -58623504, 175140288, 118864296, -101420472, 532935264, 488913120, -282657120, 202897600, 175015328, 619188160, 407270752,
    -520006656, 340227744, -145509632, -238365120, 372643872, -466414720, 222122544, 230738560, 34792488, -442946176, -408636480, -20758628,
    -201347232, 357086336, 509843552, -64888292, -137799984, 338797568, -360733376, -139857056, -114792424, -197147872, 33532744, -31043140,
    465900256, -337567360, 181237616, -275045856, -606670592, -359671104, 11915483, -511022208, -451167488, -228744400, 310054176, 275062656,
    -24293510, -302087136, 469081312, -33297108, 27115160, 530377248, -408380544, -221642256, -189396592, -12643987, 241649360, -127037952,
    540579136, -357724608, -158177024, 97238496, -59472668, 93523424, 422794080, 515434048, 311217664, -239411520, 416462912, -439679808,
    481248064, 300421280, 281613504, 445389696, 361364096, 13230670, 448740224, -34188824, -87076328, -9100578, -203157632, 131852056,
    -393504480, 18987860, -190955888, -450500064, 348075104, -303998176, 271570496, -407813760, -176793872, 499712640, 348013952, 163575360,
    4696716, 112079224, -303045664, -193756880, -350843872, 55855176, -381533440, -165998736, -415126560, 363521152, -355426080, -300462688,
    456666432, 398001568, 517207232, 339823296, -97423792, -427263840, -259131600, -96473352, -217994928, 386341696, -129385224, 456158336,
    -102783336, 403562016, -151820656, -525703552, 441538208, 45503764, -261306048, -193024672, 406653664, -319953760, -413842912, 264500944,
    21940214, 213275968, 92327632, -524237888, -300327808, 584500352, 587416064, -218586512, 37897940, -455225408, 367176576, 486711584,
    120276256, -553147136, -357795040, -451770656, -132129456, -357159968, -286365568, -121545928, 407699488, -396062720, -54016476, 174615920,
    -106010224, -96984784, -311785216, 401898208, 208955392, -417339168, -184530704, 332437056, -251197456, 399465984, 497391168, 391938592,
    -165456656, 338739104, 488144128, 386112992, 55829040, -401129408, 112121984, -494568096, -127268056, 501732544, 582740288, 407660896,
    -64493504, -504531360, -492856032, 73223400, -376524288, -408108704, -149912816, 340246112, -448757088, -181429696, -364198400, -103543184,
    245036160, 121197832, 109147968, -301956096, -567345088, -241285584, -50062856, -219220640, -485094176, 83301760, -344042720, -435530720,
    -447759104, 89911064, 369268704, 217666688, -58095684, -501656512, 347932960, 44448300, 523269600, -572010432, 141864128, -813694592,
    -320318944, -111027944, 289457888, 58153560, -340380704, 599602688, -268813952, -440420800, 800645312, 1734588, -446312256, 81141768,
    84474408, -86913064, 75897912, -249916352, 371099776, -792978304, -630873152, 20192340, -289440416, 97225896, 170579024, -694835520,
    -344194336, 11571578, -371807872, -378061504, 171585344, 667717440, 306239424, 231581008, 659475584, 474347488, 574640768, -784934720,
    628428032, 118491656, -150977408, 187398736, -87174464, 198125200, -634346816, -514186176, -71247472, 217415792, -531454688, 709653504,
    264036752, -195507936, -247309808, -296965152, -383533056, 366020032, 543039168, 184476240, -16962944, -83304864, -66193976, -232603584,
    325823104, -471196576, -593818752, 337718208, 187533056, -213752352, -373729344, 741224832, 377727072, -255309728, 393992480, 322496832,
    411265376, 273465184, 274814688, 234360944, 8618159, -242779728, 684470, -420921952, 3124533, -170225, -476546272, 223537120,
    -135731856, 392227936, -528209728, 158252368, 434734432, 543319680, 31991048, 566670976, 513372512, 527371264, 398563392, 246945408,
    -128664640, -235464896, 124197072, -76302624, 436052448, 340433760, 143974128, 248974384, -389766720, -358017312, 534688672, 82334624,
    -235298912, -473515552, 144512000, -53405800, 192555280, -449981824, 316148992, 227635696, -259413232, 156352752, 310318368, 257473728,
    -98233072, -112856632, 275137600, -529437024, -210542208, 350636224, 642734016, 234837456, 309938080, -111721272, 249496480, 368968608,
    248524096, 452593184, -421887232, -352680000, 58752372, -237096368, 331460768, -27825012, -271698208, 259310288, 49395884, 546950400,
    542754432, -262882976, -331925088, -382383136, -155566336, 189810912, 104387616, 440779392, 85072896, 686440384, -48995384, -415665,
    104369016, 735430016, -189883792, 224119328, -31122396, -226284720, -239237616, -253975504, -179032784, -840635392, -263381808, -117296240,
    223215728, 412507648, -206908560, 292974016, 319126528, -238774560, 396273664, 303766400, 707224704, -67048032, -188317920, 133364200,
    -522747744, 475143392, -424708640, -31859360, 53946892, -691082944, -209748544, -119969528, -194191440, -239216352, 100502712, -533708544,
    283226176, 43536964, 308208000, 530978432, -173980976, -508443520, 264026112, -482867584, -28463406, -257323616, -330458976, -6712872,
    -503895360, -396476864, -413203072, 289394464, 104083472, 795843712, -396062208, 133311136, 34019416, 714130112, 587348928, 380579200,
    439928064, -97584072, 342075392, 984366528, -165159760, 225330816, -33843968, -532917664, 588041920, 58444960, 367866240, 169888096,
    -4091150, 631088704, 678886080, -486347168, 123878536, -322001568, 678804288, 282664384, 421903872, 109319784, -94172904, -334780512,
    -363938304, 552148672, 570563072, 202191296, -592269120, -760981760, 305996800, -280194016, 820324992, -393282176, 718224256, 310695488,
    -265417280, 440452896, -176435200, 172065120, 259543600, -228728864, -522218016, 65981028, 96567520, -198807536, -323884992, -25240032,
    531772704, -309239712, 607808896, 273577312, 228523152, -574016192, -217451648, -169636736, 245010496, 314290848, -257758960, 373598848,
    -396657984, 261896832, 464043776, -592972096, -329416512, -85267848, 513253312, -412778080, -570367488, -299669792, -180808448, 221853152,
