/* Auto-generated by export_lenet5_weights_to_h.py (fp32) */
/* Do not edit by hand. */

#ifndef LENET5_WEIGHTS_FP32_H
#define LENET5_WEIGHTS_FP32_H

#include <stdint.h>

/*
 * C_CNN name mapping:
 *   conv1 -> w_c1 / b_c1
 *   conv2 -> w_c3 / b_c3
 *   conv3 -> w_c5 / b_c5
 *   fc1   -> w_f6 / b_f6
 *   fc2   -> w_f7 / b_f7
 */

/*
 * Float tensors: raw fp32 weights/biases; no separate scale constants.
 */

static const float conv1_weight[150] = {
    -1.893261075e-02f, 1.179006547e-01f, 2.257457376e-01f, 4.193141460e-01f, 1.021299511e-01f, 2.954484820e-01f, 5.581477880e-01f, 5.057322383e-01f,
    2.459133118e-01f, 2.444564253e-01f, 2.564917803e-01f, -1.094455346e-01f, -2.115612179e-01f, -1.366254091e-01f, 4.373976588e-02f, -3.358175755e-01f,
    -3.431352079e-01f, -3.462093174e-01f, -3.514818251e-01f, -2.647895217e-01f, -1.219196171e-01f, -2.234686017e-01f, -9.713187814e-02f, -5.647367984e-02f,
    3.631198779e-03f, 1.455319226e-01f, 1.291419864e-01f, 2.021897435e-01f, 2.881126702e-01f, -4.347570240e-02f, 1.674339324e-01f, 5.163730681e-02f,
    3.903073370e-01f, 6.736239046e-02f, 8.135131001e-02f, 8.523156494e-02f, 1.650710553e-01f, 1.605496407e-01f, 3.238987029e-01f, 1.046039388e-01f,
    -2.296714485e-01f, 8.600755036e-02f, 2.533881664e-01f, 1.883559972e-01f, 1.673940122e-01f, -3.758694530e-01f, 2.156710997e-02f, 3.852778673e-01f,
    3.688688576e-01f, 1.728305072e-01f, 7.200590521e-02f, -1.482166648e-01f, -3.869195282e-02f, -2.520253956e-01f, -5.212315544e-02f, 5.123140663e-02f,
    -3.747321293e-02f, -2.537473440e-01f, -1.392070651e-01f, -1.556239575e-01f, 1.389165875e-02f, 6.490471214e-02f, 1.163285822e-01f, 1.026574820e-01f,
    1.946951151e-01f, 1.689559594e-02f, 3.286519945e-01f, 1.818990111e-01f, 3.440524340e-01f, 8.331552148e-02f, -1.551894695e-01f, 2.421317399e-01f,
    -8.547601849e-02f, -1.147976220e-01f, -1.087275799e-03f, 3.823201358e-01f, 4.990833402e-01f, 4.278061986e-01f, 3.354299963e-01f, 1.062723696e-01f,
    -3.388221934e-02f, 7.468551397e-02f, 3.186444640e-01f, 2.141058296e-01f, -3.970396519e-02f, -3.107940592e-02f, -8.357752860e-02f, 2.240655124e-01f,
    1.323426515e-01f, -3.721035644e-02f, -4.210000336e-01f, -3.334961832e-01f, -1.572525948e-01f, 1.803007722e-01f, 1.619440019e-01f, -2.310294360e-01f,
    -3.349932432e-01f, -1.982873678e-02f, -4.522364587e-02f, -1.075118408e-01f, -2.305842340e-01f, -6.435952336e-02f, -2.895694375e-01f, -8.447408676e-02f,
    4.008128941e-01f, -3.464122415e-01f, -3.986996412e-01f, -2.148609459e-01f, 3.898663819e-01f, 3.666153252e-01f, -1.317008287e-01f, -1.840461940e-01f,
    5.089638010e-02f, 5.374453068e-01f, 3.694182336e-01f, -5.938855559e-02f, 1.071716249e-01f, 3.541628122e-01f, 4.758386314e-01f, -5.945816636e-02f,
    1.451592147e-01f, 1.412814111e-01f, 1.878436059e-01f, 2.742604911e-01f, -1.168722436e-01f, 2.438362502e-02f, 7.663652301e-03f, -2.144857198e-01f,
    -2.143159509e-01f, -4.235406220e-02f, -1.346089095e-01f, -1.308505386e-01f, 4.216835275e-02f, -1.206004396e-01f, 7.448007353e-03f, -8.684997261e-02f,
    -2.241336554e-01f, -2.312641032e-02f, -1.610126197e-01f, -1.768559813e-01f, -1.079374701e-01f, -2.057113647e-01f, -6.104747579e-02f, -1.177507862e-01f,
    4.938480910e-03f, -1.918572485e-01f, 8.845297992e-02f, -1.540157348e-01f, -1.785709411e-01f, 1.122599915e-01f,
};

static const float conv1_bias[6] = {
    1.490670890e-01f, 1.062645316e-01f, -3.149788827e-02f, 2.836071551e-01f, -3.191960230e-02f, 2.183044553e-01f,
};

static const float conv2_weight[2400] = {
    5.937632918e-02f, 4.318418726e-02f, -4.088393971e-02f, -5.936056003e-02f, -1.113815932e-03f, 2.096727304e-02f, -5.490737408e-02f, -2.417752706e-02f,
    3.987318277e-02f, -8.490975946e-02f, 1.531569213e-01f, 1.975094974e-01f, 6.285718828e-02f, 8.206806332e-02f, -3.574970737e-02f, 2.790094586e-03f,
    3.997576982e-02f, -2.759234980e-02f, 1.790808327e-02f, 1.123992279e-01f, -7.662735134e-02f, 1.010182314e-03f, -1.172316670e-01f, -3.335736692e-02f,
    1.818093122e-03f, -3.411678970e-02f, 3.444551677e-02f, 1.068265829e-02f, -1.082157530e-02f, 1.818588562e-02f, 1.134947389e-01f, -3.700787574e-02f,
    9.207477421e-02f, 1.115986928e-01f, 6.896893494e-03f, -2.833864465e-02f, 3.143627942e-02f, 5.007532611e-02f, 5.508576985e-03f, 2.527599782e-02f,
    -7.518309355e-02f, -1.088030040e-01f, -7.431777567e-02f, -1.338758916e-01f, -6.437266618e-02f, 9.481406771e-03f, -8.961519599e-02f, 1.395406481e-02f,
    -1.181049570e-01f, -7.809403539e-02f, 3.087474778e-02f, -2.320107073e-02f, 6.923592091e-02f, 9.404850006e-02f, -6.855010986e-03f, 8.548615873e-02f,
    -6.910304655e-04f, 2.509335056e-02f, -1.753475145e-02f, -2.759507857e-02f, 4.548083246e-02f, 6.548327953e-02f, -3.198151663e-02f, 5.447951704e-02f,
    8.618473262e-02f, 4.556025937e-02f, 6.065026298e-02f, -4.522633925e-02f, 2.454102784e-02f, -4.422482103e-02f, 3.841491416e-02f, -2.412354574e-02f,
    -6.901647151e-02f, 1.055872906e-02f, 3.415974975e-02f, -1.137211174e-01f, -2.252760902e-02f, 5.592172965e-03f, 9.713972919e-03f, -1.703379154e-01f,
    -7.768122107e-02f, -1.292207837e-01f, 7.988988608e-02f, 6.859321892e-02f, -2.520547062e-02f, 4.299224541e-02f, 7.338791341e-02f, 1.114250720e-01f,
    5.117463320e-02f, 4.396424815e-02f, 2.992023528e-02f, 1.125106812e-01f, 3.377351537e-02f, 9.011171758e-03f, 3.065360337e-02f, -2.864587493e-02f,
    -6.025195122e-02f, -8.818066865e-02f, -5.893547088e-02f, -3.835344315e-02f, 5.232201144e-02f, 1.776552992e-03f, 4.361910746e-02f, 2.877055854e-02f,
    -6.813587248e-02f, 8.273310959e-02f, 1.026097313e-01f, 1.151411682e-01f, 2.410992421e-02f, -1.240868773e-02f, -8.400890976e-02f, -8.082225686e-04f,
    -5.983539298e-02f, 1.654640958e-02f, -9.436331689e-03f, -2.408169396e-02f, -9.593026340e-02f, -1.036905125e-01f, -3.905170783e-02f, -1.409102231e-01f,
    5.779946223e-02f, -7.658562809e-02f, -9.353683144e-02f, -1.283993274e-01f, -9.424465150e-02f, 7.780554891e-02f, -7.416167855e-02f, 1.508056279e-02f,
    -3.697149828e-02f, -1.403936278e-02f, 2.887303382e-02f, -8.174183965e-02f, -2.680360153e-02f, -9.066498280e-02f, 3.482736647e-03f, -6.137232855e-02f,
    5.889862031e-02f, -3.899217583e-03f, -6.403384358e-02f, -4.886182770e-02f, 4.068186507e-02f, 8.596819639e-02f, -2.824484743e-02f, -4.880613461e-02f,
    -5.504130200e-02f, 4.722059146e-02f, 8.803443611e-02f, 6.303665787e-02f, 8.080118150e-02f, 4.608885199e-02f, -5.280994624e-02f, -1.077581942e-01f,
    -8.010181040e-02f, -2.883378603e-02f, 2.117738314e-02f, 6.778359413e-02f, -3.639868647e-02f, -1.430277079e-01f, -7.600105554e-02f, -4.085290059e-02f,
    -1.230727211e-01f, -9.895531088e-02f, 4.697027802e-02f, -5.557187647e-02f, 1.755041257e-02f, -5.455526337e-02f, 2.521508373e-02f, 1.183389500e-01f,
    9.684731811e-02f, 1.504636556e-01f, -3.378988802e-02f, 4.753226787e-02f, 1.486463286e-02f, 2.412868850e-02f, -7.737963647e-02f, 2.749906480e-02f,
    9.491533041e-02f, 6.735568494e-02f, -1.520993561e-01f, -4.441145808e-02f, 1.064717770e-01f, 2.564671040e-01f, 1.473564208e-01f, 1.038509905e-01f,
    -1.284005791e-01f, 1.030719802e-01f, 2.024705261e-01f, 1.769684106e-01f, 1.755433679e-01f, -7.674815506e-02f, -1.121469364e-01f, -5.059030838e-03f,
    3.137768432e-02f, 6.375199184e-03f, -7.497774065e-02f, -1.549560428e-01f, -1.284736842e-01f, -1.793553382e-01f, -4.955495149e-02f, -1.382762641e-01f,
    3.089002147e-02f, 2.644946985e-02f, 3.495438024e-02f, 8.708193153e-02f, 4.755998030e-02f, -7.523230743e-03f, -1.350644045e-02f, 3.475730494e-02f,
    6.649319082e-02f, -1.777089015e-02f, 4.596608132e-02f, 7.447066158e-02f, -2.449280769e-02f, 8.156865835e-02f, 6.318965554e-02f, 4.598033801e-02f,
    -4.250479862e-02f, -1.269773860e-02f, 7.054638863e-02f, -6.301244348e-02f, -8.175771683e-02f, -1.705985330e-02f, -3.444623202e-02f, -2.264746092e-02f,
    -2.801926807e-02f, -8.987368643e-02f, -6.518787891e-02f, 2.423153631e-02f, -1.048517302e-01f, -4.899916053e-02f, 7.923150063e-02f, 1.096473560e-01f,
    5.751394480e-02f, -1.538074166e-01f, -1.347111911e-01f, 9.030036628e-02f, 2.594263293e-02f, 1.290715486e-01f, 1.316622645e-01f, 2.418982424e-02f,
    -8.321253955e-02f, 5.133331567e-02f, 1.220305040e-01f, 1.649991572e-01f, 1.549829692e-01f, -1.937752776e-02f, -1.658299565e-02f, -5.497154593e-02f,
    7.106221467e-02f, -7.741583977e-03f, -4.436834529e-02f, -1.249937247e-02f, -4.321230948e-02f, -1.447487324e-01f, 5.943931639e-02f, -1.120031178e-01f,
    5.547393486e-02f, -1.202512458e-01f, -1.469049454e-01f, 2.560817450e-02f, -3.740395978e-02f, -5.471538380e-02f, -7.670132071e-02f, 4.331919923e-02f,
    -1.355064940e-02f, -7.894459367e-02f, -1.090391278e-01f, 1.635900699e-02f, -6.571813673e-02f, -1.597126424e-01f, 1.014246419e-02f, -9.836354852e-02f,
    -9.353934228e-02f, 3.434644267e-02f, 1.321612205e-02f, -3.467370197e-02f, 5.119525269e-02f, -8.895368874e-02f, -9.889592975e-02f, -5.618977174e-02f,
    7.605220377e-02f, 3.079416975e-02f, -1.252837330e-01f, 3.156124800e-02f, -2.865366265e-02f, 1.308442373e-02f, -4.520503059e-02f, 2.077655809e-04f,
    -2.919487655e-03f, -1.181207132e-03f, 4.114485905e-02f, -3.886703774e-02f, -6.759318057e-03f, 7.365028560e-02f, -5.749520659e-02f, 1.666583866e-02f,
    8.124437183e-02f, 8.248155564e-02f, 1.865881309e-02f, -3.478914872e-02f, 4.060911480e-03f, 9.750277549e-02f, -2.562561538e-03f, -2.037049830e-02f,
    -7.262518257e-02f, 3.809093311e-02f, -8.763014339e-03f, 2.647771686e-02f, -1.117600650e-01f, -9.013871849e-02f, 8.537412435e-02f, -7.449868321e-02f,
    2.425337210e-02f, -1.373386234e-01f, 7.692060620e-02f, 1.029294636e-02f, -1.071872488e-01f, -1.075300872e-01f, -1.262776554e-01f, -4.737203196e-02f,
    -5.540372431e-02f, -9.453576058e-02f, -5.440413579e-02f, -1.932339370e-02f, -4.133940861e-02f, 2.321748435e-02f, -5.226675048e-02f, -1.845834428e-03f,
    1.437314507e-02f, -1.985883713e-02f, 4.249945655e-02f, -4.397027194e-02f, -4.954669625e-02f, -3.204891086e-02f, -3.851406276e-02f, 1.808163594e-03f,
    -3.534318134e-02f, 1.918489113e-02f, 2.163190208e-02f, -6.283479184e-02f, 3.655478731e-02f, -8.778684586e-02f, -2.070808038e-02f, 1.004633680e-01f,
    2.046388388e-02f, -5.256186053e-02f, -8.548900485e-02f, -3.169008344e-02f, 7.126921415e-02f, 6.316415966e-02f, 8.957593143e-02f, -1.646049134e-02f,
    -5.286645889e-02f, -1.276145596e-02f, -4.029545560e-02f, -2.910074405e-02f, -4.258757830e-02f, 1.864632010e-03f, -3.835964575e-02f, 9.146384895e-03f,
    -1.150297094e-02f, -2.480274625e-02f, 2.303741314e-02f, 5.398852378e-02f, -9.057952464e-02f, -8.666788042e-02f, -2.065294608e-02f, -1.863483153e-02f,
    -1.514414232e-02f, 5.509803444e-02f, 1.338169351e-02f, 2.157993987e-02f, -3.222798929e-02f, -5.642929673e-02f, 7.646877319e-03f, 1.009768546e-01f,
    1.517290156e-02f, -7.159488276e-03f, -6.843517721e-02f, -3.225101158e-02f, 5.848182738e-02f, 1.580882818e-02f, 5.301210284e-02f, 4.460736364e-02f,
    -3.757904470e-02f, -4.087501764e-02f, -6.648801267e-02f, -1.554916054e-02f, -2.937324904e-02f, -5.596251227e-03f, 1.225030702e-02f, -5.213135853e-02f,
    -1.376433857e-02f, 1.016846951e-02f, -8.568501100e-03f, -2.895027399e-03f, -1.087788790e-01f, 3.954280540e-02f, 1.487997826e-02f, 3.119312972e-02f,
    6.182407215e-02f, -2.998980507e-02f, -8.680826984e-03f, 4.432320595e-02f, 8.555352688e-02f, 1.113104913e-02f, 6.163842604e-02f, -9.730300307e-02f,
    1.411724389e-01f, 4.850222543e-02f, -3.384469450e-02f, -2.909057029e-02f, 1.720896922e-02f, 1.466617733e-01f, -8.666644990e-02f, -6.309117377e-02f,
    -8.556016535e-02f, 9.023758769e-02f, 3.098269552e-02f, -1.345452070e-01f, -5.605787784e-02f, -9.017216414e-02f, 1.084605157e-01f, -4.187773913e-02f,
    -6.117661297e-02f, -8.731175959e-02f, -4.198414087e-02f, 5.542762205e-02f, 8.068321645e-02f, 3.992391750e-02f, 7.969453186e-02f, 4.490637407e-02f,
    1.491144672e-02f, -8.684010245e-03f, 2.651210129e-02f, -3.164746240e-02f, 5.194443464e-02f, 9.908656031e-02f, -4.217123985e-02f, -1.086466946e-02f,
    -2.606164478e-02f, -4.820695147e-02f, -5.298460275e-02f, 1.459064055e-02f, 1.572095416e-02f, -1.657804102e-02f, -3.777582943e-02f, 8.380980790e-02f,
    -2.588993497e-02f, -1.082902495e-02f, 2.566174231e-02f, 2.005435713e-02f, -2.169012465e-02f, 3.414926305e-02f, -1.203099489e-01f, 4.664148390e-02f,
    6.753170490e-02f, 1.863200916e-03f, -1.050629169e-01f, -9.245611727e-02f, 6.203572452e-02f, 7.199414074e-02f, 2.842762973e-03f, -1.161224172e-01f,
    -9.471682459e-02f, 7.831533253e-02f, -8.121781796e-02f, -9.781052917e-02f, -9.183295071e-02f, -2.724887617e-02f, 1.561150327e-02f, -7.801356167e-02f,
    -7.361626625e-02f, 3.741802182e-03f, -7.726088166e-02f, -1.670337468e-02f, 5.696232244e-02f, -9.004186839e-03f, -1.249530688e-01f, 5.025696382e-02f,
    1.034496129e-01f, -5.476896837e-02f, 1.324721705e-02f, 1.474223845e-02f, 1.326926351e-01f, -4.496961460e-02f, -5.029511824e-02f, 4.304407164e-02f,
    1.131810155e-02f, -3.131611273e-02f, -3.464289382e-02f, -4.542127997e-02f, -9.415200353e-02f, -3.864774108e-02f, 1.347678751e-01f, -5.235793814e-02f,
    4.938356578e-02f, -6.987629086e-02f, -2.288410813e-02f, 1.334131509e-01f, 6.090577319e-02f, 7.852800190e-03f, 7.156233303e-03f, 3.877403215e-02f,
    -2.600527741e-02f, -4.027982056e-02f, -1.295954548e-02f, -5.762840807e-02f, 5.807272717e-02f, 1.059547514e-01f, 4.810123518e-02f, -8.047249913e-02f,
    -3.365474194e-02f, 5.630272627e-02f, -3.348642588e-02f, -1.604983956e-02f, 1.848030463e-02f, -4.642088898e-03f, 4.501412436e-02f, -3.525472060e-02f,
    -1.325070392e-02f, 7.629051805e-02f, -6.552603096e-02f, -4.435624927e-02f, 1.366970036e-02f, -1.284007169e-02f, -5.516980961e-02f, 9.289833903e-02f,
    -1.178051252e-02f, -1.131389886e-01f, 6.864246726e-02f, -2.347898297e-02f, 1.724126935e-02f, -9.555689245e-02f, -2.672086842e-02f, 5.638689920e-02f,
    2.343565226e-02f, -1.047140881e-01f, -1.032473706e-02f, 1.840295084e-02f, -4.666132107e-02f, -5.847353116e-02f, -1.463175863e-01f, 3.595201299e-02f,
    1.191253811e-01f, -1.108391806e-01f, -9.112716652e-03f, -1.244073734e-01f, -3.568206728e-02f, 5.582463741e-02f, -1.757730916e-02f, -5.034416914e-02f,
    -8.077020198e-02f, 1.759590395e-02f, 2.176159807e-02f, -1.306504849e-02f, 9.756554849e-03f, -8.857447654e-02f, -2.325089183e-03f, 1.385139823e-01f,
    -3.500226513e-02f, 4.196076654e-03f, -1.173073202e-01f, 1.643136740e-01f, 9.127679467e-02f, -5.880787224e-02f, 4.591327161e-02f, -5.211981386e-02f,
    1.334337890e-01f, -1.787216775e-02f, -1.049081050e-02f, 6.490010768e-02f, -8.060540259e-02f, -4.405664280e-02f, 4.693227261e-02f, 5.401618779e-02f,
    1.457916014e-02f, 7.262156159e-02f, -2.034427971e-02f, 9.895588458e-02f, -1.929428615e-02f, 5.499283597e-02f, 2.965752594e-02f, 7.695215289e-03f,
    -7.229729090e-04f, -6.216985639e-03f, 7.488703728e-02f, 4.862127453e-02f, 2.669722773e-02f, -5.980521068e-02f, -6.343585253e-02f, 3.123735636e-02f,
    6.551479548e-02f, 1.595478319e-02f, -3.040242568e-02f, -6.683717668e-02f, -7.710652053e-02f, -2.640680410e-02f, -5.718458910e-03f, -3.966836724e-03f,
    4.526204430e-03f, -1.046983674e-01f, 6.096320972e-02f, 1.231748704e-02f, -5.917536095e-02f, -2.127762325e-02f, 7.509655505e-02f, -4.521539435e-03f,
    -3.619696200e-02f, -2.468171343e-02f, 6.172252819e-02f, 4.426953942e-02f, 5.173379928e-02f, 2.101144381e-02f, 1.316254884e-01f, -1.029348001e-01f,
    1.183468103e-02f, 8.516765386e-02f, 7.394309342e-02f, -2.300779149e-02f, -8.513165265e-02f, 7.627891004e-02f, 5.402652174e-02f, 4.862897843e-02f,
    -6.916373223e-02f, -3.697872162e-02f, 1.981876045e-02f, -1.334270984e-01f, -5.088216159e-03f, 6.533040106e-02f, -4.754520208e-02f, -4.784433171e-02f,
    -1.069682464e-01f, 6.126324832e-02f, 2.368735150e-02f, 2.962260507e-02f, -2.181080170e-02f, 2.004175767e-04f, -2.686057426e-02f, -1.209712699e-01f,
    -3.518110141e-02f, -9.502695501e-02f, -8.333358169e-02f, 3.782954812e-02f, -4.030175507e-02f, 7.932522148e-02f, 3.755393624e-02f, 2.727680281e-02f,
    1.073956862e-01f, 1.111780573e-02f, -3.217705339e-02f, 8.269228041e-02f, -1.023090724e-02f, 5.993079022e-02f, -2.215939015e-02f, 3.495585173e-02f,
    6.274982542e-02f, 3.620944545e-02f, -6.453587860e-02f, -9.966623038e-03f, -2.007193491e-02f, -3.927985579e-02f, 3.442716226e-02f, 1.141095813e-02f,
    4.541917890e-02f, 5.918725580e-02f, 1.276371330e-01f, -8.147943765e-03f, 4.337663949e-02f, -8.669845411e-04f, 8.984472603e-02f, -2.267407719e-03f,
    -5.376186222e-02f, -3.962260857e-02f, 8.036889136e-02f, 7.785027847e-03f, -5.033999309e-02f, -1.298844721e-02f, 1.263857335e-01f, -1.321112644e-02f,
    3.367485479e-02f, 7.226403058e-02f, -6.228945404e-02f, -5.617248267e-02f, -3.346223012e-02f, 1.923382655e-02f, 5.133207515e-02f, -2.973000146e-02f,
    -3.696750477e-02f, -4.711673036e-02f, -1.310107261e-01f, -1.733379513e-01f, -6.952287257e-02f, -9.553264081e-02f, -7.640159223e-03f, -1.173366755e-01f,
    -8.722258359e-02f, 1.162168235e-01f, -7.344888058e-03f, -1.341231447e-02f, 5.610571057e-02f, 5.602486432e-02f, -3.473153710e-02f, -1.176346838e-01f,
    3.124057502e-02f, 1.466137022e-01f, -9.643545002e-02f, -4.552187026e-02f, -3.436495364e-02f, 1.227230653e-01f, -9.110038728e-02f, -1.925380528e-02f,
    1.424434632e-01f, 8.479817212e-02f, -4.605325311e-02f, 2.020016499e-02f, 1.515172571e-01f, 5.999340490e-02f, 5.497067794e-02f, -1.406693906e-01f,
    2.579327822e-01f, 8.205471188e-02f, -5.357740447e-02f, -5.478702858e-02f, -9.358476102e-02f, 7.912573963e-02f, -4.804734513e-02f, 3.976170719e-02f,
    4.553299770e-02f, -5.558267608e-02f, 1.258498523e-02f, -4.607855156e-02f, 1.899970137e-02f, 2.499795146e-02f, -7.695856690e-02f, 6.123877689e-02f,
    4.664317518e-02f, -5.238445476e-02f, -2.418092825e-02f, -2.276801271e-03f, -3.146919608e-02f, -1.398883574e-02f, -2.495801449e-02f, -7.613297552e-02f,
    6.250189245e-02f, -1.025854889e-02f, -2.397681400e-02f, -5.046260357e-02f, -4.989558086e-02f, -6.917618215e-02f, 3.142523766e-02f, 1.082456764e-02f,
    -4.342817701e-03f, -9.050702304e-02f, -9.131579846e-02f, 8.319685608e-02f, 4.509264976e-02f, 1.108300965e-02f, -3.972475231e-02f, -1.443957686e-01f,
    -6.081488915e-03f, 3.257132834e-03f, -5.507071316e-02f, -1.627825350e-01f, -5.217928439e-02f, 1.905180812e-01f, -2.682183683e-02f, -1.700640917e-01f,
    -8.523365855e-02f, -2.911508083e-02f, 9.356798977e-02f, -4.508593306e-02f, 3.879976645e-02f, -3.808536381e-02f, -4.292104393e-02f, 1.603779756e-02f,
    1.669745706e-02f, -4.292103648e-02f, 1.155486479e-01f, 2.010327578e-01f, 2.597691957e-03f, -1.566871852e-01f, 3.816009685e-02f, 2.284075767e-01f,
    2.047122270e-01f, -8.920636773e-02f, -7.688196748e-02f, -3.151798621e-02f, 1.802044958e-01f, 7.863810658e-02f, -1.057402045e-01f, -1.298912019e-01f,
    -6.880898774e-02f, 1.032653823e-01f, 5.470153317e-02f, -5.189190432e-02f, -2.454027720e-02f, -3.645434603e-02f, 5.684886873e-02f, 1.792014763e-02f,
    -3.865932347e-03f, 4.186422750e-02f, -6.026931107e-02f, -4.676685110e-02f, 2.605271712e-02f, -8.315145969e-03f, 4.849461466e-02f, -5.600429699e-02f,
    1.965838298e-02f, 1.924986206e-02f, -3.336994722e-02f, -4.048005864e-02f, -6.600363553e-02f, -4.073250294e-02f, -6.436441839e-02f, 5.992094800e-02f,
    1.986560179e-03f, -7.302279770e-02f, -3.938184306e-02f, -4.408242181e-03f, -4.463962466e-02f, -4.440998286e-02f, -8.345759660e-02f, -1.206115708e-01f,
    -5.429173261e-02f, -6.632585078e-02f, -1.670881361e-02f, 6.382305920e-02f, 1.446079463e-01f, 2.373173600e-03f, -2.353773452e-02f, -1.814821735e-02f,
    -4.902116954e-02f, 9.345775843e-02f, 3.877835721e-02f, 3.697733581e-02f, 5.254596937e-03f, -8.116007596e-02f, -6.102769077e-02f, -1.383249313e-01f,
    1.601300947e-02f, -2.278201282e-02f, -3.610212356e-02f, -6.717747450e-02f, -6.893725693e-02f, 5.986474827e-02f, -3.733072802e-02f, -9.083276987e-02f,
    5.908807367e-02f, -7.583497465e-02f, 2.378869243e-02f, 3.856871650e-02f, 5.344629288e-02f, -1.189241186e-01f, -7.898171991e-02f, 1.532973722e-02f,
    -5.055911839e-02f, 8.083467931e-02f, 1.229575500e-01f, 1.529120281e-02f, -1.472759154e-02f, -2.571545169e-02f, 1.194511950e-01f, 2.428825945e-01f,
    -8.364000916e-02f, -8.121449500e-02f, -1.057604924e-01f, 1.916454434e-01f, 7.784838974e-02f, -4.518216476e-03f, -8.084646612e-02f, -6.787161529e-02f,
    4.937481508e-02f, -3.905951977e-02f, -1.012564972e-01f, 6.216341257e-02f, -6.828724593e-02f, -8.286610991e-02f, -2.957728319e-02f, -7.311030477e-02f,
    -5.121651664e-02f, 7.182510197e-02f, -2.107403986e-02f, 4.732875898e-02f, -1.249392554e-01f, -7.627089508e-03f, 1.029481087e-02f, -1.486557885e-03f,
    5.793536082e-02f, -7.261663210e-03f, 2.904235944e-02f, -6.024930626e-02f, -2.533456497e-02f, -8.910716325e-02f, 2.491036989e-02f, -5.211143941e-02f,
    3.657347057e-03f, -2.979680151e-02f, 7.349324413e-03f, 1.598881558e-02f, 7.518244535e-02f, -3.335379809e-02f, 5.051711202e-02f, -6.116536632e-02f,
    4.161991552e-02f, 5.703505874e-02f, -9.953115880e-02f, 8.779489249e-02f, 1.063797623e-01f, 1.996936649e-02f, 1.437761262e-02f, -4.334227368e-02f,
    8.440445364e-02f, -5.745615810e-02f, -1.164511070e-01f, -2.628424950e-02f, -5.484633520e-02f, -9.736581147e-02f, 1.627863497e-01f, 1.114882231e-01f,
    2.026241273e-02f, 3.382062912e-02f, 1.870922595e-01f, 1.799130142e-01f, 6.516638398e-02f, 1.341876239e-01f, 1.214079335e-01f, -2.998004667e-02f,
    -1.044520959e-01f, -1.633468717e-01f, 6.060277671e-02f, 1.457520481e-02f, 1.349650975e-02f, 5.155517906e-02f, 3.535297140e-02f, -1.257842779e-01f,
    8.851864934e-02f, 1.926497556e-02f, 8.957269788e-02f, 4.495143145e-02f, -2.446993440e-02f, -4.019529559e-03f, -3.751818463e-02f, -2.713358775e-02f,
    4.499396682e-02f, -5.860860646e-02f, -9.574732929e-02f, -6.419252604e-02f, -6.242823973e-02f, -1.261935234e-01f, -9.529387951e-02f, 4.735690728e-02f,
    7.258494943e-02f, 9.065743536e-02f, 8.502280712e-02f, 5.850733444e-02f, -3.777838871e-02f, 4.960499704e-02f, 1.560293511e-02f, -5.680761114e-02f,
    -9.006254375e-02f, -1.024354398e-01f, -3.764297068e-02f, 8.118315041e-02f, 9.866937250e-02f, 6.695813034e-03f, -2.627909742e-02f, 7.453706861e-02f,
    -3.621001542e-02f, -3.912206274e-03f, -5.683130398e-02f, 2.380250022e-02f, -4.386678338e-02f, 4.721774906e-02f, 2.027291805e-02f, 1.734726131e-01f,
    4.178098217e-02f, 2.296700142e-02f, -1.188275069e-01f, -7.231579721e-02f, -1.615175046e-02f, 1.734927855e-02f, 3.484332189e-02f, -3.171558492e-03f,
    2.252444625e-02f, -1.304683834e-01f, -4.938505590e-02f, 1.396783888e-01f, -4.034578800e-02f, -1.237608939e-01f, -4.702106491e-02f, 1.999802329e-02f,
    4.725073650e-02f, 2.303230017e-02f, 7.154580951e-02f, -4.474211857e-02f, 8.029656857e-02f, 1.512989849e-01f, 5.000184104e-02f, 1.169145629e-01f,
    -9.382308275e-02f, -1.749207377e-01f, -7.804013044e-02f, 1.225296557e-01f, -2.569161914e-02f, 1.038802266e-01f, -8.014569059e-03f, 9.079617262e-02f,
    3.239716217e-02f, -7.715268433e-02f, 5.113115162e-02f, -6.399107724e-02f, 5.787257571e-03f, -6.444504857e-02f, 1.285872310e-01f, -2.950276434e-02f,
    -4.039182514e-02f, 2.542870305e-02f, 8.887659013e-02f, 2.541436814e-02f, -1.193612516e-01f, -1.235805079e-01f, -1.079898253e-01f, -8.933159709e-02f,
    -3.420826048e-02f, -5.802951753e-02f, -6.485538930e-02f, -8.333953470e-02f, -1.122837290e-01f, -1.044727564e-01f, 6.693967432e-02f, -5.964677036e-02f,
    -6.128427759e-02f, 2.377605066e-03f, -9.843330830e-02f, 2.680622041e-02f, -1.051908657e-01f, -7.074910402e-02f, -2.368427813e-02f, -1.996405423e-02f,
    2.723360807e-02f, -1.069185436e-01f, -3.985582665e-02f, -5.885723978e-02f, -7.431431860e-02f, -1.516315341e-02f, -8.133518696e-02f, -9.393689781e-02f,
    4.349901900e-02f, 7.145093381e-02f, -6.268284470e-02f, 2.393283322e-02f, -8.886618912e-02f, -1.055931896e-01f, -9.625749290e-02f, -4.155794531e-02f,
    -8.862988092e-03f, -4.349385202e-02f, -8.594509214e-02f, -3.487440944e-02f, 6.605397444e-03f, -6.337247044e-02f, -1.355394125e-01f, -1.363306940e-01f,
    -1.485750973e-01f, 5.543160066e-02f, 1.904690405e-03f, -9.504829347e-02f, -8.282703906e-02f, -1.970125288e-01f, 1.359695382e-02f, 3.171747923e-02f,
    3.328359127e-02f, -6.845813245e-02f, -1.457548887e-01f, 1.174915656e-01f, -3.801622242e-02f, -7.704978436e-02f, -7.064803690e-02f, -4.254632816e-02f,
    4.329000041e-02f, 3.742565960e-02f, -3.300157189e-02f, -6.993280351e-02f, 9.304291755e-02f, 1.559000164e-01f, 1.953893155e-01f, -6.270251423e-02f,
    -1.439083964e-01f, 1.337863505e-01f, -1.084099989e-02f, 9.044138342e-02f, -8.780210465e-02f, 3.405384347e-02f, 1.601927876e-01f, -9.909080714e-02f,
    5.014472082e-02f, -4.308416694e-02f, -5.504298583e-02f, 5.555607751e-02f, 7.723198086e-02f, -7.167152315e-02f, -2.141114511e-02f, -8.340658247e-02f,
    -3.593219444e-02f, 6.575799733e-02f, 8.298589289e-02f, -3.715893999e-02f, -3.500863910e-02f, -5.937590450e-02f, 1.576994918e-02f, -2.304260619e-02f,
    -6.984303147e-02f, -1.085192561e-01f, -5.422908813e-02f, -7.859943062e-02f, -1.115551293e-01f, -8.050971478e-02f, -3.490529209e-02f, -9.980052710e-02f,
    2.411244065e-02f, -2.948413976e-02f, -1.031524315e-01f, -2.414270304e-02f, -1.103424951e-01f, 5.023559183e-02f, -4.733889922e-02f, -1.054269075e-01f,
    -8.410011977e-02f, -1.059845313e-01f, 8.473496884e-02f, 1.557546388e-02f, -1.536843926e-01f, -1.286326796e-01f, 3.150150552e-02f, 9.938929230e-02f,
    1.226384938e-01f, -1.176179349e-01f, -1.069839373e-01f, 5.404968187e-02f, -1.076377276e-02f, 1.152144969e-01f, -7.803094387e-02f, -1.378048360e-01f,
    -6.397831440e-02f, -3.697209805e-02f, 9.888602048e-02f, -4.902968928e-02f, -1.027865857e-01f, -5.995550752e-02f, -4.990493506e-02f, -3.295057267e-02f,
    -1.208088696e-01f, -1.460851878e-01f, -4.449559748e-02f, 2.472719364e-02f, 5.108422786e-02f, -1.246267110e-01f, -1.242783442e-01f, 9.079600126e-02f,
    1.366740763e-01f, 1.105073914e-01f, -1.213619784e-01f, -5.431858078e-02f, 1.932142377e-01f, 1.163039654e-01f, 4.824256152e-02f, -6.802636385e-02f,
    -5.102679506e-02f, 1.663630456e-01f, 1.562470943e-01f, 2.883377485e-02f, -1.232099086e-01f, 5.088197812e-02f, 1.738256663e-01f, -3.340935335e-02f,
    -6.061757728e-02f, 7.138460060e-04f, 6.511465460e-02f, 8.081836253e-02f, -2.431070246e-02f, -8.307007700e-02f, -4.889475554e-02f, 6.616202742e-02f,
    3.744584695e-02f, 4.575107992e-02f, -9.561754018e-02f, 2.813434042e-02f, 2.735084295e-02f, -2.908532880e-02f, -7.885862887e-02f, -8.843421936e-02f,
    5.482237786e-02f, 6.986867636e-02f, 5.135825276e-02f, -5.478722230e-02f, -2.162858471e-02f, -4.090560600e-02f, 1.602545613e-03f, -6.490358151e-03f,
    -7.879012823e-02f, -6.758941710e-02f, -2.225775272e-02f, 3.205611929e-02f, 9.107754380e-02f, -4.037014768e-02f, -1.085824519e-01f, -1.421696693e-01f,
    5.232071504e-02f, 1.458802223e-01f, -1.015157029e-01f, -4.351340979e-02f, -1.198040992e-01f, -1.466744095e-01f, -7.759419829e-02f, -1.090218201e-01f,
    -1.291135997e-01f, -7.337336242e-02f, 4.219778627e-02f, -2.284280770e-02f, -1.905582473e-02f, -1.312342286e-01f, -5.259848014e-02f, -7.322028279e-02f,
    -2.626235131e-03f, 1.120629348e-02f, -1.877195947e-02f, 9.699233621e-02f, -5.535427947e-03f, -1.044450924e-01f, -9.711959213e-02f, 1.082843468e-01f,
    2.317275554e-01f, -1.019655764e-01f, -7.938690484e-02f, -1.700602323e-01f, 1.283351630e-01f, 2.481761724e-01f, -6.979195774e-02f, -1.913449466e-01f,
    -1.600625068e-01f, 9.418494254e-02f, 2.462877780e-01f, -1.797095686e-02f, -1.220181361e-01f, -1.597895175e-01f, 7.816081494e-02f, 4.241414741e-02f,
    -2.070564777e-02f, 1.856552996e-02f, -3.170077456e-03f, -7.358106226e-02f, -6.311345100e-02f, 7.508402318e-02f, 3.242130205e-02f, -1.037030667e-02f,
    -5.934526399e-02f, 2.048732713e-02f, 1.830046251e-02f, -9.750956297e-02f, -7.787510008e-02f, -1.280150115e-01f, -1.037974730e-01f, -6.260997802e-02f,
    -1.760303415e-02f, -8.122919500e-02f, -4.612263292e-02f, 2.338393591e-02f, 1.029129177e-01f, 4.696337879e-02f, -1.581487618e-02f, -2.436527982e-02f,
    4.196666926e-02f, -4.461592808e-02f, 7.287042588e-02f, -4.320977256e-02f, 2.275756374e-02f, 4.514254257e-02f, -1.330440193e-01f, 7.576885633e-03f,
    2.804165706e-02f, -2.260845713e-02f, 9.873989969e-02f, -8.423933387e-02f, 2.673130855e-02f, -7.963798940e-02f, -5.323458090e-02f, 8.767664433e-02f,
    -6.375220418e-02f, -1.452065911e-02f, -1.508624554e-01f, -6.942021102e-02f, 7.247849554e-02f, 6.492649019e-02f, -1.059985757e-01f, -1.919259578e-01f,
    -1.235115528e-01f, 4.817789048e-02f, 1.056303643e-02f, 3.655514121e-02f, -2.225551941e-02f, 1.194534004e-01f, 1.812656671e-01f, -2.795290388e-02f,
    2.914670110e-02f, -7.631307095e-02f, -1.623414643e-02f, 2.342412174e-01f, -5.551550537e-02f, -1.079757437e-01f, -2.328972965e-01f, 1.239353120e-01f,
    1.657709628e-01f, -1.457179785e-01f, 3.743785247e-02f, -3.360791877e-02f, 8.387256414e-02f, 2.705838718e-02f, -1.695080698e-01f, 1.220574696e-02f,
    -6.787973642e-02f, 4.591801018e-02f, 4.184987023e-02f, -1.540107876e-01f, -4.948076233e-02f, -6.346168369e-02f, 8.298329264e-02f, 2.911405638e-02f,
    2.611387521e-02f, -8.383384347e-02f, -3.545708954e-02f, 5.571601912e-02f, 3.536214307e-02f, 2.512198873e-02f, -7.473419607e-02f, 2.265513642e-03f,
    9.834868833e-03f, 5.062193051e-02f, -8.093137294e-02f, -2.009367570e-02f, -3.435559571e-02f, 2.847722918e-02f, -4.427373409e-02f, 2.637197822e-02f,
    6.250728667e-02f, 4.470192641e-02f, 5.600837059e-03f, -7.532858104e-02f, -3.285532817e-02f, 2.450496424e-03f, -4.078355059e-02f, -5.441095680e-02f,
    -1.027112752e-01f, 2.423549630e-02f, 7.134665549e-02f, -9.276505560e-02f, -3.582147509e-02f, -7.377391309e-02f, 1.410000473e-01f, 1.641117632e-01f,
    -1.403586715e-01f, -3.476568684e-02f, 1.415028125e-01f, 1.691038311e-01f, -3.028213046e-03f, -3.485682979e-02f, 7.317075133e-02f, -1.540881116e-02f,
    4.563796392e-04f, 4.420974851e-02f, 2.551198937e-02f, -4.011721164e-02f, -3.019205481e-02f, 8.482702821e-02f, 1.060570218e-02f, -1.301845759e-01f,
    -3.392701596e-02f, 1.027729884e-01f, 3.318615258e-02f, -9.779994190e-02f, -6.455831230e-02f, 6.172579527e-02f, -8.266630583e-03f, -1.384113282e-01f,
    -6.780600548e-02f, 3.504106402e-02f, 1.209571287e-01f, -7.604804635e-02f, -7.796447724e-02f, -1.509146839e-01f, -2.771225572e-02f, -4.670552537e-02f,
    -1.008434966e-01f, -4.874227569e-02f, -7.396169752e-02f, -7.076151203e-03f, -5.570841581e-02f, -4.294948280e-02f, -3.004242666e-02f, 3.427953273e-02f,
    3.187993914e-02f, 4.375063255e-02f, 1.892428100e-02f, 4.657800123e-02f, 2.578946762e-02f, 3.414652869e-02f, 5.194270611e-02f, 1.100738645e-01f,
    2.275690623e-02f, 2.236160636e-02f, 1.152170915e-02f, 3.539532423e-02f, -8.165602386e-02f, -1.032894850e-01f, 5.301986635e-02f, 2.445237711e-02f,
    -2.400248684e-02f, -7.922905684e-02f, 6.681058556e-02f, 4.891112912e-03f, 2.615818568e-02f, 3.097923659e-02f, 1.548940688e-01f, 1.036154106e-01f,
    5.215687305e-02f, -4.734111577e-02f, 4.250372946e-02f, -4.551349580e-02f, -1.392028928e-01f, 1.655821130e-02f, -1.087112948e-01f, -9.479016066e-02f,
    -1.851763129e-01f, 2.094965987e-02f, 9.232348204e-02f, -2.354969829e-02f, 1.088880817e-04f, 4.686206952e-02f, 3.932984546e-03f, 1.043087617e-02f,
    1.005943790e-01f, 9.350149333e-02f, 3.789838776e-02f, -2.727259649e-03f, 1.248216629e-02f, 7.629426569e-02f, -2.497138456e-02f, -2.770435531e-03f,
    3.584017977e-02f, -2.394998632e-02f, -4.891421273e-02f, -2.363412408e-03f, 2.292009145e-01f, 1.461974978e-01f, 2.225857973e-02f, -5.957347807e-03f,
    3.335617781e-01f, 2.431702316e-01f, -3.647829220e-02f, -2.150951177e-01f, 2.966759503e-01f, 2.438414097e-01f, -6.830378622e-02f, -2.205979675e-01f,
    -1.196203008e-01f, 1.872591972e-01f, 2.772531658e-02f, -1.805095375e-01f, -1.406561136e-01f, -1.456029415e-01f, -1.663707942e-02f, -1.783829182e-01f,
    -1.302455366e-01f, 2.524770238e-02f, -1.425540149e-01f, 1.015311480e-02f, 6.045825779e-03f, -5.230900645e-02f, -9.199138731e-02f, 4.074468091e-02f,
    -2.470644377e-02f, -8.845212311e-02f, -1.313830018e-01f, -1.697274670e-02f, -8.679167926e-02f, -3.349018097e-02f, -2.632408775e-02f, -4.679487646e-02f,
    -2.803452872e-02f, 2.454494685e-02f, -1.161911413e-01f, -7.841100544e-02f, 4.424089193e-02f, -2.507536300e-02f, -6.631343812e-02f, -8.424062282e-02f,
    -1.185304970e-01f, -7.015396655e-02f, -6.748567522e-02f, -8.174337447e-02f, 6.068130583e-02f, 1.143587101e-02f, 7.128252834e-02f, -3.040027618e-02f,
    4.365525395e-02f, -6.798368692e-02f, 3.828343470e-03f, -2.629959397e-02f, -3.119931743e-02f, -5.565306544e-02f, -7.506300509e-02f, -7.965712249e-02f,
    -5.353226513e-02f, -4.550100490e-02f, -3.561520576e-02f, -2.958057448e-02f, 5.048344284e-02f, 5.018828064e-02f, -7.140472997e-03f, -2.988233045e-02f,
    -1.177510023e-01f, 4.415534437e-02f, 7.593078166e-02f, -2.960337698e-02f, -1.672976650e-02f, -8.046255261e-02f, 5.782303959e-02f, -1.476019621e-03f,
    -1.031669080e-01f, -1.144457161e-01f, -7.452550530e-02f, -8.420290053e-02f, -6.975099444e-02f, -2.411955968e-02f, 2.295283973e-02f, -1.478352118e-02f,
    -6.515043229e-02f, -8.829970658e-02f, -2.596270293e-02f, 6.477412581e-02f, 7.623550016e-03f, -3.947097436e-02f, -7.968832552e-02f, 1.379920542e-02f,
    -1.853100210e-02f, -4.218127578e-02f, -1.034860965e-02f, 1.363547333e-02f, 3.303350136e-02f, -1.006362066e-01f, -7.833439857e-03f, 2.295517735e-02f,
    2.876474988e-03f, 5.295757949e-02f, 2.957001515e-02f, 2.809751965e-02f, 5.229273811e-03f, 1.974930987e-02f, -1.182269398e-02f, -5.575948209e-02f,
    -3.921771795e-02f, 3.188845143e-02f, 1.104760543e-01f, 8.832163364e-02f, 2.171715535e-02f, 7.073342800e-02f, 6.771387905e-02f, -9.935479611e-03f,
    -1.572895236e-02f, 1.295085624e-02f, 5.632405728e-02f, -9.755652398e-03f, 3.672566265e-02f, 7.433068007e-02f, 1.264384296e-02f, 7.994088531e-02f,
    1.066974103e-01f, -2.932536788e-02f, 1.576156728e-02f, -7.043205947e-02f, -5.474094674e-02f, 1.733089238e-02f, -6.311054528e-02f, 1.940336265e-02f,
    2.473510802e-02f, -3.075650707e-02f, -1.372127980e-01f, -1.341365129e-01f, 3.567313403e-02f, 7.558785379e-02f, -4.674609005e-02f, -4.286259413e-02f,
    7.919837534e-02f, 1.273994446e-01f, -2.033924125e-02f, -7.917675376e-02f, -3.385727853e-02f, 7.546599954e-02f, -2.912026830e-02f, -7.819060236e-03f,
    -4.729611054e-02f, 5.513178185e-02f, 2.041766979e-02f, -1.030299142e-01f, -8.212845773e-02f, -1.339661796e-02f, -4.834601656e-02f, -9.980940819e-02f,
    -7.125681639e-02f, 6.204242632e-02f, -8.231823891e-02f, 1.307536662e-01f, 1.403211951e-01f, 5.440980196e-02f, -8.228629827e-03f, 1.632233709e-01f,
    1.660598516e-01f, -9.475998580e-02f, 2.974482253e-02f, 1.905288734e-02f, 1.808323413e-01f, -9.476809204e-02f, -9.860800207e-02f, 8.451256156e-02f,
    -9.659943730e-02f, 7.833862305e-02f, 8.365742117e-02f, -2.521855198e-02f, -3.207272664e-02f, 6.063020229e-02f, 3.845511377e-02f, 2.748456597e-02f,
    -5.397479981e-02f, -4.539902136e-02f, 3.769851476e-02f, -4.642181844e-02f, -2.679471858e-02f, 2.338868380e-02f, 5.392631143e-02f, -1.719578914e-02f,
    4.000417516e-02f, -4.400711134e-02f, -4.926405475e-02f, 3.132338822e-02f, 1.190442871e-02f, 2.062970586e-02f, 2.659560554e-02f, 5.299721658e-02f,
    1.675362885e-02f, -5.236879364e-02f, 2.693114616e-02f, -1.054696217e-01f, 1.522317436e-02f, 2.812917158e-02f, -1.142969206e-01f, -4.365513846e-02f,
    -3.143049404e-02f, -3.382005543e-02f, 4.832638055e-02f, -3.066255897e-02f, 2.114631236e-02f, -4.749904573e-02f, 5.440316629e-03f, 5.069082230e-02f,
    -1.060285717e-01f, -2.514926484e-03f, -4.852973390e-03f, 4.829801619e-02f, -8.235649765e-02f, 1.510677859e-02f, 4.691725224e-02f, 5.970406905e-02f,
    6.953690201e-02f, 3.839529678e-02f, -2.002619505e-01f, -2.341402695e-02f, -1.886536554e-02f, -2.377806045e-02f, -7.744614035e-02f, -7.439008355e-02f,
    -7.194072753e-02f, -1.128522381e-01f, -4.969485477e-02f, -9.919907153e-02f, 1.028870698e-02f, -6.697037071e-02f, 1.792895491e-03f, -1.264774650e-01f,
    -8.765310049e-02f, 6.527983351e-04f, 1.452296525e-01f, 9.828635491e-03f, 6.309262663e-02f, 1.398234367e-01f, 9.797812253e-02f, 1.132235378e-01f,
    1.423725635e-01f, 1.349220723e-01f, 1.594582796e-01f, 7.542223483e-02f, -5.279534310e-02f, -8.749690652e-02f, -5.457947403e-02f, -5.205968767e-02f,
    5.822085217e-02f, -3.959313780e-02f, -9.505184740e-02f, -1.136930753e-02f, -2.116400901e-05f, -7.298538089e-02f, 5.413486063e-02f, -1.027922425e-02f,
    9.745695442e-02f, -8.122174069e-03f, -1.385380421e-02f, -3.135639802e-02f, 1.494725198e-01f, 2.137049474e-02f, 7.198166847e-02f, -1.426016167e-02f,
    -3.611981124e-02f, 2.324195579e-02f, 1.430741977e-02f, -4.631674662e-02f, -9.283590317e-02f, 2.321582288e-02f, -7.384061068e-02f, -9.566618502e-02f,
    -6.687352806e-02f, -8.324106038e-02f, 2.117793309e-03f, -7.994662970e-02f, 4.227284715e-02f, 3.523014113e-02f, -9.052062780e-02f, -1.062644348e-01f,
    -6.535231322e-02f, -7.164162234e-04f, -1.779143326e-02f, -9.843522310e-02f, 6.377471611e-03f, 1.258116309e-02f, -7.833505422e-02f, -3.532447666e-02f,
    2.736380696e-02f, 1.400055140e-01f, 1.797088236e-01f, 9.664008021e-02f, 5.968581513e-02f, 4.464675114e-02f, 7.658964489e-03f, 1.950692534e-01f,
    1.262588240e-02f, 6.707359850e-02f, 8.816688508e-02f, -2.800621465e-02f, 5.032411963e-02f, -1.132742465e-01f, 7.553331554e-02f, -8.899088949e-02f,
    1.768979430e-02f, -6.491820328e-03f, -8.133246563e-03f, -5.891640112e-02f, 7.913430035e-02f, -1.026005298e-01f, -4.101950675e-02f, 5.925312266e-02f,
    -5.499551445e-02f, 6.982108206e-02f, -1.025230363e-01f, -4.353180528e-02f, -6.107687950e-02f, 4.856258631e-03f, 1.009582058e-01f, -5.149571598e-02f,
    -9.274626523e-02f, 6.245284528e-02f, 2.636886761e-02f, 1.497683022e-02f, 2.386100963e-02f, -5.218049511e-03f, 5.137643963e-02f, -1.136370818e-03f,
    -7.475005090e-02f, -5.266283453e-02f, -3.647267818e-02f, 4.157122970e-02f, -3.321565688e-02f, 5.438560992e-02f, 3.614385054e-02f, -4.214441404e-02f,
    -5.567333661e-03f, -1.115015335e-02f, -6.606300175e-02f, -4.056322388e-03f, -1.103380546e-01f, 3.498090059e-02f, 2.946511668e-04f, 3.513682634e-02f,
    5.421770364e-02f, -9.334251285e-03f, 4.033395648e-02f, -2.069474570e-02f, -1.278085411e-01f, 4.566312127e-04f, -2.347353660e-02f, 3.122209944e-02f,
    -1.932213828e-02f, -7.583730668e-02f, -1.229992360e-01f, 1.953549311e-02f, -1.135749742e-01f, -1.410025805e-01f, -1.250719875e-01f, 5.393479019e-02f,
    -4.620614275e-02f, 9.421166778e-02f, 1.040850952e-01f, 1.932840049e-01f, 3.952654824e-02f, 2.160562426e-01f, 1.796632856e-01f, 2.022667378e-01f,
    1.403234899e-01f, -3.912664577e-02f, -8.387259394e-02f, 1.541207824e-02f, -1.040498912e-01f, 2.562229708e-02f, 4.145995528e-02f, -5.854968354e-02f,
    -5.600266904e-02f, 4.578353092e-02f, 4.293563589e-02f, 2.720730752e-02f, 8.270862512e-03f, 7.803142816e-02f, 5.282717291e-03f, -5.949151702e-03f,
    -7.353806496e-02f, 2.886776347e-03f, -8.484876901e-02f, -4.931291193e-02f, -5.952564254e-02f, 6.939596031e-03f, -2.061663754e-02f, -4.912289605e-02f,
    -1.264437288e-01f, -6.742575020e-02f, -2.663446590e-02f, 9.950222820e-02f, -1.750935242e-02f, 1.902445592e-02f, 3.476471454e-02f, -3.329748288e-02f,
    2.597201057e-02f, 9.516574442e-02f, 9.912361205e-02f, -1.733510755e-02f, -1.068972703e-02f, -4.065505788e-02f, 6.576768123e-03f, 1.735691354e-02f,
    3.207457066e-02f, 1.193530336e-01f, 5.910821259e-02f, 1.409231275e-01f, 2.108624205e-02f, 4.502024129e-02f, 7.018285338e-03f, -7.024625689e-02f,
    -1.255687326e-02f, -7.853895426e-02f, 4.389123991e-03f, 3.507652506e-02f, 1.245570369e-02f, 2.645710669e-02f, -6.770351529e-02f, 1.253132336e-02f,
    2.261498012e-02f, -8.998614550e-02f, 5.274383351e-02f, 4.645760357e-02f, -6.338859349e-02f, -2.019410953e-02f, 6.872443855e-02f, 1.266921405e-02f,
    -1.118554324e-01f, -7.336506993e-02f, 1.395095605e-02f, -9.666603059e-02f, -9.913433343e-02f, -1.001759619e-02f, -1.967493631e-02f, 4.605116695e-02f,
    1.587135494e-01f, 1.690027416e-01f, 2.035524845e-01f, -9.799244814e-03f, -3.674935922e-02f, -3.241853788e-02f, 1.072117835e-01f, -7.040423900e-02f,
    2.902546199e-03f, 9.231665730e-02f, 5.102854222e-02f, -7.694914937e-03f, -1.099128276e-01f, -4.985387251e-02f, -2.558069490e-02f, -1.021091193e-01f,
    8.346398920e-02f, 6.213337183e-02f, 1.072400138e-01f, -5.393430218e-02f, 2.790575475e-02f, 1.034903228e-01f, 1.253227741e-01f, 1.829888113e-02f,
    -3.745219857e-02f, -5.741052702e-02f, -1.901325881e-01f, -1.299099177e-01f, -4.636539519e-02f, 3.536171094e-02f, -5.617759377e-02f, 6.025127601e-03f,
    -1.934223063e-02f, 1.174668130e-02f, 1.028526947e-02f, -1.177350581e-01f, 1.520517934e-02f, 2.047352493e-02f, -4.906151444e-02f, -1.466204878e-03f,
    -3.447045758e-02f, -1.444504112e-01f, -1.157969087e-01f, -3.908358887e-02f, -3.728740662e-02f, -4.348727688e-02f, -7.936267555e-02f, 2.073429711e-02f,
    6.768750492e-03f, -4.167514667e-02f, -2.125015296e-02f, -7.628459483e-02f, -1.798326895e-02f, -8.626245707e-02f, 2.214696817e-02f, 3.703521565e-02f,
    1.411777288e-01f, 1.910742968e-01f, 1.081852466e-01f, -1.008130312e-01f, -8.820432425e-02f, -1.191502810e-01f, -1.122641489e-01f, -1.574929431e-02f,
    7.414441556e-02f, -5.035476014e-02f, 5.985752866e-02f, 4.748481885e-02f, 4.967515171e-02f, 1.280727983e-01f, 1.726876944e-01f, 2.594992518e-01f,
    3.128155172e-01f, 2.025019377e-01f, -1.968435198e-01f, -1.428066641e-01f, 6.395152211e-02f, 2.619249001e-02f, -1.873654313e-02f, -1.136906594e-01f,
    -1.154252589e-01f, -1.293761581e-01f, -1.436285973e-01f, -5.328352004e-02f, -5.364881828e-02f, -8.917584084e-03f, -1.137019172e-01f, -1.131163836e-01f,
    -2.378766984e-02f, 5.197509006e-02f, 1.193718910e-01f, 1.383757889e-01f, 1.047223657e-01f, 1.464011967e-01f, 8.523190394e-03f, -1.850337349e-02f,
    -1.676113345e-02f, 1.309249252e-01f, 9.567668289e-02f, -2.729194425e-02f, -1.619760990e-01f, -4.240238294e-02f, -2.388618421e-03f, -8.372277766e-02f,
    -5.659878999e-02f, 2.291299216e-02f, 2.852257900e-02f, -6.777337939e-02f, -1.100720689e-01f, 1.988517307e-02f, -1.547697466e-03f, 7.828526199e-02f,
    4.346638173e-02f, 7.587064058e-02f, 7.154233009e-02f, 1.662060022e-01f, 1.499137282e-01f, 1.245530099e-01f, -2.529026195e-02f, -8.730880916e-02f,
    -8.204885572e-02f, 1.885658130e-02f, 4.327199236e-02f, 7.316829264e-02f, 3.446024284e-02f, 6.792458147e-02f, -2.140768245e-02f, -2.673174441e-02f,
    2.992708422e-02f, -5.985608324e-02f, -7.406909019e-02f, 2.976277098e-02f, 2.005560845e-01f, 1.338012218e-01f, -8.927321434e-02f, -1.729367822e-01f,
    -2.130116075e-01f, -1.817947924e-01f, -1.572633982e-01f, 8.959081024e-02f, 5.237883702e-02f, 2.742151916e-02f, -9.289257973e-02f, -9.538204223e-02f,
    1.508639157e-01f, 2.795369923e-01f, 2.163384706e-01f, 1.723848581e-01f, 1.583151966e-01f, -5.371182039e-02f, -3.229872789e-03f, -2.740901895e-02f,
    5.404157192e-02f, 2.824454010e-02f, 7.135479152e-02f, -7.250867039e-02f, -2.049742490e-01f, -1.589801013e-01f, -1.167936698e-01f, 1.324485894e-02f,
    -6.343744695e-02f, -1.141643152e-01f, 6.791340560e-02f, 1.013043337e-02f, -6.638623774e-02f, -3.479622537e-03f, 1.192962825e-01f, 9.429270029e-02f,
    -4.293351620e-02f, -1.290579736e-01f, -6.781563908e-02f, -6.160131097e-02f, -1.256351620e-01f, -1.049548313e-01f, -1.091279238e-01f, -1.952617168e-01f,
    -7.454386353e-02f, -2.258428745e-02f, 3.873633966e-02f, 8.013372123e-02f, 2.811953612e-02f, -3.035337850e-02f, -1.560056349e-03f, 5.003414303e-02f,
    -9.470854886e-03f, -2.229511365e-02f, -4.412453994e-02f, -1.466059033e-02f, -1.162799448e-02f, -9.865359962e-02f, 8.843412623e-03f, -5.785511062e-02f,
    -7.501885295e-02f, 6.716326345e-03f, -2.693854086e-02f, 1.354091428e-02f, -8.407958597e-02f, -5.307090282e-02f, 6.314824522e-02f, -5.269919708e-02f,
    -1.165847294e-02f, 7.181457430e-02f, -3.921674099e-03f, -6.672416348e-03f, -7.424661890e-03f, 5.385052040e-02f, -2.732568234e-02f, 6.400109082e-02f,
    -3.654683754e-02f, 9.309550375e-02f, 2.350975201e-02f, 1.293259710e-01f, 1.002777219e-01f, -9.019144811e-03f, 6.070088223e-02f, 1.043620184e-01f,
    -4.716796428e-02f, 1.492913906e-02f, -6.752222031e-02f, 5.519840866e-02f, -1.203730628e-01f, -8.989024907e-02f, 9.181976318e-02f, -2.394140000e-03f,
    -4.945077747e-02f, 5.367009714e-02f, 1.302050054e-01f, 1.411260962e-01f, -6.673616916e-02f, -7.993899286e-02f, 3.837838769e-02f, 3.616346046e-02f,
    -7.827071473e-03f, 1.177621782e-01f, -1.494891010e-02f, -1.474486887e-01f, -3.235622123e-02f, 8.639357984e-02f, 4.508151487e-02f, -8.446527272e-02f,
    -1.450135112e-01f, 2.160499431e-02f, 3.777299449e-02f, 3.550946712e-02f, -1.611995548e-01f, -2.859460562e-02f, -9.595415741e-02f, -6.340607256e-02f,
    -9.257869422e-02f, -5.634550750e-02f, 2.947948175e-03f, 5.045615509e-02f, -2.198150754e-02f, -1.025616974e-01f, -2.617138252e-02f, -2.786640078e-02f,
    -5.259332433e-02f, 9.525645524e-02f, 7.415802777e-02f, -2.329747565e-02f, -1.029624511e-02f, 2.997597307e-02f, -6.094588339e-02f, -4.526023194e-02f,
    -3.625236452e-02f, 4.837078601e-02f, 7.135720458e-03f, 3.908138350e-02f, -8.654098958e-03f, -9.571097791e-02f, 1.106751040e-01f, -2.625245601e-02f,
    7.634446025e-03f, -8.099032566e-04f, -6.775347888e-02f, -4.770818353e-02f, 2.311469242e-02f, -3.671968728e-02f, 2.392942831e-02f, -1.115706656e-02f,
    -9.246827662e-02f, 8.720848709e-03f, -4.827018455e-02f, -1.182565279e-02f, -1.604743861e-02f, -6.709152460e-02f, 5.370975658e-02f, 1.119692177e-01f,
    7.742946595e-02f, -4.415689502e-03f, -2.741831355e-02f, -1.061624810e-01f, -1.360711902e-01f, -1.022339761e-01f, -1.086510345e-01f, -4.109561816e-02f,
    -1.164844781e-01f, 1.637308300e-02f, -1.981087402e-02f, -1.797054112e-01f, -1.102046147e-01f, 1.019448489e-01f, 9.745644033e-02f, -5.184753612e-02f,
    -5.306231603e-02f, -6.534859538e-02f, 3.358276188e-02f, -2.841055579e-02f, 4.772838205e-02f, 5.135769024e-02f, -2.444278449e-02f, -8.231779933e-02f,
    -7.111960649e-02f, -2.624068223e-02f, -3.989977390e-02f, -1.302932650e-01f, -6.008290127e-02f, 7.471571118e-02f, 1.114093438e-01f, -1.345512569e-01f,
    3.733072430e-02f, 1.404399872e-01f, 7.653439790e-02f, 6.964931730e-03f, 1.392063946e-01f, 1.464489400e-01f, 1.009836122e-01f, -1.580154523e-02f,
    -9.023552388e-02f, 5.726424605e-02f, -7.318764925e-02f, 1.119944919e-02f, -5.937090516e-02f, -2.831573039e-02f, 6.186513230e-02f, 4.726880416e-02f,
    -6.333491951e-02f, 8.556818217e-02f, -4.522975162e-02f, -5.510261655e-02f, 1.558378525e-02f, 4.215068370e-02f, 6.624469161e-02f, 6.252438575e-02f,
    9.442438185e-02f, 5.086729769e-03f, 4.994689301e-02f, -3.897694126e-02f, 6.565961242e-02f, -9.024041146e-02f, 2.252464183e-02f, -7.627437264e-02f,
    -4.029055685e-02f, 2.335740998e-02f, 1.914739236e-02f, 8.812081814e-02f, 1.005306244e-01f, 1.121055484e-01f, 4.380097613e-02f, 7.306121290e-02f,
    -3.445825726e-02f, -1.417863183e-02f, 1.075070873e-01f, 1.147301793e-01f, 1.574787684e-02f, -1.071399674e-01f, -1.764358021e-02f, -7.295715157e-03f,
    3.754615411e-02f, -5.250914395e-02f, 2.558784187e-02f, -4.969387501e-02f, 1.349030286e-01f, 1.062353477e-01f, 8.493810892e-02f, 4.503752664e-02f,
    2.252550237e-02f, 1.196195036e-01f, 1.078113988e-01f, -2.620739304e-02f, -1.224242970e-01f, -1.189643592e-01f, -8.297674358e-02f, -6.431105733e-02f,
    -2.028437853e-01f, -1.069721133e-01f, -2.142582536e-01f, -6.234742701e-02f, -6.907004118e-02f, -1.928956658e-01f, -1.512722373e-01f, -1.648049802e-01f,
    -9.429707378e-02f, 5.914720893e-02f, 2.729126625e-02f, -6.056591496e-02f, 3.998653591e-02f, 1.066384241e-01f, 5.574487150e-02f, 4.610159993e-02f,
    1.173802465e-01f, 6.211626530e-02f, 1.300364286e-01f, 7.821650803e-02f, -2.705518901e-02f, 9.672894143e-03f, -2.281354927e-02f, -2.110335045e-02f,
    -8.105557412e-02f, -9.082760662e-02f, -4.444338754e-02f, -3.612765297e-02f, -9.120121598e-02f, 8.038023114e-02f, 3.298086300e-02f, 6.201979239e-03f,
    8.292237669e-02f, 1.184188947e-01f, 9.639446437e-02f, 3.214911744e-02f, 3.998016939e-02f, 1.059772074e-01f, 4.747282341e-02f, -1.048971992e-02f,
    -7.611788809e-02f, 6.575576961e-02f, -8.133256808e-03f, 5.580571666e-02f, 9.766255319e-02f, 9.021424688e-03f, 3.690011799e-02f, 1.168868393e-01f,
    5.754486471e-02f, 1.834321953e-02f, -3.594082966e-02f, -4.080275074e-02f, -2.204145864e-02f, -3.350601066e-03f, 2.720094519e-03f, -1.630701423e-01f,
    -1.631009728e-01f, -1.731423587e-01f, -2.005639523e-01f, -4.384607449e-02f, -1.119140312e-01f, -1.579806507e-01f, -4.314428568e-02f, 1.935914718e-02f,
    1.512772497e-02f, 9.989421070e-02f, 3.109517880e-02f, 8.717108518e-02f, 7.913712412e-02f, 7.935363054e-02f, -2.344322205e-02f, 8.196946234e-03f,
    2.032218501e-03f, 1.335165347e-03f, -3.407556564e-02f, -1.691268235e-01f, -9.371811897e-02f, -2.221562862e-01f, -1.049522981e-01f, -9.370279312e-02f,
    -6.831758656e-03f, -9.594566375e-02f, 1.443231665e-02f, -3.288524598e-02f, 1.499908268e-01f, 1.299276203e-01f, 1.565622836e-01f, 1.034699231e-01f,
    4.929911718e-02f, -8.987098187e-02f, 1.555614024e-01f, 6.471522152e-02f, -1.436508447e-02f, -1.514151990e-01f, -9.061692655e-02f, -9.366121143e-03f,
    -4.635143280e-02f, 8.193286508e-02f, -1.949635707e-02f, -6.375896186e-02f, 6.701172143e-02f, 3.779190034e-02f, -3.546965867e-02f, -3.061845712e-02f,
    3.717206791e-02f, 2.008797973e-02f, 4.579622298e-02f, 6.695462763e-02f, 8.211049438e-02f, 2.267039567e-02f, -4.187611118e-02f, -4.465807974e-02f,
    -8.425703645e-02f, -8.665923774e-02f, 2.424982085e-04f, 2.117821574e-02f, -4.056896269e-02f, 4.987205565e-02f, -9.045065194e-02f, 7.077490538e-02f,
};

static const float conv2_bias[16] = {
    7.447747886e-02f, 5.631250888e-02f, -2.467142045e-02f, 5.910716951e-02f, -6.803573668e-02f, 1.869910210e-02f, 4.813993350e-03f, -3.330698237e-02f,
    3.970233351e-02f, -7.620252669e-02f, 3.214340657e-02f, -4.613762349e-02f, -7.789914310e-02f, 6.692230701e-02f, -4.501504079e-02f, -3.848914802e-02f,
};

static const float conv3_weight[48000] = {
    -1.002687309e-02f, -1.411831658e-02f, 3.661879105e-03f, 2.704821341e-02f, 6.108238548e-02f, -5.990772625e-04f, 6.904420443e-03f, -3.670386225e-02f,
    -4.011814296e-02f, -3.064769693e-02f, 1.423364622e-03f, -6.094052270e-02f, 3.168550506e-02f, 2.576911636e-02f, 2.945477702e-02f, -2.235685661e-02f,
    -1.107692905e-02f, -1.119883638e-02f, -1.991305873e-02f, -4.223028570e-02f, -6.713466719e-03f, 1.316622947e-03f, -3.458368778e-02f, 6.524480134e-02f,
    1.451405045e-02f, -1.650393568e-02f, 5.910794437e-02f, 2.812270261e-02f, 2.361941338e-02f, 2.190177329e-02f, 2.796608396e-02f, -1.919352263e-02f,
    2.457125485e-02f, 2.496530116e-02f, -3.424594551e-02f, 1.125829145e-01f, 1.046961844e-01f, 9.372705594e-03f, -2.291761152e-02f, 3.664068878e-02f,
    -2.140018158e-02f, 1.990170404e-02f, 4.080514982e-02f, 4.530628026e-02f, 6.701390259e-03f, -6.359666586e-02f, -1.887482591e-02f, -4.317681491e-02f,
    -8.938115090e-03f, 1.064661890e-02f, -3.452280071e-03f, 1.652143896e-02f, 1.242017560e-02f, -3.760185838e-02f, 1.670869812e-02f, 1.644404419e-02f,
    1.366506144e-02f, -7.833210751e-03f, 6.507453509e-03f, -1.676412299e-02f, 5.899888347e-04f, -2.194216102e-02f, 9.588121437e-03f, 2.386092953e-02f,
    4.885743931e-02f, -4.625875130e-02f, -3.446224704e-02f, 4.840479698e-03f, 1.003556326e-02f, 7.099516224e-04f, 1.667828672e-02f, -4.544037394e-03f,
    6.903111003e-03f, -1.207345724e-02f, 3.037988581e-02f, 5.844653770e-02f, -3.933772817e-02f, -2.934048697e-02f, 9.794757934e-04f, 4.157027602e-02f,
    -7.482533343e-03f, -2.190549485e-02f, -3.920212016e-02f, 3.751652315e-02f, -1.869228669e-02f, 9.374114685e-03f, -2.518121339e-02f, 2.863011556e-03f,
    3.530223668e-02f, 6.395797711e-03f, -2.350405790e-02f, -1.660390943e-02f, 2.241157554e-02f, 3.994607553e-02f, 4.034554586e-02f, -2.403112315e-02f,
    -4.987151548e-02f, -4.308941588e-02f, -2.441197820e-02f, -3.451985685e-05f, -1.142289676e-02f, 3.365360200e-02f, -2.254233696e-02f, -1.516076177e-02f,
    2.499475703e-02f, -8.674827404e-03f, -6.634554267e-02f, -3.455992043e-02f, 3.756948933e-02f, -4.143305868e-02f, -2.362816408e-02f, -1.520937961e-02f,
    2.071036398e-02f, -5.608698726e-02f, 3.664534166e-02f, -1.242811605e-02f, 5.916877184e-03f, -5.964703113e-02f, 1.683761179e-02f, 3.908229619e-02f,
    -3.386250511e-02f, -1.434427779e-02f, 8.621695451e-03f, -2.884561755e-02f, -3.771615028e-02f, 7.523962855e-02f, 1.043483056e-02f, 8.488979191e-03f,
    -3.333985806e-02f, -2.848629467e-02f, -2.505103499e-02f, -7.155028731e-02f, -4.563528928e-04f, -9.815024585e-02f, 1.568201184e-02f, -7.846565917e-03f,
    -1.098080203e-01f, 1.433372032e-02f, -1.021313667e-02f, -4.589981958e-02f, 1.149997860e-02f, -5.314828828e-02f, 2.529201098e-02f, 2.563088201e-03f,
    -3.445707262e-02f, 1.643335074e-02f, -1.603353187e-03f, -1.522074174e-02f, 2.462400496e-02f, -1.675290987e-02f, -3.488248959e-02f, 5.292297527e-02f,
    4.585650191e-02f, -4.104748741e-02f, -3.799999505e-02f, -2.473648265e-02f, 4.134386778e-03f, 3.681768477e-02f, -3.278119117e-02f, -4.214562476e-02f,
    4.892052338e-02f, -2.258691378e-02f, -1.292601321e-02f, 2.235984802e-02f, -1.971704327e-02f, 4.025715217e-02f, 3.410133347e-02f, -1.033065002e-02f,
    6.560229510e-02f, 9.835667908e-03f, -2.873545326e-02f, 1.508892979e-02f, 8.096815087e-03f, -2.571519278e-02f, 4.013384692e-03f, 2.307548001e-02f,
    -4.378281161e-02f, -1.947581954e-02f, -3.762764158e-03f, -3.392042220e-02f, 4.503980279e-02f, -2.093865350e-02f, -8.215606213e-03f, 4.447144642e-02f,
    -3.048595972e-02f, -1.793524064e-02f, 5.371388048e-02f, -4.315826669e-02f, 5.996258184e-02f, -3.155306727e-02f, -2.138655400e-03f, -4.911817983e-02f,
    2.613595687e-02f, 2.781692147e-02f, -2.597166784e-02f, 2.428961452e-03f, 8.670766838e-03f, 1.418421307e-04f, 4.531193525e-02f, -1.255428791e-02f,
    4.183546081e-02f, 2.094243281e-02f, 1.019747742e-02f, -1.903456450e-02f, 2.029366791e-02f, 2.167561278e-02f, 5.438614637e-02f, -3.395697102e-02f,
    1.556265634e-02f, -7.675511390e-02f, 5.815821514e-02f, 4.865854979e-02f, -2.810197137e-02f, -4.012909532e-02f, -1.548863295e-02f, -1.844500564e-02f,
    -6.111504510e-02f, 7.464412134e-03f, -2.766222134e-02f, 2.020247467e-02f, -5.730195716e-02f, -4.065759480e-03f, -4.680840764e-03f, -1.736510918e-02f,
    4.678530246e-02f, 3.691583872e-02f, 8.717022836e-02f, 5.381578952e-02f, 3.416464478e-02f, -2.401588019e-03f, -2.120437287e-02f, 1.844836026e-02f,
    -3.677359223e-02f, 6.725419313e-03f, -3.592173010e-02f, -2.966225147e-02f, -1.278658807e-01f, -6.963790953e-02f, -8.444500715e-02f, -3.729988635e-02f,
    -4.374021292e-02f, -6.597860903e-02f, -5.183972046e-02f, -6.014562398e-02f, 2.666371642e-03f, -2.070737304e-03f, -2.993295714e-02f, -5.879709497e-02f,
    -4.921333864e-02f, 1.068848930e-02f, 4.986910522e-02f, 4.975491203e-03f, 3.980364650e-02f, -3.412370756e-02f, 3.630339354e-02f, -3.473272547e-02f,
    -3.775503719e-03f, -4.286801070e-02f, -2.900358662e-02f, -1.469207928e-02f, -7.323680073e-02f, -2.856840566e-02f, 3.347918764e-02f, -2.190799452e-02f,
    2.571989037e-02f, -7.393172709e-04f, -2.934593707e-02f, -4.628296942e-02f, 2.358125150e-02f, -4.070542380e-02f, -2.303585783e-02f, 8.782288991e-03f,
    4.942007735e-02f, 5.918319221e-04f, 3.916094825e-02f, 3.558679670e-02f, -5.115072057e-02f, -5.464037508e-02f, -5.797886476e-02f, 1.746255159e-02f,
    5.466890987e-03f, -5.218476802e-02f, -2.728332952e-02f, 3.632310405e-02f, 6.706610322e-03f, -5.381335318e-02f, -3.764037788e-02f, 1.442040876e-02f,
    -3.405680507e-02f, -2.700860985e-02f, -7.137242705e-02f, -4.681250080e-03f, 4.664105177e-02f, 8.464502543e-02f, 4.824883863e-02f, -1.523748785e-02f,
    -1.691932976e-02f, -3.114255378e-03f, -2.050568350e-02f, -2.611098997e-02f, 1.742361230e-03f, 4.755993932e-02f, 7.274723798e-02f, -3.410835192e-02f,
    -4.214546084e-02f, -3.718992695e-02f, -6.589585682e-04f, 4.033567384e-02f, -8.750198409e-03f, 2.392578125e-02f, 4.210583400e-03f, -1.294324268e-02f,
    4.474501684e-02f, -5.751775578e-02f, -8.677335456e-03f, 3.658573702e-02f, -9.221545421e-03f, 1.800702326e-02f, 1.851088926e-02f, -7.898842916e-03f,
    -3.584147990e-02f, -8.949073032e-03f, -5.062343553e-03f, 2.017144300e-02f, 1.002495177e-02f, -6.761482358e-02f, 2.201123908e-02f, 1.067825556e-01f,
    7.995968312e-02f, 3.737667203e-02f, -1.941963285e-02f, 1.464469545e-02f, 4.698909074e-02f, -6.560202455e-04f, -1.020628400e-02f, -1.268688240e-03f,
    9.917264432e-02f, -2.133568778e-04f, -3.889766335e-02f, -4.339796677e-02f, -2.687675320e-02f, 3.658175468e-02f, 1.549423672e-02f, 5.333445221e-02f,
    3.669666126e-02f, 3.476224840e-02f, 1.259276643e-02f, 3.809772059e-02f, 7.767948508e-02f, -7.280623075e-03f, 1.646639407e-02f, 1.359453984e-02f,
    -5.343345180e-02f, 7.949718274e-03f, -5.693106446e-03f, -3.605411574e-02f, -2.626637928e-02f, -6.709381193e-02f, -9.714873508e-03f, -4.728943110e-02f,
    -4.995225370e-02f, -7.031540573e-02f, 1.885445416e-02f, -4.682428762e-02f, 5.261789635e-02f, -3.181796288e-03f, -2.426804975e-02f, 3.988476470e-02f,
    5.721749272e-03f, 4.650922492e-02f, -7.572561502e-03f, -4.232245684e-02f, 2.398175932e-02f, -4.961146042e-03f, -4.361157492e-02f, -2.155232802e-02f,
    6.605585665e-02f, 9.604065679e-03f, -5.052385479e-02f, -1.114099845e-02f, -6.975704432e-02f, -5.370200798e-02f, -2.479988709e-02f, 5.494435877e-02f,
    -4.240684211e-02f, -7.649540156e-02f, -5.132710189e-02f, -3.352919221e-02f, -2.853149548e-02f, 8.436823264e-03f, -3.933279961e-02f, -1.116187591e-02f,
    3.364500403e-02f, -9.007997811e-03f, 3.323834389e-02f, -3.950784449e-03f, 7.005063444e-02f, 5.332775414e-02f, -2.634871192e-02f, 1.108228322e-02f,
    -7.845868915e-02f, 1.994215185e-03f, -2.679897845e-02f, -3.918631375e-02f, 4.151986167e-02f, 1.799545251e-02f, 2.591741271e-02f, -1.622074470e-02f,
    4.012493882e-03f, -4.286698531e-03f, 3.566343337e-02f, 4.812637344e-02f, -6.720826961e-03f, 4.324479401e-02f, 5.673548579e-02f, 1.606478915e-02f,
    -4.879607260e-02f, 1.209839433e-02f, -5.040126666e-02f, -2.997376956e-02f, 5.097173899e-02f, 6.808754522e-03f, -2.426967584e-02f, 5.879899487e-02f,
    2.338906191e-02f, -1.025863364e-01f, -8.811827749e-02f, 1.947401837e-02f, 7.476641622e-05f, 5.965477228e-02f, -9.730519354e-02f, -1.298346929e-02f,
    8.318318427e-02f, 3.119518422e-02f, -1.139292773e-02f, 9.498639405e-02f, 1.274257302e-01f, 6.584464759e-02f, 5.639217421e-02f, 1.067086123e-02f,
    3.752042353e-02f, 1.275486797e-01f, 1.449139044e-02f, -4.924276471e-02f, -1.793053932e-02f, -1.031219400e-02f, 4.341085255e-02f, -2.997362800e-02f,
    -2.023595851e-03f, -2.686211281e-02f, -1.822802424e-02f, 1.378592849e-02f, 5.426120386e-02f, -3.184057772e-02f, -5.029255059e-03f, 7.823418081e-02f,
    7.028487162e-04f, -1.078194473e-02f, -1.896828413e-03f, -4.277065769e-02f, -1.102362759e-02f, 1.057300903e-02f, 1.481145155e-03f, 2.686308883e-02f,
    4.677191377e-02f, 6.879723165e-03f, -7.713718340e-03f, 6.984105334e-03f, 1.230747160e-02f, 1.249121502e-02f, 3.867320344e-02f, -3.030238114e-02f,
    -6.291706115e-03f, 3.090343438e-02f, 1.932402141e-02f, 2.604313195e-02f, 4.211830348e-02f, 5.149295926e-02f, 4.008982703e-02f, -2.562853321e-02f,
    -2.914713114e-04f, 6.578635424e-02f, -4.047333077e-02f, -6.335582584e-02f, 3.300407529e-02f, -6.219197065e-02f, -4.527928308e-02f, -1.566550136e-02f,
    2.354888432e-02f, 4.496494681e-02f, -1.642035507e-02f, 1.636911533e-03f, 4.715364426e-03f, 7.773277815e-03f, 2.455519885e-02f, -2.004271001e-02f,
    -2.233565040e-02f, -6.443854421e-02f, -2.654155158e-02f, 4.134147987e-02f, -1.913437154e-04f, 6.109499186e-02f, -3.066840954e-02f, 1.319883578e-02f,
    -5.235457327e-03f, 2.161919884e-02f, 2.357295714e-02f, -2.920359373e-02f, -4.074514378e-03f, 3.689501807e-02f, 3.894934058e-02f, -3.647805750e-02f,
    -1.527785417e-02f, -8.091477677e-03f, -1.106240228e-02f, 3.652343899e-02f, -2.028836496e-02f, -7.673565298e-03f, -1.873645000e-02f, 7.141355425e-03f,
    -5.034950748e-02f, -5.412697420e-02f, 5.598123744e-02f, -5.736644380e-03f, 9.670014493e-03f, 4.740341753e-02f, -5.201819539e-02f, -6.058131531e-02f,
    -6.029593945e-02f, -3.753772378e-02f, -3.859544918e-02f, -3.236594051e-02f, -6.996164471e-02f, -3.480847925e-02f, 6.995733082e-02f, 3.017397597e-02f,
    -2.861247398e-03f, -2.609268203e-02f, 4.894895479e-02f, 1.619189233e-02f, 1.143751442e-01f, 5.614872277e-02f, -1.557304990e-02f, 6.937619299e-02f,
    8.732852526e-03f, 6.388267130e-02f, -1.770066214e-03f, -8.925682306e-02f, -1.990343211e-03f, 2.270276193e-03f, -6.732828170e-02f, -5.642456934e-02f,
    -1.187589020e-02f, 5.272527039e-02f, 2.019480802e-02f, -6.260047108e-02f, 3.279957175e-02f, 1.713374816e-02f, 6.448684633e-02f, 3.824418178e-03f,
    1.771367528e-02f, -1.391446590e-02f, 1.149941329e-02f, -3.284495324e-02f, -4.481471330e-02f, -1.436898112e-02f, 4.248401150e-02f, 1.237202808e-02f,
    -1.798678003e-02f, -3.361028433e-02f, 2.117904089e-02f, 9.415810555e-02f, 3.085509501e-02f, -9.633044712e-03f, -4.701369442e-03f, -2.008744143e-02f,
    -2.501156926e-02f, -9.560775757e-02f, -4.742630944e-02f, -1.944797346e-03f, -9.461434558e-03f, 3.660949692e-02f, -5.709646642e-02f, 2.317388542e-02f,
    -4.155587032e-02f, 6.270009279e-02f, -1.069943421e-02f, 1.903852820e-02f, 9.598895907e-02f, -2.739616111e-02f, 4.096025601e-02f, -5.003279075e-02f,
    4.434643686e-02f, 1.011317447e-01f, 5.355075467e-03f, 4.472195357e-02f, -4.094459489e-02f, 1.483276766e-02f, 5.457070842e-02f, 2.056964673e-02f,
    -1.840401068e-02f, -3.160279244e-03f, -8.203669637e-02f, -7.289602607e-02f, -3.069914877e-02f, 5.177872628e-02f, 8.979973942e-02f, 3.033797257e-02f,
    -1.197250932e-01f, 1.638475806e-02f, 2.892245911e-02f, 1.604953967e-02f, 1.162499562e-01f, 2.077294281e-03f, 2.527192002e-03f, 5.484954268e-02f,
    1.147625875e-02f, 1.840602979e-02f, 1.875661872e-02f, 7.766711060e-03f, 8.493942022e-02f, 1.815812849e-02f, -3.580431640e-02f, -7.664676756e-02f,
    -7.974592037e-03f, 4.166611936e-03f, -2.389430068e-03f, 1.955804788e-02f, -7.551516593e-02f, -5.428171903e-02f, 7.478590310e-02f, 1.066261530e-01f,
    -3.237289563e-02f, 2.158376761e-02f, -6.389416009e-02f, 8.914816193e-03f, -5.842319131e-02f, -6.628722697e-02f, 4.476736300e-03f, -1.943757944e-02f,
    4.023279529e-03f, 1.444220543e-02f, -1.759721711e-02f, -6.706987321e-02f, -3.274127096e-02f, 1.190216374e-02f, -2.336157858e-02f, -1.692148484e-02f,
    -1.254555397e-02f, -3.050461970e-02f, -2.499171719e-02f, 6.974722445e-02f, 6.170519069e-02f, -9.401824325e-03f, 2.140414901e-02f, 7.202051580e-03f,
    4.156772420e-02f, -3.058355674e-02f, -2.774806879e-02f, -7.418600377e-03f, -3.823129460e-02f, -2.154525183e-02f, 1.672882773e-02f, 6.740253419e-03f,
    -3.705478448e-04f, -5.911738612e-03f, 4.230364412e-02f, -7.166604046e-04f, 1.574650779e-02f, 3.246828541e-02f, 9.458227083e-03f, 2.422684617e-02f,
    1.337848511e-02f, -4.276230186e-02f, -6.097820401e-02f, 3.229815513e-02f, 3.693422303e-02f, 2.584204264e-02f, 3.307938203e-02f, 1.057157107e-02f,
    -1.012125611e-02f, 3.267997876e-02f, 6.107525155e-02f, 3.756318241e-02f, -3.219264746e-02f, -3.973931819e-02f, -3.464035690e-02f, 3.996217251e-02f,
    -6.396364421e-02f, -4.497929662e-02f, -1.938153617e-02f, -9.072981775e-02f, -5.074573308e-02f, -6.098929420e-02f, -4.198721051e-02f, -3.599095717e-02f,
    1.004723832e-02f, -4.822455347e-03f, 5.565161258e-02f, 1.456891280e-02f, -6.894270331e-02f, 1.389868185e-02f, 6.195068359e-02f, -8.528628387e-03f,
    7.248663157e-02f, -4.307590425e-02f, -8.078780770e-02f, 2.742009237e-02f, 7.785479724e-02f, 6.194011657e-04f, 2.253330126e-02f, -2.040812001e-02f,
    -3.125692485e-03f, -5.939637776e-03f, -7.125379890e-02f, 3.482120112e-02f, 1.641759835e-02f, 1.778559759e-02f, -5.250821635e-02f, -3.882777318e-02f,
    -6.421594322e-02f, 7.084219158e-02f, 7.284988463e-02f, 5.626404285e-02f, 3.359641135e-02f, -2.943025902e-03f, -1.179278828e-03f, 5.565899611e-02f,
    6.687637419e-02f, 2.997644059e-02f, -5.644756183e-02f, 1.247386262e-02f, -8.589081466e-03f, 3.098696284e-02f, 1.139764190e-01f, -1.918634214e-02f,
    1.803007908e-02f, -2.073024865e-03f, -4.878197983e-02f, -8.548226207e-02f, -4.773372412e-02f, 7.348698378e-02f, 1.431690808e-02f, -3.005861305e-02f,
    -3.941467777e-02f, -4.351809248e-02f, -2.647798695e-02f, -2.877696231e-02f, -1.782536320e-02f, -3.046367876e-02f, 7.454273850e-02f, 1.123935916e-02f,
    1.139323413e-02f, 6.283990573e-03f, -3.731637821e-02f, 1.303209551e-02f, -1.292167157e-01f, -9.206378460e-02f, -3.797146305e-02f, 3.252479434e-02f,
    -9.480692446e-03f, -1.678847522e-02f, -7.568320259e-03f, 2.663355321e-02f, 5.156854168e-02f, 4.932392016e-02f, 7.287102938e-02f, -4.340393841e-02f,
    -2.581794932e-02f, 9.289895184e-03f, 4.831981286e-02f, -3.679650370e-03f, -2.896021865e-02f, -2.988080727e-03f, -3.825226054e-02f, -1.111350674e-02f,
    6.509789824e-02f, 8.297623694e-02f, 2.896906063e-02f, 6.605938822e-02f, 1.928474195e-02f, -9.067070670e-03f, -2.902736329e-02f, -1.759081706e-02f,
    -6.811626256e-03f, -1.103878543e-01f, -4.900799692e-02f, -4.364019632e-02f, -2.376650460e-02f, -3.914275765e-02f, -3.347174823e-02f, -4.372602701e-02f,
    -4.535183683e-02f, -8.694643155e-03f, -6.360954791e-02f, -3.411195800e-02f, -7.017730176e-02f, -5.999715999e-02f, -3.843867034e-02f, -6.759965327e-03f,
    -3.391657770e-02f, 4.608903080e-03f, 6.224644836e-03f, 3.691181540e-02f, 6.077346578e-02f, -1.066251379e-02f, -3.939235955e-02f, 2.253001370e-02f,
    5.844520405e-02f, 2.734388970e-02f, 2.096601017e-02f, 5.818755832e-03f, 8.840559050e-03f, 9.171747603e-03f, 4.893045127e-02f, -1.712865569e-02f,
    4.300770909e-02f, -2.850836329e-02f, -7.139925659e-02f, -5.394612253e-02f, -2.213523537e-02f, 5.303167924e-02f, 4.343135282e-02f, 7.362280041e-02f,
    -3.712016856e-03f, -5.452574417e-02f, 2.961569838e-02f, -4.798511975e-03f, 1.767862961e-02f, 3.403352574e-02f, 1.622044668e-02f, -2.874039672e-02f,
    -8.995799720e-02f, -3.433341335e-04f, 3.236818314e-02f, 6.711117178e-02f, 3.755551204e-02f, -5.327837169e-02f, -6.176228076e-02f, 2.726088464e-02f,
    -4.402750731e-02f, 1.149355900e-02f, 1.067425832e-01f, 7.556082308e-02f, 6.380763650e-02f, 9.193054400e-03f, 5.501684174e-02f, 3.508762922e-03f,
    3.571793810e-02f, -1.854598895e-02f, 5.149604753e-03f, -4.032134637e-02f, -4.341255873e-02f, 1.967151277e-02f, -4.263256676e-03f, 5.946624279e-02f,
    1.270499080e-03f, -2.510735067e-03f, -3.125983849e-02f, 1.294795796e-02f, -8.812515996e-03f, -2.655410906e-03f, 3.902206197e-02f, -1.413170341e-02f,
    -1.909210905e-02f, -1.329774875e-02f, 2.994616143e-02f, -2.837410569e-02f, -4.334731773e-02f, -2.616590634e-02f, -1.503600739e-02f, -5.824463814e-02f,
    1.238309871e-02f, -3.572764993e-02f, 2.191974409e-02f, -4.319480434e-02f, -3.752588527e-03f, 1.259387285e-02f, 3.479175642e-02f, 1.945200190e-02f,
    -3.301846609e-02f, -2.743494930e-03f, -4.971473292e-02f, -1.179994829e-02f, 2.374272421e-02f, -5.504736677e-02f, 2.286879532e-02f, 3.657670319e-02f,
    -3.252917528e-02f, -1.278236602e-02f, -3.926511481e-02f, 5.643998086e-02f, 1.247850712e-02f, -3.365142271e-02f, -1.704091788e-03f, -3.738830984e-02f,
    -3.321044147e-02f, 1.691330969e-02f, -1.248946227e-02f, 4.718276206e-03f, 6.512348540e-03f, 5.687664263e-03f, -3.221061453e-02f, 2.512159012e-02f,
    -2.709582448e-03f, -1.085222233e-02f, -4.778965376e-03f, 2.508486249e-02f, 5.769023672e-02f, 4.628944397e-02f, -5.342921615e-02f, 1.918368042e-02f,
    7.360664755e-02f, 5.342620984e-02f, 2.733871154e-02f, -1.297066733e-02f, -5.140752345e-02f, -5.670909304e-03f, -3.451334313e-02f, 1.135432627e-02f,
    -3.821270168e-02f, -2.716823667e-02f, 9.850710630e-04f, 4.061675444e-02f, 2.709475346e-02f, -2.778623067e-02f, -5.359596759e-02f, -1.734569483e-02f,
    3.938467428e-02f, -4.099471495e-02f, -2.842096426e-02f, -1.030539721e-01f, -1.206910051e-02f, -7.363975793e-02f, 4.101514444e-02f, -1.665026322e-02f,
    5.462190881e-02f, -8.640543371e-02f, -5.902226269e-02f, -4.207505845e-03f, -1.348535623e-02f, 8.756136894e-02f, -6.134231389e-02f, -2.967050299e-02f,
    4.338923842e-02f, -1.650638692e-02f, -3.151921928e-02f, 4.150848463e-02f, -2.670185640e-02f, 1.076569036e-02f, 1.963222027e-02f, 2.000413090e-02f,
    4.075417761e-03f, 1.928539830e-03f, -1.069478411e-02f, -2.268684283e-02f, -2.803929523e-02f, 1.731190458e-02f, -3.116414510e-02f, -3.951743618e-02f,
    -1.217761450e-02f, -3.210520372e-02f, -4.330047220e-02f, 3.705591429e-03f, -3.970062733e-02f, -2.386245318e-02f, 1.790306903e-02f, 6.062807888e-02f,
    8.540250361e-02f, 1.587178744e-02f, 1.235764381e-02f, -2.334480733e-02f, 4.807362333e-03f, 6.010049582e-02f, 2.711383253e-02f, 2.201337740e-02f,
    -4.542800784e-02f, 2.283404954e-02f, -1.144770719e-02f, 7.090684772e-02f, 1.206817757e-02f, 2.707474679e-02f, -5.425538868e-02f, -1.779659535e-03f,
    4.194558039e-02f, -1.025908627e-02f, 1.810424589e-02f, -7.516063750e-03f, -3.087322786e-02f, 9.821975604e-03f, -2.977214940e-02f, 1.214765664e-02f,
    -4.228208214e-02f, 4.828850180e-02f, 4.216722026e-02f, 2.109869383e-02f, -5.261894688e-02f, 2.952164784e-02f, -3.935298696e-02f, 5.919967219e-02f,
    -1.056136657e-02f, -1.828297228e-02f, -3.427081555e-02f, 5.305475742e-02f, -1.214641612e-03f, 3.460064298e-03f, -8.882831316e-04f, 1.476988290e-02f,
    -6.519881636e-02f, 3.400306404e-02f, 4.881244525e-02f, 1.444283687e-02f, 5.645749345e-02f, -2.452615276e-02f, -6.348815560e-02f, -9.338272735e-03f,
    -3.900303319e-02f, 1.905364450e-03f, 1.211065426e-02f, 1.004631445e-02f, 1.300684526e-03f, -1.773685589e-02f, -7.452564687e-02f, -2.767176554e-02f,
    -4.169331491e-02f, -8.991096169e-03f, 5.091501772e-02f, 2.859609388e-02f, 5.935632065e-02f, -3.138925508e-02f, -2.850641031e-03f, 2.316393144e-02f,
    -5.327190086e-02f, 2.367064357e-02f, -2.111005411e-02f, 1.260544267e-02f, -2.437964827e-02f, 3.622036800e-02f, -4.088002897e-04f, -2.379181609e-02f,
    -2.951677702e-02f, 2.491964214e-02f, -4.076910671e-03f, 8.674894460e-03f, -4.401260242e-02f, -3.377084807e-02f, -4.851391539e-02f, -8.263685554e-02f,
    7.877336442e-02f, -1.574085094e-03f, 6.383303553e-03f, 5.045016110e-02f, -4.545458034e-02f, -5.029069632e-02f, -2.121358365e-02f, 2.269294485e-02f,
    -3.545759991e-02f, -4.966822267e-02f, 2.653019503e-02f, 5.067596957e-02f, 1.635051519e-02f, -3.168970346e-02f, 3.455692902e-03f, -3.837152198e-02f,
    -4.683493171e-03f, 2.414691634e-02f, 5.481145903e-02f, 1.183222421e-02f, -4.060331732e-02f, -4.416625947e-03f, -4.610169679e-02f, -1.546118781e-02f,
    -2.971031331e-02f, 5.371065065e-02f, 1.811236329e-02f, -1.244562119e-02f, 2.785031975e-04f, -5.663905293e-03f, -4.717133194e-02f, 2.982393280e-02f,
    2.485703211e-03f, 3.403009102e-02f, 2.767640539e-02f, 3.769570962e-02f, 4.002101719e-02f, 1.185703836e-02f, 6.614109129e-02f, 1.711934246e-02f,
    1.026608050e-01f, 2.964016236e-02f, 1.336912159e-03f, -2.476974856e-03f, 9.769802913e-03f, 2.686227113e-02f, -4.205350205e-02f, -3.991516680e-02f,
    -1.492333692e-02f, -1.120240521e-02f, -3.229291737e-02f, -2.069247141e-02f, 3.387708589e-02f, 5.486800149e-02f, -5.392496474e-03f, 1.874336274e-03f,
    2.627777308e-02f, -2.587556839e-03f, 3.515248373e-02f, -1.316266693e-02f, 2.077937685e-02f, -8.135127835e-03f, -3.719687462e-02f, 4.119081423e-02f,
    2.297108993e-03f, -1.313128509e-02f, -2.368554659e-02f, -1.866926253e-02f, -4.758046567e-02f, 2.464253642e-02f, 2.070432529e-02f, 4.024449736e-02f,
    -6.234705076e-02f, 4.441960528e-02f, 5.755080655e-02f, 5.811127648e-02f, 1.927293837e-02f, 4.584136419e-03f, 5.491171405e-02f, 1.074528135e-02f,
    8.951222897e-02f, 1.721192338e-02f, 2.655360289e-02f, 4.951452836e-03f, -6.384108216e-02f, 4.876388609e-02f, 3.207761049e-02f, -6.322822068e-03f,
    2.615592256e-02f, 2.110931650e-02f, 7.981313020e-02f, 4.257374443e-03f, -5.682418495e-02f, 1.989921369e-02f, -1.310794521e-02f, -3.812180134e-03f,
    -2.324379794e-02f, -6.800607592e-02f, 2.526701614e-02f, 1.854250580e-02f, -2.728575375e-03f, -1.865886897e-02f, 2.105985768e-02f, -2.975125099e-03f,
    -3.363096341e-02f, 2.994856797e-02f, 2.647582674e-03f, -8.892224170e-03f, -4.961729050e-02f, 5.772488657e-05f, -1.227411628e-02f, 4.840695113e-02f,
    -1.642648876e-02f, -3.346762061e-02f, -3.699144721e-02f, -1.343145780e-02f, -1.004194282e-02f, 8.714999072e-03f, 9.270628914e-03f, -6.153068971e-03f,
    -4.830943793e-02f, -4.617066681e-02f, 1.165731065e-02f, -1.618995704e-02f, -4.231234547e-03f, 2.172909491e-02f, 3.050254658e-02f, -2.808498964e-02f,
    -1.741797663e-02f, 2.902257070e-02f, -4.424625076e-03f, -4.290372506e-02f, -2.599938959e-02f, 1.425962988e-02f, 3.557227924e-02f, 4.868832976e-02f,
    3.343544900e-02f, -1.603627927e-03f, 2.332365327e-02f, -1.700420119e-02f, 3.817175329e-02f, 2.618768811e-02f, 4.670796916e-02f, 3.572897986e-02f,
    -6.196990982e-02f, -3.462901106e-03f, -1.510721538e-02f, -1.495977514e-03f, -6.029032916e-02f, -9.479139931e-03f, 2.048004791e-02f, -5.389511958e-02f,
    3.287743777e-02f, -1.943507418e-02f, 2.158633666e-03f, 1.278717653e-03f, 3.404295817e-02f, 2.862057276e-02f, 1.597776636e-02f, -2.038409002e-02f,
    1.801378466e-02f, -3.586573526e-02f, 2.351671830e-02f, -5.374997854e-03f, -2.795340121e-02f, 1.143685821e-02f, 1.370489411e-02f, -3.000864387e-02f,
    1.416744292e-02f, 5.239490792e-02f, -1.897095144e-02f, -5.348034203e-02f, -9.832786396e-03f, -1.696960814e-02f, -4.588447046e-03f, -2.919478714e-02f,
    -5.800397322e-02f, -6.417446584e-02f, -6.185492501e-02f, -2.065764740e-02f, 5.484659597e-02f, 3.728864715e-02f, -8.750291169e-02f, -2.400611155e-02f,
    2.415869944e-02f, 1.787107252e-02f, -5.388626829e-03f, 4.287042841e-02f, 1.077905996e-03f, 5.551310256e-02f, -7.872496732e-03f, 1.329200063e-02f,
    4.916885495e-02f, 1.646219753e-02f, -3.511504084e-02f, -3.591290861e-02f, -4.697734490e-02f, -4.439924657e-02f, -2.354987152e-02f, 1.227047201e-02f,
    -1.015118416e-02f, -3.021726012e-02f, -5.249230564e-02f, 4.486043006e-02f, -2.349438146e-02f, -3.890878335e-02f, -1.637833309e-03f, 5.770323798e-03f,
    5.045869853e-03f, -5.123294517e-02f, -2.771091275e-02f, 8.311722428e-03f, 2.952743880e-02f, -3.919267282e-02f, 2.758681402e-02f, 4.916735739e-02f,
    -7.878593169e-03f, 4.685921967e-02f, 2.815008350e-02f, -4.911314696e-02f, 5.371796712e-02f, 5.202864110e-02f, 2.764139324e-02f, 6.260004640e-02f,
    -2.873354219e-02f, 6.454001367e-02f, -2.278004773e-02f, -4.391409084e-02f, 3.299065866e-03f, 4.204988480e-02f, 6.111509167e-03f, 3.444500268e-02f,
    3.236067295e-02f, 3.036999889e-02f, -2.852726169e-02f, 4.518073983e-03f, -1.581013203e-02f, 2.001637220e-02f, 2.926299348e-02f, -9.660532698e-03f,
    1.244609244e-02f, -1.051835809e-02f, 9.038467892e-03f, 5.715807527e-02f, 2.193580195e-02f, 3.552752361e-02f, -1.721145399e-02f, 4.670290276e-02f,
    3.398020938e-02f, 1.973651163e-02f, 4.074878525e-03f, -1.043901895e-03f, -1.483720075e-02f, 6.706076860e-02f, 2.437392808e-02f, 2.912508324e-02f,
    -4.981195182e-02f, -3.436088562e-02f, -5.914837867e-02f, -2.863619290e-02f, -4.088870808e-02f, 3.072110750e-02f, -4.051642865e-02f, 3.345504031e-02f,
    -4.254318029e-02f, 3.212593496e-02f, -3.398119658e-02f, 1.750539243e-02f, 4.474796727e-02f, 2.320531989e-03f, -6.263166666e-02f, -3.780333698e-02f,
    1.325259451e-02f, 1.268847752e-02f, -2.529944852e-02f, 4.126158357e-02f, 1.794322953e-02f, 2.045916393e-02f, -2.075510472e-02f, -3.295325488e-02f,
    -4.026062414e-02f, 3.039372712e-02f, 3.378391638e-02f, 2.080836520e-02f, -6.101374701e-02f, -1.459528599e-02f, -1.984824799e-02f, -4.390756786e-02f,
    1.748289540e-02f, 3.367973864e-02f, 3.767489642e-02f, -4.823960736e-02f, 4.957587644e-02f, 2.853582427e-02f, 4.987968877e-02f, -2.346731536e-02f,
    -1.920514368e-02f, 6.359419227e-02f, 4.984724894e-02f, -3.822502494e-02f, -3.938278183e-03f, -6.043173373e-02f, -1.170583442e-02f, -6.828147173e-02f,
    -4.764511064e-02f, 2.592272649e-04f, 1.033104584e-02f, -6.936452538e-02f, 3.540972481e-03f, -4.152479814e-04f, -8.624834009e-03f, 2.023382485e-02f,
    5.245550349e-02f, 3.517438890e-03f, 9.181468748e-03f, 4.348360468e-03f, -1.389244013e-02f, -2.010893635e-02f, 3.415437043e-02f, 3.098291811e-03f,
    -2.428653825e-04f, -7.562778890e-02f, 1.627602614e-05f, -4.835464351e-04f, 1.713204011e-02f, -2.906111442e-02f, -1.055045146e-02f, 2.953185700e-02f,
    -5.200980976e-02f, -5.377241597e-02f, -1.356496103e-02f, 4.280055687e-02f, 5.928595550e-03f, -3.588124365e-02f, -1.556344517e-02f, -5.671522114e-03f,
    1.506080851e-02f, -9.170248813e-05f, -2.683267696e-03f, 4.309249297e-02f, -1.529412158e-02f, 2.481261455e-02f, 4.048841074e-03f, 3.894127905e-02f,
    -2.541996539e-03f, 3.757974878e-02f, -4.510586150e-03f, -8.976232260e-03f, -1.146606077e-02f, 3.896735609e-02f, 4.495142773e-02f, 5.421474576e-02f,
    -4.671879578e-03f, -4.413769022e-02f, -3.618218005e-02f, -5.279000849e-02f, -1.858491264e-02f, 9.588084184e-03f, 4.400465172e-03f, 3.787009977e-03f,
    -7.641927898e-02f, 3.162271902e-02f, 5.092290789e-02f, -5.988368765e-02f, 8.134519309e-02f, -1.591171138e-02f, 4.569087550e-02f, 1.231036521e-02f,
    -2.369453013e-02f, 6.639771909e-02f, -2.104007266e-02f, 5.197905935e-03f, 3.817373887e-02f, 5.572225526e-02f, 1.733679883e-02f, 5.163560063e-02f,
    -2.309422195e-02f, -4.007011279e-02f, 3.519693390e-02f, -9.197212756e-03f, -2.274528379e-03f, 5.226799287e-03f, 4.003253207e-02f, 6.012763828e-02f,
    -7.134280168e-03f, -2.871698886e-02f, 6.699538208e-04f, 7.914408110e-03f, -4.141203314e-02f, 1.400060719e-03f, 2.731270716e-02f, 7.459463179e-02f,
    -5.260964483e-02f, 6.979420036e-02f, -2.091632970e-02f, -5.955715850e-02f, 2.923635766e-02f, 4.785238206e-02f, 5.738392845e-02f, 2.339528315e-02f,
    7.460804190e-03f, -6.366343796e-02f, 4.285712540e-02f, 2.770056389e-02f, 6.730064005e-02f, -3.483001143e-02f, 7.339647505e-03f, -4.845269769e-02f,
    -8.144657128e-03f, -1.831329986e-02f, 1.656155661e-02f, -1.709629409e-02f, -4.048305750e-02f, -5.787183344e-02f, 3.614681214e-02f, 4.007458687e-02f,
    -1.399015635e-02f, 1.289057359e-02f, -2.916496061e-02f, 4.247315973e-02f, 5.829667673e-03f, 3.971643001e-02f, -6.274761632e-03f, 2.860510722e-02f,
    1.196480170e-02f, -2.449888736e-02f, 4.733692855e-03f, -1.940330677e-02f, 4.378588125e-02f, 4.230811819e-02f, 5.191027001e-02f, -1.640962437e-02f,
    -1.552264392e-02f, 3.782100230e-02f, 5.741224065e-02f, -1.922973059e-02f, -2.311982401e-02f, 3.793533519e-02f, 5.594942253e-03f, 3.625932708e-02f,
    -6.956712902e-02f, -1.389102172e-02f, 6.079814397e-03f, -2.889050357e-02f, -8.623179793e-02f, -2.800639719e-02f, 3.631012887e-02f, 4.506459087e-02f,
    3.245928138e-02f, 1.399958134e-02f, -4.620381445e-02f, 1.835130528e-02f, 3.569804505e-02f, 3.359553590e-02f, 3.074992914e-03f, 3.964745626e-02f,
    -1.962981932e-02f, -2.893610857e-02f, 9.544602595e-03f, -1.835205592e-02f, 2.227600478e-02f, -1.545932423e-02f, -3.185300156e-03f, 2.147429995e-02f,
    -1.928833872e-02f, -1.117475424e-02f, -1.513524912e-02f, -1.629793644e-02f, -3.249244764e-02f, -7.197204232e-02f, -4.834126681e-02f, -2.730936743e-02f,
    -4.838687181e-02f, -1.912080310e-02f, -1.358805317e-02f, -2.409665845e-03f, -3.495226800e-02f, -2.132681385e-02f, 3.725003079e-02f, 1.953399740e-02f,
    1.997708157e-02f, 1.491466165e-02f, -7.631828077e-03f, -4.907583073e-02f, 6.036338955e-02f, 7.457485190e-04f, 6.952863932e-02f, -7.677364163e-03f,
    7.720472291e-03f, 2.201315947e-02f, -6.183724850e-02f, -2.269949205e-02f, 1.464955788e-02f, 5.558858439e-02f, -6.655523181e-02f, -8.515449613e-02f,
    -3.831130266e-02f, 3.047757037e-02f, -5.323071033e-02f, -9.775336087e-02f, -1.414175425e-02f, -5.161926523e-02f, -8.605151437e-03f, 3.911470249e-02f,
    -3.538685292e-02f, -3.797752783e-03f, 2.911489084e-02f, -5.819204822e-02f, -8.290783316e-02f, 1.567539200e-02f, 4.415234923e-02f, -2.842867933e-02f,
    -4.548554122e-02f, -4.744746909e-02f, 3.045750968e-02f, -6.525968667e-03f, -4.582865909e-02f, -2.225618809e-02f, 5.779095367e-02f, -2.292039618e-02f,
    3.713505110e-03f, 1.229908504e-02f, 2.951655164e-02f, -4.583597928e-02f, -8.154642768e-03f, -6.181532517e-03f, -1.613375545e-02f, 4.206126928e-02f,
    -8.322542999e-04f, 4.956795275e-02f, 2.749577351e-02f, -4.568301607e-03f, -5.308171734e-03f, -2.334879898e-02f, 4.808682948e-02f, 4.667693377e-02f,
    -8.159466088e-04f, -4.862125218e-02f, 1.083553582e-02f, 4.089351371e-02f, -1.250276528e-02f, -5.897964910e-02f, 4.192448035e-02f, -3.132649884e-02f,
    -5.298110843e-02f, -7.412807643e-02f, -1.838093251e-02f, 1.786150411e-02f, -6.721587479e-02f, -5.046654865e-02f, -4.486086592e-02f, -2.811954916e-02f,
    -1.163278893e-02f, 1.539772004e-02f, -1.877111383e-02f, 4.461012036e-02f, -1.830504462e-02f, -3.041515313e-02f, 3.247051034e-03f, -5.031763017e-02f,
    -1.371272560e-02f, -1.486205868e-02f, -2.275418490e-02f, -3.947698697e-02f, 1.893255301e-02f, -2.060477249e-02f, 6.641232967e-02f, -4.219715670e-02f,
    -2.320253104e-02f, -7.384442724e-03f, -3.467096761e-02f, 1.505385619e-02f, -4.056475684e-02f, 3.227128834e-02f, -4.047303926e-03f, 2.478458546e-02f,
    -6.716579199e-02f, -5.933785345e-03f, -2.728417516e-02f, -2.833901905e-02f, -8.224894851e-02f, 2.462807670e-02f, -6.707290560e-02f, -2.742947266e-02f,
    1.628880017e-02f, -7.723249495e-02f, -4.578068480e-02f, -2.240978740e-02f, 3.263394535e-02f, -6.463129073e-02f, -3.688775748e-02f, -2.240695246e-02f,
    4.410865903e-02f, -3.937117010e-02f, -6.069253013e-02f, -7.524558343e-03f, 1.484654960e-03f, 6.421475112e-02f, 4.048386216e-02f, 2.510930877e-03f,
    1.003640052e-02f, -6.895617396e-02f, 3.875713563e-03f, 1.865847595e-02f, -8.711935952e-03f, 2.149348892e-02f, 5.350234732e-02f, 3.635023162e-02f,
    -2.443324402e-02f, 7.498967648e-02f, 5.786503479e-02f, -2.922108769e-02f, -2.382598445e-02f, -1.848847792e-02f, 5.373089015e-02f, -4.275438562e-02f,
    -1.258363202e-02f, 2.802745998e-02f, 5.784082040e-02f, 4.971858487e-02f, -3.738644347e-02f, 3.361710906e-02f, -1.924777403e-02f, 1.700508036e-02f,
    -2.786711603e-02f, -4.228099436e-02f, -2.707839571e-02f, -9.381718002e-03f, -1.264152676e-02f, 4.869960621e-02f, -6.891738623e-03f, -4.305075854e-02f,
    3.275371715e-02f, -2.433343977e-02f, 9.612576663e-02f, 2.491696738e-02f, 2.205859125e-02f, -3.138414118e-03f, 2.610500157e-02f, -1.837368682e-02f,
    -4.772835877e-03f, 1.478825416e-02f, 1.991722547e-02f, 2.955756523e-02f, 8.551558480e-03f, -1.443887828e-03f, 2.504163235e-02f, 1.460617967e-02f,
    2.993489988e-02f, 2.430773526e-02f, -1.151743438e-02f, 4.526434932e-03f, -2.302738465e-02f, -7.556129713e-03f, -8.649740368e-02f, -3.081133775e-02f,
    9.500300884e-02f, -2.452352829e-02f, 4.779149219e-02f, 8.654537611e-03f, -3.355966881e-02f, 3.859820589e-02f, 2.871726453e-02f, 2.788020298e-02f,
    4.314142838e-02f, -5.248727743e-03f, -5.580950901e-02f, 1.523739938e-02f, -4.151677713e-02f, 3.123370931e-02f, 7.321577985e-03f, -1.144517399e-02f,
    1.625131443e-02f, -4.887712654e-03f, -8.767143823e-03f, -3.078661673e-02f, -1.393460203e-03f, 2.648629807e-02f, 2.434831485e-02f, 8.045826107e-02f,
    6.322783232e-02f, 2.058373764e-02f, 3.791739419e-02f, 1.203205157e-02f, -3.280477971e-02f, -4.214658216e-02f, 4.690416902e-02f, 4.129710421e-02f,
    2.145360969e-02f, -3.373827040e-02f, -4.066673294e-02f, 1.660917886e-02f, 2.560206922e-03f, 2.018019930e-02f, -3.193422034e-02f, 9.100881405e-03f,
    4.422440380e-02f, -1.499303500e-03f, -3.800777346e-02f, 3.103948943e-02f, -1.398263266e-04f, 3.981548175e-02f, -1.706624404e-02f, -1.267262828e-02f,
    -6.049505249e-02f, -4.201454669e-02f, 4.986894876e-02f, 3.652335331e-02f, -6.857181434e-03f, -3.227993473e-02f, 4.198772833e-02f, -2.172321826e-02f,
    2.065539546e-02f, -3.213353828e-02f, -1.792998798e-02f, -4.662386328e-02f, -5.080265179e-02f, -9.103654884e-03f, 9.685643949e-03f, 8.169654757e-03f,
    -4.164407402e-02f, 3.174750507e-02f, 4.517890513e-02f, 7.755548507e-02f, 2.820391953e-02f, -5.322310701e-02f, 1.779756136e-02f, 5.756111816e-02f,
    6.173167378e-03f, 3.190657124e-02f, -1.461482141e-02f, -2.613446489e-02f, 6.585567445e-02f, 1.011683345e-01f, 6.319952756e-02f, -2.625219338e-02f,
    1.365141850e-02f, 1.087203901e-02f, 5.767849833e-02f, 5.198635161e-02f, -4.478444345e-03f, -2.351523843e-03f, 5.618101917e-03f, -1.870981301e-03f,
    4.890631512e-02f, 3.101967834e-02f, -3.441077471e-02f, -3.170800209e-02f, -4.620554298e-02f, 3.609635308e-02f, -8.456426673e-03f, -4.069754854e-02f,
    -1.076118089e-03f, 6.653775275e-02f, -2.991674701e-03f, -3.114414634e-03f, 3.012339026e-02f, -7.990698214e-05f, 6.107504293e-02f, 1.317620371e-02f,
    3.674462205e-03f, 3.480156139e-02f, 9.565848857e-03f, 5.284327641e-02f, 1.842525043e-02f, -1.308393665e-02f, -3.997187316e-02f, -2.376017161e-02f,
    4.017500207e-02f, 1.983676851e-02f, 1.276965626e-02f, -3.526863828e-02f, 2.199751139e-02f, 4.038536176e-02f, -3.407885134e-02f, -5.575777963e-02f,
    -3.746022470e-03f, 3.440452740e-02f, -7.643511519e-03f, 2.711675316e-02f, -1.097805332e-02f, 1.724253036e-02f, -1.830155589e-02f, 1.681696810e-02f,
    7.629765570e-02f, 4.579284042e-02f, 3.457465023e-02f, 1.589355245e-02f, 1.153402925e-01f, 2.967045456e-02f, 5.216975883e-02f, 1.010454632e-02f,
    9.419765323e-02f, 1.092986912e-01f, 1.755707711e-02f, 2.672814392e-02f, 1.263675513e-03f, -3.630478680e-02f, -3.116545267e-02f, -4.382307176e-03f,
    5.903592333e-02f, -9.606978856e-03f, 6.256370107e-04f, -9.818179533e-03f, -1.873287547e-04f, -3.269426897e-02f, 8.837205917e-02f, 3.910776228e-02f,
    -2.568289638e-02f, 8.450763416e-04f, 4.246277362e-02f, 5.812011659e-02f, 4.952984303e-02f, 3.589675948e-02f, 1.636355557e-02f, -2.042691037e-02f,
    -3.100360371e-02f, 8.239526302e-03f, -1.803109236e-02f, -4.462754354e-02f, -1.934758015e-02f, -3.846696392e-02f, -2.815355547e-02f, 3.084019013e-02f,
    2.751100436e-02f, -1.153956167e-02f, 9.806173854e-03f, 2.194370143e-02f, -5.562748015e-02f, -4.877505451e-02f, 3.290996701e-02f, 5.871197954e-02f,
    1.321658771e-02f, -3.505074605e-02f, 1.338462625e-02f, 3.848413378e-02f, 3.518605232e-02f, 5.214535072e-02f, -3.315896261e-03f, -5.458680168e-02f,
    3.252114728e-02f, -5.461040884e-03f, 5.487814546e-02f, -2.288160101e-02f, -5.220348760e-02f, -4.014018923e-02f, -2.041624486e-02f, -2.187217399e-02f,
    -2.676575631e-02f, -2.324266918e-02f, -2.247053571e-02f, -3.574585170e-02f, -6.122893095e-02f, -7.823728025e-02f, -4.020955414e-02f, 3.583545238e-02f,
    7.376559824e-02f, 3.133618273e-03f, 5.930725113e-02f, 2.936290391e-02f, 1.286562905e-02f, 3.936204687e-02f, 9.723551571e-02f, 2.969562309e-03f,
    -1.119674370e-02f, -1.372132357e-02f, -4.855280370e-02f, 5.368955433e-02f, 5.748309195e-03f, -3.394332528e-02f, -4.007850587e-02f, -8.832437545e-02f,
    5.454266816e-02f, 2.509456128e-02f, -1.310791727e-02f, 3.268069774e-02f, -4.334102571e-02f, -7.880028570e-04f, -5.443619564e-02f, -1.649324894e-01f,
    -1.223266646e-01f, -3.393052891e-02f, -9.246677905e-02f, -9.568640590e-02f, -6.663884223e-02f, 3.653473407e-02f, 8.000776917e-02f, 1.517292298e-02f,
    -4.202717543e-02f, -2.987814322e-02f, 2.581838518e-02f, 1.860727370e-02f, 2.399521414e-03f, -8.127751946e-02f, -2.025992423e-02f, 2.940663509e-02f,
    -4.667224735e-02f, 5.692010373e-02f, 2.614335157e-02f, -2.015640214e-02f, -7.027646899e-02f, -7.107543200e-02f, -1.900586300e-02f, 1.155031729e-03f,
    -4.953191057e-02f, 3.825157508e-02f, 1.659863978e-03f, -1.969903894e-02f, 1.682973839e-02f, 1.276473887e-02f, -8.628414944e-03f, 4.641009495e-02f,
    -1.398979593e-02f, -4.137243144e-03f, -1.382048056e-02f, -3.367557377e-02f, -3.501521796e-02f, -5.681372713e-03f, -4.145552218e-02f, 1.070220303e-02f,
    -1.851662993e-03f, -4.061178118e-02f, -5.675892532e-02f, -5.457301624e-03f, -1.051155105e-02f, -5.155941844e-02f, -4.222308472e-02f, -3.728256002e-02f,
    -1.027855724e-01f, -1.671556942e-02f, 1.397231407e-02f, 7.737943530e-02f, 1.558389235e-02f, 2.650501765e-02f, -2.467299812e-02f, -3.087529540e-02f,
    4.818205908e-02f, 1.532689948e-02f, 4.456049949e-02f, -3.466250747e-02f, 1.539119985e-02f, 2.635216108e-03f, -1.106835669e-03f, -4.000222310e-02f,
    4.365234170e-03f, -4.508197680e-02f, -4.307608306e-02f, -9.384015575e-03f, -2.334674262e-02f, 1.523436699e-02f, -7.834732533e-03f, -3.390403464e-02f,
    3.332169726e-02f, -1.505219378e-02f, -5.021750182e-02f, 3.202702850e-02f, 8.091778494e-03f, 2.696558274e-02f, 3.066848963e-03f, 3.362201527e-02f,
    4.132931679e-02f, -1.224727649e-02f, 3.413350508e-02f, 3.119723871e-02f, -2.829726413e-02f, 3.703468293e-02f, 4.403482005e-02f, -2.121874876e-02f,
    3.418352082e-02f, 4.232990369e-02f, -2.349351905e-02f, -4.390153661e-02f, -1.463133935e-02f, 2.161021717e-02f, -2.225988917e-02f, -4.021479189e-02f,
    2.635202743e-02f, 3.533666208e-02f, 3.466143832e-02f, 8.105223067e-03f, 6.705045700e-03f, 2.687841095e-02f, 1.116772462e-02f, -2.972091921e-02f,
    2.959596924e-02f, -3.061334975e-02f, -3.436930850e-02f, -5.244293064e-02f, 2.195417322e-02f, -3.601614013e-02f, 2.213945240e-02f, -2.183225565e-02f,
    -2.339430898e-02f, -1.725093648e-02f, -1.406058553e-03f, -4.037101939e-02f, 3.071218915e-02f, 2.097170800e-02f, 9.981459007e-03f, 6.647216622e-03f,
    3.587286174e-02f, -9.678398259e-03f, 3.718673438e-02f, -2.678446099e-02f, 4.283781350e-02f, 3.170319647e-02f, 1.574542001e-02f, 4.611369967e-02f,
    4.458321631e-02f, -2.439734153e-02f, -2.729980648e-02f, 1.575177535e-02f, -3.276126459e-02f, -1.998904534e-02f, -5.691607017e-03f, 3.410154954e-02f,
    -5.911897868e-03f, 3.433106095e-02f, 4.883676022e-02f, 2.205478214e-02f, 2.392726764e-02f, 3.231332451e-02f, 5.637088907e-04f, 1.029990241e-02f,
    -1.415075734e-02f, 4.266396537e-02f, -7.910427637e-03f, 4.826799780e-02f, -3.271194547e-02f, 2.635152265e-02f, 6.149102002e-03f, 1.428603288e-02f,
    -1.988424547e-02f, -8.852653205e-03f, -2.896591090e-02f, -1.648464426e-02f, 1.420550700e-02f, 1.626457833e-02f, 2.238326706e-03f, 4.930470884e-02f,
    -3.005484864e-02f, -2.537738904e-02f, 1.323857717e-02f, -1.860849932e-02f, -3.740013391e-02f, -1.538591739e-02f, 4.363873973e-03f, -5.815760233e-03f,
    2.156407014e-02f, 4.068112746e-02f, 2.990868129e-02f, -4.840710014e-02f, 4.729359597e-02f, -4.499213025e-02f, -1.684656553e-02f, -3.434519470e-02f,
    4.543463513e-02f, 3.341518715e-02f, 4.307559133e-02f, -4.868787900e-02f, -1.460609306e-02f, 6.868046708e-03f, -4.007675871e-02f, 2.623324469e-02f,
    4.236203432e-02f, 7.658266462e-03f, -2.730516344e-02f, 3.084764071e-02f, -2.683206648e-02f, -1.220697537e-02f, 9.896387346e-03f, 4.358631372e-02f,
    3.469460644e-03f, -3.193961224e-03f, -2.185406536e-02f, 3.805864230e-02f, 6.632126868e-03f, -1.482444932e-03f, -3.758355603e-02f, -1.006489154e-02f,
    2.965567261e-02f, 2.126840129e-02f, -3.519167006e-02f, -3.288316354e-02f, -1.507576555e-02f, -9.822670370e-03f, -4.494974390e-02f, 2.482117899e-02f,
    -1.732703857e-02f, 2.275791764e-02f, 3.764435649e-02f, -3.093349375e-02f, -3.411611170e-02f, 2.251583338e-02f, 1.556922682e-03f, -3.040564433e-02f,
    3.727561608e-02f, 9.151604958e-03f, -2.225816809e-02f, -3.332833201e-02f, 2.924351953e-02f, 5.017748103e-02f, 3.098160261e-03f, -3.306392953e-02f,
    3.077280335e-02f, -3.471862152e-02f, 4.350310192e-02f, -1.784602925e-02f, -5.906669423e-03f, 4.054105375e-04f, -2.093402483e-02f, 4.868875444e-02f,
    -9.645040147e-03f, 1.525406446e-02f, -2.332237177e-02f, 3.165887669e-02f, -3.993407264e-02f, -1.610916667e-02f, -4.109307751e-02f, -5.380238872e-03f,
    4.449813440e-02f, -2.899954282e-02f, 3.050638177e-02f, -3.727197647e-02f, 8.349089883e-03f, 3.816778585e-02f, 4.124367237e-02f, -3.713053092e-02f,
    -6.030972581e-03f, 2.907189541e-02f, -5.227440223e-02f, -1.827019453e-02f, 2.520840801e-02f, -2.996868268e-02f, 4.543511569e-02f, 3.269759566e-02f,
    -1.071634889e-02f, 2.523130737e-02f, -4.509073333e-04f, 4.472364485e-02f, 8.017605171e-03f, 2.500789613e-02f, -2.067490481e-02f, 2.319874614e-02f,
    2.501156554e-02f, 1.282117330e-02f, 8.869253099e-03f, 1.385776140e-02f, 2.559952065e-02f, -3.002928197e-02f, -4.598975182e-02f, -1.977224275e-02f,
    2.022218518e-02f, -3.695929423e-02f, -3.136305511e-02f, 4.326285422e-02f, -1.497453917e-02f, -1.031110343e-02f, -7.780419663e-03f, -4.627902433e-02f,
    -1.427098364e-02f, 1.928012073e-02f, 2.024075016e-02f, -3.743070364e-02f, -1.779965241e-04f, -1.568567194e-02f, -1.993246842e-03f, 2.776259556e-02f,
    2.047831565e-02f, -3.577758744e-02f, -2.796984091e-02f, 2.013430558e-02f, -2.311854623e-02f, -4.399603605e-02f, 2.518022433e-02f, 4.593439028e-02f,
    -2.587446198e-02f, 4.549817368e-02f, 6.236516871e-03f, -1.585287228e-02f, 2.179953828e-02f, -2.502490068e-03f, -9.288620204e-03f, -2.923633903e-02f,
    -2.353351191e-02f, -4.126214981e-02f, 4.022955149e-02f, 1.005735807e-02f, 2.735410631e-02f, -1.461166423e-02f, 2.817509137e-02f, 4.988700151e-02f,
    4.996842518e-02f, -1.529941801e-02f, -4.755482823e-02f, 2.730358951e-02f, 3.039998375e-02f, 2.759899944e-03f, 1.901967451e-02f, -3.752819821e-02f,
    -6.267921068e-03f, 3.650108352e-02f, -3.334641084e-02f, -2.477445640e-02f, -3.119422588e-03f, -1.622054027e-03f, -4.553836212e-02f, -1.471704338e-03f,
    1.717057661e-03f, -1.203002501e-02f, 1.423591375e-02f, -4.040877149e-02f, -3.640354052e-02f, 3.786012530e-02f, -1.206800714e-02f, 1.690831222e-02f,
    1.930592582e-02f, -1.539094723e-03f, 7.662353455e-04f, 1.726178639e-02f, 3.103559837e-02f, -8.478753152e-04f, -2.808939666e-02f, 4.197926819e-02f,
    9.387423284e-03f, -3.888413310e-02f, 3.612037003e-02f, -1.774165221e-02f, -1.413303893e-03f, 1.021044794e-02f, 3.365851939e-02f, -1.768468320e-02f,
    -4.644089192e-02f, -2.351263902e-05f, 2.739000134e-02f, -1.338017755e-03f, 2.233503573e-02f, -1.436031424e-02f, 2.321675234e-02f, -2.771997079e-02f,
    3.946714103e-02f, -4.792976752e-02f, 1.684208959e-02f, -8.902835660e-03f, 3.503445908e-02f, 1.800284162e-02f, -3.610662371e-02f, 2.920750342e-02f,
    3.675967222e-03f, -2.934308536e-02f, -1.804307103e-02f, -1.861351542e-02f, -3.285866976e-02f, -1.275417116e-02f, -3.031591699e-02f, 1.294362126e-03f,
    -4.324816167e-02f, -4.699240252e-02f, 3.327734768e-02f, -2.043406665e-02f, -3.917370364e-02f, -1.701437309e-02f, 3.837308614e-03f, 3.354332224e-02f,
    3.918237984e-03f, 1.362583041e-02f, 1.517853606e-02f, 3.516817465e-02f, 3.090684488e-02f, -2.790400013e-02f, -2.942162566e-02f, -3.537104651e-02f,
    2.930920012e-02f, 3.091465868e-02f, 3.658924997e-02f, 1.278290246e-02f, 8.613289334e-03f, -8.079762571e-03f, 2.663396113e-02f, -4.000072926e-02f,
    -3.279015422e-02f, -2.021644451e-02f, -3.559226403e-03f, -1.720973640e-03f, -2.170079947e-02f, 3.596450668e-03f, 2.889217623e-02f, 1.246023737e-02f,
    1.213753945e-03f, -4.593218118e-02f, -5.543221906e-02f, 2.320354618e-02f, 4.795324430e-02f, 8.313986473e-03f, 1.655265689e-02f, -2.869167179e-02f,
    3.699916601e-02f, -3.778979299e-04f, -3.111598082e-03f, -4.163853824e-02f, -4.248827696e-02f, -4.379145429e-02f, 3.371320665e-02f, -7.183558773e-03f,
    7.816249505e-03f, 6.057662889e-03f, -3.180998564e-02f, 2.929721959e-02f, 3.604925796e-02f, -2.799499780e-02f, 4.220114555e-03f, 1.702821068e-02f,
    -4.041636735e-02f, -4.575122893e-02f, 5.119997263e-02f, -6.175008137e-03f, -9.186040610e-03f, -3.777328134e-02f, 8.914911188e-03f, 4.817594588e-02f,
    5.097708106e-02f, 2.148438804e-02f, -4.242838919e-02f, 5.778565537e-04f, -3.576115519e-02f, -5.221404717e-04f, 2.613598481e-02f, -5.861199927e-03f,
    1.915328950e-02f, 2.756589837e-02f, 2.124709450e-02f, -1.396971103e-02f, -4.572819918e-02f, 4.134519398e-02f, 9.688695893e-03f, -2.208615653e-02f,
    3.977469355e-02f, 4.346782714e-02f, -3.001669049e-02f, -5.248840153e-02f, 3.822077066e-02f, -1.707314886e-02f, 4.507261328e-03f, -1.378875598e-02f,
    3.981260955e-02f, 4.020920023e-02f, -3.282791376e-02f, 5.684263073e-03f, 1.633696072e-02f, -2.284230292e-02f, -6.871704012e-03f, -2.856102027e-02f,
    6.897152215e-02f, 2.083475888e-02f, 1.666038856e-02f, -4.446817562e-03f, -2.341311239e-02f, 3.005825449e-03f, -5.037016422e-02f, 3.383823903e-03f,
    -4.043228924e-02f, -5.807682872e-03f, -2.362483367e-02f, 3.648060188e-02f, 1.207717694e-02f, -9.565768763e-03f, 6.020760536e-02f, -7.968623936e-02f,
    -8.356481045e-02f, -5.125144497e-02f, 3.439202532e-02f, 6.648011506e-02f, 1.427661628e-02f, 6.333150715e-02f, 6.019089743e-02f, 1.187725179e-02f,
    -2.213692479e-02f, 5.619199201e-02f, 4.669682588e-03f, 4.408095777e-02f, 5.069012567e-02f, -5.946520250e-03f, -5.237169191e-02f, -1.977795921e-02f,
    -1.982359774e-02f, 3.363256156e-02f, 1.012833118e-01f, -2.137616277e-02f, -4.776151478e-02f, 1.349997125e-03f, 1.148619503e-02f, 3.179792687e-02f,
    -1.137867346e-01f, -7.199276984e-02f, -1.569337212e-02f, 1.771024428e-02f, 1.525783725e-02f, -6.194096524e-03f, 1.072648214e-03f, -5.940502882e-02f,
    -2.858204581e-02f, -4.982313514e-02f, -2.560796216e-02f, 3.772661090e-02f, -3.181080520e-02f, -1.530353562e-03f, 2.302062698e-02f, -9.561267681e-03f,
    1.690602675e-02f, 3.163215891e-02f, -2.506744489e-02f, -2.706463449e-03f, -2.204176784e-02f, -2.756931633e-02f, -2.707106993e-03f, -3.385199606e-02f,
    3.545581177e-02f, -7.059123833e-03f, 2.933188109e-03f, 3.359994292e-02f, 3.222996742e-02f, -2.684620209e-02f, 1.932361396e-03f, 9.478965774e-03f,
    -4.109030589e-02f, -2.065620013e-02f, -3.918738291e-02f, 6.323756278e-02f, -3.045289591e-02f, 1.749652065e-02f, -3.219847754e-02f, -3.075482696e-02f,
    1.287944429e-02f, -5.023529008e-02f, 1.275469176e-02f, 4.764493555e-02f, 1.538154762e-02f, -5.319602042e-02f, 6.741913967e-03f, -1.928880066e-02f,
    2.163639525e-03f, 1.362473005e-03f, 7.527066767e-02f, 1.321708877e-02f, -3.240556642e-02f, -2.311127447e-02f, -4.662675411e-02f, 6.669882685e-02f,
    -1.190152206e-02f, 7.642712910e-03f, 5.257497076e-03f, -1.060325745e-02f, -1.929719816e-03f, -3.312983364e-02f, -2.210800909e-02f, -1.452287193e-02f,
    -3.656025603e-02f, -4.780018330e-02f, -2.714341134e-02f, -5.620721355e-02f, -3.763094917e-02f, 6.816613674e-02f, -1.226102654e-02f, 9.070727974e-02f,
    1.009639353e-01f, -1.404704060e-02f, 4.056629166e-02f, 4.413150717e-03f, 5.396067724e-02f, 2.311356924e-02f, -1.024495438e-02f, -3.485504910e-02f,
    -4.400572181e-02f, 1.675804844e-03f, -2.128843032e-02f, -5.395740643e-02f, -5.666099861e-02f, 3.653234243e-02f, 3.623090312e-02f, -6.675360352e-02f,
    -1.628931984e-02f, -1.428697165e-02f, 2.066579415e-03f, -1.822475158e-02f, 1.472386718e-01f, 1.536061019e-01f, -1.336854324e-02f, -9.335529804e-02f,
    1.266815048e-02f, -4.914611205e-02f, 1.997272018e-03f, -4.763697460e-02f, -3.672927618e-02f, -3.396154568e-02f, -1.013350487e-01f, -1.075779423e-01f,
    -4.775094986e-02f, -2.171114646e-02f, 7.314577233e-03f, -4.406779632e-02f, -9.956096858e-02f, -3.683135659e-02f, 2.641422860e-02f, -8.821969852e-03f,
    9.012865275e-02f, -2.643581852e-02f, -3.603742644e-02f, 2.855633572e-02f, 2.069717273e-02f, 6.236344203e-02f, 3.489070013e-02f, 6.717108190e-02f,
    2.663586661e-02f, -7.357578725e-02f, 7.582914550e-04f, 5.054737628e-02f, -6.405808963e-03f, -1.897714287e-02f, 2.249798737e-02f, 4.664854333e-02f,
    -4.313419014e-02f, -1.992467418e-02f, 5.857276544e-02f, 4.959154129e-02f, -5.067437887e-02f, 3.031985462e-02f, 2.971470356e-02f, -1.991110668e-02f,
    -4.337741435e-02f, 4.414700344e-02f, 4.980751500e-02f, 4.052129760e-02f, 1.451579854e-02f, -4.918919876e-02f, 2.454779111e-02f, 2.796661854e-02f,
    2.024360932e-02f, -5.405767262e-02f, -5.921737105e-02f, -1.560618822e-02f, 3.491963074e-02f, -8.980841935e-02f, 1.751421019e-02f, -8.670395613e-02f,
    -6.060015783e-02f, 3.045535274e-02f, -5.319643393e-02f, 5.746044964e-02f, 1.014157664e-02f, 1.004042290e-02f, -1.096240617e-02f, -2.883109637e-02f,
    1.575827226e-02f, -1.757732593e-02f, -1.245547924e-02f, 4.411840439e-02f, 2.300175279e-02f, -1.140474342e-02f, -7.465199567e-03f, -1.656349190e-02f,
    3.467247635e-02f, 1.463167742e-02f, -8.916844428e-02f, -5.209688842e-02f, -6.372720748e-02f, -2.230807021e-02f, -2.178680710e-02f, 1.980275474e-02f,
    1.574497484e-02f, 1.652220823e-02f, 3.347417712e-02f, 2.131809853e-02f, 8.873506635e-02f, 2.062355727e-02f, -1.280731615e-02f, -2.666500956e-02f,
    -3.496571258e-02f, -1.963813603e-02f, -5.102274474e-03f, -7.319679111e-02f, -8.274345845e-02f, -2.911896072e-02f, -5.794938281e-02f, -7.642383128e-02f,
    -6.272502989e-02f, -3.292662650e-02f, 4.113208130e-02f, -5.842277408e-02f, -5.975881591e-02f, 5.011301488e-02f, 8.046483994e-02f, 1.210601628e-01f,
    6.519246846e-02f, 1.162891611e-01f, 5.989661813e-02f, 6.260319054e-02f, -8.325309493e-03f, -9.936206043e-04f, 2.023516968e-02f, -4.938447103e-02f,
